net
{
node_size = (90 40);
}


node node0
{
	label = "node0";
	position = (85 395);
states = ( "state0" "state1");
}

node node1
{
	label = "node1";
	position = (55 35);
states = ( "state0" "state1" "state2");
}

node node2
{
	label = "node2";
	position = (205 381);
states = ( "state0" "state1");
}

node node3
{
	label = "node3";
	position = (175 21);
states = ( "state0" "state1");
}

node node4
{
	label = "node4";
	position = (295 35);
states = ( "state0" "state1" "state2");
}

node node5
{
	label = "node5";
	position = (84 155);
states = ( "state0" "state1" "state2");
}

node node6
{
	label = "node6";
	position = (55 -205);
states = ( "state0" "state1" "state2");
}

node node7
{
	label = "node7";
	position = (204 141);
states = ( "state0" "state1");
}

node node8
{
	label = "node8";
	position = (324 155);
states = ( "state0" "state1");
}

node node9
{
	label = "node9";
	position = (55 275);
states = ( "state0" "state1" "state2");
}

potential ( node0 )
{
 data = ( 0.9829794 0.017020557 );
}

potential ( node1 |  node4 node8 node5 )
{
 data = ( ( 0.51185095 0.41617805 0.07197109 )( 0.39120358 0.5547464 0.054050013 )( 0.6447354 0.076922834 0.27834177 )( 0.25739923 0.58930594 0.15329486 )( 0.019243922 0.9671068 0.013649239 )( 0.2128949 0.48234352 0.3047616 )( 0.8428185 0.1324361 0.024745414 )( 0.026941966 0.63315326 0.33990473 )( 0.052243233 0.91296947 0.03478735 )( 0.27603668 0.19516335 0.5287999 )( 0.4979896 0.25086617 0.2511443 )( 0.30239803 0.3056436 0.39195845 )( 0.09017081 0.8691423 0.040686928 )( 0.22533968 0.74831593 0.026344398 )( 0.3500095 0.13317862 0.51681185 )( 0.5425734 0.24247873 0.2149479 )( 0.22836605 0.2841259 0.48750806 )( 0.31440768 0.48636237 0.19923005 ) );
}

potential ( node2 )
{
 data = ( 0.06337109 0.93662894 );
}

potential ( node3 |  node5 node7 node9 )
{
 data = ( ( 0.99987984 1.2013077E-4 )( 0.5692131 0.43078694 )( 0.67204434 0.32795563 )( 0.16598473 0.83401525 )( 0.08421742 0.91578263 )( 0.17876658 0.8212334 )( 0.12008986 0.8799101 )( 0.48569056 0.5143094 )( 0.60976374 0.39023623 )( 0.11934852 0.88065153 )( 0.48683748 0.5131625 )( 0.98361784 0.016382169 )( 0.76226693 0.23773314 )( 0.48735332 0.5126467 )( 0.8953801 0.10461997 )( 0.40035874 0.5996412 )( 0.037332304 0.9626677 )( 0.12186175 0.87813824 ) );
}

potential ( node4 |  node0 node3 node7 )
{
 data = ( ( 0.57598853 0.17334364 0.25066784 )( 0.3906386 0.21172301 0.3976384 )( 0.012437762 0.3434198 0.64414245 )( 0.7025903 0.04840585 0.2490039 )( 0.09862037 0.7043621 0.19701755 )( 0.3896907 0.25458577 0.35572347 )( 0.7801838 0.075733565 0.14408267 )( 0.018894672 0.7285273 0.25257805 ) );
}

potential ( node5 |  node2 node0 )
{
 data = ( ( 0.16040151 0.07420446 0.7653941 )( 0.0943888 0.47223514 0.43337604 )( 0.39805526 0.5341432 0.06780141 )( 0.12411493 0.009368924 0.8665162 ) );
}

potential ( node6 |  node8 node4 node1 node9 node7 )
{
 data = ( ( 0.3725856 0.60011417 0.027300205 )( 0.690868 0.06862285 0.24050908 )( 0.081442416 0.28709498 0.6314626 )( 0.91203886 0.069694154 0.01826699 )( 0.16857545 0.45012674 0.3812978 )( 0.2062799 0.21086353 0.5828566 )( 0.28026888 0.010512581 0.70921856 )( 0.123594776 0.42178282 0.45462242 )( 0.16123182 0.7976766 0.041091587 )( 0.0035857141 0.73398316 0.26243114 )( 0.24260977 0.040064152 0.7173261 )( 0.31645715 0.40291628 0.28062654 )( 0.84732175 0.06899577 0.08368247 )( 0.611667 0.27284607 0.11548698 )( 0.2476846 0.6288234 0.12349193 )( 0.36714795 0.08811493 0.54473716 )( 0.10535127 0.21466789 0.67998075 )( 0.019171875 0.7357452 0.24508297 )( 0.55811125 0.025083674 0.41680503 )( 0.11488971 0.6633803 0.2217299 )( 0.39713544 0.5625936 0.040270947 )( 0.25211734 0.46031594 0.28756678 )( 0.4729932 0.45021185 0.07679491 )( 0.45393774 0.33659786 0.20946437 )( 0.7008992 0.08234617 0.21675467 )( 0.24096227 0.25182933 0.50720835 )( 0.42620268 0.28383818 0.2899591 )( 0.25001785 0.4892724 0.26070973 )( 0.011184044 0.19646765 0.79234827 )( 0.2078342 0.5760465 0.21611932 )( 0.026828168 0.5086463 0.4645255 )( 0.020144425 0.49466172 0.4851938 )( 0.4524104 0.31356898 0.23402067 )( 0.7439582 0.0413938 0.21464801 )( 0.20824565 0.14777294 0.6439814 )( 0.014092431 0.59698373 0.38892385 )( 0.7493306 0.017258488 0.23341095 )( 0.5184002 0.30899927 0.17260054 )( 0.79583275 0.09422491 0.10994239 )( 0.0921822 0.19903459 0.70878327 )( 0.06625218 0.8478655 0.08588232 )( 0.27953783 0.029234175 0.691228 )( 0.03692811 0.40554473 0.55752724 )( 0.07361886 0.71777207 0.20860904 )( 0.08065725 0.3477062 0.57163656 )( 0.30947194 0.36506933 0.3254587 )( 0.19484493 0.80204034 0.0031146484 )( 0.13389094 0.6687415 0.19736752 )( 0.4660797 0.31149468 0.22242557 )( 0.009892586 0.8439295 0.14617789 )( 0.018951586 0.4399571 0.5410913 )( 0.21249579 0.72607875 0.061425425 )( 0.7788166 0.01424544 0.20693795 )( 0.39733714 0.2667077 0.33595517 )( 0.1331645 0.25772533 0.6091102 )( 0.45092326 0.28213528 0.2669414 )( 0.14286987 0.12535237 0.7317778 )( 0.66306466 0.32207337 0.014861904 )( 0.82295096 0.082361646 0.09468739 )( 0.31652465 0.15028118 0.5331941 )( 0.54988086 0.04363916 0.40648004 )( 0.3162529 0.29466632 0.38908076 )( 0.22101827 0.6684104 0.110571384 )( 0.1359957 0.6517065 0.21229777 )( 0.18821234 0.56859857 0.2431891 )( 0.3939904 0.24215746 0.36385214 )( 0.44459656 0.47509933 0.08030418 )( 0.06337555 0.028058773 0.90856564 )( 0.27716565 0.52986693 0.1929674 )( 0.5490912 0.40928215 0.04162656 )( 0.4249027 0.103650294 0.471447 )( 0.18124622 0.061065815 0.757688 )( 0.23603721 0.6771304 0.08683235 )( 0.425569 0.058137026 0.516294 )( 0.08848037 0.20142369 0.710096 )( 0.46693993 0.083087936 0.44997212 )( 0.28291953 0.19816265 0.51891786 )( 0.056628138 0.9033173 0.04005465 )( 0.19803286 0.7169956 0.08497149 )( 0.52923405 0.017967358 0.45279858 )( 0.80425435 0.1763791 0.019366588 )( 0.17440404 0.27222303 0.5533729 )( 0.47307152 0.40107128 0.1258572 )( 0.47707295 0.49054015 0.03238689 )( 0.29951525 0.638581 0.061903756 )( 0.0237534 0.4973786 0.478868 )( 0.3711735 0.28386647 0.34495994 )( 0.37547514 0.4046927 0.21983218 )( 0.64726543 0.2415882 0.111146286 )( 0.14053375 0.14593162 0.71353465 )( 0.5200674 0.38344926 0.09648338 )( 0.6661114 0.13856085 0.19532783 )( 0.05895852 0.60641986 0.33462158 )( 0.38551408 0.44412538 0.17036061 )( 0.2883194 0.63203543 0.07964513 )( 0.76763964 0.17723507 0.055125263 )( 0.5303009 0.18899275 0.28070635 )( 0.14394005 0.81914324 0.03691671 )( 0.37335584 0.32713822 0.29950595 )( 0.18153554 0.14404708 0.6744174 )( 0.42573205 0.2032867 0.37098128 )( 0.24638622 0.012712633 0.7409012 )( 0.48950088 0.15117015 0.35932896 )( 0.24385792 0.29469678 0.4614453 )( 0.0020854909 0.7707283 0.2271862 )( 0.34186372 0.45615563 0.20198062 )( 0.15100417 0.5209696 0.32802624 )( 0.44463885 0.51936936 0.0359918 ) );
}

potential ( node7 |  node0 node5 )
{
 data = ( ( 0.20907792 0.79092205 )( 0.117982045 0.88201797 )( 0.37078968 0.6292103 )( 0.67906713 0.3209329 )( 0.6433278 0.3566722 )( 0.5839202 0.4160798 ) );
}

potential ( node8 |  node7 node3 )
{
 data = ( ( 0.19098805 0.80901194 )( 0.76802343 0.23197661 )( 0.76249045 0.23750962 )( 0.9613539 0.038646106 ) );
}

potential ( node9 |  node0 )
{
 data = ( ( 0.46306244 0.5356844 0.001253109 )( 0.25890908 0.53085786 0.21023306 ) );
}


