net
{
node_size = (90 40);
}


node node0
{
	label = "node0";
	position = (84 155);
states = ( "state0" "state1");
}

node node1
{
	label = "node1";
	position = (55 35);
states = ( "state0" "state1" "state2");
}

node node2
{
	label = "node2";
	position = (204 141);
states = ( "state0" "state1");
}

node node3
{
	label = "node3";
	position = (85 395);
states = ( "state0" "state1" "state2");
}

node node4
{
	label = "node4";
	position = (55 275);
states = ( "state0" "state1");
}

node node5
{
	label = "node5";
	position = (175 261);
states = ( "state0" "state1" "state2");
}

node node6
{
	label = "node6";
	position = (55 -205);
states = ( "state0" "state1" "state2");
}

node node7
{
	label = "node7";
	position = (205 381);
states = ( "state0" "state1" "state2");
}

node node8
{
	label = "node8";
	position = (84 -85);
states = ( "state0" "state1");
}

node node9
{
	label = "node9";
	position = (204 -99);
states = ( "state0" "state1");
}

potential ( node0 |  node3 node7 )
{
 data = ( ( 0.2188564 0.7811436 )
          ( 0.094457015 0.90554297 )
          ( 0.9176363 0.08236374 )
          ( 0.8307202 0.16927986 )
          ( 0.11489791 0.8851021 )
          ( 0.2158951 0.7841049 )( 0.67674077 0.3232592 )( 0.5395271 0.46047282 )( 0.5678968 0.43210328 ) );
}

potential ( node1 |  node7 node5 node2 )
{
 data = ( ( 0.26301187 0.048226263 0.6887619 )( 0.33353108 0.3099502 0.35651875 )( 0.031492934 0.5437351 0.42477196 )( 0.23865505 0.09823247 0.6631125 )( 0.09710535 0.720449 0.18244563 )( 0.38766184 0.33986002 0.27247813 )( 0.18353881 0.44742665 0.36903453 )( 0.11861186 0.52242154 0.3589666 )( 0.8598442 0.101221815 0.03893401 )( 0.11083459 0.44761518 0.44155023 )( 0.58962893 0.029069042 0.38130203 )( 0.110976525 0.38977677 0.4992467 )( 0.52511716 0.3615144 0.11336848 )( 0.20612194 0.042357482 0.7515206 )( 0.41020954 0.089622594 0.5001679 )( 0.73676693 0.21019748 0.053035554 )( 0.5858662 0.107175976 0.3069578 )( 0.054270476 0.54966956 0.39605993 ) );
}

potential ( node2 |  node4 node3 )
{
 data = ( ( 0.16059169 0.83940834 )( 0.9569449 0.043055095 )( 0.29577702 0.70422304 )( 0.75915855 0.24084145 )( 0.38560677 0.61439323 )( 0.754025 0.245975 ) );
}

potential ( node3 )
{
 data = ( 0.45287502 0.3440703 0.20305477 );
}

potential ( node4 |  node7 )
{
 data = ( ( 7.637613E-4 0.9992362 )( 0.1959318 0.80406815 )( 0.83538884 0.16461116 ) );
}

potential ( node5 |  node7 )
{
 data = ( ( 0.23568328 0.3098065 0.45451018 )( 0.19222955 0.67427164 0.13349876 )( 0.17661837 0.7966042 0.026777452 ) );
}

potential ( node6 |  node1 node0 node3 node7 node9 )
{
 data = ( ( 0.53008 0.44495833 0.024961578 )( 0.723136 0.123880416 0.15298352 )( 0.3323548 0.059379406 0.6082658 )( 0.19278313 0.41753906 0.3896778 )( 0.029592283 0.4602087 0.510199 )( 0.3387262 0.6289924 0.032281443 )( 0.4617026 0.0794495 0.4588479 )( 0.25292584 0.47028562 0.27678853 )( 0.028960187 0.9672322 0.0038075496 )( 0.29107767 0.160961 0.54796135 )( 0.52513576 0.17854242 0.29632187 )( 0.10736963 0.71560484 0.1770255 )( 0.101765215 0.56110173 0.33713305 )( 0.38958037 0.07681354 0.5336061 )( 0.17785606 0.5221389 0.30000508 )( 0.40451667 0.03643144 0.559052 )( 0.35388628 0.57158077 0.07453292 )( 0.1085643 0.16990234 0.7215334 )( 0.10721299 0.26918867 0.6235983 )( 0.32615292 0.017959211 0.6558879 )( 0.48801816 0.45878017 0.05320169 )( 0.2472391 0.64942855 0.103332385 )( 0.43444592 0.2416838 0.3238703 )( 0.015718488 0.16117671 0.82310486 )( 0.7929829 0.0819033 0.12511382 )( 0.121216804 0.6354612 0.24332203 )( 0.011658325 0.443381 0.5449606 )( 0.7459011 0.19063096 0.0634679 )( 0.51407486 0.18682623 0.29909888 )( 0.16851227 0.50374365 0.32774407 )( 0.14478399 0.7584806 0.0967354 )( 0.60130614 0.09284316 0.3058507 )( 0.27633446 0.3084751 0.41519046 )( 0.31489438 0.67244035 0.0126652755 )( 0.20896176 0.48639643 0.30464178 )( 0.6059423 0.057752304 0.3363054 )( 0.7977883 0.044429276 0.15778239 )( 0.5984248 0.020135373 0.38143986 )( 0.09135983 0.44314003 0.46550012 )( 0.31921682 0.2858031 0.39498004 )( 0.5493577 0.40426168 0.046380613 )( 0.032571647 0.467764 0.4996644 )( 0.42135367 0.055745196 0.52290106 )( 0.25179058 0.3926946 0.35551482 )( 0.45026344 0.47854576 0.07119084 )( 0.30339548 0.01690947 0.67969495 )( 0.051797796 0.71700007 0.23120213 )( 0.18936114 0.39118522 0.41945362 )( 0.852838 0.14238599 0.0047760513 )( 0.4936733 0.2094665 0.2968602 )( 0.70310473 0.28074667 0.016148545 )( 0.17206056 0.029692201 0.7982472 )( 0.37160832 0.31599614 0.31239557 )( 0.19824561 0.5355088 0.26624548 )( 0.26313472 0.6316842 0.10518117 )( 0.39511815 0.09855581 0.50632614 )( 0.10531244 0.4915232 0.40316433 )( 0.24985917 0.3126591 0.4374817 )( 0.60078686 0.13131995 0.26789325 )( 0.44292596 0.50669616 0.05037794 )( 0.09038652 0.05826739 0.85134614 )( 0.30999395 0.20606981 0.48393622 )( 0.3895434 0.46794742 0.14250918 )( 0.54143506 0.20579691 0.25276798 )( 0.31863514 0.0829523 0.5984125 )( 0.20138748 0.66679364 0.13181885 )( 0.1700462 0.20234974 0.6276041 )( 0.13991383 0.5281658 0.33192036 )( 0.39825967 0.1795347 0.42220563 )( 0.17974499 0.44543618 0.37481883 )( 0.20772965 0.69100744 0.1012629 )( 0.20116559 0.00901587 0.7898185 )( 0.120579466 0.328631 0.55078954 )( 0.082165115 0.042216845 0.8756181 )( 0.8357598 0.044466138 0.11977407 )( 0.42684516 0.13531412 0.43784073 )( 0.5713642 0.31473735 0.11389842 )( 0.1807191 0.32608238 0.49319854 )( 0.500502 0.1453529 0.35414508 )( 0.5515086 0.17716195 0.27132943 )( 0.5566546 0.2824796 0.16086581 )( 0.1325428 0.30213213 0.5653251 )( 0.2987212 0.30110914 0.40016964 )( 0.30447105 0.15939598 0.536133 )( 0.20632519 0.39175949 0.40191528 )( 0.42953166 0.19608499 0.37438333 )( 0.2032798 0.09643648 0.7002837 )( 0.020758815 0.08214924 0.8970919 )( 0.4567168 0.22498472 0.3182985 )( 0.023819074 0.87375885 0.10242208 )( 0.35756207 0.40272045 0.2397175 )( 0.004456844 0.8893721 0.106171 )( 0.009225706 0.9441059 0.046668377 )( 0.52356535 0.14273547 0.3336992 )( 0.032349423 0.7658189 0.20183173 )( 0.5565 0.44243336 0.001066584 )( 0.87073225 0.07170244 0.057565313 )( 0.5620738 0.3542829 0.08364333 )( 0.58315444 0.20682634 0.21001923 )( 0.30899897 0.2759443 0.41505677 )( 0.361551 0.58436584 0.05408322 )( 0.37645587 0.14534697 0.47819716 )( 0.44563237 0.37406883 0.18029886 )( 0.755307 0.10757885 0.13711408 )( 0.52198637 0.20328036 0.27473325 )( 0.20267594 0.7799636 0.017360523 )( 0.07054918 0.68841016 0.24104068 )( 0.41928148 0.10867981 0.47203872 ) );
}

potential ( node7 )
{
 data = ( 0.20943066 0.32916653 0.4614028 );
}

potential ( node8 |  node3 node7 node5 node2 )
{
 data = ( ( 0.64907014 0.3509298 )( 0.4833023 0.51669765 )( 0.22979464 0.7702054 )( 0.57143056 0.4285694 )( 0.6788262 0.3211738 )( 0.35566896 0.64433104 )( 0.25466305 0.74533695 )( 0.24511659 0.7548834 )( 0.5044505 0.49554947 )( 0.467821 0.53217894 )( 0.97256094 0.02743906 )( 0.5873006 0.41269943 )( 0.06702991 0.9329701 )( 0.31552228 0.6844777 )( 0.52800953 0.47199047 )( 0.8446125 0.15538755 )( 0.61949164 0.3805084 )( 0.6676099 0.3323902 )( 0.24171351 0.75828654 )( 0.26571882 0.7342811 )( 0.011346474 0.98865354 )( 0.44952887 0.55047107 )( 0.42406636 0.57593364 )( 0.651514 0.34848598 )( 0.24560522 0.75439477 )( 0.40647402 0.593526 )( 0.73106486 0.26893517 )( 0.56843066 0.4315694 )( 0.10990507 0.89009494 )( 0.3348536 0.6651464 )( 0.45328394 0.5467161 )( 0.46451554 0.53548443 )( 0.12541233 0.87458766 )( 0.1233983 0.8766017 )( 0.9242144 0.075785615 )( 0.302254 0.697746 )( 0.87916327 0.120836735 )( 0.5880562 0.4119438 )( 0.67217743 0.32782257 )( 0.19498897 0.8050111 )( 0.1610836 0.83891636 )( 0.55174184 0.44825816 )( 0.7662368 0.23376322 )( 0.33807945 0.66192055 )( 0.9347844 0.06521557 )( 0.80755544 0.19244452 )( 0.986543 0.01345696 )( 0.028732449 0.9712675 )( 0.086481914 0.91351813 )( 0.060300887 0.93969905 )( 0.41312054 0.5868795 )( 0.9148596 0.08514041 )( 0.09666583 0.90333414 )( 0.06264876 0.9373513 ) );
}

potential ( node9 |  node8 node2 node0 node1 )
{
 data = ( ( 0.71948004 0.28051996 )( 0.6015888 0.39841118 )( 0.90597177 0.09402826 )( 0.6776142 0.32238582 )( 0.17542183 0.8245782 )( 0.5141806 0.48581937 )( 0.015937055 0.98406297 )( 0.8379327 0.1620673 )( 0.053271916 0.94672805 )( 0.19680174 0.8031982 )( 0.4166793 0.58332074 )( 0.91457176 0.08542828 )( 0.07486688 0.92513305 )( 0.16022366 0.83977634 )( 0.1378465 0.8621535 )( 0.61633706 0.38366297 )( 0.25379378 0.7462062 )( 0.7458217 0.25417832 )( 0.7665106 0.2334894 )( 0.6531832 0.34681678 )( 0.78013486 0.21986513 )( 0.61401886 0.3859811 )( 0.81266576 0.18733424 )( 0.7625547 0.23744525 ) );
}


