net
{
node_size = (90 40);
}


node node0
{
	label = "node0";
	position = (55 35);
states = ( "state0" "state1");
}

node node1
{
	label = "node1";
	position = (55 275);
states = ( "state0" "state1" "state2");
}

node node2
{
	label = "node2";
	position = (84 155);
states = ( "state0" "state1");
}

node node3
{
	label = "node3";
	position = (204 141);
states = ( "state0" "state1");
}

node node4
{
	label = "node4";
	position = (324 155);
states = ( "state0" "state1");
}

node node5
{
	label = "node5";
	position = (55 -205);
states = ( "state0" "state1" "state2");
}

node node6
{
	label = "node6";
	position = (84 -325);
states = ( "state0" "state1");
}

node node7
{
	label = "node7";
	position = (84 -85);
states = ( "state0" "state1" "state2");
}

node node8
{
	label = "node8";
	position = (175 -219);
states = ( "state0" "state1" "state2");
}

node node9
{
	label = "node9";
	position = (295 -205);
states = ( "state0" "state1" "state2");
}

node node10
{
	label = "node10";
	position = (175 261);
states = ( "state0" "state1" "state2");
}

node node11
{
	label = "node11";
	position = (415 -190);
states = ( "state0" "state1");
}

node node12
{
	label = "node12";
	position = (175 21);
states = ( "state0" "state1");
}

node node13
{
	label = "node13";
	position = (295 35);
states = ( "state0" "state1" "state2");
}

node node14
{
	label = "node14";
	position = (295 275);
states = ( "state0" "state1");
}

node node15
{
	label = "node15";
	position = (415 290);
states = ( "state0" "state1");
}

node node16
{
	label = "node16";
	position = (535 276);
states = ( "state0" "state1" "state2");
}

node node17
{
	label = "node17";
	position = (655 261);
states = ( "state0" "state1" "state2");
}

node node18
{
	label = "node18";
	position = (444 170);
states = ( "state0" "state1");
}

node node19
{
	label = "node19";
	position = (415 50);
states = ( "state0" "state1");
}

node node20
{
	label = "node20";
	position = (85 395);
states = ( "state0" "state1" "state2");
}

node node21
{
	label = "node21";
	position = (535 -204);
states = ( "state0" "state1" "state2");
}

node node22
{
	label = "node22";
	position = (205 381);
states = ( "state0" "state1" "state2");
}

node node23
{
	label = "node23";
	position = (535 36);
states = ( "state0" "state1");
}

node node24
{
	label = "node24";
	position = (204 -99);
states = ( "state0" "state1" "state2");
}

node node25
{
	label = "node25";
	position = (325 395);
states = ( "state0" "state1" "state2");
}

node node26
{
	label = "node26";
	position = (204 -339);
states = ( "state0" "state1");
}

node node27
{
	label = "node27";
	position = (775 275);
states = ( "state0" "state1" "state2");
}

node node28
{
	label = "node28";
	position = (324 -85);
states = ( "state0" "state1" "state2");
}

node node29
{
	label = "node29";
	position = (655 -219);
states = ( "state0" "state1" "state2");
}

potential ( node0 |  node14 node20 node10 )
{
 data = ( ( 0.33001885 0.6699812 )( 0.20108621 0.79891384 )( 0.38240063 0.61759937 )( 0.39951938 0.6004807 )( 0.2213124 0.7786876 )( 0.20266192 0.79733807 )( 0.8389362 0.16106382 )( 0.41912505 0.580875 )( 0.35760498 0.642395 )( 0.14683236 0.8531676 )( 0.15653928 0.84346074 )( 0.37666544 0.6233346 )( 0.66792226 0.3320777 )( 0.034413945 0.96558607 )( 0.75263375 0.24736622 )( 0.70248324 0.29751682 )( 0.6963699 0.30363008 )( 0.85385084 0.14614913 ) );
}

potential ( node1 |  node25 )
{
 data = ( ( 0.09219394 0.04225758 0.8655485 )( 0.5826405 0.04838217 0.36897728 )( 0.6937716 0.19968084 0.10654752 ) );
}

potential ( node2 |  node20 node22 )
{
 data = ( ( 0.32799923 0.67200077 )( 0.49463996 0.50536 )( 0.466502 0.533498 )( 0.11532896 0.88467103 )( 0.024006957 0.97599304 )( 0.79140973 0.20859021 )( 0.48574302 0.51425695 )( 0.2069275 0.7930725 )( 0.63460284 0.36539716 ) );
}

potential ( node3 |  node17 node10 )
{
 data = ( ( 0.047698315 0.95230174 )( 0.06258907 0.9374109 )( 0.09523074 0.9047692 )( 0.3046417 0.6953582 )( 0.4210219 0.57897806 )( 0.39575392 0.6042461 )( 0.3647288 0.6352712 )( 0.69049066 0.30950934 )( 0.5584986 0.4415014 ) );
}

potential ( node4 |  node3 node20 )
{
 data = ( ( 0.1523122 0.8476878 )( 0.3597345 0.6402655 )( 0.7634894 0.23651055 )( 0.84091675 0.15908326 )( 0.22945598 0.77054405 )( 0.29978377 0.70021623 ) );
}

potential ( node5 |  node7 node14 node4 node0 node18 )
{
 data = ( ( 0.23424645 0.6786515 0.087102 )( 0.7687661 0.21596885 0.015265139 )( 0.60393476 0.14689255 0.2491727 )( 0.36761162 0.27773306 0.35465533 )( 0.27193075 0.45929906 0.2687702 )( 0.58215255 0.2693631 0.14848432 )( 0.21664737 0.11886657 0.66448605 )( 0.14393936 0.31566784 0.54039276 )( 0.5869312 0.1768125 0.23625623 )( 0.22318721 0.014430175 0.7623826 )( 0.2633573 0.5392267 0.19741596 )( 0.4753326 0.45641762 0.068249814 )( 0.279482 0.36451104 0.35600695 )( 0.37969196 0.089037724 0.5312703 )( 0.08856869 0.7926704 0.11876088 )( 0.25181633 0.72428846 0.023895226 )( 0.7407126 0.11918111 0.14010634 )( 0.16107374 0.7749067 0.06401958 )( 0.60569155 0.0208396 0.37346885 )( 0.409328 0.3840522 0.20661978 )( 0.25317544 0.45342663 0.29339793 )( 0.26451656 0.0409929 0.69449055 )( 0.45505235 0.18561746 0.3593302 )( 0.5207085 0.33525702 0.1440345 )( 0.114509635 0.42091236 0.464578 )( 0.8177075 0.14218605 0.04010648 )( 0.108271435 0.77303374 0.11869479 )( 0.07175613 0.030814486 0.8974294 )( 0.36166498 0.24346457 0.3948705 )( 0.0042019733 0.13525832 0.86053973 )( 0.7820689 0.10410708 0.113824 )( 0.5047397 0.27022278 0.22503749 )( 0.02997307 0.8831734 0.08685351 )( 0.653872 0.07465741 0.27147052 )( 0.18203707 0.2200931 0.59786975 )( 0.19444129 0.071121395 0.73443735 )( 0.84957224 0.12677802 0.023649773 )( 0.55318797 0.16569355 0.28111848 )( 0.14657918 0.7335922 0.11982863 )( 0.62653846 0.19918782 0.17427374 )( 0.43482023 0.26074514 0.30443463 )( 0.19286534 0.008176816 0.7989579 )( 0.5192106 0.3012257 0.17956366 )( 0.3857932 0.4673271 0.14687972 )( 0.7879325 0.10920809 0.10285935 )( 0.110281326 0.4524076 0.43731108 )( 0.32013205 0.14506334 0.5348046 )( 0.0011010014 0.17922531 0.8196737 ) );
}

potential ( node6 |  node9 node0 node22 node15 node21 node27 )
{
 data = ( ( 0.1881516 0.81184834 )( 0.9706363 0.029363712 )( 0.6200004 0.3799996 )( 0.9545906 0.04540936 )( 0.31268838 0.68731165 )( 0.033776134 0.96622384 )( 0.69542617 0.30457383 )( 0.16498184 0.8350181 )( 0.8140133 0.18598668 )( 0.8941301 0.10586988 )( 0.6165229 0.3834771 )( 0.52978635 0.47021365 )( 0.78578407 0.21421596 )( 0.49936196 0.500638 )( 0.8306816 0.16931835 )( 0.548017 0.45198295 )( 0.8006906 0.19930941 )( 0.7336286 0.26637146 )( 0.70618993 0.29381 )( 0.16266543 0.8373346 )( 0.60624695 0.39375302 )( 0.17670256 0.82329744 )( 0.076523975 0.92347604 )( 0.9965735 0.0034264848 )( 0.6765417 0.32345834 )( 0.4430573 0.55694264 )( 0.5962284 0.40377155 )( 0.49924016 0.5007599 )( 0.8756844 0.1243156 )( 0.94477236 0.055227604 )( 0.941765 0.058234997 )( 0.59970814 0.40029183 )( 0.86715806 0.13284193 )( 0.2994533 0.70054674 )( 0.8926816 0.107318364 )( 0.59217787 0.4078221 )( 0.89639723 0.103602804 )( 0.06897717 0.9310228 )( 0.3222338 0.6777662 )( 0.50994134 0.4900587 )( 0.6999289 0.30007106 )( 0.72870195 0.2712981 )( 0.93549204 0.06450795 )( 0.19144006 0.8085599 )( 0.46942702 0.53057295 )( 0.9066526 0.09334732 )( 0.23825239 0.7617476 )( 0.5432856 0.4567144 )( 0.11467512 0.8853249 )( 0.71746147 0.28253853 )( 0.36594155 0.6340585 )( 0.9431364 0.05686362 )( 0.36089724 0.63910276 )( 0.78213894 0.21786106 )( 0.19414346 0.8058565 )( 0.42491928 0.5750807 )( 0.61317277 0.3868272 )( 0.20309742 0.79690254 )( 0.31671277 0.68328726 )( 0.0265614 0.97343856 )( 0.20650804 0.79349196 )( 0.8382301 0.16176988 )( 0.74731076 0.25268924 )( 0.9928284 0.007171544 )( 0.12948306 0.87051696 )( 0.67531294 0.32468706 )( 0.41934016 0.5806598 )( 0.72705173 0.2729482 )( 0.3703754 0.6296246 )( 0.98088604 0.019113956 )( 0.21943633 0.7805637 )( 0.6262558 0.37374425 )( 0.13320853 0.8667914 )( 0.63646996 0.36353007 )( 0.83661467 0.16338538 )( 0.39089742 0.6091026 )( 0.2696726 0.7303273 )( 0.3583837 0.64161634 )( 0.4060603 0.59393966 )( 0.5214185 0.47858152 )( 0.25668356 0.7433165 )( 0.56022424 0.4397758 )( 0.60405654 0.3959435 )( 0.58721447 0.41278556 )( 0.50237423 0.49762574 )( 0.93601674 0.06398323 )( 0.9044739 0.09552605 )( 0.30836564 0.69163436 )( 0.04984771 0.9501523 )( 0.48002833 0.51997167 )( 0.74054676 0.2594532 )( 0.6989749 0.30102506 )( 0.034377616 0.96562237 )( 0.19013998 0.80986 )( 0.40149254 0.59850746 )( 0.18641526 0.8135847 )( 0.15869853 0.84130144 )( 0.056006532 0.94399345 )( 0.27934083 0.7206592 )( 0.08947544 0.9105246 )( 0.45271164 0.54728836 )( 0.91369945 0.086300515 )( 0.5969927 0.4030073 )( 0.36330295 0.6366971 )( 0.8090003 0.19099966 )( 0.9148244 0.08517552 )( 0.14085738 0.8591426 )( 0.9755946 0.024405397 )( 0.29661536 0.70338464 )( 0.6772081 0.32279187 )( 0.24584031 0.75415975 )( 0.53764683 0.46235317 )( 0.0046414007 0.99535865 )( 0.26136693 0.73863304 )( 0.2765369 0.72346306 )( 0.8525553 0.14744468 )( 0.08914747 0.9108525 )( 0.2831736 0.71682644 )( 0.07338487 0.9266151 )( 0.4576936 0.5423064 )( 0.35000122 0.64999884 )( 0.20556039 0.7944396 )( 0.47978005 0.5202199 )( 0.6404969 0.35950306 )( 0.83397835 0.16602162 )( 0.2762862 0.72371376 )( 0.011382384 0.98861766 )( 0.49354202 0.506458 )( 0.94330525 0.056694757 )( 0.5710956 0.42890444 )( 0.25346607 0.7465339 )( 0.12348183 0.8765182 )( 0.24756625 0.7524337 )( 0.98581094 0.014189016 )( 0.45256245 0.54743755 )( 0.13143389 0.8685661 )( 0.9913314 0.00866861 )( 0.7355864 0.2644136 )( 0.3279219 0.67207813 )( 0.47017607 0.5298239 )( 0.028819935 0.9711801 )( 0.8698739 0.13012604 )( 0.70401454 0.29598543 )( 0.20317145 0.79682857 )( 0.74416524 0.25583482 )( 0.012837423 0.98716253 )( 0.71827155 0.28172842 )( 0.8449928 0.15500724 )( 0.016444629 0.9835554 )( 0.4701186 0.5298815 )( 0.41815573 0.58184433 )( 0.36774835 0.6322517 )( 0.39288887 0.60711116 )( 0.23930849 0.76069146 )( 0.010615011 0.989385 )( 0.66314703 0.33685288 )( 0.20052281 0.7994772 )( 0.8822664 0.11773356 )( 0.36033952 0.6396605 )( 0.3863432 0.61365676 )( 0.83323264 0.1667674 )( 0.38378194 0.6162181 )( 0.015241983 0.984758 )( 0.6333074 0.36669263 )( 0.34824765 0.65175235 )( 0.53110325 0.4688967 )( 0.09316776 0.9068322 )( 0.9089789 0.09102116 )( 0.34567735 0.6543227 )( 0.14008535 0.85991466 )( 0.4188987 0.58110124 )( 0.05040692 0.94959307 )( 0.9544272 0.04557285 )( 0.92832106 0.0716789 )( 0.4197661 0.58023393 )( 0.30121428 0.6987857 )( 0.03509437 0.9649056 )( 0.69002175 0.30997825 )( 0.9262109 0.07378912 )( 0.8114854 0.18851453 )( 0.59035283 0.40964714 )( 0.3360448 0.6639553 )( 0.4043956 0.5956044 )( 0.21926737 0.7807327 )( 0.92608005 0.073919944 )( 0.72120684 0.2787932 )( 0.04693639 0.9530636 )( 0.37216297 0.62783706 )( 0.92274934 0.07725064 )( 0.41119066 0.5888093 )( 0.203476 0.796524 )( 0.6000495 0.3999505 )( 0.4156306 0.58436936 )( 0.48647088 0.5135291 )( 0.9000081 0.0999919 )( 0.68043894 0.31956103 )( 0.35272294 0.647277 )( 0.5620162 0.43798387 )( 0.065375194 0.93462485 )( 0.055565547 0.94443446 )( 0.88662475 0.113375254 )( 0.88349426 0.11650575 )( 0.82208866 0.17791133 )( 0.18840896 0.811591 )( 0.3148746 0.68512535 )( 0.12790534 0.8720947 )( 0.12963665 0.87036335 )( 0.8653549 0.13464509 )( 0.7773405 0.22265956 )( 0.44235867 0.5576413 )( 0.31967193 0.6803281 )( 0.047966335 0.9520337 )( 0.0419456 0.9580544 )( 0.07631323 0.92368674 )( 0.11034501 0.88965493 )( 0.044083573 0.9559164 )( 0.43980893 0.5601911 )( 0.5168717 0.4831283 )( 0.45024666 0.5497533 )( 0.22692563 0.7730744 )( 0.47688848 0.52311146 )( 0.26398182 0.7360181 )( 0.2968546 0.70314544 )( 0.77010703 0.22989297 )( 0.66422176 0.3357783 )( 0.7309697 0.2690302 )( 0.74340844 0.25659153 )( 0.020174157 0.97982585 )( 0.6923719 0.3076281 )( 0.06693102 0.933069 )( 0.9576551 0.04234495 )( 0.843532 0.15646796 )( 0.059174974 0.94082505 )( 0.0675668 0.9324332 )( 0.2086264 0.7913736 )( 0.90433747 0.09566253 )( 0.8086821 0.19131792 )( 0.99923813 7.6187117E-4 )( 0.9779419 0.022058118 )( 0.17703857 0.82296145 )( 0.43203923 0.5679608 )( 0.8858027 0.114197336 )( 0.81717795 0.1828221 )( 0.02430062 0.9756994 )( 0.32295415 0.6770459 )( 0.2672901 0.73270994 )( 0.622695 0.37730497 )( 0.13362208 0.86637795 )( 0.07644848 0.9235515 )( 0.22454236 0.7754576 )( 0.1644453 0.8355547 )( 0.5666247 0.4333753 )( 0.31808236 0.68191767 )( 0.11687476 0.8831253 )( 0.54406387 0.45593613 )( 0.2741301 0.7258699 )( 0.89278924 0.107210785 )( 0.80028737 0.19971259 )( 0.57884645 0.42115355 )( 0.151281 0.848719 )( 0.83594483 0.16405523 )( 0.052981988 0.94701797 )( 0.50821584 0.4917842 )( 0.34577006 0.65422994 )( 0.13833834 0.8616617 )( 0.42287287 0.57712716 )( 0.9985302 0.0014698374 )( 0.25800037 0.7419996 )( 0.2814518 0.71854824 )( 0.67217094 0.32782903 )( 0.6760489 0.32395113 )( 0.5141735 0.48582646 )( 0.5672654 0.4327346 )( 0.29710397 0.702896 )( 0.9100222 0.089977816 )( 0.46271563 0.5372844 )( 0.8541968 0.14580324 )( 0.6389944 0.3610056 )( 0.5498341 0.45016593 )( 0.27282995 0.7271701 )( 0.91646737 0.08353266 )( 0.82358617 0.17641383 )( 0.8377866 0.16221333 )( 0.35348147 0.64651847 )( 0.86521655 0.13478349 )( 0.33887726 0.6611227 )( 0.7391291 0.2608709 )( 0.8273489 0.17265105 )( 0.47556332 0.5244367 )( 0.7400842 0.2599158 )( 0.05531449 0.9446855 )( 0.5987704 0.4012296 )( 0.11675266 0.8832474 )( 0.91603285 0.08396714 )( 0.51236624 0.48763373 )( 0.98705757 0.012942462 )( 0.33140084 0.6685991 )( 0.374452 0.625548 )( 0.4554358 0.54456425 )( 0.41696212 0.58303785 )( 0.31933802 0.680662 )( 0.2867929 0.7132071 )( 0.48214626 0.5178537 )( 0.8381695 0.16183051 )( 0.9472768 0.05272321 )( 0.13707373 0.86292624 )( 0.19292542 0.80707455 )( 0.030632688 0.9693673 )( 0.88302493 0.11697505 )( 0.20920105 0.7907989 )( 0.58943164 0.41056833 )( 0.16990711 0.8300929 )( 0.023203531 0.97679645 )( 0.1301988 0.8698012 )( 0.7047062 0.29529378 )( 0.8308303 0.1691697 )( 0.33407807 0.6659219 )( 0.35840708 0.6415929 )( 0.105760954 0.89423907 )( 0.3630163 0.63698363 )( 0.9585464 0.041453633 )( 0.3188254 0.68117464 )( 1.1666452E-4 0.9998833 )( 0.92336076 0.076639235 ) );
}

potential ( node7 |  node2 node4 node16 node1 )
{
 data = ( ( 0.76045185 0.1476013 0.09194682 )( 0.21185888 0.5265538 0.26158732 )( 0.23726693 0.3016746 0.4610585 )( 0.3132688 0.1851531 0.50157803 )( 0.08047433 0.6805065 0.23901916 )( 0.1747989 0.32876801 0.49643308 )( 0.34270665 0.3938231 0.26347023 )( 0.56162137 0.2869971 0.15138152 )( 0.064835064 0.3218982 0.6132667 )( 0.8169062 0.020238778 0.16285504 )( 0.8494579 0.07348219 0.077059925 )( 0.2863869 0.6753243 0.038288724 )( 0.17965128 0.30790564 0.51244307 )( 0.81173235 0.14940502 0.038862687 )( 0.63851607 0.17659244 0.18489152 )( 0.11338096 0.0076909414 0.87892807 )( 0.21269839 0.397393 0.38990855 )( 0.10623878 0.8137263 0.08003493 )( 0.22054309 0.35717547 0.42228147 )( 0.32861367 0.20132516 0.47006115 )( 0.729064 0.1796608 0.091275156 )( 0.19409476 0.63607913 0.1698261 )( 0.31447402 0.2552695 0.4302565 )( 0.13374926 0.30322522 0.56302553 )( 0.024417683 0.9407166 0.034865767 )( 0.4484912 0.45114332 0.100365445 )( 0.47206292 0.39980826 0.1281288 )( 0.21880996 0.6456573 0.13553275 )( 0.00992141 0.26216066 0.72791797 )( 0.2576321 0.44779992 0.29456794 )( 0.6606743 0.23894842 0.10037733 )( 0.57722276 0.19350936 0.22926791 )( 0.07533113 0.46697903 0.4576899 )( 0.42832434 0.16635093 0.40532473 )( 0.13770796 0.35058993 0.5117021 )( 0.33832633 0.46142015 0.20025352 ) );
}

potential ( node8 |  node16 node14 node23 node1 node27 )
{
 data = ( ( 0.05677276 0.6755873 0.2676399 )( 0.32050538 0.23723684 0.4422577 )( 0.42042214 0.2052087 0.37436914 )( 0.0714545 0.05786877 0.8706767 )( 0.0097005665 0.14528659 0.8450128 )( 0.010184392 0.77509373 0.21472192 )( 0.28225482 0.5963672 0.121378005 )( 0.18325754 0.6125021 0.20424038 )( 0.3237487 0.5829838 0.09326757 )( 0.75467426 0.16790819 0.07741755 )( 0.13543692 0.4901406 0.3744225 )( 0.26910064 0.056100667 0.6747987 )( 0.048323672 0.060733367 0.890943 )( 0.79836595 0.14925471 0.052379344 )( 0.34405965 0.53222865 0.12371177 )( 0.45783976 0.15935908 0.38280112 )( 0.38750884 0.30335766 0.30913347 )( 0.19375056 0.613552 0.19269753 )( 0.2008036 0.6584051 0.14079136 )( 0.28991896 0.4518692 0.25821188 )( 0.19034386 0.31098908 0.49866706 )( 0.3944928 0.08876328 0.5167439 )( 0.032069173 0.036927775 0.93100303 )( 0.41333708 0.44914556 0.13751736 )( 0.6520351 0.08794305 0.26002187 )( 0.6936324 0.011890543 0.29447705 )( 0.10777527 0.113233104 0.7789916 )( 0.18084599 0.51303256 0.3061214 )( 0.37495 0.5541571 0.07089287 )( 0.3630948 0.23955648 0.39734867 )( 0.83562416 0.13759162 0.026784256 )( 0.0637579 0.35854444 0.5776976 )( 0.7625049 0.1355004 0.10199471 )( 0.41622147 0.1778497 0.40592882 )( 0.08741617 0.095686354 0.81689745 )( 0.09337349 0.89164555 0.014980948 )( 0.5789194 0.1428168 0.2782638 )( 0.8101704 0.13117166 0.05865793 )( 0.2085712 0.4689261 0.32250267 )( 0.27344903 0.4764864 0.25006464 )( 0.13164426 0.4225656 0.4457901 )( 0.065965794 0.22683518 0.70719904 )( 0.27439907 6.2370667E-4 0.7249772 )( 0.57359636 0.25492138 0.17148231 )( 0.32361102 0.31156996 0.36481902 )( 0.09488199 0.007780013 0.897338 )( 0.28016752 0.61819476 0.10163771 )( 0.33068535 0.012009407 0.65730524 )( 0.82936966 0.13097364 0.03965667 )( 0.20244204 0.34437472 0.4531832 )( 0.52647465 0.023302123 0.45022318 )( 0.21542495 0.5617557 0.22281934 )( 0.23289423 0.09077099 0.6763348 )( 0.22242011 0.07859621 0.69898367 )( 0.397704 0.5333481 0.06894796 )( 0.6295089 0.27473006 0.09576108 )( 0.25023147 0.423996 0.32577255 )( 0.19314547 0.37196833 0.4348862 )( 0.36196393 0.2242026 0.41383344 )( 0.16614749 0.7094011 0.12445149 )( 0.30372113 0.23792087 0.458358 )( 0.52864254 0.21425776 0.25709966 )( 0.91400075 0.044519834 0.04147943 )( 0.42261595 0.13538933 0.4419947 )( 0.39743757 0.57660896 0.02595343 )( 0.3919423 0.2446851 0.36337265 )( 0.024883013 0.2169874 0.7581296 )( 0.5283488 0.18478209 0.2868691 )( 0.10568366 0.13284044 0.7614759 )( 0.4362221 0.17790623 0.38587168 )( 0.07489357 0.5861606 0.33894584 )( 0.23585653 0.5895627 0.17458072 )( 0.5392005 0.096840665 0.36395887 )( 0.06566686 0.045797363 0.8885358 )( 0.046965677 0.39915287 0.5538815 )( 0.8578656 0.11007141 0.03206298 )( 0.8316707 0.116926365 0.051402926 )( 0.7700886 0.1703827 0.05952866 )( 0.022278799 0.11223673 0.86548454 )( 0.38337424 0.57552165 0.041104153 )( 0.69209576 0.05030057 0.25760362 )( 0.037649017 0.69914806 0.2632029 )( 0.4817507 0.010346793 0.50790244 )( 0.070898175 0.022466531 0.9066353 )( 0.10883984 0.8255577 0.06560248 )( 0.842616 0.0043827705 0.15300123 )( 0.10466282 0.46403164 0.43130553 )( 0.0075005293 0.78887975 0.20361967 )( 0.2842331 0.4805707 0.2351962 )( 0.68022287 0.22317053 0.09660663 )( 0.58449996 0.03718903 0.378311 )( 0.4014723 0.31451944 0.28400826 )( 0.119907 0.5213397 0.3587533 )( 0.25645834 0.23357525 0.50996643 )( 0.09302863 0.7055126 0.20145871 )( 0.12044441 0.8402055 0.039350078 )( 0.21757838 0.10931569 0.6731059 )( 0.7335533 0.07247758 0.1939692 )( 0.44901434 0.25531912 0.2956665 )( 0.8331856 0.1329859 0.033828475 )( 0.615515 0.23425266 0.15023236 )( 0.282033 0.018553918 0.69941306 )( 0.13954912 0.5205853 0.3398656 )( 0.6750314 0.09244215 0.23252645 )( 0.83183223 0.063087076 0.10508068 )( 0.26904777 0.4415284 0.28942382 )( 0.030986726 0.6074916 0.36152166 )( 0.633595 0.010573023 0.35583198 ) );
}

potential ( node9 |  node28 node19 node17 node2 node13 )
{
 data = ( ( 0.22846031 0.6354532 0.1360865 )( 0.075717054 0.45919296 0.46508998 )( 0.06281426 0.42411748 0.5130683 )( 0.39400515 0.049514543 0.5564803 )( 0.72812456 0.22486672 0.04700871 )( 0.24361277 0.22179389 0.5345934 )( 0.6875068 0.13204123 0.18045206 )( 0.39327717 0.3424857 0.26423717 )( 0.51671034 0.4359159 0.047373697 )( 0.18901436 0.07724169 0.7337439 )( 0.594331 0.0145368315 0.39113218 )( 0.08844465 0.78676367 0.12479171 )( 0.2741673 0.41842422 0.3074085 )( 0.04867779 0.9024825 0.048839647 )( 0.07232339 0.8207895 0.1068871 )( 0.31749657 0.33315423 0.34934914 )( 0.3013081 0.6741191 0.02457277 )( 0.39766616 0.42869008 0.17364384 )( 0.40566918 0.26622656 0.32810423 )( 0.83240074 0.07429521 0.09330408 )( 0.27827242 0.4894589 0.23226868 )( 0.77565086 0.020894663 0.2034545 )( 0.09560677 0.5059592 0.398434 )( 0.09866142 0.14490883 0.75642973 )( 0.27390605 0.03206709 0.6940269 )( 0.00705406 0.6348575 0.35808843 )( 0.48707125 0.18290585 0.33002293 )( 0.07213794 0.08504802 0.842814 )( 0.33234024 0.44925085 0.21840887 )( 0.53585887 0.40913537 0.05500585 )( 0.027801441 0.8942619 0.077936634 )( 0.15461542 0.6175165 0.22786804 )( 0.27449495 0.25909954 0.46640545 )( 0.5767149 0.28833243 0.13495266 )( 0.17723916 0.63062245 0.19213839 )( 0.29267028 0.27894726 0.42838252 )( 0.14327392 0.5399927 0.3167334 )( 0.29620168 0.30025795 0.40354037 )( 0.60995334 0.15106502 0.2389816 )( 0.26220512 0.0034914576 0.73430336 )( 0.560475 0.006314218 0.43321082 )( 0.5700027 0.10176788 0.32822952 )( 0.064759806 0.75417846 0.18106174 )( 0.24259712 0.69197625 0.06542668 )( 0.11140488 0.47324687 0.41534832 )( 0.08194934 0.3356749 0.58237576 )( 0.1234411 0.801873 0.0746858 )( 0.57437825 0.3261406 0.09948108 )( 0.37116706 0.52033967 0.108493306 )( 0.10105406 0.012353593 0.8865923 )( 0.60847884 0.11050321 0.28101796 )( 0.37613484 0.504112 0.11975315 )( 0.14527957 0.6648161 0.18990436 )( 0.10373739 0.31220204 0.5840606 )( 0.115396135 0.0805882 0.80401564 )( 0.46681952 0.08848449 0.44469595 )( 0.4324443 0.4999117 0.06764403 )( 0.412814 0.4526943 0.13449173 )( 0.37379357 0.16211273 0.4640937 )( 0.060603585 0.5250322 0.41436425 )( 0.21447828 0.588495 0.19702671 )( 0.23089826 0.0031392945 0.7659625 )( 0.5451537 0.032682937 0.4221634 )( 0.73348933 0.19174704 0.07476368 )( 0.018273246 0.83731097 0.14441583 )( 0.74847656 0.19803526 0.053488135 )( 0.30676222 0.122342214 0.5708956 )( 0.4830754 0.022346418 0.4945782 )( 0.70958555 0.017155807 0.2732586 )( 0.8206484 0.11245251 0.06689915 )( 0.02538429 0.41497618 0.5596395 )( 0.1866871 0.16667683 0.6466361 )( 0.089008525 0.54997545 0.361016 )( 0.28357515 0.10372245 0.6127024 )( 0.07670778 0.07047121 0.852821 )( 0.44367358 0.40538883 0.15093763 )( 0.53641254 0.35247555 0.11111192 )( 0.4467318 0.53841794 0.014850283 )( 0.5403337 0.071322165 0.38834414 )( 0.87277025 0.11848014 0.008749592 )( 0.7076733 0.030039754 0.2622869 )( 0.86935633 0.070605114 0.060038555 )( 0.5476573 0.021618344 0.43072435 )( 0.69866 0.21856451 0.082775466 )( 0.07440322 0.18285038 0.7427464 )( 0.57695895 0.11739442 0.3056466 )( 0.1562258 0.7503746 0.093399584 )( 0.07107483 0.13007832 0.7988469 )( 0.01777064 0.69595015 0.2862792 )( 0.38663107 0.56417096 0.049197946 )( 0.2729303 0.7075029 0.019566804 )( 0.22683503 0.3883233 0.38484174 )( 0.12660244 0.107380636 0.7660169 )( 0.108748004 0.6601438 0.23110828 )( 0.15210083 0.038617883 0.8092813 )( 0.0259964 0.648671 0.32533264 )( 0.09480546 0.56712246 0.3380721 )( 0.1503509 0.040721707 0.8089274 )( 0.2933816 0.34253916 0.36407927 )( 0.3021262 0.40431 0.29356384 )( 0.47395846 0.022257356 0.5037842 )( 0.17451519 0.114852704 0.7106321 )( 0.95110595 0.046403315 0.00249069 )( 0.6729954 0.26160216 0.06540246 )( 0.017041808 0.29334685 0.6896114 )( 0.35632938 0.57767 0.06600065 )( 0.04389434 0.02800427 0.92810136 )( 0.5156117 0.2898066 0.19458173 ) );
}

potential ( node10 |  node20 )
{
 data = ( ( 0.31406233 0.3802964 0.30564123 )( 0.30623302 0.3198148 0.3739522 )( 0.08918125 0.2564466 0.6543722 ) );
}

potential ( node11 |  node14 node22 node2 node1 node28 )
{
 data = ( ( 0.16041473 0.83958524 )( 0.39546764 0.6045323 )( 0.94940954 0.050590448 )( 0.49532592 0.504674 )( 0.17091571 0.8290843 )( 0.9408941 0.059105873 )( 0.8683021 0.13169785 )( 0.68937653 0.31062353 )( 0.863496 0.136504 )( 0.656929 0.343071 )( 0.18991154 0.8100885 )( 0.50221425 0.49778575 )( 0.6345624 0.36543763 )( 0.8394794 0.1605206 )( 0.1973496 0.80265033 )( 0.5114307 0.48856935 )( 0.43902484 0.5609752 )( 0.19985227 0.8001477 )( 0.65179807 0.3482019 )( 0.12682126 0.8731787 )( 0.78914386 0.21085612 )( 0.86221546 0.13778448 )( 0.62315345 0.37684652 )( 0.676859 0.32314098 )( 0.6309114 0.3690886 )( 0.08405483 0.9159452 )( 0.96287316 0.03712684 )( 0.7388505 0.26114953 )( 0.46284047 0.5371596 )( 0.96731436 0.03268564 )( 0.32640576 0.6735942 )( 0.15945476 0.84054524 )( 0.93479323 0.065206796 )( 0.63333607 0.36666393 )( 0.2646327 0.73536724 )( 0.009314906 0.99068516 )( 0.29036114 0.7096389 )( 0.8906604 0.10933961 )( 0.53415716 0.4658428 )( 0.44113305 0.558867 )( 0.9685559 0.031444065 )( 0.39072418 0.6092758 )( 0.3445786 0.6554214 )( 0.6863278 0.31367224 )( 0.42394128 0.57605875 )( 0.43625343 0.5637466 )( 0.34514192 0.65485805 )( 0.76095635 0.23904368 )( 0.99063224 0.009367818 )( 0.7477347 0.25226521 )( 0.20516215 0.79483783 )( 0.4649754 0.5350246 )( 0.5929641 0.40703586 )( 0.37799016 0.6220099 )( 0.5203166 0.47968343 )( 0.21326345 0.7867366 )( 0.5716933 0.42830673 )( 0.5106866 0.48931345 )( 0.2936778 0.70632225 )( 0.607298 0.39270192 )( 0.08368192 0.91631806 )( 0.13926986 0.8607301 )( 0.5814243 0.4185757 )( 0.67718834 0.32281166 )( 0.5585816 0.44141844 )( 0.57610226 0.4238977 )( 0.7529022 0.24709785 )( 0.45586285 0.5441371 )( 0.44191697 0.558083 )( 0.43875682 0.5612431 )( 0.8817471 0.1182529 )( 0.09665526 0.90334475 )( 0.2930476 0.70695233 )( 0.69303393 0.30696607 )( 0.7387559 0.26124415 )( 0.8017107 0.19828929 )( 0.6906151 0.30938488 )( 0.65470666 0.34529334 )( 0.004389061 0.99561095 )( 0.7327455 0.26725447 )( 0.5697847 0.4302153 )( 0.044594403 0.9554056 )( 0.40552384 0.59447616 )( 0.5654234 0.4345765 )( 0.88276285 0.11723709 )( 0.49468437 0.5053156 )( 0.743463 0.256537 )( 0.5513862 0.4486138 )( 0.5317676 0.46823245 )( 0.66351897 0.33648103 )( 0.09358343 0.90641654 )( 0.16184074 0.8381592 )( 0.87981045 0.1201895 )( 0.5573339 0.44266614 )( 0.91686094 0.083139 )( 0.588554 0.41144595 )( 0.7918704 0.20812954 )( 0.3650229 0.6349771 )( 0.107490994 0.892509 )( 0.95979106 0.040208902 )( 0.76539963 0.23460037 )( 0.9275988 0.07240117 )( 0.8191271 0.18087289 )( 0.6343896 0.3656104 )( 0.49911726 0.5008827 )( 0.90494394 0.095056064 )( 0.8707579 0.12924212 )( 0.29412627 0.7058738 ) );
}

potential ( node12 |  node1 node15 node11 )
{
 data = ( ( 1.0543595E-5 0.99998945 )( 0.71038276 0.28961727 )( 0.836722 0.16327795 )( 0.71711946 0.28288054 )( 0.22584483 0.7741552 )( 0.92807114 0.07192885 )( 0.98573655 0.014263447 )( 0.20059808 0.79940194 )( 0.09253032 0.9074697 )( 0.6328833 0.3671167 )( 0.77344954 0.22655049 )( 0.9894437 0.010556306 ) );
}

potential ( node13 |  node14 node3 node2 )
{
 data = ( ( 0.6738282 0.040445555 0.28572628 )( 0.24864195 0.09006819 0.6612899 )( 0.4197536 0.13281284 0.4474335 )( 0.190663 0.2846466 0.5246904 )( 0.12397125 0.0012971847 0.87473154 )( 0.44478565 0.17565233 0.379562 )( 0.010964874 0.050478954 0.93855613 )( 0.24280053 0.32262567 0.43457386 ) );
}

potential ( node14 |  node7 )
{
 data = ( ( 0.58663505 0.41336495 )( 0.7477019 0.25229815 )( 0.86065054 0.1393495 ) );
}

potential ( node15 |  node0 )
{
 data = ( ( 0.2743791 0.725621 )( 0.7485817 0.25141823 ) );
}

potential ( node16 |  node3 )
{
 data = ( ( 0.28271094 0.030472435 0.6868166 )( 0.44579867 0.06208139 0.49211994 ) );
}

potential ( node17 |  node10 )
{
 data = ( ( 0.018094895 0.5275997 0.45430535 )( 0.13368551 0.8520204 0.01429407 )( 0.474021 0.013383329 0.51259565 ) );
}

potential ( node18 |  node4 node22 )
{
 data = ( ( 0.4728867 0.52711326 )( 0.96175903 0.03824095 )( 0.93761665 0.062383343 )( 0.42907035 0.57092965 )( 0.45023432 0.5497657 )( 0.42586854 0.5741314 ) );
}

potential ( node19 |  node20 node23 node18 )
{
 data = ( ( 0.063717574 0.93628246 )( 0.107269734 0.89273024 )( 0.22709641 0.7729036 )( 0.833356 0.16664392 )( 0.44820946 0.5517905 )( 0.38921237 0.61078763 )( 0.53946984 0.4605302 )( 0.65583926 0.3441608 )( 0.9691795 0.030820528 )( 0.95021564 0.04978437 )( 0.6998514 0.3001486 )( 0.82213396 0.17786609 ) );
}

potential ( node20 )
{
 data = ( 0.8744059 0.077823415 0.047770657 );
}

potential ( node21 |  node20 node12 node22 node17 node25 )
{
 data = ( ( 0.64504105 0.34145296 0.013505981 )( 0.09875157 0.44542855 0.45581988 )( 0.5426339 0.07178767 0.38557848 )( 0.6901136 0.111922845 0.19796358 )( 0.060280938 0.45748228 0.48223677 )( 0.19852062 0.69748145 0.103997946 )( 0.43450305 0.10941095 0.45608595 )( 0.3076867 0.33847636 0.35383692 )( 0.40730745 0.5168185 0.075873986 )( 0.52400565 0.40606037 0.069933966 )( 0.5691101 0.19373444 0.23715547 )( 0.1288494 0.8258879 0.045262653 )( 0.2257586 0.009756267 0.7644852 )( 0.21233949 0.20668347 0.5809771 )( 0.17655587 0.3756578 0.4477863 )( 0.039645873 0.049863324 0.9104908 )( 0.4156112 0.43040913 0.15397969 )( 0.7390438 0.12416519 0.13679112 )( 0.17764784 0.6381624 0.1841898 )( 0.52748215 0.32261226 0.14990562 )( 0.0529002 0.6581198 0.28897995 )( 0.23201579 0.0781634 0.6898208 )( 0.10825185 0.82361865 0.06812954 )( 0.4776912 0.30949306 0.21281567 )( 0.6036093 0.27542326 0.12096745 )( 0.06343748 0.28299105 0.6535715 )( 0.09227113 0.8671212 0.040607695 )( 0.060342826 0.42329323 0.5163639 )( 0.027056148 0.60190684 0.371037 )( 0.2289458 0.5233166 0.24773759 )( 0.15222573 0.29508224 0.552692 )( 0.26773125 0.64915174 0.08311703 )( 0.41586947 0.0028060467 0.5813245 )( 0.29725087 0.6425235 0.060225613 )( 0.8561742 0.023708826 0.12011701 )( 0.108047426 0.22526197 0.66669065 )( 0.04238442 0.7011863 0.25642923 )( 0.5125121 0.40740097 0.080086984 )( 0.21148828 0.2905633 0.49794847 )( 0.05680529 0.3173613 0.6258334 )( 0.54395497 0.11244794 0.34359705 )( 0.640281 0.30530986 0.054409128 )( 0.86713 0.032916527 0.09995356 )( 0.12266796 0.031934302 0.8453977 )( 0.5682279 0.2180248 0.21374735 )( 0.1906553 0.27821323 0.53113145 )( 0.388178 0.44515947 0.16666256 )( 0.19251984 0.03686768 0.77061254 )( 0.8013391 0.19085616 0.0078046885 )( 0.066649005 0.2314414 0.70190966 )( 0.16133662 0.06159606 0.77706736 )( 0.075203456 0.6290864 0.29571018 )( 0.7363091 0.029894475 0.23379646 )( 0.14902824 0.34364432 0.50732744 )( 0.55720925 0.40803775 0.034753095 )( 0.29557118 0.5469117 0.15751715 )( 0.29772744 0.46483824 0.23743433 )( 0.7063712 0.12783535 0.16579348 )( 0.16083576 0.35655698 0.48260728 )( 0.27079222 0.50520986 0.22399792 )( 0.076962814 0.13974401 0.7832932 )( 0.07886662 0.6243669 0.2967665 )( 0.10928849 0.6446984 0.24601318 )( 0.8328683 0.15371984 0.013411837 )( 0.16104634 0.39272904 0.44622463 )( 0.5154167 0.0064954795 0.4780879 )( 0.03950089 0.04139458 0.9191046 )( 0.73278755 0.21720561 0.050006803 )( 0.291018 0.6275344 0.08144755 )( 0.56999856 0.2228348 0.20716664 )( 0.04554203 0.21841003 0.7360479 )( 0.6008781 0.26433474 0.13478717 )( 0.19986439 0.11797665 0.68215895 )( 0.30989215 0.65371984 0.036388002 )( 0.50592834 0.23860349 0.2554682 )( 0.42055392 0.17088719 0.4085589 )( 0.07793433 0.19881691 0.7232487 )( 0.48290133 0.3828873 0.13421136 )( 0.55208266 0.37851715 0.069400236 )( 0.44568262 0.14311467 0.41120273 )( 0.32965437 0.021205556 0.6491401 )( 0.63342756 0.042426 0.32414645 )( 0.30725703 0.45002013 0.24272278 )( 0.8748742 0.059657667 0.065468155 )( 0.25896323 0.65765595 0.08338081 )( 0.46780515 0.4020808 0.13011406 )( 0.23982684 0.08598156 0.6741916 )( 0.4623025 0.26649228 0.27120522 )( 0.16702636 0.23546386 0.5975098 )( 0.75279725 0.027708119 0.2194946 )( 0.17653954 0.50646275 0.31699777 )( 0.07057814 0.26563263 0.6637893 )( 0.22639306 0.20390043 0.5697065 )( 0.0075325705 0.75110507 0.24136232 )( 0.5374766 0.027798485 0.43472493 )( 0.07308184 0.54364455 0.38327363 )( 0.30639493 0.4949623 0.19864272 )( 0.54274255 0.17851359 0.27874383 )( 0.030232543 0.920924 0.048843414 )( 0.30390877 0.14146477 0.55462646 )( 0.10267106 0.5478327 0.3494962 )( 0.039820638 0.2255392 0.7346402 )( 0.15230384 0.109647855 0.73804826 )( 0.19962515 0.15977198 0.64060295 )( 0.47124955 0.3584401 0.17031036 )( 0.2484999 0.47928634 0.2722137 )( 0.30146384 0.24434191 0.45419425 )( 0.42938662 0.18925747 0.38135594 )( 0.12692176 0.10047872 0.7725995 )( 0.54672116 0.22853993 0.22473893 )( 0.5508514 0.08971342 0.35943517 )( 0.8674087 0.033463426 0.099127814 )( 0.33751103 0.39234254 0.27014634 )( 0.49272355 0.0563037 0.4509727 )( 0.13375519 0.6922989 0.17394598 )( 0.13814257 0.58984125 0.27201617 )( 0.5538387 0.11738402 0.32877737 )( 0.2308932 0.24762194 0.5214848 )( 0.31249815 0.5165496 0.17095225 )( 0.10263236 0.5266539 0.3707138 )( 0.6988832 0.18499169 0.11612516 )( 0.8907051 0.044665363 0.064629585 )( 0.0368826 0.79191554 0.17120184 )( 0.026280347 0.5446146 0.42910498 )( 0.3552291 0.07300187 0.571769 )( 0.015344529 0.5083723 0.4762832 )( 0.5011686 0.10579855 0.39303282 )( 0.42513183 0.109846085 0.46502212 )( 0.07651587 0.0050020185 0.9184821 )( 0.14454855 0.48273352 0.37271798 )( 0.497056 0.13775565 0.3651883 )( 0.3007329 0.624283 0.07498406 )( 0.6133034 0.30719 0.07950648 )( 0.04298486 0.1405385 0.81647664 )( 0.66269785 0.2173357 0.11996646 )( 0.5615228 0.009217818 0.42925945 )( 0.10715904 0.6137279 0.27911305 )( 0.45747167 0.5071869 0.035341535 )( 0.08510323 0.66394836 0.25094837 )( 0.132878 0.49111953 0.37600246 )( 0.03735791 0.061733495 0.9009086 )( 0.17905122 0.46318176 0.35776702 )( 0.7521602 0.10695601 0.14088383 )( 0.4588806 0.13364501 0.40747437 )( 0.7070573 0.07818561 0.21475713 )( 0.086221784 0.58788604 0.32589218 )( 0.24420083 0.58454615 0.171253 )( 0.017068783 0.81919825 0.16373299 )( 0.5598766 0.21506558 0.22505783 )( 0.726194 0.25911266 0.014693352 )( 0.76533926 0.16955508 0.06510571 )( 0.57007116 0.22660531 0.2033235 )( 0.24810417 0.14894511 0.6029507 )( 0.47553444 0.33395192 0.19051366 )( 0.19860122 0.45950443 0.34189433 )( 0.67411125 0.11368364 0.21220508 )( 0.3924092 0.5776495 0.029941363 )( 0.59538305 0.26592132 0.13869561 )( 0.52095366 0.33908698 0.13995945 )( 0.0751206 0.11582478 0.8090546 )( 0.13120125 0.79914266 0.06965606 )( 0.36346853 0.19117586 0.44535562 ) );
}

potential ( node22 )
{
 data = ( 0.057233598 0.2891885 0.6535779 );
}

potential ( node23 |  node18 node25 node13 )
{
 data = ( ( 0.8855612 0.11443877 )( 0.6313742 0.36862576 )( 0.7212704 0.2787296 )( 0.85749865 0.1425014 )( 0.35427415 0.6457259 )( 0.81877154 0.18122849 )( 0.18955593 0.8104441 )( 0.47581744 0.5241826 )( 0.6374042 0.36259574 )( 0.045257542 0.95474243 )( 0.78271735 0.21728261 )( 0.6784622 0.32153782 )( 0.45464686 0.5453532 )( 0.60824007 0.39175996 )( 0.344085 0.65591496 )( 0.03283546 0.9671646 )( 0.3107869 0.6892131 )( 0.122916915 0.8770831 ) );
}

potential ( node24 |  node12 node15 node18 node16 )
{
 data = ( ( 0.5897786 0.13716598 0.2730555 )( 0.031555697 0.64690757 0.32153672 )( 0.05742616 0.4447834 0.4977905 )( 0.4284724 0.0322075 0.53932005 )( 0.50733906 0.37180024 0.12086069 )( 0.18333898 0.21752867 0.59913236 )( 0.17667438 0.28687513 0.5364505 )( 0.40291834 0.15149756 0.44558415 )( 0.45567676 0.17920154 0.36512166 )( 0.014045696 0.9670589 0.01889543 )( 0.43067658 0.53728026 0.032043166 )( 0.50477546 0.26440883 0.23081577 )( 0.3234725 0.6032086 0.07331887 )( 0.019915583 0.88094985 0.099134594 )( 0.19515903 0.5887709 0.21607001 )( 0.26616785 0.03898889 0.6948433 )( 0.43793973 0.060243685 0.5018165 )( 0.13389796 0.2810858 0.58501625 )( 0.07479162 0.4167518 0.5084566 )( 0.121535644 0.71920925 0.15925509 )( 0.3151833 0.06130752 0.62350917 )( 0.37138715 0.47358876 0.1550241 )( 0.031072669 0.36203393 0.60689336 )( 0.56550616 0.18611546 0.2483784 ) );
}

potential ( node25 )
{
 data = ( 0.34939343 0.10210157 0.548505 );
}

potential ( node26 |  node15 node8 node24 node12 node19 node5 )
{
 data = ( ( 0.35754484 0.6424552 )( 0.7082337 0.29176623 )( 0.69026685 0.30973318 )( 0.93674535 0.063254684 )( 0.7712527 0.22874725 )( 0.8232418 0.1767582 )( 0.026331812 0.97366816 )( 0.41432726 0.58567274 )( 0.842994 0.15700597 )( 0.22564393 0.7743561 )( 0.9468671 0.05313289 )( 0.59395385 0.40604615 )( 0.49535328 0.50464666 )( 0.74181366 0.25818637 )( 0.76922494 0.23077501 )( 0.42732176 0.5726782 )( 0.49177945 0.5082206 )( 0.18917714 0.8108229 )( 0.25557822 0.74442184 )( 0.856263 0.14373699 )( 0.33451834 0.6654817 )( 0.84147125 0.15852869 )( 0.79626703 0.20373294 )( 0.37820944 0.6217906 )( 0.41391912 0.58608085 )( 0.009414691 0.9905853 )( 0.35966796 0.64033204 )( 0.6249877 0.3750123 )( 0.88280517 0.117194824 )( 0.75248575 0.24751422 )( 0.6177593 0.38224074 )( 0.18285632 0.8171437 )( 0.28138444 0.7186156 )( 0.1712922 0.82870775 )( 0.2912869 0.70871305 )( 0.7299541 0.27004594 )( 0.4322959 0.5677041 )( 0.74525565 0.25474435 )( 0.52725375 0.4727463 )( 0.4421782 0.5578218 )( 0.3487036 0.65129644 )( 0.7672734 0.23272662 )( 0.81321084 0.18678916 )( 0.15484907 0.8451509 )( 0.0015796837 0.99842036 )( 0.19613998 0.80386 )( 0.9618544 0.03814559 )( 0.9747568 0.025243234 )( 0.76672435 0.23327571 )( 0.24911967 0.75088036 )( 0.22464764 0.77535236 )( 0.64494115 0.35505888 )( 0.1847838 0.8152162 )( 0.863477 0.13652301 )( 0.5434623 0.45653772 )( 0.5653652 0.43463475 )( 0.65246385 0.34753618 )( 0.3764502 0.6235498 )( 0.44042066 0.5595794 )( 0.038213138 0.9617869 )( 0.5066703 0.4933297 )( 0.9440257 0.055974323 )( 0.6757557 0.32424438 )( 0.516326 0.48367396 )( 0.12726583 0.8727342 )( 0.8975335 0.10246648 )( 0.5220222 0.4779778 )( 0.19915384 0.80084616 )( 0.33996594 0.66003406 )( 0.03529074 0.9647092 )( 0.8596829 0.14031713 )( 0.12869965 0.87130034 )( 0.23060419 0.76939577 )( 0.6305526 0.36944738 )( 0.8374681 0.16253188 )( 0.017674457 0.98232555 )( 0.06599037 0.9340097 )( 0.58150625 0.41849372 )( 0.5387226 0.4612774 )( 0.11135586 0.8886441 )( 0.8371424 0.1628576 )( 0.4023369 0.59766316 )( 0.08574424 0.9142558 )( 0.32561395 0.6743861 )( 0.1732372 0.8267628 )( 0.26605803 0.7339419 )( 0.8098962 0.19010386 )( 0.4273661 0.5726339 )( 0.91811645 0.0818835 )( 0.29924622 0.7007538 )( 0.61257875 0.38742128 )( 0.84263843 0.15736157 )( 0.681394 0.31860605 )( 0.6797242 0.3202758 )( 0.28133884 0.7186611 )( 0.82684207 0.17315798 )( 0.054561526 0.9454385 )( 0.58891577 0.41108418 )( 0.4797054 0.52029455 )( 0.22275865 0.77724135 )( 0.3308392 0.6691608 )( 0.4084469 0.5915531 )( 0.93061256 0.0693874 )( 0.70122874 0.29877123 )( 0.7886734 0.21132658 )( 0.99382466 0.006175353 )( 0.30898452 0.6910155 )( 0.38877213 0.61122787 )( 0.7789988 0.22100122 )( 0.8402565 0.15974346 )( 0.36393258 0.6360674 )( 0.48034894 0.51965106 )( 0.58099174 0.41900823 )( 0.28974855 0.71025145 )( 0.30349556 0.6965044 )( 0.61717707 0.382823 )( 0.9081819 0.091818035 )( 0.8163448 0.18365523 )( 0.8746787 0.12532136 )( 0.19120942 0.80879056 )( 0.33632034 0.6636797 )( 0.5865067 0.41349328 )( 0.447534 0.552466 )( 0.066340126 0.93365985 )( 0.9764733 0.023526719 )( 0.48027295 0.519727 )( 0.9002245 0.0997755 )( 0.03738684 0.96261317 )( 0.1538083 0.8461917 )( 0.49107334 0.50892663 )( 0.8107481 0.18925186 )( 0.81993914 0.1800609 )( 0.24255417 0.7574458 )( 0.053911313 0.94608873 )( 0.5847013 0.4152987 )( 0.24810018 0.75189984 )( 0.2387599 0.7612401 )( 0.5229962 0.47700375 )( 0.08749138 0.9125086 )( 0.4050729 0.59492713 )( 0.14930175 0.85069823 )( 0.13960151 0.86039853 )( 0.77913284 0.22086716 )( 0.43889198 0.561108 )( 0.55017436 0.4498256 )( 0.0681105 0.9318895 )( 0.3602303 0.6397697 )( 0.638383 0.36161703 )( 0.028232133 0.97176784 )( 0.10768271 0.8923173 )( 0.322065 0.677935 )( 0.32341003 0.67658997 )( 0.31909892 0.68090105 )( 0.84686023 0.15313974 )( 0.08833362 0.9116664 )( 0.08668348 0.9133165 )( 0.5082794 0.4917206 )( 0.525231 0.47476894 )( 0.31501314 0.6849868 )( 0.41965184 0.58034813 )( 0.12556742 0.87443256 )( 0.15060759 0.8493925 )( 0.6426892 0.35731083 )( 0.44958413 0.5504159 )( 0.25244874 0.7475513 )( 0.3920439 0.6079561 )( 0.75445443 0.24554555 )( 0.9846495 0.015350514 )( 0.5990155 0.4009845 )( 0.83613455 0.16386549 )( 0.72552174 0.2744782 )( 0.48374185 0.5162582 )( 0.92324036 0.076759666 )( 0.40010524 0.5998948 )( 0.66063625 0.33936375 )( 0.2333419 0.76665807 )( 0.295516 0.7044839 )( 0.47361264 0.52638733 )( 0.6083319 0.3916681 )( 0.6371382 0.36286178 )( 0.6931102 0.30688974 )( 0.5619803 0.43801963 )( 0.045483086 0.9545169 )( 0.76468194 0.23531811 )( 0.51847076 0.48152924 )( 0.9114349 0.08856517 )( 0.48525417 0.5147459 )( 0.75075114 0.24924883 )( 0.33919045 0.6608096 )( 0.6718903 0.3281097 )( 0.16202277 0.83797723 )( 0.58255345 0.4174466 )( 0.11666016 0.8833398 )( 0.09746904 0.9025309 )( 0.7050526 0.29494742 )( 0.28415215 0.71584785 )( 0.7066499 0.2933501 )( 0.65285486 0.3471451 )( 0.5716649 0.4283351 )( 0.46457636 0.53542364 )( 0.60482764 0.39517242 )( 0.28709412 0.7129058 )( 0.16902661 0.8309734 )( 0.69689906 0.3031009 )( 0.9087719 0.09122813 )( 0.3408856 0.6591144 )( 0.21052925 0.78947073 )( 0.5655211 0.43447882 )( 0.93682224 0.06317775 )( 0.05808678 0.94191325 )( 0.14829187 0.8517081 )( 0.6691119 0.3308881 )( 0.48575526 0.5142448 )( 0.17913993 0.82086 )( 0.3709469 0.6290531 )( 0.121738076 0.87826186 ) );
}

potential ( node27 |  node24 )
{
 data = ( ( 0.028381396 0.32937518 0.6422434 )( 0.37619126 0.55177504 0.07203374 )( 0.63595015 0.004573068 0.3594768 ) );
}

potential ( node28 |  node10 node17 node15 node23 )
{
 data = ( ( 0.2673926 0.31110883 0.42149863 )( 0.07112684 0.5722313 0.3566419 )( 0.6644824 0.020162847 0.31535473 )( 0.022908028 0.7879298 0.1891622 )( 0.6247385 0.24989648 0.12536499 )( 0.08522586 0.08419714 0.83057696 )( 0.15094136 0.2044218 0.64463687 )( 0.31412005 0.6618772 0.024002738 )( 0.72952545 0.05473398 0.21574065 )( 0.8167886 0.03321781 0.14999363 )( 0.044739313 0.052109905 0.90315074 )( 0.33762142 0.17918937 0.48318925 )( 0.57280815 0.19030695 0.23688494 )( 0.48234713 0.27225712 0.24539581 )( 0.2502726 0.5295091 0.22021826 )( 0.25659436 0.33609262 0.40731305 )( 0.07923788 0.19368927 0.7270729 )( 0.29223236 0.3892466 0.318521 )( 0.11172325 0.8609603 0.027316492 )( 0.8662946 0.015638208 0.11806718 )( 0.5027062 0.016048621 0.48124513 )( 0.24629924 0.117782675 0.6359181 )( 0.39706406 0.5304468 0.07248912 )( 0.42466885 0.34788853 0.22744267 )( 0.26502678 0.6741506 0.060822636 )( 0.14230709 0.707726 0.14996685 )( 0.7636177 0.19671509 0.039667286 )( 0.35075217 0.40241125 0.24683653 )( 0.2816246 0.29357296 0.42480248 )( 0.254476 0.55361634 0.19190761 )( 0.21843368 0.7386406 0.042925753 )( 0.41143528 0.31445628 0.27410847 )( 0.18224221 0.79127467 0.026483156 )( 0.22281398 0.04252379 0.73466223 )( 0.20394875 0.77382165 0.02222959 )( 0.117163256 0.20449151 0.67834526 ) );
}

potential ( node29 |  node4 node10 node19 node25 node27 )
{
 data = ( ( 0.43316945 0.39932898 0.16750154 )( 0.3392808 0.19927327 0.46144593 )( 0.15430203 0.023831263 0.8218667 )( 0.45696136 0.18022676 0.3628119 )( 0.17561707 0.5523911 0.27199188 )( 0.6335426 0.024618894 0.3418385 )( 0.3179736 0.32998803 0.35203838 )( 0.3115124 0.6147889 0.073698685 )( 0.26391986 0.071001954 0.66507816 )( 0.07313072 0.2523191 0.6745502 )( 0.08645435 0.38963637 0.5239093 )( 0.20950747 0.7283329 0.06215961 )( 0.09838199 0.8278847 0.07373332 )( 0.038818642 0.17694137 0.78424 )( 0.2712573 0.6529477 0.07579501 )( 0.34203023 0.53126013 0.1267096 )( 0.20076954 0.34212923 0.45710123 )( 0.30227214 0.32691866 0.3708092 )( 0.15416564 0.32309932 0.522735 )( 0.5591536 0.117290094 0.32355633 )( 0.26827377 0.27471915 0.45700705 )( 0.11692246 0.42595345 0.45712405 )( 0.38129783 0.12978126 0.48892093 )( 0.027343085 0.100138664 0.8725182 )( 0.0027539148 0.92951673 0.067729354 )( 0.047466528 0.88384086 0.06869255 )( 0.3205133 0.099020205 0.5804665 )( 0.0070166653 0.57714355 0.41583976 )( 0.13247353 0.27810916 0.58941734 )( 0.1947721 0.5606408 0.24458708 )( 0.022709828 0.03542921 0.941861 )( 0.74037015 0.20844518 0.05118464 )( 0.618508 0.17823854 0.2032535 )( 0.16254482 0.30512354 0.5323316 )( 0.2327874 0.7279303 0.039282188 )( 0.15017954 0.15396455 0.6958559 )( 0.06686677 0.42608327 0.5070499 )( 0.9450757 0.031794168 0.023130117 )( 0.10598859 0.6395532 0.25445822 )( 0.45726874 0.46834975 0.07438156 )( 0.21674037 0.25401595 0.52924365 )( 0.21556345 0.7758703 0.00856621 )( 0.3691895 0.41556904 0.21524145 )( 0.23216525 0.38339671 0.38443804 )( 0.41491166 0.22084443 0.36424398 )( 0.6194312 0.35826203 0.022306701 )( 0.35717702 0.49270627 0.15011668 )( 0.13185541 0.74478817 0.12335642 )( 0.5552009 0.06401002 0.38078904 )( 0.5896458 0.34849858 0.061855644 )( 0.42863658 0.29578677 0.27557662 )( 0.021598758 0.59521455 0.3831867 )( 0.0022143607 0.28573787 0.71204776 )( 0.4015431 0.19903138 0.39942548 )( 0.06977139 0.90346754 0.026761055 )( 0.21005514 0.51901627 0.27092862 )( 0.023448642 0.895297 0.08125432 )( 0.21708563 0.20924121 0.5736732 )( 0.15435189 0.3092407 0.5364074 )( 0.35054004 0.29323316 0.35622677 )( 0.054102417 0.06952624 0.8763714 )( 0.3531021 0.42047095 0.22642696 )( 0.2870014 0.0072749895 0.7057236 )( 0.552946 0.3315779 0.11547611 )( 0.3670234 0.33315632 0.29982027 )( 0.8666947 0.004225931 0.12907942 )( 0.76950926 0.2179566 0.012534126 )( 0.3206233 0.023428671 0.655948 )( 0.33831328 0.08905787 0.57262886 )( 0.2476406 0.26847038 0.4838891 )( 0.09603807 0.8408909 0.06307102 )( 0.8477647 0.13450609 0.017729282 )( 0.3692739 0.096735984 0.5339901 )( 0.011443149 0.16912062 0.81943625 )( 0.6238096 0.3561264 0.020063987 )( 0.3623542 0.014054641 0.6235912 )( 0.052234467 0.35587367 0.5918918 )( 0.06502823 0.3307007 0.60427105 )( 0.30665958 0.37511802 0.31822237 )( 0.6830737 0.09125878 0.22566749 )( 0.5951915 0.31782115 0.0869874 )( 0.1066841 0.15516223 0.7381537 )( 0.37808016 0.19164878 0.43027106 )( 0.26384038 0.46237934 0.27378023 )( 0.7107818 0.051309 0.23790915 )( 0.4189541 0.21254575 0.36850017 )( 0.1324136 0.55018944 0.31739703 )( 0.11644947 0.8220585 0.061491992 )( 0.19994852 0.26470134 0.5353501 )( 0.099875666 0.8813747 0.018749613 )( 0.19437636 0.16759492 0.63802874 )( 0.09126633 0.11573609 0.79299766 )( 0.53511584 0.19460334 0.2702808 )( 0.03293347 0.038087785 0.92897874 )( 0.050525654 0.0117121525 0.9377622 )( 0.44210017 0.32880968 0.22909017 )( 0.4130829 0.36878985 0.21812728 )( 0.13487415 0.5572948 0.307831 )( 0.30731693 0.3148481 0.37783498 )( 0.4735615 0.21836272 0.3080758 )( 0.27649432 0.20711783 0.5163878 )( 0.26876813 0.7137968 0.017435104 )( 0.32346582 0.08850319 0.588031 )( 0.59060836 0.24800062 0.16139095 )( 0.057652168 0.5923509 0.3499969 )( 0.73770976 0.08536555 0.17692466 )( 0.057885792 0.60869944 0.33341473 )( 0.16011989 0.68957716 0.15030293 ) );
}


