net
{
node_size = (90 40);
}


node node0
{
	label = "node0";
	position = (55 35);
states = ( "state0" "state1" "state2");
}

node node1
{
	label = "node1";
	position = (55 275);
states = ( "state0" "state1" "state2");
}

node node2
{
	label = "node2";
	position = (84 155);
states = ( "state0" "state1");
}

node node3
{
	label = "node3";
	position = (85 395);
states = ( "state0" "state1");
}

node node4
{
	label = "node4";
	position = (175 261);
states = ( "state0" "state1");
}

potential ( node0 |  node1 node4 node2 )
{
 data = ( ( 0.48096117 0.15111059 0.36792827 )( 0.51344967 0.47836027 0.008190155 )( 0.06023411 0.43699518 0.5027708 )( 0.51273936 0.36325663 0.12400406 )( 0.69763726 0.108420946 0.19394185 )( 0.06509421 0.07014788 0.8647579 )( 0.76705515 0.18928343 0.043661393 )( 0.327876 0.1584415 0.5136825 )( 0.09076443 0.6761969 0.23303868 )( 0.13797519 0.53501326 0.32701156 )( 0.1596113 0.48576492 0.3546237 )( 0.12208399 0.44788045 0.4300356 ) );
}

potential ( node1 |  node3 )
{
 data = ( ( 0.091119714 0.26669544 0.6421848 )( 0.012953316 0.83998793 0.14705873 ) );
}

potential ( node2 |  node3 node1 )
{
 data = ( ( 0.24596107 0.754039 )( 0.4182244 0.58177567 )( 0.6541937 0.3458063 )( 0.03961818 0.96038187 )( 0.2103478 0.7896522 )( 0.8986137 0.101386316 ) );
}

potential ( node3 )
{
 data = ( 0.5140843 0.48591575 );
}

potential ( node4 |  node3 )
{
 data = ( ( 0.5026509 0.49734908 )( 0.4235835 0.5764165 ) );
}


