net { }

node ANAPHYLAXIS { 
 states = ( "TRUE" "FALSE" ); 
}

node ARTCO2 { 
 states = ( "LOW" "NORMAL" "HIGH" ); 
}

node BP { 
 states = ( "LOW" "NORMAL" "HIGH" ); 
}

node CATECHOL { 
 states = ( "NORMAL" "HIGH" ); 
}

node CO { 
 states = ( "LOW" "NORMAL" "HIGH" ); 
}

node CVP { 
 states = ( "LOW" "NORMAL" "HIGH" ); 
}

node DISCONNECT { 
 states = ( "TRUE" "FALSE" ); 
}

node ERRCAUTER { 
 states = ( "TRUE" "FALSE" ); 
}

node ERRLOWOUTPUT { 
 states = ( "TRUE" "FALSE" ); 
}

node EXPCO2 { 
 states = ( "ZERO" "LOW" "NORMAL" "HIGH" ); 
}

node FIO2 { 
 states = ( "LOW" "NORMAL" ); 
}

node HISTORY { 
 states = ( "TRUE" "FALSE" ); 
}

node HR { 
 states = ( "LOW" "NORMAL" "HIGH" ); 
}

node HRBP { 
 states = ( "LOW" "NORMAL" "HIGH" ); 
}

node HREKG { 
 states = ( "LOW" "NORMAL" "HIGH" ); 
}

node HRSAT { 
 states = ( "LOW" "NORMAL" "HIGH" ); 
}

node HYPOVOLEMIA { 
 states = ( "TRUE" "FALSE" ); 
}

node INSUFFANESTH { 
 states = ( "TRUE" "FALSE" ); 
}

node INTUBATION { 
 states = ( "NORMAL" "ESOPHAGEAL" "ONESIDED" ); 
}

node KINKEDTUBE { 
 states = ( "TRUE" "FALSE" ); 
}

node LVEDVOLUME { 
 states = ( "LOW" "NORMAL" "HIGH" ); 
}

node LVFAILURE { 
 states = ( "TRUE" "FALSE" ); 
}

node MINVOL { 
 states = ( "ZERO" "LOW" "NORMAL" "HIGH" ); 
}

node MINVOLSET { 
 states = ( "LOW" "NORMAL" "HIGH" ); 
}

node PAP { 
 states = ( "LOW" "NORMAL" "HIGH" ); 
}

node PCWP { 
 states = ( "LOW" "NORMAL" "HIGH" ); 
}

node PRESS { 
 states = ( "ZERO" "LOW" "NORMAL" "HIGH" ); 
}

node PULMEMBOLUS { 
 states = ( "TRUE" "FALSE" ); 
}

node PVSAT { 
 states = ( "LOW" "NORMAL" "HIGH" ); 
}

node SAO2 { 
 states = ( "LOW" "NORMAL" "HIGH" ); 
}

node SHUNT { 
 states = ( "NORMAL" "HIGH" ); 
}

node STROKEVOLUME { 
 states = ( "LOW" "NORMAL" "HIGH" ); 
}

node TPR { 
 states = ( "LOW" "NORMAL" "HIGH" ); 
}

node VENTALV { 
 states = ( "ZERO" "LOW" "NORMAL" "HIGH" ); 
}

node VENTLUNG { 
 states = ( "ZERO" "LOW" "NORMAL" "HIGH" ); 
}

node VENTMACH { 
 states = ( "ZERO" "LOW" "NORMAL" "HIGH" ); 
}

node VENTTUBE { 
 states = ( "ZERO" "LOW" "NORMAL" "HIGH" ); 
}

potential ( ANAPHYLAXIS ) { 
 data = (  0.0100000000 0.9900000000); 
}

potential ( ARTCO2 | VENTALV ) { 
 data = (( 0.0100000000 0.0100000000 0.9800000000)
( 0.0100000000 0.0100000000 0.9800000000)
( 0.0400000000 0.9200000000 0.0400000000)
( 0.9000000000 0.0900000000 0.0100000000)); 
}

potential ( BP | CO TPR ) { 
 data = ((( 0.9800000000 0.0100000000 0.0100000000)
( 0.9800000000 0.0100000000 0.0100000000)
( 0.3000000000 0.6000000000 0.1000000000)
)
(( 0.9800000000 0.0100000000 0.0100000000)
( 0.1000000000 0.8500000000 0.0500000000)
( 0.0500000000 0.4000000000 0.5500000000)
)
(( 0.9000000000 0.0900000000 0.0100000000)
( 0.0500000000 0.2000000000 0.7500000000)
( 0.0100000000 0.0900000000 0.9000000000))); 
}

potential ( CATECHOL | ARTCO2 INSUFFANESTH SAO2 TPR ) { 
 data = ((((( 0.5000000000 0.9900000000)
( 0.5000000000 0.9900000000)
( 0.5000000000 0.7500000000)
)
(( 0.5000000000 0.9900000000)
( 0.5000000000 0.9895833333)
( 0.5000000000 0.7500000000)
)
(( 0.5000000000 0.9900000000)
( 0.5000000000 0.9895833333)
( 0.4896907216 0.1428571429)
)
)
((( 0.5000000000 0.9900000000)
( 0.5000000000 0.9895833333)
( 0.5000000000 0.7500000000)
)
(( 0.5000000000 0.9900000000)
( 0.5000000000 0.9895833333)
( 0.4896907216 0.1428571429)
)
(( 0.5000000000 0.9895833333)
( 0.5000000000 0.9895833333)
( 0.4896907216 0.1428571429)
)
)
)
(((( 0.5000000000 0.5000000000)
( 0.5000000000 0.5000000000)
( 0.5000000000 0.2500000000)
)
(( 0.5000000000 0.5000000000)
( 0.5000000000 0.4896907216)
( 0.5000000000 0.2500000000)
)
(( 0.5000000000 0.5000000000)
( 0.5000000000 0.4896907216)
( 0.5103092784 0.0140845070)
)
)
((( 0.5000000000 0.5000000000)
( 0.5000000000 0.4896907216)
( 0.5000000000 0.2500000000)
)
(( 0.5000000000 0.5000000000)
( 0.5000000000 0.4896907216)
( 0.5103092784 0.0140845070)
)
(( 0.5000000000 0.4896907216)
( 0.5000000000 0.4896907216)
( 0.5103092784 0.0140845070)
)
)
)
(((( 0.0100000000 0.5000000000)
( 0.0100000000 0.5000000000)
( 0.2500000000 0.7500000000)
)
(( 0.0100000000 0.5000000000)
( 0.0104166667 0.5103092784)
( 0.2500000000 0.7500000000)
)
(( 0.0100000000 0.5000000000)
( 0.0104166667 0.5103092784)
( 0.8571428571 0.9859154930)
)
)
((( 0.0100000000 0.5000000000)
( 0.0104166667 0.5103092784)
( 0.2500000000 0.7500000000)
)
(( 0.0100000000 0.5000000000)
( 0.0104166667 0.5103092784)
( 0.8571428571 0.9859154930)
)
(( 0.0104166667 0.5103092784)
( 0.0104166667 0.5103092784)
( 0.8571428571 0.9859154930))))); 
}

potential ( CO | HR STROKEVOLUME ) { 
 data = ((( 0.9800000000 0.0100000000 0.0100000000)
( 0.9500000000 0.0400000000 0.0100000000)
( 0.3000000000 0.6900000000 0.0100000000)
)
(( 0.9500000000 0.0400000000 0.0100000000)
( 0.0400000000 0.9500000000 0.0100000000)
( 0.0100000000 0.3000000000 0.6900000000)
)
(( 0.8000000000 0.1900000000 0.0100000000)
( 0.0100000000 0.0400000000 0.9500000000)
( 0.0100000000 0.0100000000 0.9800000000))); 
}

potential ( CVP | LVEDVOLUME ) { 
 data = (( 0.9500000000 0.0400000000 0.0100000000)
( 0.0400000000 0.9500000000 0.0100000000)
( 0.0100000000 0.2900000000 0.7000000000)); 
}

potential ( DISCONNECT ) { 
 data = (  0.1000000000 0.9000000000); 
}

potential ( ERRCAUTER ) { 
 data = (  0.1000000000 0.9000000000); 
}

potential ( ERRLOWOUTPUT ) { 
 data = (  0.0500000000 0.9500000000); 
}

potential ( EXPCO2 | ARTCO2 VENTLUNG ) { 
 data = ((( 0.9700000000 0.0100000000 0.0051020408 0.2500000000)
( 0.0051020408 0.4948979592 0.2500000000 0.0100000000)
( 0.0100000000 0.0100000000 0.4948979592 0.2500000000)
( 0.2500000000 0.2500000000 0.2500000000 0.3321917808)
)
(( 0.0100000000 0.4948979592 0.0051020408 0.2500000000)
( 0.4948979592 0.2500000000 0.2500000000 0.0100000000)
( 0.0100000000 0.0051020408 0.4948979592 0.2500000000)
( 0.2500000000 0.2500000000 0.2500000000 0.3321917808)
)
(( 0.0100000000 0.4948979592 0.2500000000 0.2500000000)
( 0.0051020408 0.2500000000 0.9700000000 0.0100000000)
( 0.9700000000 0.0051020408 0.2500000000 0.2500000000)
( 0.2500000000 0.2500000000 0.0034246575 0.3321917808))); 
}

potential ( FIO2 ) { 
 data = (  0.0500000000 0.9500000000); 
}

potential ( HISTORY | LVFAILURE ) { 
 data = (( 0.9000000000 0.1000000000)
( 0.0100000000 0.9900000000)); 
}

potential ( HR | CATECHOL ) { 
 data = (( 0.0520833333 0.9375000000 0.0480769231)
( 0.0104166667 0.0865384615 0.8653846154)); 
}

potential ( HRBP | ERRLOWOUTPUT HR ) { 
 data = ((( 0.5833333333 0.0100000000 0.0312500000)
( 0.1785714286 0.4000000000 0.9375000000)
( 0.0100000000 0.9800000000 0.0100000000)
)
(( 0.2380952381 0.5900000000 0.0312500000)
( 0.9800000000 0.0100000000 0.0100000000)
( 0.0100000000 0.0100000000 0.9800000000))); 
}

potential ( HREKG | ERRCAUTER HR ) { 
 data = ((( 0.3333333333 0.3333333333 0.3333333333)
( 0.3333333333 0.3333333333 0.3333333333)
( 0.0100000000 0.9800000000 0.0100000000)
)
(( 0.3333333333 0.3333333333 0.3333333333)
( 0.9800000000 0.0100000000 0.0100000000)
( 0.0100000000 0.0100000000 0.9800000000))); 
}

potential ( HRSAT | ERRCAUTER HR ) { 
 data = ((( 0.3333333333 0.3333333333 0.3333333333)
( 0.3333333333 0.3333333333 0.3333333333)
( 0.0100000000 0.9800000000 0.0100000000)
)
(( 0.3333333333 0.3333333333 0.3333333333)
( 0.9800000000 0.0100000000 0.0100000000)
( 0.0100000000 0.0100000000 0.9800000000))); 
}

potential ( HYPOVOLEMIA ) { 
 data = (  0.2000000000 0.8000000000); 
}

potential ( INSUFFANESTH ) { 
 data = (  0.1000000000 0.9000000000); 
}

potential ( INTUBATION ) { 
 data = (  0.9200000000 0.0300000000 0.0500000000); 
}

potential ( KINKEDTUBE ) { 
 data = (  0.0400000000 0.9600000000); 
}

potential ( LVEDVOLUME | HYPOVOLEMIA LVFAILURE ) { 
 data = ((( 0.4822335025 0.0203045685 0.3333333333)
( 0.0666666667 0.6000000000 0.4864864865)
)
(( 0.4974619289 0.3333333333 0.3333333333)
( 0.3333333333 0.4864864865 0.0270270270))); 
}

potential ( LVFAILURE ) { 
 data = (  0.0500000000 0.9500000000); 
}

potential ( MINVOL | INTUBATION VENTLUNG ) { 
 data = ((( 0.9700000000 0.0100000000 0.0100000000 0.0100000000)
( 0.0062893082 0.0062893082 0.0243902439 0.9700000000)
( 0.2040816327 0.1959183673 0.0196078431 0.2500000000)
( 0.0100000000 0.9700000000 0.0100000000 0.0100000000)
)
(( 0.0100000000 0.9700000000 0.0100000000 0.0100000000)
( 0.6100628931 0.0243902439 0.0243902439 0.0100000000)
( 0.2040816327 0.9411764706 0.0196078431 0.2500000000)
( 0.0100000000 0.0100000000 0.9700000000 0.0100000000)
)
(( 0.0100000000 0.0100000000 0.9700000000 0.0100000000)
( 0.3773584906 0.9268292683 0.0100000000 0.0100000000)
( 0.3959183673 0.0196078431 0.2500000000 0.2500000000)
( 0.0100000000 0.0100000000 0.0100000000 0.9700000000))); 
}

potential ( MINVOLSET ) { 
 data = (  0.0500000000 0.9000000000 0.0500000000); 
}

potential ( PAP | PULMEMBOLUS ) { 
 data = (( 0.0100000000 0.1900000000 0.8000000000)
( 0.0500000000 0.9000000000 0.0500000000)); 
}

potential ( PCWP | LVEDVOLUME ) { 
 data = (( 0.9500000000 0.0388349515 0.0103092784)
( 0.0400000000 0.9223300971 0.0103092784)
( 0.0100000000 0.0388349515 0.9793814433)); 
}

potential ( PRESS | INTUBATION KINKEDTUBE VENTTUBE ) { 
 data = (((( 0.9700000000 0.0072463768 0.0169491525 0.0370370370)
( 0.0480769231 0.5952380952 0.3086419753 0.3982300885)
( 0.9700000000 0.0042553191 0.0100000000 0.2500000000)
( 0.1449275362 0.5102040816 0.1818181818 0.0243902439)
)
(( 0.0100000000 0.0114942529 0.0169491525 0.5132275132)
( 0.0096153846 0.9062500000 0.3703703704 0.1754385965)
( 0.0100000000 0.0163934426 0.0100000000 0.9700000000)
( 0.0072463768 0.9677419355 0.3636363636 0.0062893082)
)
)
((( 0.0100000000 0.2173913043 0.8305084746 0.7407407407)
( 0.0096153846 0.3571428571 0.3086419753 0.5221238938)
( 0.0100000000 0.4127659574 0.0100000000 0.2500000000)
( 0.1449275362 0.4761904762 0.4090909091 0.0243902439)
)
(( 0.7028985507 0.0114942529 0.0370370370 0.0052910053)
( 0.0238095238 0.0312500000 0.0707964602 0.3947368421)
( 0.4127659574 0.0163934426 0.2500000000 0.0100000000)
( 0.0068027211 0.0107526882 0.9268292683 0.3773584906)
)
)
((( 0.0100000000 0.0114942529 0.1355932203 0.4761904762)
( 0.9326923077 0.0312500000 0.0123456790 0.0043859649)
( 0.0100000000 0.0163934426 0.9700000000 0.0100000000)
( 0.7028985507 0.0107526882 0.0454545455 0.0062893082)
)
(( 0.0724637681 0.9655172414 0.1851851852 0.0052910053)
( 0.0238095238 0.0312500000 0.0088495575 0.4254385965)
( 0.1702127660 0.9508196721 0.2500000000 0.0100000000)
( 0.0068027211 0.0107526882 0.0243902439 0.6100628931)))); 
}

potential ( PULMEMBOLUS ) { 
 data = (  0.0100000000 0.9900000000); 
}

potential ( PVSAT | FIO2 VENTALV ) { 
 data = ((( 0.4863813230 0.0321011673 0.5507246377)
( 0.4896907216 0.0206185567 0.1666666667)
( 0.5045408678 0.0161453078 0.4845360825)
( 0.0103092784 0.9793814433 0.0388349515)
)
(( 0.4815175097 0.0724637681 0.3768115942)
( 0.4896907216 0.6666666667 0.1666666667)
( 0.4793138244 0.4123711340 0.1030927835)
( 0.0103092784 0.0097087379 0.9514563107))); 
}

potential ( SAO2 | PVSAT SHUNT ) { 
 data = ((( 0.9800000000 0.0100000000 0.0100000000)
( 0.3698113208 0.0312500000 0.3333333333)
)
(( 0.0100000000 0.9800000000 0.0100000000)
( 0.3698113208 0.0312500000 0.3333333333)
)
(( 0.0100000000 0.0100000000 0.9800000000)
( 0.2603773585 0.9375000000 0.3333333333))); 
}

potential ( SHUNT | INTUBATION PULMEMBOLUS ) { 
 data = ((( 0.5000000000 0.5000000000)
( 0.9895833333 0.0480769231)
)
(( 0.5000000000 0.5000000000)
( 0.9500000000 0.0500000000)
)
(( 0.0104166667 0.9519230769)
( 0.0500000000 0.9500000000))); 
}

potential ( STROKEVOLUME | HYPOVOLEMIA LVFAILURE ) { 
 data = ((( 0.4032921811 0.1000000000 0.0071428571)
( 0.2057613169 0.3500000000 0.1428571429)
)
(( 0.3909465021 0.4000000000 0.1428571429)
( 0.5000000000 0.6428571429 0.7142857143))); 
}

potential ( TPR | ANAPHYLAXIS ) { 
 data = (( 0.7596899225 0.0077519380 0.0140845070)
( 0.2325581395 0.5633802817 0.4225352113)); 
}

potential ( VENTALV | INTUBATION VENTLUNG ) { 
 data = ((( 0.9700000000 0.0100000000 0.0100000000 0.0100000000)
( 0.0100000000 0.0100000000 0.0100000000 0.9700000000)
( 0.0100000000 0.0100000000 0.9700000000 0.0100000000)
( 0.0300000000 0.9500000000 0.0053475936 0.0769230769)
)
(( 0.0100000000 0.9700000000 0.0100000000 0.0100000000)
( 0.9700000000 0.0100000000 0.0100000000 0.0100000000)
( 0.0100000000 0.0100000000 0.0100000000 0.9700000000)
( 0.0100000000 0.5026737968 0.0213903743 0.0769230769)
)
(( 0.0100000000 0.0100000000 0.9700000000 0.0100000000)
( 0.0100000000 0.9700000000 0.0100000000 0.0100000000)
( 0.9700000000 0.0100000000 0.0100000000 0.0100000000)
( 0.0100000000 0.4705882353 0.7692307692 0.0769230769))); 
}

potential ( VENTLUNG | INTUBATION KINKEDTUBE VENTTUBE ) { 
 data = (((( 0.3702290076 0.0050505051 0.2500000000 0.2500000000)
( 0.2512953368 0.0121951220 0.2500000000 0.2500000000)
( 0.9700000000 0.0034246575 0.0100000000 0.2500000000)
( 0.3321917808 0.2500000000 0.2500000000 0.0100000000)
)
(( 0.1145038168 0.5312500000 0.2500000000 0.2500000000)
( 0.2461139896 0.0250000000 0.2500000000 0.2500000000)
( 0.0100000000 0.2500000000 0.0100000000 0.9700000000)
( 0.0034246575 0.9700000000 0.2500000000 0.0100000000)
)
)
((( 0.3625954198 0.0151515152 0.2500000000 0.2500000000)
( 0.2512953368 0.0121951220 0.2500000000 0.2500000000)
( 0.0100000000 0.3321917808 0.0100000000 0.2500000000)
( 0.3321917808 0.2500000000 0.2500000000 0.0100000000)
)
(( 0.4898989899 0.0078125000 0.2500000000 0.2500000000)
( 0.6097560976 0.4000000000 0.2500000000 0.2500000000)
( 0.3321917808 0.2500000000 0.2500000000 0.0100000000)
( 0.2500000000 0.0100000000 0.9700000000 0.0100000000)
)
)
((( 0.1526717557 0.4531250000 0.2500000000 0.2500000000)
( 0.2512953368 0.0083333333 0.2500000000 0.2500000000)
( 0.0100000000 0.2500000000 0.9700000000 0.0100000000)
( 0.3321917808 0.0100000000 0.2500000000 0.0100000000)
)
(( 0.4898989899 0.0078125000 0.2500000000 0.2500000000)
( 0.3658536585 0.5666666667 0.2500000000 0.2500000000)
( 0.3321917808 0.2500000000 0.2500000000 0.0100000000)
( 0.2500000000 0.0100000000 0.0100000000 0.9700000000)))); 
}

potential ( VENTMACH | MINVOLSET ) { 
 data = (( 0.0462962963 0.8611111111 0.0104166667 0.0104166667)
( 0.0462962963 0.0104166667 0.9687500000 0.0104166667)
( 0.0462962963 0.0104166667 0.0104166667 0.9687500000)); 
}

potential ( VENTTUBE | DISCONNECT VENTMACH ) { 
 data = ((( 0.2500000000 0.2500000000 0.2500000000 0.2500000000)
( 0.2500000000 0.2500000000 0.2500000000 0.2500000000)
( 0.9700000000 0.0100000000 0.0100000000 0.0100000000)
( 0.0100000000 0.0100000000 0.9700000000 0.0100000000)
)
(( 0.2500000000 0.2500000000 0.2500000000 0.2500000000)
( 0.2500000000 0.2500000000 0.2500000000 0.2500000000)
( 0.0100000000 0.9700000000 0.0100000000 0.0100000000)
( 0.0100000000 0.0100000000 0.0100000000 0.9700000000))); 
}

