net { }

node aar_mod { 
 states = ( "x_25" "x_20" "x_15" "x_10" "x_5" "x0" "x5" "x10" "x15" "x20" "x25" ); 
}

node aks_m2 { 
 states = ( "x_350" "x350_450" "x450_550" "x550_650" "x650_750" "x750_950" "x950_1150" "x_1150" ); 
}

node aks_vgt { 
 states = ( "x_550" "x550_600" "x600_650" "x650_700" "x700_750" "x750_850" "x850_950" "x950_1050" "x_1050" ); 
}

node antplnt { 
 states = ( "x_175" "x175_225" "x225_275" "x275_325" "x325_375" "x375_425" "x_425" ); 
}

node bgbyg { 
 states = ( "x_3_0" "x3_0_3_5" "x3_5_4_0" "x4_0_4_5" "x4_5_5_0" "x_5_0" ); 
}

node dg25 { 
 states = ( "x_22_5" "x11_5_27_5" "x27_5_32_5" "x32_5_37_5" "x37_5_47_5" "x47_5_57_5" "x_57_5" ); 
}

node dgv1059 { 
 states = ( "x_25" "x25_40" "x41_50" "x51_60" "x61_70" "x_70" ); 
}

node dgv5980 { 
 states = ( "x0_5" "x5_10" "x10_15" "x15_25" "x25_35" "x_35" ); 
}

node exptgens { 
 states = ( "x_30" "x30_40" "x40_50" "x50_60" "x60_70" "x_70" ); 
}

node forfrugt { 
 states = ( "Cereals" "Cer_rotation" "Beets" "Clovergrass" "Other" ); 
}

node frspdag { 
 states = ( "x_15" "x15_17" "x17_19" "x19_21" "x21_23" "x23_25" "x25_27" "x_27" ); 
}

node jordinf { 
 states = ( "x__80" "x_80__85" "x_94__90" "x90__93" "x93__95" "x_95__97" "x_97__98" "x_98__99" "x_99_1_00" ); 
}

node jordn { 
 states = ( "x0_15" "x15_30" "x30_45" "x45_60" "x60_75" "x75_90" "x90_105" "x105_120" "x_120" ); 
}

node jordtype { 
 states = ( "Jb_1_" "JB_2" "JB_3" "JB_4" "JB_5" "JB_6" "Jb_7" "JB_8" "JB_9" ); 
}

node keraks { 
 states = ( "x_13" "x13_15" "x15_17" "x17_19" "x19_21" "x21_23" "x_23" ); 
}

node komm { 
 states = ( "state0" "state1" "state2" "state3" "state4" ); 
}

node ksort { 
 states = ( "x_85" "x85_90" "x90_95" "x95_98" "x_98" ); 
}

node markgrm { 
 states = ( "x_75" "x75_80" "x80_85" "x85_90" "x90_93" "x94_95" "x95_97" "x97_98" "x98__99" "x99_100" ); 
}

node mod_nmin { 
 states = ( "x0_15" "x15_30" "x30_45" "x45_60" "x60_75" "x_75" ); 
}

node nedbarea { 
 states = ( "x1___375_" "x2__375_500_" "x3___500_" ); 
}

node ngodn { 
 states = ( "x_45" "x45_60" "x60_75" "x75_90" "x90_105" "x105_120" "x120_135" "x135_150" "x150_165" "x_165" ); 
}

node ngodnn { 
 states = ( "x_45" "x45_60" "x60_75" "x75_90" "x90_105" "x105_120" "x120_135" "x135_150" "x150_165" "x_165" ); 
}

node ngodnt { 
 states = ( "x_45" "x45_60" "x60_75" "x75_90" "x90_105" "x105_120" "x120_135" "x135_150" "x150_165" "x_165" ); 
}

node ngtilg { 
 states = ( "x_45" "x45_60" "x60_75" "x75_90" "x90_105" "x105_120" "x120_135" "x135_150" "x150_165" "x_165" ); 
}

node nmin { 
 states = ( "x0_15" "x15_30" "x30_45" "x45_60" "x60_75" "x_75" ); 
}

node nopt { 
 states = ( "x_120" "x120_135" "x135_150" "x150_165" "x165_180" "x_180" ); 
}

node nplac { 
 states = ( "Top_dressed" "worked_in_solil" "Placed" ); 
}

node nprot { 
 states = ( "x_40" "x40_60" "x60_80" "x80_100" "x100_120" "x120_140" "x140_160" "x_160" ); 
}

node ntilg { 
 states = ( "x_75" "x75_90" "x90_105" "x105_120" "x120_135" "x135_150" "x150_165" "x165_180" "x180_195" "x_195" ); 
}

node partigerm { 
 states = ( "x_80" "x80_85" "x85_90" "x90_93" "x93_95" "x95_97" "x97_98" "x98_99" "x99_100" ); 
}

node pesticid { 
 states = ( "x_" "x_2" ); 
}

node potnmin { 
 states = ( "x0_15" "x15_30" "x30_45" "x45_60" "x60_75" "x75_90" "x90_105" "x_105" ); 
}

node protein { 
 states = ( "x_9" "x9_0_9_5" "x9_5_10_0" "x10_0_10_5" "x10_5_11_0" "x11_0_11_5" "x11_5_12_0" "x_12_0" ); 
}

node rokap { 
 states = ( "x37_5_62_5" "x62_5_87_5" "x87_5_112_5" "x112_5_137_5" "x137_5_162_5" "x162_5_187_5" "x187_5_212_5" ); 
}

node s2225 { 
 states = ( "x0_1" "x1_5" "x5_10" "x10_15" ); 
}

node s2528 { 
 states = ( "x0_5" "x5_10" "x10_15" "x15_20" "x20_25" "x25_30" "x30_35" "x35_40" "x40_45" "x45_50" "x50_55" "x55_60" "x60_65" "x65_70" "x70_75" "x75_80" "x80_85" "x85_90" "x90_95" "x95_100" ); 
}

node saakern { 
 states = ( "x_175" "x175_225" "x225_275" "x275_325" "x325_375" "x375_424" "x_450" ); 
}

node saamng { 
 states = ( "x50_70" "x70_90" "x90_110" "x110_130" "x130_150" "x150_170" "x170_190" "x190_210" "x210_230" "x230_250" ); 
}

node saatid { 
 states = ( "x_26_3" "x26_3_10_4" "x11_4_20_4" "x21_4_26_4" "x_26_4" ); 
}

node slt22 { 
 states = ( "x0_1" "x1_2" "x2_3" "x3_5" ); 
}

node sort { 
 states = ( "Abelone" "Alexis" "Alis" "Amber" "Ariel" "Baracuda" "Baronesse" "Bartok" "Blenheim" "Brewster" "Caminant" "Canut" "Caruso" "Chariot" "Collie" "Cooper" "Cork" "Delibes" "Derkado" "Digger" "Etna" "Evelyn" "Give" "Goldie" "G_363ta" "Heron" "Jarek" "Jill" "Korinna" "Krona" "Lamba" "Lenka" "Limbo" "Loma" "Lysimax" "Maresi" "Marielle" "Marina" "Maud" "Meltan" "Mentor" "Mie" "Miralix" "Nevada" "Optic" "Peel" "Polygena" "Portia" "Princesse" "Prisma" "Ragtime" "Reggae" "Rima" "Saxo" "Segu" "Sehila" "Selim" "Semal" "Senor" "Shamu" "Teal" "Texane" "Tofta" "Trebon" "Vintage" "x_321rja" "andre" ); 
}

node sorttkv { 
 states = ( "x1" "x2" "x3" "x4" "x5" "x6" "x7" "x8" "x9" ); 
}

node spndx { 
 states = ( "x_7" "x7_8" "x8_9" "x9_10" ); 
}

node srtprot { 
 states = ( "x1" "x2" "x3" "x4" "x5" "x6" "x7" "x8" "x9" ); 
}

node srtsize { 
 states = ( "x__1" "x_1" "x0" "x1" "x2" "x3" "x_3" ); 
}

node tkv { 
 states = ( "x_35" "x35_40" "x40_42_5" "x42_5_45" "x45_47_5" "x47_5_50" "x50_55" "x_55" ); 
}

node tkvs { 
 states = ( "x30_35" "x35_40" "x40_42" "x42_44" "x44_46" "x46_48" "x48_50" "x50_55" "x55_60" ); 
}

node udb { 
 states = ( "x_30" "x30_40" "x40_50" "x50_55" "x55_60" "x60_65" "x65_70" "x70_80" "x_80" ); 
}

potential ( aar_mod | jordtype komm ) { 
 data = ((( 0.0909090909 0.0909090909 0.0909090909 0.0909090909 0.0909090909 0.0909090909 0.0909090909 0.0909090909 0.0909090909 0.0909090909 0.0909090909)
( 0.0909090909 0.0909090909 0.0909090909 0.0909090909 0.0909090909 0.0909090909 0.0909090909 0.0909090909 0.0909090909 0.0909090909 0.0909090909)
( 0.0909090909 0.0909090909 0.0909090909 0.0909090909 0.0909090909 0.0909090909 0.0909090909 0.0909090909 0.0909090909 0.0909090909 0.0909090909)
( 0.0909090909 0.0909090909 0.0909090909 0.0909090909 0.0909090909 0.0909090909 0.0909090909 0.0909090909 0.0909090909 0.0909090909 0.0909090909)
( 0.0909090909 0.0909090909 0.0909090909 0.0909090909 0.0909090909 0.0909090909 0.0909090909 0.0909090909 0.0909090909 0.0909090909 0.0909090909)
)
(( 0.0909090909 0.0909090909 0.0909090909 0.0909090909 0.0909090909 0.0909090909 0.0909090909 0.0909090909 0.0909090909 0.0909090909 0.0909090909)
( 0.0909090909 0.0909090909 0.0909090909 0.0909090909 0.0909090909 0.0909090909 0.0909090909 0.0909090909 0.0909090909 0.0909090909 0.0909090909)
( 0.0909090909 0.0909090909 0.0909090909 0.0909090909 0.0909090909 0.0909090909 0.0909090909 0.0909090909 0.0909090909 0.0909090909 0.0909090909)
( 0.0909090909 0.0909090909 0.0909090909 0.0909090909 0.0909090909 0.0909090909 0.0909090909 0.0909090909 0.0909090909 0.0909090909 0.0909090909)
( 0.0909090909 0.0909090909 0.0909090909 0.0909090909 0.0909090909 0.0909090909 0.0909090909 0.0909090909 0.0909090909 0.0909090909 0.0909090909)
)
(( 0.0909090909 0.0909090909 0.0909090909 0.0909090909 0.0909090909 0.0909090909 0.0909090909 0.0909090909 0.0909090909 0.0909090909 0.0909090909)
( 0.0909090909 0.0909090909 0.0909090909 0.0909090909 0.0909090909 0.0909090909 0.0909090909 0.0909090909 0.0909090909 0.0909090909 0.0909090909)
( 0.0909090909 0.0909090909 0.0909090909 0.0909090909 0.0909090909 0.0909090909 0.0909090909 0.0909090909 0.0909090909 0.0909090909 0.0909090909)
( 0.0909090909 0.0909090909 0.0909090909 0.0909090909 0.0909090909 0.0909090909 0.0909090909 0.0909090909 0.0909090909 0.0909090909 0.0909090909)
( 0.0909090909 0.0909090909 0.0909090909 0.0909090909 0.0909090909 0.0909090909 0.0909090909 0.0909090909 0.0909090909 0.0909090909 0.0909090909)
)
(( 0.0909090909 0.0909090909 0.0909090909 0.0909090909 0.0909090909 0.0909090909 0.0909090909 0.0909090909 0.0909090909 0.0909090909 0.0909090909)
( 0.0909090909 0.0909090909 0.0909090909 0.0909090909 0.0909090909 0.0909090909 0.0909090909 0.0909090909 0.0909090909 0.0909090909 0.0909090909)
( 0.0909090909 0.0909090909 0.0909090909 0.0909090909 0.0909090909 0.0909090909 0.0909090909 0.0909090909 0.0909090909 0.0909090909 0.0909090909)
( 0.0909090909 0.0909090909 0.0909090909 0.0909090909 0.0909090909 0.0909090909 0.0909090909 0.0909090909 0.0909090909 0.0909090909 0.0909090909)
( 0.0909090909 0.0909090909 0.0909090909 0.0909090909 0.0909090909 0.0909090909 0.0909090909 0.0909090909 0.0909090909 0.0909090909 0.0909090909)
)
(( 0.0909090909 0.0909090909 0.0909090909 0.0909090909 0.0909090909 0.0909090909 0.0909090909 0.0909090909 0.0909090909 0.0909090909 0.0909090909)
( 0.0909090909 0.0909090909 0.0909090909 0.0909090909 0.0909090909 0.0909090909 0.0909090909 0.0909090909 0.0909090909 0.0909090909 0.0909090909)
( 0.0909090909 0.0909090909 0.0909090909 0.0909090909 0.0909090909 0.0909090909 0.0909090909 0.0909090909 0.0909090909 0.0909090909 0.0909090909)
( 0.0909090909 0.0909090909 0.0909090909 0.0909090909 0.0909090909 0.0909090909 0.0909090909 0.0909090909 0.0909090909 0.0909090909 0.0909090909)
( 0.0909090909 0.0909090909 0.0909090909 0.0909090909 0.0909090909 0.0909090909 0.0909090909 0.0909090909 0.0909090909 0.0909090909 0.0909090909)
)
(( 0.0909090909 0.0909090909 0.0909090909 0.0909090909 0.0909090909 0.0909090909 0.0909090909 0.0909090909 0.0909090909 0.0909090909 0.0909090909)
( 0.0909090909 0.0909090909 0.0909090909 0.0909090909 0.0909090909 0.0909090909 0.0909090909 0.0909090909 0.0909090909 0.0909090909 0.0909090909)
( 0.0909090909 0.0909090909 0.0909090909 0.0909090909 0.0909090909 0.0909090909 0.0909090909 0.0909090909 0.0909090909 0.0909090909 0.0909090909)
( 0.0909090909 0.0909090909 0.0909090909 0.0909090909 0.0909090909 0.0909090909 0.0909090909 0.0909090909 0.0909090909 0.0909090909 0.0909090909)
( 0.0909090909 0.0909090909 0.0909090909 0.0909090909 0.0909090909 0.0909090909 0.0909090909 0.0909090909 0.0909090909 0.0909090909 0.0909090909)
)
(( 0.0909090909 0.0909090909 0.0909090909 0.0909090909 0.0909090909 0.0909090909 0.0909090909 0.0909090909 0.0909090909 0.0909090909 0.0909090909)
( 0.0909090909 0.0909090909 0.0909090909 0.0909090909 0.0909090909 0.0909090909 0.0909090909 0.0909090909 0.0909090909 0.0909090909 0.0909090909)
( 0.0909090909 0.0909090909 0.0909090909 0.0909090909 0.0909090909 0.0909090909 0.0909090909 0.0909090909 0.0909090909 0.0909090909 0.0909090909)
( 0.0909090909 0.0909090909 0.0909090909 0.0909090909 0.0909090909 0.0909090909 0.0909090909 0.0909090909 0.0909090909 0.0909090909 0.0909090909)
( 0.0909090909 0.0909090909 0.0909090909 0.0909090909 0.0909090909 0.0909090909 0.0909090909 0.0909090909 0.0909090909 0.0909090909 0.0909090909)
)
(( 0.0909090909 0.0909090909 0.0909090909 0.0909090909 0.0909090909 0.0909090909 0.0909090909 0.0909090909 0.0909090909 0.0909090909 0.0909090909)
( 0.0909090909 0.0909090909 0.0909090909 0.0909090909 0.0909090909 0.0909090909 0.0909090909 0.0909090909 0.0909090909 0.0909090909 0.0909090909)
( 0.0909090909 0.0909090909 0.0909090909 0.0909090909 0.0909090909 0.0909090909 0.0909090909 0.0909090909 0.0909090909 0.0909090909 0.0909090909)
( 0.0909090909 0.0909090909 0.0909090909 0.0909090909 0.0909090909 0.0909090909 0.0909090909 0.0909090909 0.0909090909 0.0909090909 0.0909090909)
( 0.0909090909 0.0909090909 0.0909090909 0.0909090909 0.0909090909 0.0909090909 0.0909090909 0.0909090909 0.0909090909 0.0909090909 0.0909090909)
)
(( 0.0909090909 0.0909090909 0.0909090909 0.0909090909 0.0909090909 0.0909090909 0.0909090909 0.0909090909 0.0909090909 0.0909090909 0.0909090909)
( 0.0909090909 0.0909090909 0.0909090909 0.0909090909 0.0909090909 0.0909090909 0.0909090909 0.0909090909 0.0909090909 0.0909090909 0.0909090909)
( 0.0909090909 0.0909090909 0.0909090909 0.0909090909 0.0909090909 0.0909090909 0.0909090909 0.0909090909 0.0909090909 0.0909090909 0.0909090909)
( 0.0909090909 0.0909090909 0.0909090909 0.0909090909 0.0909090909 0.0909090909 0.0909090909 0.0909090909 0.0909090909 0.0909090909 0.0909090909)
( 0.0909090909 0.0909090909 0.0909090909 0.0909090909 0.0909090909 0.0909090909 0.0909090909 0.0909090909 0.0909090909 0.0909090909 0.0909090909))); 
}

potential ( aks_m2 | antplnt dgv1059 ntilg sorttkv ) { 
 data = ((((( 0.5466676808 0.2714052459 0.0521595982 0.0227969889 0.0245506034 0.0306882542 0.0271810252 0.0245506034)
( 0.5715578044 0.2039022962 0.0310022181 0.0680216118 0.0348205870 0.0121467164 0.0267227761 0.0518259900)
( 0.6517415344 0.1637301924 0.0196610073 0.0125533451 0.0510502702 0.0041844484 0.0259435799 0.0711356224)
( 0.6668104064 0.1151424342 0.0108714765 0.0420701578 0.0531830297 0.0150817547 0.0722336672 0.0246070735)
( 0.6829610673 0.0788711394 0.0553163907 0.0683772052 0.0437921426 0.0207436465 0.0422555762 0.0076828320)
( 0.7714329978 0.0577908561 0.0149949787 0.0183271962 0.0474840992 0.0024991631 0.0774740565 0.0099966525)
( 0.7631702898 0.0357886217 0.0192230523 0.0456547492 0.0496595517 0.0424509071 0.0128153682 0.0312374600)
( 0.7008401042 0.0198385024 0.0714543099 0.0216528212 0.0404185996 0.0512450102 0.0714543099 0.0230963426)
( 0.7914069037 0.0129567308 0.0169068464 0.0144915826 0.0201271981 0.0434747479 0.0652121218 0.0354238686)
)
(( 0.3080810231 0.3566646238 0.1310684775 0.0251578874 0.0742512394 0.0429007161 0.0594009915 0.0024750413)
( 0.3710355411 0.3215427102 0.0940845861 0.0148639184 0.0265166682 0.0449979825 0.0642828321 0.0626757613)
( 0.4514512903 0.2893834585 0.0672148054 0.0087493725 0.0605217832 0.0359859251 0.0801504696 0.0065428955)
( 0.5765861003 0.2692777867 0.0495658527 0.0162264197 0.0027044033 0.0387631138 0.0180293552 0.0288469684)
( 0.6077975397 0.2032457403 0.0295170138 0.0210899082 0.0379618348 0.0497721834 0.0253078899 0.0253078899)
( 0.6142863674 0.1440449172 0.0165310151 0.0380405080 0.0768573528 0.0504618983 0.0333824866 0.0263954545)
( 0.6846321798 0.1097987388 0.0099012052 0.0225460927 0.0330139215 0.0571704494 0.0636121902 0.0193252223)
( 0.6971155606 0.0743579611 0.0054411066 0.0629613767 0.0388650473 0.0450834549 0.0676251824 0.0085503104)
( 0.7366796283 0.0506556146 0.0110680543 0.0426910665 0.0648271750 0.0411099159 0.0387381900 0.0142303555)
)
(( 0.1507195151 0.3731259400 0.2556833114 0.0837232304 0.0181429833 0E-10 0.0309789231 0.0876260967)
( 0.2035629704 0.3856295529 0.2115697222 0.0572656814 0.0105306192 0.0470055530 0.0182799373 0.0661559635)
( 0.2675371074 0.3854509734 0.1689434486 0.0376873828 0.0311957973 0.0372616468 0.0407278465 0.0311957973)
( 0.3280920751 0.3564983154 0.1245697184 0.0228920877 0.0501336727 0.0342580097 0.0492981115 0.0342580097)
( 0.3698215208 0.3000627019 0.0834189617 0.0125857495 0.0529628314 0.0468222132 0.0606386040 0.0736874175)
( 0.4494082214 0.2688592542 0.0593187452 0.0495126081 0.0502985225 0.0275070045 0.0212196892 0.0738759549)
( 0.5644842461 0.2451670412 0.0428613663 0.0505915898 0.0120047840 0.0162922069 0.0034299383 0.0651688275)
( 0.6559108818 0.2030708614 0.0280189732 0.0427083907 0.0507162139 0.0151258884 0.0017795163 0.0026692744)
( 0.6142439158 0.1326529035 0.0144088482 0.0549073225 0.0205902459 0.0526195174 0.0724471616 0.0381300851)
)
(( 0.0666658837 0.2875021420 0.3140801963 0.1539054771 0.0472400633 0.0131565784 0.0688802513 0.0485694080)
( 0.0937509023 0.3121996066 0.2742193205 0.1112929952 0.0289610025 0.0819264568 0.0819264568 0.0157232594)
( 0.1408187633 0.3606860962 0.2543376927 0.0853551768 0.0188334297 0.0129600779 0.0535683220 0.0734404415)
( 0.2029586866 0.3981598412 0.2247880209 0.0623308678 0.0116362980 0.0234530038 0.0171387335 0.0595345481)
( 0.2552931853 0.3811443513 0.1720193895 0.0393284867 0.0427569065 0.0076962432 0.0555839784 0.0461774590)
( 0.3264493465 0.3680363383 0.1324622790 0.0249864231 0.0564874593 0.0213967649 0.0325230826 0.0376583062)
( 0.3849097702 0.3244274593 0.0928923178 0.0144044475 0.0499344925 0.0319253313 0.0794040290 0.0221021524)
( 0.4571981816 0.2846782540 0.0646847705 0.0082385395 0.0130537624 0.0562943505 0.0416088677 0.0742432738)
( 0.5048096851 0.2287504103 0.0411516908 0.0608044314 0.0366385676 0.0545680795 0.0413158316 0.0319613037)
)
(( 0.0360579385 0.2272027694 0.3415120979 0.2207840788 0.0861803608 0.0306775655 0.0151043119 0.0424808772)
( 0.0560789574 0.2735223751 0.3315256105 0.1777666390 0.0590111905 0.0177766630 0.0219961472 0.0623224172)
( 0.0836967852 0.3155136806 0.3077507592 0.1366988006 0.0385469203 0.0098151880 0.0356951623 0.0722827038)
( 0.1179293795 0.3428179637 0.2685978745 0.0987315735 0.0236544395 0.0797051766 0.0574220089 0.0111415838)
( 0.1652265208 0.3685625622 0.2315558431 0.0703363636 0.0142377851 0.0665131373 0.0230237783 0.0605440096)
( 0.2329246656 0.3966831545 0.1994084077 0.0500521304 0.0480169754 0.0266760974 0.0017784065 0.0444601624)
( 0.2724108668 0.3517841092 0.1411612688 0.0291754588 0.0479692521 0.0063959003 0.0775502909 0.0735528532)
( 0.3266149432 0.3169816377 0.1013026246 0.0172787860 0.0711171923 0.0275292357 0.0734112953 0.0657642853)
( 0.4245230449 0.3061850824 0.0777977621 0.0109146649 0.0090289723 0.0648444373 0.0344742578 0.0722317782)
)
(( 0.0219493518 0.1705903618 0.3064129505 0.2310827753 0.1031619533 0.0421427554 0.0517952906 0.0728645614)
( 0.0387669313 0.2339093881 0.3391872957 0.2123306866 0.0806165343 0.0279308734 0.0224194302 0.0448388603)
( 0.0616645446 0.2879547373 0.3364454929 0.1747162098 0.0563389703 0.0165373097 0.0495234503 0.0168192850)
( 0.0882470720 0.3183574649 0.2992841436 0.1287668929 0.0352460915 0.0641701247 0.0307664982 0.0351617122)
( 0.1352739926 0.3759562911 0.2837702552 0.1010625249 0.0234857103 0.0305159823 0.0129461743 0.0369890694)
( 0.1835359065 0.3913039365 0.2367568294 0.0696449176 0.0137315366 0.0448832792 0.0538599351 0.0062836591)
( 0.2574712099 0.4185898919 0.2025465199 0.0492072735 0.0393736935 0.0028124067 0.0234367223 0.0065622823)
( 0.2994167999 0.3686622128 0.1422862415 0.0285078523 0.0202463112 0.0725492819 0.0269950816 0.0413362187)
( 0.3713408781 0.3429699004 0.1054258901 0.0173751254 0.0713685439 0.0109151891 0.0512174256 0.0293870475)
)
(( 0.0206626616 0.1681230657 0.3137629711 0.2446750410 0.1125068269 0.0474239942 0.0163844894 0.0764609503)
( 0.0336823594 0.2127306907 0.3206028784 0.2076783368 0.0811922136 0.0288959188 0.0567225119 0.0584950904)
( 0.0583219091 0.2852889447 0.3465796210 0.1861704292 0.0618652764 0.0186745029 0.0038310504 0.0392682663)
( 0.0845385787 0.3195087703 0.3124488033 0.1391175632 0.0392823803 0.0100468761 0.0479811666 0.0470758616)
( 0.1205078097 0.3511514952 0.2758231269 0.1016097944 0.0243476756 0.0404289203 0.0079100061 0.0782211718)
( 0.1768623554 0.3956734207 0.2492193004 0.0758374056 0.0153872997 0.0659521653 0.0018320046 0.0192360482)
( 0.2281789465 0.3897911406 0.1963806553 0.0493572377 0.0061156676 0.0463043401 0.0760090111 0.0078630011)
( 0.2868215733 0.3715432158 0.1494442539 0.0309689638 0.0498015581 0.0590865943 0.0253228261 0.0270110146)
( 0.3943874301 0.3839333421 0.1229511868 0.0210006902 0.0018506512 0.0129545585 0.0555195362 0.0074026048)
)
(( 0.0275411698 0.1987507098 0.3356994132 0.2400151429 0.1023092940 0.0398447852 0.0378572781 0.0179822071)
( 0.0446668150 0.2501154359 0.3408536828 0.2022648228 0.0733209983 0.0241594094 0.0093650487 0.0552537872)
( 0.0659895154 0.2861898233 0.3141559681 0.1545636777 0.0475512684 0.0133214129 0.0397035451 0.0785247892)
( 0.1068028776 0.3574665709 0.3155625949 0.1285625387 0.0336372052 0.0285089570 0.0218568671 0.0076023885)
( 0.1376393437 0.3545616666 0.2512045553 0.0846422364 0.0187999339 0.0391389119 0.0442439874 0.0697693648)
( 0.2125108928 0.4194118785 0.2379931821 0.0662729690 0.0124558952 0.0418449635 0.0057061314 0.0038040876)
( 0.2422592087 0.3638375964 0.1649875809 0.0379422460 0.0065290040 0.0603932873 0.0644739148 0.0595771618)
( 0.2954806014 0.3352568408 0.1212747023 0.0229627952 0.0716342753 0.0583975070 0.0615120407 0.0334812373)
( 0.3795825897 0.3220332328 0.0926463592 0.0144278670 0.0575551125 0.0616082894 0.0243190616 0.0478274878)
)
(( 0.0492716786 0.2677681103 0.3557532506 0.2065695571 0.0734187115 0.0237559879 0.0078209014 0.0156418027)
( 0.0719444676 0.3028807166 0.3240247014 0.1559712122 0.0471391868 0.0129060686 0.0128158178 0.0723178290)
( 0.0980883212 0.3186409550 0.2740629435 0.1091910844 0.0280490859 0.0642791552 0.0375657400 0.0701227148)
( 0.1565335077 0.3909619557 0.2698436894 0.0889563936 0.0193343050 0.0055777611 0.0241702983 0.0446220891)
( 0.2242215424 0.4285961875 0.2369041939 0.0644782128 0.0119081384 0.0280817150 0.0029050050 0.0029050050)
( 0.2707032730 0.3935894795 0.1738088323 0.0389876354 0.0061897515 0.0344857584 0.0557077635 0.0265275064)
( 0.3422471880 0.3754358549 0.1322278724 0.0244963970 0.0588441264 0.0360090923 0.0149305992 0.0158088698)
( 0.4160980695 0.3409414992 0.0954879431 0.0145099968 0.0095593948 0.0364995074 0.0625705842 0.0243330050)
( 0.4492854680 0.2715452878 0.0604048093 0.0647605908 0.0402779284 0.0576527211 0.0268519523 0.0292212422)
)
(( 0.1114315672 0.3503039446 0.2932314455 0.1141449982 0.0286719211 0.0660334248 0.0226141866 0.0135685119)
( 0.1573476703 0.3801971326 0.2552867384 0.0821684588 0.0174731183 0.0627240143 0.0358422939 0.0089605735)
( 0.2170710331 0.4011703946 0.2156256996 0.0572713421 0.0103883349 0E-10 0.0858252623 0.0126479334)
( 0.2635302852 0.3701258668 0.1589349332 0.0348373336 0.0658606518 0.0066694331 0.0658606518 0.0341808446)
( 0.3046537135 0.3224448204 0.1103961069 0.0199199573 0.0425855251 0.0623573760 0.0722433015 0.0653991993)
( 0.4228602277 0.3338370205 0.0908347258 0.0135432579 0.0060402073 0.0302010366 0.0293381498 0.0733453745)
( 0.5065353685 0.2945257301 0.0635679588 0.0052401655 0.0209606621 0.0436680460 0.0558950989 0.0096069701)
( 0.5148043143 0.2169427615 0.0370974401 0.0587552401 0.0471588111 0.0556628590 0.0324700011 0.0371085727)
( 0.6062561486 0.1817709262 0.0245239999 0.0252648551 0.0366747897 0.0081499533 0.0497147150 0.0676446122)
)
)
((( 0.4335769366 0.3499828727 0.0968686577 0.0146199919 0.0188374561 0.0484391728 0.0188374561 0.0188374561)
( 0.4844330157 0.2882946615 0.0633521846 0.0675959333 0.0135191867 0.0143641358 0.0380227125 0.0304181700)
( 0.5173429469 0.2234319417 0.0388849962 0.0305810124 0.0439111973 0.0501842255 0.0564572537 0.0392064262)
( 0.5851905438 0.1800891024 0.0247196645 0.0229812075 0.0182264749 0.0736983551 0.0483397813 0.0467548704)
( 0.6730175685 0.1443968053 0.0156826081 0.0809479637 0.0125177264 0.0100141811 0.0083451509 0.0550779960)
( 0.7428550584 0.1083976026 0.0092125033 0.0284237628 0.0172265229 0.0577088518 0.0301464151 0.0060292830)
( 0.7011425631 0.0675231631 0.0294003425 0.0618954579 0.0386846612 0.0642165375 0.0116053984 0.0255318764)
( 0.6971538418 0.0429132008 0.0638692409 0.0215373022 0.0556999194 0.0735238937 0.0230226334 0.0222799678)
( 0.7710623682 0.0292585297 0.0304731160 0.0016038482 0.0697673971 0.0112269375 0.0376904329 0.0489173704)
)
(( 0.2320044814 0.4155541033 0.2177201008 0.0565773504 0.0099897302 0.0018672393 0.0550835590 0.0112034357)
( 0.2499497389 0.3399470077 0.1422908992 0.0304854204 0.0537633831 0.0652841080 0.0460828998 0.0721965430)
( 0.3524211867 0.3609142962 0.1203619552 0.0212756684 0.0326095974 0.0008581473 0.0429073649 0.0686517839)
( 0.4156144134 0.3170461239 0.0840363176 0.0122068564 0.0340531448 0.0747508057 0.0481727415 0.0141195966)
( 0.4186448492 0.2347474943 0.0493608051 0.0645571921 0.0652666118 0.0418557619 0.0603006739 0.0652666118)
( 0.5171120521 0.2098303614 0.0349079306 0.0352247079 0.0643233797 0.0689179069 0.0061260362 0.0635576252)
( 0.5758048562 0.1658385330 0.0218107880 0.0290897776 0.0581795551 0.0704278825 0.0283242571 0.0505243505)
( 0.6403556179 0.1280241663 0.0132249895 0.0258316934 0.0500978297 0.0704500730 0.0563600584 0.0156555718)
( 0.7676337437 0.1037890128 0.0220166513 0.0096873266 0.0739759483 0.0026419982 0.0070453284 0.0132099908)
)
(( 0.0823019865 0.3072492225 0.2973937326 0.1312336297 0.0367419582 0.0093367800 0.0734912656 0.0622514250)
( 0.1201533103 0.3457314606 0.2688161157 0.0981036705 0.0233416108 0.0017228004 0.0602980135 0.0818330183)
( 0.1778907243 0.3930840443 0.2449627882 0.0738791069 0.0148847341 0.0090760574 0.0816845162 0.0045380287)
( 0.2180314563 0.3676964215 0.1832716259 0.0456325736 0.0486075887 0.0222441507 0.0329542974 0.0815618861)
( 0.2829293809 0.3616854710 0.1439335372 0.0295438176 0.0288089265 0.0765494334 0.0041155609 0.0724338724)
( 0.3867843895 0.3713309837 0.1176974600 0.0199456749 0.0026959007 0.0629043486 0.0215672052 0.0170740375)
( 0.4443809791 0.3170247646 0.0798110272 0.0110967204 0.0332934904 0.0290250942 0.0597575469 0.0256103772)
( 0.4632750648 0.2421613261 0.0483258860 0.0737193184 0.0448395854 0.0683993676 0.0121598876 0.0471195643)
( 0.5289518015 0.1992532553 0.0314289184 0.0228920024 0.0518885387 0.0572300059 0.0671498736 0.0412056043)
)
(( 0.0322348918 0.2078929736 0.3188163273 0.2096592690 0.0830158858 0.0300270225 0.0803744801 0.0379791499)
( 0.0559471218 0.2794496784 0.3454996877 0.1885236917 0.0634766323 0.0194432928 0.0333619267 0.0142979686)
( 0.0848200720 0.3275388604 0.3260359577 0.1473783975 0.0421752074 0.0109899761 0.0178487546 0.0432127743)
( 0.1226265632 0.3650236240 0.2918714893 0.1091754150 0.0265337718 0.0267207061 0.0322491281 0.0257993025)
( 0.1756770360 0.4016008770 0.2574915364 0.0796664028 0.0164376165 0.0177487039 0.0065389962 0.0448388310)
( 0.2197506395 0.3838747457 0.1969317056 0.0502877639 0.0087831368 0.0757836610 0.0301412288 0.0344471186)
( 0.2838188302 0.3761813733 0.1541363785 0.0324632156 0.0784045479 0.0340889339 0.0119311269 0.0289755938)
( 0.3594663044 0.3583510152 0.1169337883 0.0202467895 0.0746460529 0E-10 0.0145860103 0.0557700395)
( 0.4420587742 0.3278530246 0.0850246607 0.0121587870 0.0338776822 0.0060806096 0.0399582919 0.0529881697)
)
(( 0.0141888345 0.1327123323 0.2791886837 0.2414650758 0.1214972056 0.0563305226 0.0815564020 0.0730609434)
( 0.0264692272 0.1928736696 0.3278111985 0.2356316520 0.1008792226 0.0395187413 0.0185099491 0.0583063397)
( 0.0448556787 0.2532914285 0.3472974786 0.2072904984 0.0754911529 0.0250046550 0.0124081307 0.0343609773)
( 0.0682111870 0.2978585933 0.3290566734 0.1628207495 0.0503968987 0.0141222079 0.0350747646 0.0424589256)
( 0.1005349253 0.3391583260 0.3013333045 0.1234290172 0.0323955925 0.0180962867 0.0343829448 0.0506696029)
( 0.1297771371 0.3368372884 0.2401930159 0.0814144961 0.0181461165 0.0704852690 0.0478003549 0.0753463221)
( 0.1982401712 0.3942438786 0.2251671956 0.0630682888 0.0118979875 0.0671140489 0.0143176638 0.0259507656)
( 0.2300971253 0.3484260950 0.1590216385 0.0367093173 0.0226526951 0.0648335757 0.0687392128 0.0695203402)
( 0.3196967799 0.3657310863 0.1331857951 0.0253485361 0.0203527569 0.0347692930 0.0712346490 0.0296811038)
)
(( 0.0095484536 0.1100389752 0.2760708241 0.2782030031 0.1600061257 0.0854725654 0.0547004956 0.0259595573)
( 0.0175204268 0.1575881016 0.3196759849 0.2679763647 0.1312595913 0.0590716031 0.0421214043 0.0047865232)
( 0.0297229252 0.2074888814 0.3400988552 0.2369260092 0.0986953541 0.0375347196 0.0133358764 0.0361973789)
( 0.0475253574 0.2570477582 0.3397736259 0.1964505933 0.0695606901 0.0224088129 0.0532262533 0.0140069088)
( 0.0717642805 0.3001626898 0.3195950832 0.1531091829 0.0460954447 0.0125632683 0.0686912509 0.0280187997)
( 0.1105200864 0.3566276312 0.3052814528 0.1211434336 0.0309381692 0.0121155549 0.0027958973 0.0605777746)
( 0.1483631789 0.3683288584 0.2529255607 0.0829679769 0.0180099086 0.0157383872 0.0297280646 0.0839380648)
( 0.2089770892 0.3969847792 0.2182968222 0.0591444592 0.0108431509 0.0430184540 0.0035848712 0.0591503742)
( 0.2530304069 0.3655796508 0.1606085892 0.0359007416 0.0805257775 0.0608051789 0.0205422902 0.0230073650)
)
(( 0.0742940916 0.0919503796 0.2395332152 0.2495206442 0.1477479170 0.0813851655 0.0619117430 0.0536568439)
( 0.0152698551 0.1432238821 0.3019935805 0.2617032399 0.1319094714 0.0612633946 0.0597975811 0.0248389952)
( 0.0259655069 0.1893204324 0.3225189272 0.2323229560 0.0996711035 0.0390849208 0.0346241382 0.0564920150)
( 0.0415330745 0.2349991052 0.3229462778 0.1931110472 0.0704642332 0.0233401679 0.0408271901 0.0727789041)
( 0.0638972136 0.2800175848 0.3100970895 0.1537010525 0.0476403715 0.0133879876 0.0678025076 0.0634561930)
( 0.0931682251 0.3153062084 0.2807682588 0.1153230562 0.0303260045 0.0522281189 0.0614943981 0.0513857299)
( 0.1398387437 0.3640538721 0.2601386153 0.0883192065 0.0197141086 0.0148965939 0.0359270795 0.0771117804)
( 0.2048982560 0.4087757326 0.2340368667 0.0656082731 0.0124349485 0.0269141471 0.0009280740 0.0464037020)
( 0.2503118442 0.3801978717 0.1740336376 0.0403123930 0.0502940163 0.0264256696 0.0733099220 0.0051146457)
)
(( 0.0114974289 0.1235502401 0.2914880951 0.2785770479 0.1529535009 0.0778432482 0.0169651162 0.0471253228)
( 0.0198447732 0.1654961787 0.3157626478 0.2509671556 0.1173149153 0.0503041926 0.0516938811 0.0286162556)
( 0.0336724645 0.2183580036 0.3364448181 0.2221823001 0.0883319220 0.0319935050 0.0326431694 0.0363738173)
( 0.0554336418 0.2785039595 0.3460547658 0.1895811468 0.0640206087 0.0196546131 0.0066787520 0.0400725122)
( 0.0826707129 0.3210764223 0.3210764223 0.1457590893 0.0418433888 0.0108996024 0.0193995374 0.0572748247)
( 0.1092443929 0.3271538525 0.2628486303 0.0987337582 0.0240834230 0.0480013242 0.0670363320 0.0628982868)
( 0.1524703961 0.3506737444 0.2259697836 0.0701510821 0.0145365455 0.0800326664 0.0359330339 0.0702327481)
( 0.2204584003 0.3874539021 0.1997686932 0.0512026785 0.0089539489 0.0399965088 0.0304321263 0.0617337419)
( 0.2727772251 0.3637578626 0.1497681210 0.0316991333 0.0419994595 0.0658815052 0.0502346477 0.0238820456)
)
(( 0.0212094322 0.1717130450 0.3196233647 0.2485856595 0.1140122753 0.0479759209 0.0287143299 0.0481659727)
( 0.0347770816 0.2186506856 0.3286116408 0.2122037592 0.0828112231 0.0294197766 0.0671933170 0.0263325161)
( 0.0578680759 0.2819770678 0.3415443694 0.1829499690 0.0607001187 0.0183138772 0.0132175218 0.0434290002)
( 0.0852396514 0.3210784314 0.3129992738 0.1389796659 0.0391249092 0.0099854757 0.0608206245 0.0317719680)
( 0.1146613413 0.3329172907 0.2606922949 0.0957730072 0.0228823432 0.0607422200 0.0441005159 0.0682309869)
( 0.1781763048 0.3970392605 0.2492631397 0.0756790078 0.0153378572 0.0358225301 0.0220446339 0.0266372660)
( 0.2218577049 0.3776319389 0.1896198017 0.0475530227 0.0490858904 0.0457006566 0.0550100496 0.0135409353)
( 0.2786659948 0.3594636168 0.1441122335 0.0298191396 0.0081712615 0.0719071015 0.0800783631 0.0277822892)
( 0.3666588954 0.3555090348 0.1135570506 0.0192978357 0.0514711894 0.0840696094 0E-10 0.0094363847)
)
(( 0.0579444786 0.2734478634 0.3224502928 0.1687364677 0.0548147614 0.0161851090 0.0375603625 0.0688606646)
( 0.0866093366 0.3159880660 0.2997542998 0.1299578800 0.0358897859 0.0089505090 0.0517725518 0.0710775711)
( 0.1308453646 0.3677472078 0.2802142922 0.1005175701 0.0235176609 0.0254244983 0.0018160356 0.0699173704)
( 0.1871985158 0.4036178108 0.2464749536 0.0730983302 0.0144712430 0.0389610390 0.0204081633 0.0157699443)
( 0.2200788418 0.3620155120 0.1767926181 0.0432862236 0.0762119656 0.0397275140 0.0494567011 0.0324306237)
( 0.2813010400 0.3504458821 0.1366090725 0.0275298876 0.0560313264 0.0744416194 0.0368205859 0.0368205859)
( 0.3764375164 0.3519768034 0.1092578600 0.0181095103 0.0077259809 0.0283285966 0.0377714621 0.0703922703)
( 0.4677469528 0.3244778877 0.0800361125 0.0109662728 0.0389242581 0E-10 0.0150389179 0.0628095982)
( 0.4831118835 0.2451927760 0.0479435987 0.0704113873 0.0203410674 0.0062587900 0.0719760848 0.0547644123)
)
)
((( 0.2465967473 0.3863349078 0.1813567680 0.0429164850 0.0320207176 0.0493292136 0.0103850976 0.0510600632)
( 0.2991724354 0.3544356723 0.1327297126 0.0258765783 0.0612344353 0.0171456419 0.0783800771 0.0310254472)
( 0.4017099315 0.3565451846 0.1062387982 0.0170583095 0.0344736065 0.0751347834 0.0008839386 0.0079554477)
( 0.4591192663 0.3016419396 0.0713661217 0.0094368425 0.0227540819 0.0488791390 0.0412944450 0.0455081639)
( 0.4954652620 0.2375947385 0.0445441241 0.0493342963 0.0751760706 0.0046985044 0.0344556990 0.0587313051)
( 0.5690724997 0.1956112047 0.0289912360 0.0246952774 0.0238986556 0.0430175800 0.0541702859 0.0605432607)
( 0.6174107145 0.1491303696 0.0174338802 0.0659858291 0.0227808219 0.0219952764 0.0620581012 0.0432050071)
( 0.6229646200 0.1031403229 0.0094968592 0.0559728775 0.0463985695 0.0589188185 0.0368242615 0.0662836708)
( 0.6974167250 0.0770139087 0.0569777292 0.0257570557 0E-10 0.0265375725 0.0718075491 0.0444894598)
)
(( 0.1049240681 0.3478140819 0.3045559135 0.1232397607 0.0320294524 0.0598251266 0.0110446387 0.0165669581)
( 0.1448899105 0.3697434834 0.2597934475 0.0869516374 0.0191948172 0.0053078535 0.0796178027 0.0345010478)
( 0.1893431635 0.3699731903 0.2081936997 0.0575569705 0.0107238606 0.0435656836 0.0720509383 0.0485924933)
( 0.2486434071 0.3696476579 0.1662875382 0.0379019457 0.0705100623 0.0414765073 0.0257154345 0.0398174470)
( 0.3329764663 0.3737721702 0.1340430358 0.0252254886 0.0400208481 0.0435009218 0.0182703872 0.0321906821)
( 0.3930522769 0.3298772105 0.0940958443 0.0145852726 0.0333444348 0.0366788783 0.0375124892 0.0608535935)
( 0.4501776490 0.2790171832 0.0632235931 0.0761399599 0.0256471444 0.0569046016 0.0360662968 0.0128235722)
( 0.5089187472 0.2294800796 0.0411746540 0.0227486443 0.0698148050 0.0619704449 0.0462817247 0.0196109003)
( 0.6245565752 0.2011879362 0.0285330458 0.0102862901 0.0111434809 0.0420023512 0.0445739237 0.0377163970)
)
(( 0.0298561151 0.2018884892 0.3225719424 0.2197841727 0.0898381295 0.0335431655 0.0683453237 0.0341726619)
( 0.0509901568 0.2673666028 0.3446100559 0.1948620118 0.0676709516 0.0214196569 0.0436018920 0.0094786722)
( 0.0760127447 0.3081474738 0.3197997269 0.1498406919 0.0442421484 0.0118343195 0.0582612654 0.0318616295)
( 0.1060975959 0.3319828173 0.2768805089 0.1074666057 0.0269522119 0.0710311454 0.0710311454 0.0085579693)
( 0.1509098883 0.3630040766 0.2428572442 0.0779330749 0.0165778690 0.0512820162 0.0358974114 0.0615384195)
( 0.2087056983 0.3839666339 0.2055945576 0.0544449625 0.0098519456 0.0077794077 0.0760653194 0.0535914751)
( 0.2693332016 0.3765575112 0.1610909482 0.0352041811 0.0509077929 0.0729678364 0.0042423161 0.0296962125)
( 0.3284801159 0.3460437133 0.1179620212 0.0212396991 0.0629084767 0.0612744903 0.0285947621 0.0334967214)
( 0.4293837887 0.3372544662 0.0914307115 0.0135355877 0.0008734384 0.0567734965 0.0052406304 0.0655078806)
)
(( 0.0095194364 0.1104067972 0.2774635739 0.2801700804 0.1613637805 0.0864215504 0.0363942058 0.0382605753)
( 0.0160566578 0.1447745899 0.2943132432 0.2472019506 0.1212189437 0.0546985044 0.0405787035 0.0811574070)
( 0.0266514265 0.1862172017 0.3058486851 0.2134684995 0.0890380453 0.0339355784 0.0788481175 0.0659924461)
( 0.0456386713 0.2471869655 0.3275722387 0.1897560537 0.0673327932 0.0216941219 0.0522099199 0.0486092358)
( 0.0694765342 0.2911690403 0.3107559772 0.1492296227 0.0449709046 0.0122967317 0.0456781428 0.0764230465)
( 0.1011013068 0.3272737647 0.2807038062 0.1116309180 0.0285925796 0.0530866632 0.0428118252 0.0547991362)
( 0.1489962650 0.3709487098 0.2553466382 0.0839700959 0.0182390450 0.0537586620 0.0167445013 0.0519960829)
( 0.2136895491 0.4070671041 0.2243510483 0.0609359915 0.0112129560 0.0542428634 0.0211455230 0.0073549645)
( 0.2484936670 0.3600407961 0.1585441394 0.0355106498 0.0792879233 0.0364077199 0.0720063793 0.0097087253)
)
(( 0.0807548075 0.0568626987 0.1952370985 0.2583895426 0.1886073668 0.1305547162 0.0156393671 0.0739544027)
( 0.0701628137 0.0895025636 0.2488980840 0.2743545921 0.1706395610 0.0992174148 0.0094449942 0.0377799766)
( 0.0135742187 0.1377929688 0.3101562500 0.2845703125 0.1507812500 0.0738281250 0.0214843750 0.0078125000)
( 0.0220823068 0.1742859750 0.3171822247 0.2419016334 0.1091340451 0.0450771056 0.0310247285 0.0593119810)
( 0.0366860565 0.2247589915 0.3301745088 0.2091014190 0.0801995429 0.0280379787 0.0427895062 0.0482519963)
( 0.0577695968 0.2741806253 0.3246615346 0.1705192927 0.0556099857 0.0164670346 0.0863930831 0.0143988472)
( 0.0951730741 0.3487413360 0.3322317211 0.1446048035 0.0400115373 0.0100999997 0.0174825170 0.0116550113)
( 0.1272777241 0.3595973715 0.2751013282 0.0990827286 0.0233031193 0.0364703604 0.0284646716 0.0507026962)
( 0.1714332710 0.3714957259 0.2278370363 0.0678554389 0.0135027196 0.0094025081 0.0846225725 0.0538507279)
)
(( 0.0211335358 0.0446730766 0.1823430096 0.2806237782 0.2337410655 0.1874347796 0.0269959882 0.0230547663)
( 0.0082629453 0.0659199412 0.2184171869 0.2802056555 0.1990451708 0.1337679030 0.0154241645 0.0789570327)
( 0.0660420552 0.0945209869 0.2536625540 0.2710672683 0.1640505891 0.0926466330 0.0187416643 0.0392682490)
( 0.0139777088 0.1361227846 0.2956331080 0.2629270967 0.1354832816 0.0644984469 0.0730860588 0.0182715147)
( 0.0250875698 0.1895294897 0.3325759727 0.2458581842 0.1078292152 0.0432642242 0.0397614314 0.0160939127)
( 0.0400838503 0.2349206475 0.3327508665 0.2041713925 0.0761410124 0.0258989261 0.0210507022 0.0649826026)
( 0.0630001604 0.2861409022 0.3265629704 0.1662403078 0.0527125620 0.0152037959 0.0364199197 0.0537193816)
( 0.0905451637 0.3175992661 0.2915934509 0.1228580457 0.0330904558 0.0544416642 0.0414793632 0.0483925904)
( 0.1337086559 0.3611893033 0.2661857847 0.0928043631 0.0211998593 0.0316678395 0.0378254750 0.0554187192)
)
(( 0.0607287746 0.0392936058 0.1668367854 0.2653008563 0.2273875879 0.1882780270 0.0282509063 0.0239234566)
( 0.0268696820 0.0596506941 0.2052843708 0.2721898791 0.1990147783 0.1380206001 0.0165696373 0.0824003583)
( 0.0029331224 0.0968811219 0.2700158010 0.2982687216 0.1858436053 0.1083191555 0.0103626629 0.0273758094)
( 0.0125351985 0.1277136888 0.2881278954 0.2648741938 0.1406122264 0.0689435916 0.0890180761 0.0081751294)
( 0.0224438190 0.1773154826 0.3234331255 0.2472545201 0.1116603275 0.0461914282 0.0139677851 0.0577335119)
( 0.0386504571 0.2373003127 0.3494926620 0.2218786839 0.0852044990 0.0298794057 0.0250626530 0.0125313265)
( 0.0543274953 0.2584594457 0.3068355722 0.1615371535 0.0527121238 0.0156435980 0.0765175990 0.0739670124)
( 0.0928041119 0.3412335808 0.3259090044 0.1422044546 0.0394060537 0.0098991053 0.0466400152 0.0019036741)
( 0.1186158709 0.3358842123 0.2576110464 0.0929961737 0.0218765596 0.0723673266 0.0457494593 0.0548993512)
)
(( 0.0700976043 0.0469387755 0.1806566105 0.2637976930 0.2099378882 0.1598935226 0.0216503993 0.0470275067)
( 0.0699493787 0.0742751956 0.2315692591 0.2819144040 0.1912563277 0.1222273355 0.0131615278 0.0156465716)
( 0.0093311945 0.1084635873 0.2738382222 0.2776261328 0.1604780674 0.0861980639 0.0471132014 0.0369515305)
( 0.0169093471 0.1531235322 0.3127289807 0.2637858149 0.1298262095 0.0588069516 0.0263034288 0.0385157351)
( 0.0276429969 0.1944914438 0.3210009247 0.2249257531 0.0941842825 0.0360169340 0.0612226656 0.0405149993)
( 0.0453064135 0.2467484749 0.3284263717 0.1910631022 0.0680498720 0.0220214440 0.0379095552 0.0604747666)
( 0.0726676874 0.3065407042 0.3287215181 0.1585139336 0.0479810911 0.0131785589 0.0482643378 0.0241321689)
( 0.0957445396 0.3117625521 0.2687551760 0.1072731388 0.0275541502 0.0752370597 0.0466142653 0.0670591184)
( 0.1506067625 0.3770102532 0.2607586942 0.0861122593 0.0187473565 0.0565224747 0.0053830928 0.0448591069)
)
(( 0.0217968300 0.0800876661 0.2436750172 0.2904007206 0.1933477383 0.1210318930 0.0127002926 0.0369598422)
( 0.0095819986 0.1085072620 0.2673200167 0.2651906837 0.1503841448 0.0792289329 0.0683229335 0.0514640278)
( 0.0179454783 0.1578641291 0.3145131997 0.2595551725 0.1253379497 0.0556122894 0.0289773678 0.0401944135)
( 0.0297201203 0.2029355456 0.3266478257 0.2239037287 0.0919865074 0.0345519190 0.0829610721 0.0072932811)
( 0.0487079601 0.2575088849 0.3342468975 0.1901448571 0.0664450097 0.0211374166 0.0625057329 0.0193032411)
( 0.0784773800 0.3211565294 0.3356505291 0.1582897432 0.0470101438 0.0126822497 0.0438721946 0.0028612301)
( 0.1130706534 0.3571332891 0.3000436945 0.1171352847 0.0294685771 0.0628233120 0.0138580835 0.0064671056)
( 0.1478259800 0.3588970957 0.2418893613 0.0780616000 0.0166791054 0.0711261408 0.0753598396 0.0101608773)
( 0.2019191699 0.3749565525 0.2022569685 0.0539633392 0.0097961617 0.0152039814 0.0760199071 0.0658839195)
)
(( 0.0185719437 0.1579516769 0.3065272268 0.2472051929 0.1170212766 0.0508474576 0.0333573747 0.0685178507)
( 0.0312553143 0.2068975703 0.3241725535 0.2171658868 0.0874608362 0.0321560438 0.0369336036 0.0639581916)
( 0.0504849419 0.2586340962 0.3268472618 0.1816918051 0.0621837697 0.0193480615 0.0783078174 0.0225022464)
( 0.0780573192 0.3092582460 0.3145701051 0.1448607087 0.0421347467 0.0111639072 0.0783430823 0.0216118848)
( 0.1167296244 0.3566485700 0.2915056111 0.1111797271 0.0274764956 0.0027299992 0.0900899737 0.0036399989)
( 0.1586173999 0.3724894325 0.2442010739 0.0769555847 0.0161231972 0.0575263482 0.0470670122 0.0270199514)
( 0.2108421137 0.3784105856 0.1985146519 0.0516903226 0.0091818336 0.0518707307 0.0765305862 0.0229591759)
( 0.2956026443 0.4028711938 0.1688638066 0.0362110965 0.0090991754 0.0400363716 0.0018198351 0.0454958768)
( 0.3483491190 0.3574357480 0.1193150900 0.0211455198 0.0620114928 0.0424736252 0.0067957800 0.0424736252)
)
)
((( 0.1172918929 0.3489697898 0.2789644898 0.1043475095 0.0253604074 0.0202571545 0.0546062427 0.0502025134)
( 0.1594079846 0.3643006066 0.2334369849 0.0721655701 0.0148227403 0.0177890673 0.0830156474 0.0550613988)
( 0.2086051499 0.3641197174 0.1867154944 0.0476181685 0.0083311375 0.0637150704 0.0653487901 0.0555464716)
( 0.2682171571 0.3552891589 0.1454955392 0.0305798130 0.0193174296 0.0692207893 0.0700256822 0.0418544307)
( 0.3494922150 0.3480752421 0.1135245431 0.0196709179 0.0716964978 0.0333472083 0.0291788072 0.0350145687)
( 0.4369190034 0.3238280325 0.0839172758 0.0120126980 0.0137315440 0.0480604040 0.0755234919 0.0060075505)
( 0.4826475089 0.2625660441 0.0540126632 0.0620866721 0.0362844188 0.0137074471 0.0387033800 0.0499918658)
( 0.5877596228 0.2309577847 0.0375897745 0.0215109009 0E-10 0.0197900288 0.0791601153 0.0232317730)
( 0.5400554393 0.1503789789 0.0192775314 0.0654571094 0.0661685997 0.0490928321 0.0519387933 0.0576307159)
)
(( 0.0351287758 0.2158536250 0.3176482323 0.2015743471 0.0774409921 0.0270693061 0.0692132378 0.0560714838)
( 0.0592364295 0.2815581631 0.3340379373 0.1757656023 0.0573852910 0.0170304735 0.0231438590 0.0518422442)
( 0.0889934683 0.3269780505 0.3122065937 0.1361344756 0.0377492786 0.0094829106 0.0729527611 0.0155024617)
( 0.1352214300 0.3827325548 0.2934693544 0.1058460668 0.0249216791 0.0085291842 0.0227444911 0.0265352396)
( 0.1687736934 0.3666608490 0.2253128808 0.0671719300 0.0134175086 0.0784876162 0.0042197643 0.0759557576)
( 0.2331626529 0.3864406997 0.1899747673 0.0467363892 0.0207738059 0.0242361069 0.0649181435 0.0337574346)
( 0.2959840354 0.3716969401 0.1458300075 0.0295899225 0.0576710185 0.0118734450 0.0686963603 0.0186582707)
( 0.3676638573 0.3465870492 0.1082504948 0.0181260550 0.0539674222 0.0581836271 0.0311999160 0.0160215785)
( 0.4204847654 0.2942514431 0.0730235709 0.0100667067 0.0223749343 0.0735176414 0.0631292790 0.0431516591)
)
(( 0.0686788816 0.0912235639 0.2425563348 0.2571385402 0.1545544210 0.0866454296 0.0763098684 0.0228929605)
( 0.0145530939 0.1400619423 0.3013510089 0.2658488753 0.1360760631 0.0642375420 0.0129785791 0.0648928954)
( 0.0234165731 0.1749762378 0.3043290417 0.2231055042 0.0972090210 0.0387107924 0.0769031366 0.0613496933)
( 0.0425833884 0.2469264938 0.3464782631 0.2109163801 0.0781171778 0.0263883637 0.0038109751 0.0447789579)
( 0.0648927056 0.2916029665 0.3296181260 0.1664198748 0.0523743964 0.0150035617 0.0211727872 0.0589155818)
( 0.0936130901 0.3246600407 0.2952412929 0.1234709325 0.0330192513 0.0430390151 0.0368905843 0.0500657930)
( 0.1372760044 0.3666328025 0.2677015537 0.0926145953 0.0209962003 0.0640626105 0.0382596146 0.0124566187)
( 0.2014065783 0.4123010592 0.2411430422 0.0689516892 0.0132454880 0.0413417060 0.0216104372 0E-10)
( 0.2290671570 0.3572423563 0.1670598079 0.0393646655 0.0728231939 0.0584186061 0.0344109598 0.0416132537)
)
(( 0.0084913671 0.0421737900 0.1752995566 0.2739881121 0.2312482310 0.1883196528 0.0276441174 0.0528351731)
( 0.0691538985 0.0591590855 0.1995872178 0.2601121697 0.1872944208 0.1277085021 0.0150245297 0.0819601760)
( 0.0009493979 0.0974179680 0.2662377996 0.2890256284 0.1773652673 0.1015957366 0.0094949287 0.0579132735)
( 0.0137165577 0.1362260864 0.3012005744 0.2721703256 0.1422388240 0.0686767373 0.0638917262 0.0018791684)
( 0.0226479277 0.1750067138 0.3128636648 0.2349834393 0.1044669233 0.0426103303 0.0214842002 0.0859368006)
( 0.0386523650 0.2316381018 0.3342509279 0.2084466828 0.0788692305 0.0271486850 0.0119650238 0.0690289833)
( 0.0658829656 0.3057088133 0.3553926688 0.1838203882 0.0590674864 0.0172856356 0.0128420421 0E-10)
( 0.0968533436 0.3473526231 0.3249797875 0.1392087641 0.0380529425 0.0325140416 0.0191259068 0.0019125907)
( 0.1233669455 0.3408273241 0.2559341378 0.0907478887 0.0209932904 0.0644081683 0.0694269866 0.0342952585)
)
(( 0.0479829394 0.0190154612 0.1076061845 0.2197440910 0.2344055447 0.2491558557 0.0510040874 0.0710858361)
( 0.0315201891 0.0320637412 0.1473491030 0.2511959953 0.2287693898 0.2029202501 0.0332346082 0.0729467233)
( 0.0111018544 0.0522660041 0.1949105676 0.2771485812 0.2153544383 0.1598507171 0.0209064017 0.0684614356)
( 0.0419231374 0.0762720573 0.2306003135 0.2733305069 0.1810903816 0.1127577548 0.0117753352 0.0722505134)
( 0.0096118961 0.1080027597 0.2643271425 0.2608319075 0.1472367719 0.0771573113 0.0803984435 0.0524337675)
( 0.0184153367 0.1609217112 0.3185381056 0.2614033431 0.1256964775 0.0555293229 0.0179431486 0.0415525545)
( 0.0300936449 0.2039276298 0.3261205564 0.2222929357 0.0909173561 0.0339121738 0.0527320666 0.0400036367)
( 0.0465741544 0.2444926279 0.3153512576 0.1784041631 0.0620121422 0.0196010408 0.0598438855 0.0737207285)
( 0.0722077738 0.2933386634 0.3046075837 0.1428552356 0.0422151091 0.0112689203 0.0702210639 0.0632856502)
)
(( 0.0741015170 0.0125033805 0.0842820466 0.1996836180 0.2428434353 0.3006368386 0.0739088716 0.0120402924)
( 0.0724443252 0.0209283606 0.1143904839 0.2265450318 0.2352204633 0.2424648958 0.0477595922 0.0402468473)
( 0.0572414771 0.0350682550 0.1557175881 0.2573791873 0.2282162085 0.1963277176 0.0309799869 0.0390695796)
( 0.0643176734 0.0566741238 0.2040454884 0.2813199105 0.2127143922 0.1532438479 0.0192953020 0.0083892617)
( 0.0029140359 0.0886838271 0.2587663915 0.2973288004 0.1917435648 0.1158814959 0.0116561438 0.0330257407)
( 0.0106643357 0.1144230769 0.2702797203 0.2584790210 0.1419580420 0.0722027972 0.0550699301 0.0769230769)
( 0.0195737675 0.1638159700 0.3128144151 0.2487880728 0.1163450105 0.0499405470 0.0064026342 0.0823195829)
( 0.0320799720 0.2079422011 0.3205331279 0.2117633612 0.0842432507 0.0305692808 0.0417703456 0.0710984606)
( 0.0508661115 0.2553811484 0.3175411125 0.1740478996 0.0588330928 0.0181226938 0.0499080606 0.0752998809)
)
(( 0.0485390710 0.0116124683 0.0810017257 0.1982686189 0.2480499381 0.3175343797 0.0811920941 0.0138017042)
( 0.0201091640 0.0203964378 0.1155798142 0.2364263143 0.2526094034 0.2690797664 0.0551565642 0.0306425357)
( 0.0056534439 0.0333553189 0.1536794497 0.2625082446 0.2395175728 0.2128521624 0.0349571281 0.0574766795)
( 0.0518087029 0.0519989333 0.1943945888 0.2770192285 0.2156752911 0.1603454652 0.0210031279 0.0277546623)
( 0.0391754252 0.0794622013 0.2406249756 0.2857654749 0.1897020157 0.1183539124 0.0124043108 0.0345116841)
( 0.0096111454 0.1085442201 0.2662904506 0.2632924786 0.1489286659 0.0781236223 0.0493783617 0.0758310555)
( 0.0172035589 0.1505754885 0.2988453365 0.2457271314 0.1182966460 0.0523201019 0.0540828481 0.0629488887)
( 0.0288145165 0.1959211955 0.3139818890 0.2144886042 0.0878448632 0.0328432938 0.0665557533 0.0595498845)
( 0.0486782133 0.2564266180 0.3314494075 0.1879671832 0.0654512306 0.0206927985 0.0391978122 0.0501367366)
)
(( 0.0403225826 0.0152665042 0.0967838756 0.2179557516 0.2531935317 0.2973607766 0.0685552452 0.0105617325)
( 0.0590384780 0.0254870796 0.1309960931 0.2463438689 0.2444698189 0.2391287765 0.0442275794 0.0103083057)
( 0.0037882375 0.0418600246 0.1750165735 0.2745525144 0.2325977839 0.1900748177 0.0281276636 0.0539823847)
( 0.0065641410 0.0644223556 0.2182108027 0.2855401350 0.2063015754 0.1413165791 0.0166916729 0.0609527382)
( 0.0424417555 0.0919270363 0.2523026910 0.2750586960 0.1694058154 0.0974354344 0.0091204623 0.0623081091)
( 0.0129823296 0.1298232961 0.2883159034 0.2615398485 0.1372160115 0.0664442842 0.0567976920 0.0468806347)
( 0.0222620485 0.1730206410 0.3107781972 0.2343748467 0.1046316280 0.0427431331 0.0258213941 0.0863681114)
( 0.0362175315 0.2180887414 0.3161198483 0.1978905027 0.0751339656 0.0259442894 0.0783630727 0.0522420485)
( 0.0579804920 0.2707513276 0.3163450781 0.1642780605 0.0529730858 0.0155493138 0.0790722144 0.0430504279)
)
(( 0.0425758382 0.0255455029 0.1284371119 0.2364733014 0.2303530247 0.2205960617 0.0397374490 0.0762817101)
( 0.0723167828 0.0411852897 0.1678278508 0.2577828733 0.2143928036 0.1715318811 0.0246935356 0.0502689832)
( 0.0095868032 0.0691139391 0.2285265338 0.2926558338 0.2075335343 0.1391864627 0.0160083604 0.0373885326)
( 0.0830746759 0.0970421764 0.2598137667 0.2771590287 0.1675187146 0.0943947416 0E-10 0.0209968961)
( 0.0152686893 0.1482252627 0.3211382114 0.2850485822 0.1467380527 0.0697005751 0.0059488400 0.0079317866)
( 0.0234322792 0.1767991892 0.3096408321 0.2284206764 0.1000716886 0.0400815302 0.0616577268 0.0598960775)
( 0.0430653821 0.2518346097 0.3558766579 0.2179695592 0.0812369709 0.0275031191 0.0137039920 0.0088097091)
( 0.0613191973 0.2778333127 0.3163894124 0.1606651199 0.0509081681 0.0146460241 0.0352951539 0.0829436116)
( 0.0884375593 0.3094474000 0.2834709686 0.1192898342 0.0320291921 0.0445639569 0.0689480089 0.0538130801)
)
(( 0E-10 0.0705455897 0.2270657124 0.2843201041 0.1976020076 0.1297518357 0.0144994888 0.0762152616)
( 0.0257731520 0.1023459966 0.2669095234 0.2783222065 0.1648396401 0.0909333135 0.0165684548 0.0543077131)
( 0.0143229167 0.1349826389 0.2848090278 0.2470486111 0.1246527778 0.0578993056 0.0616319444 0.0746527778)
( 0.0247303844 0.1806885477 0.3081719374 0.2221380651 0.0953513059 0.0374438918 0.0679146867 0.0635611811)
( 0.0407214835 0.2306388090 0.3173136583 0.1899173256 0.0693224398 0.0230202819 0.0558123252 0.0732536768)
( 0.0632477222 0.2773765909 0.3074494180 0.1525183492 0.0473065388 0.0133561266 0.0603240236 0.0784212307)
( 0.1009048533 0.3419248698 0.3048167444 0.1252170734 0.0329951558 0.0109679188 0.0466136551 0.0365597295)
( 0.1301127339 0.3392078995 0.2426647410 0.0824945771 0.0184591826 0.0359418258 0.0718836515 0.0792353886)
( 0.2023661326 0.4041816090 0.2316426842 0.0650692009 0.0122979872 0.0569068255 0.0064249642 0.0211105965)
)
)
((( 0.0359422544 0.2242464044 0.3345678741 0.2148219572 0.0833416798 0.0294744965 0.0628233654 0.0147819683)
( 0.0564781838 0.2729476216 0.3282453932 0.1747918069 0.0576585960 0.0172521783 0.0245187053 0.0681075147)
( 0.0922745999 0.3444789159 0.3334292264 0.1471353389 0.0411940178 0.0104681269 0.0155098871 0.0155098871)
( 0.1229059620 0.3536519938 0.2749745572 0.1003511761 0.0238763553 0.0493435284 0.0422944529 0.0326019741)
( 0.1809940376 0.3999414167 0.2492361773 0.0752602758 0.0151443991 0.0489471600 0.0083117819 0.0221647517)
( 0.2301674678 0.3881630462 0.1934728445 0.0481725623 0.0687074675 0.0078274330 0.0243520138 0.0391371650)
( 0.3042135400 0.3888942787 0.1547613428 0.0317663344 0.0035401325 0.0548720533 0.0044251656 0.0575271527)
( 0.3605047277 0.3461850290 0.1097006238 0.0185904860 0.0318311019 0.0393700471 0.0678505067 0.0259674779)
( 0.4163050891 0.2969952115 0.0747685845 0.0103956321 0.0415866869 0.0087971838 0.0783749100 0.0727767021)
)
(( 0.0610330717 0.0892967308 0.2422786266 0.2614443349 0.1595996516 0.0909296835 0.0575945888 0.0378233121)
( 0.0136873385 0.1354861543 0.2976071293 0.2671805459 0.1389079889 0.0666795339 0.0739782154 0.0064730939)
( 0.0244018230 0.1873338397 0.3325104444 0.2481959742 0.1098556779 0.0445309533 0.0246866692 0.0284846183)
( 0.0367001336 0.2179661333 0.3122519567 0.1935566767 0.0727986257 0.0249251493 0.0764867751 0.0653145495)
( 0.0656119577 0.3021450063 0.3488304377 0.1792681743 0.0573619334 0.0166941667 0.0174706396 0.0126176842)
( 0.0859195136 0.3056590968 0.2838861206 0.1208400261 0.0328269487 0.0469050220 0.0561185084 0.0678447639)
( 0.1422849514 0.3897577723 0.2905779134 0.1023269121 0.0235552165 0.0247949647 0.0038146100 0.0228876597)
( 0.1754137832 0.3684448076 0.2201733769 0.0640626953 0.0125596600 0.0328808540 0.0834667832 0.0429980398)
( 0.2426838509 0.3886074176 0.1856892590 0.0446385124 0.0322018587 0.0208876921 0.0800694864 0.0052219230)
)
(( 0.0460137370 0.0293014726 0.1425629340 0.2548852456 0.2421128088 0.2253020281 0.0391625451 0.0206592289)
( 0.0196078431 0.0468720822 0.1847805789 0.2757236228 0.2235294118 0.1739495798 0.0241830065 0.0513538749)
( 0.0105789575 0.0739565301 0.2365839585 0.2942873630 0.2035006732 0.1327178304 0.0147143681 0.0336603193)
( 0.0709031311 0.0985443929 0.2551127132 0.2643020216 0.1556931481 0.0854168094 0.0332631973 0.0367645865)
( 0.0143565203 0.1343360109 0.2813194326 0.2425226457 0.1216886002 0.0562297043 0.0726371560 0.0769099299)
( 0.0273286052 0.1980141844 0.3352245863 0.2401891253 0.1025059102 0.0400000000 0.0453900709 0.0113475177)
( 0.0412963931 0.2321833072 0.3171284196 0.1885345879 0.0684788291 0.0225649068 0.0696985538 0.0601150026)
( 0.0718762509 0.3123963763 0.3436553095 0.1694157000 0.0522911785 0.0146646847 0.0086839054 0.0270165946)
( 0.0952989269 0.3199625277 0.2830863567 0.1155680463 0.0302333504 0.0715380685 0.0042582184 0.0800545052)
)
(( 0.0836969103 0.0347253139 0.0654438607 0.1715786662 0.2279405218 0.3134182174 0.0871694417 0.0160270679)
( 0.0328979184 0.0167375610 0.1027473400 0.2251347083 0.2555138653 0.2919882035 0.0652087638 0.0097716397)
( 0.0036714089 0.0268930702 0.1340982102 0.2455254704 0.2380908674 0.2267094998 0.0405690684 0.0844424048)
( 0.0367149758 0.0457004831 0.1853140097 0.2829951691 0.2342028986 0.1864734300 0.0266666667 0.0019323671)
( 0.0572155118 0.0662973390 0.2177822178 0.2774498229 0.1958041958 0.1305966761 0.0148941967 0.0399600400)
( 0.0450450450 0.0931219681 0.2476611227 0.2627338877 0.1580041580 0.0886174636 0.0615038115 0.0433125433)
( 0.0145410762 0.1397610447 0.3010095397 0.2656293415 0.1360563119 0.0642771140 0.0379735112 0.0407520608)
( 0.0245387622 0.1839498319 0.3200036354 0.2347541580 0.1023357266 0.0408070526 0.0199945469 0.0736162865)
( 0.0426549350 0.2477046672 0.3478385616 0.2118400918 0.0785195103 0.0264919663 0.0124330528 0.0325172150)
)
(( 0.0661018293 0.0065170818 0.0363058246 0.1240914466 0.2077810269 0.3777667596 0.1450371147 0.0363989165)
( 0.0891963229 0.0072813325 0.0551560936 0.1574588150 0.2255392737 0.3392190771 0.1048511878 0.0212978975)
( 0.0069534121 0.0131121486 0.0889043409 0.2124764081 0.2600576140 0.3246250124 0.0805602463 0.0133108175)
( 0.0693552530 0.0196078431 0.1079715729 0.2155150270 0.2254473842 0.2341810086 0.0465793304 0.0813425807)
( 0.0407936214 0.0350454293 0.1570554422 0.2616354534 0.2335434823 0.2025774152 0.0322640460 0.0370851103)
( 0.0156128025 0.0582552693 0.2114558938 0.2939110070 0.2238485558 0.1625683060 0.0206869633 0.0136612022)
( 0.0508610690 0.0801284911 0.2359239761 0.2732220933 0.1773891318 0.1081466940 0.0109752833 0.0633532614)
( 0.0108289064 0.1173889849 0.2798225804 0.2697216677 0.1492387095 0.0765303382 0.0555150715 0.0409537413)
( 0.0194543873 0.1646641678 0.3173206038 0.2543963655 0.1197980690 0.0517542551 0.0670266014 0.0055855501)
)
(( 0.0068640910 0.0147087664 0.0255932536 0.1013924299 0.1931751324 0.4122376937 0.1892527947 0.0567758384)
( 0.0450408005 0.0206437002 0.0395944106 0.1311682133 0.2139224080 0.3765222031 0.1393310420 0.0337772223)
( 0.0581498952 0.0545714401 0.0580546278 0.1610143761 0.2245256022 0.3271275407 0.0974136975 0.0191428203)
( 0.0521524773 0.0137506644 0.0902802243 0.2091997634 0.2494086028 0.3016611275 0.0720724479 0.0114746924)
( 0.0768901692 0.0213562445 0.1137006458 0.2200547434 0.2239842924 0.2256073670 0.0432250389 0.0751814988)
( 0E-10 0.0397403771 0.1717559711 0.2775041453 0.2411562394 0.2028697786 0.0311138074 0.0358596811)
( 0.0434551259 0.0569350834 0.1994501596 0.2688009933 0.1992727918 0.1403866619 0.0172046825 0.0744945016)
( 0.0202487862 0.0923822716 0.2624890849 0.2946975178 0.1862110298 0.1101258395 0.0107040002 0.0231414700)
( 0.0126508933 0.1319169483 0.3031385804 0.2833413810 0.1524867214 0.0759053597 0.0028971511 0.0376629648)
)
(( 0.0009661834 0.0347826023 0.0229928653 0.0940968523 0.1844259661 0.4074954035 0.1945698773 0.0606702497)
( 0.0356474595 0.0766420378 0.0345814935 0.1183614004 0.1985762048 0.3618578957 0.1393063771 0.0350271313)
( 0.0495929634 0.0215214747 0.0564236923 0.1615046318 0.2316833536 0.3491157481 0.1081688032 0.0219893328)
( 0.0138107927 0.0129242483 0.0880032786 0.2105369916 0.2581889911 0.3229088911 0.0803079246 0.0133188819)
( 0.0373634506 0.0217452696 0.1204132329 0.2408264657 0.2522259683 0.2625717353 0.0523993941 0.0124544835)
( 0.0119639302 0.0346068278 0.1554546066 0.2594591687 0.2320314169 0.2016584032 0.0321217630 0.0727038837)
( 0.0729739011 0.0509958791 0.1856112637 0.2584993132 0.1972012363 0.1434581044 0.0182864011 0.0729739011)
( 0.0677996391 0.0787258944 0.2323910909 0.2696405913 0.1754160868 0.1070813060 0.0108314150 0.0581139764)
( 0.0109391806 0.1191258222 0.2846041043 0.2749627927 0.1524068884 0.0782429525 0.0565443468 0.0231739126)
)
(( 0.0586994405 0.0265981840 0.0276070806 0.1039163533 0.1893974136 0.3822801064 0.1650004586 0.0465009630)
( 0.0775051126 0.0046133996 0.0442930647 0.1394308765 0.2173128485 0.3621880808 0.1259584026 0.0286982148)
( 0.0628399353 0.0084411853 0.0683667639 0.1798730496 0.2397994723 0.3310489391 0.0925624088 0.0170682456)
( 0.0167240525 0.0168207470 0.1036787564 0.2280145705 0.2597870926 0.2980518328 0.0668895202 0.0100334280)
( 0.0639005239 0.0253826011 0.1270880579 0.2336074564 0.2272180430 0.2172400550 0.0390366900 0.0665265728)
( 0.0343922371 0.0424430164 0.1725774674 0.2647032470 0.2198168161 0.1756543598 0.0252486174 0.0651642388)
( 0.0568132156 0.0632811817 0.2087230137 0.2668473036 0.1889694957 0.1265623634 0.0145092212 0.0742942051)
( 0.0669209017 0.0903098924 0.2414476485 0.2571205661 0.1552042428 0.0873447458 0.0186362005 0.0830158021)
( 0.0136478010 0.1319874428 0.2854591658 0.2530566448 0.1300503356 0.0616352301 0.0413877933 0.0827755866)
)
(( 0.0188781111 0.0871988940 0.0454019021 0.1400716108 0.2143329397 0.3493698842 0.1184045644 0.0263420937)
( 0.0262952863 0.0100311648 0.0743085314 0.1914686404 0.2505843397 0.3384300740 0.0922282820 0.0166536813)
( 0.0164410058 0.0176015474 0.1060928433 0.2285299807 0.2556092843 0.2869439072 0.0626692456 0.0261121857)
( 0.0735484987 0.0265639872 0.1300510513 0.2339707537 0.2235009085 0.2091373194 0.0366011941 0.0666262871)
( 0.0545008629 0.0448723771 0.1783086566 0.2676900718 0.2181851213 0.1707693705 0.0238895449 0.0417839949)
( 0.0065182978 0.0706769718 0.2275817115 0.2848496136 0.1979700158 0.1299003632 0.0145264922 0.0679765341)
( 0.0535680055 0.1009418790 0.2633384901 0.2745038239 0.1625781613 0.0896857702 0.0544759378 0.0009079323)
( 0.0147967200 0.1395375530 0.2943202115 0.2552209999 0.1286866251 0.0598146195 0.0286995390 0.0789237321)
( 0.0245144584 0.1791972378 0.3054812257 0.2201985326 0.0945187743 0.0371169616 0.0681916271 0.0707811826)
)
(( 0.0358666480 0.0189045831 0.1109068877 0.2335443116 0.2561328648 0.2810481359 0.0597190934 0.0038774755)
( 0.0848643481 0.0286060482 0.1362942604 0.2397834195 0.2244743723 0.2054911538 0.0349921079 0.0454942897)
( 0.0625574977 0.0481140754 0.1861085557 0.2731370745 0.2182152714 0.1670653174 0.0227230911 0.0220791168)
( 0.0655679603 0.0707070707 0.2217791955 0.2713981925 0.1849193691 0.1187311714 0.0128477760 0.0540492646)
( 0.0466392318 0.1063557385 0.2700502972 0.2751714678 0.1597622314 0.0862368541 0.0210333791 0.0347508002)
( 0.0163678017 0.1495295782 0.3071043470 0.2603127783 0.1286305771 0.0585356976 0.0323624733 0.0471567468)
( 0.0262178766 0.1856017998 0.3081249459 0.2170113351 0.0912866661 0.0350436965 0.0735484987 0.0631651813)
( 0.0464829497 0.2552336513 0.3418140143 0.1998297314 0.0714616662 0.0231945224 0.0356874494 0.0262960153)
( 0.0665224830 0.2826775794 0.3048517404 0.1477417935 0.0448640001 0.0123762759 0.0593089196 0.0816572081)
)
)
((( 0.0331564987 0.0356195529 0.1599090565 0.2670519136 0.2389162562 0.2075596817 0.0331564987 0.0246305419)
( 0.0754347902 0.0527050632 0.1918322422 0.2671632163 0.2038993947 0.1483550015 0.0188992903 0.0417110016)
( 0.0486618005 0.0805623141 0.2377219068 0.2759304316 0.1795079751 0.1096692800 0.0111741912 0.0567721006)
( 0.0109279496 0.1190035192 0.2843119096 0.2746804964 0.1522504167 0.0782552325 0.0463048713 0.0342656047)
( 0.0186365233 0.1578728557 0.3050834698 0.2451419599 0.1156718824 0.0500856563 0.0322522958 0.0752553569)
( 0.0316156061 0.2078883727 0.3243526994 0.2165353761 0.0869203985 0.0317957520 0.0864786816 0.0144131136)
( 0.0489570377 0.2495424979 0.3139824150 0.1739445280 0.0593366217 0.0184237615 0.0787197171 0.0570934212)
( 0.0817887288 0.3223823464 0.3264998568 0.1499148095 0.0434210185 0.0114167333 0.0168460452 0.0477304615)
( 0.1178594936 0.3583220423 0.2917296000 0.1108353511 0.0272755309 0.0100364835 0.0164233367 0.0675181619)
)
(( 0.0495929254 0.0224571737 0.0609089923 0.1686926468 0.2349346845 0.3418762793 0.1016085493 0.0199287486)
( 0.0375505488 0.0140573849 0.0919507029 0.2126901598 0.2532254959 0.3058925477 0.0729828615 0.0116502985)
( 0.0279884435 0.0226616107 0.1204405923 0.2327555074 0.2367280607 0.2380823402 0.0455037920 0.0758396533)
( 0.0144313092 0.0370667184 0.1600813266 0.2583847891 0.2242942305 0.1884901254 0.0288597321 0.0883917688)
( 0.0472899008 0.0585608666 0.2048721002 0.2757089249 0.2041446361 0.1436741759 0.0175500734 0.0481993220)
( 0.0244786769 0.0871172449 0.2470286082 0.2769439993 0.1748690588 0.1033440783 0.0100624497 0.0761558838)
( 0.0123294118 0.1288470588 0.2957176471 0.2759529412 0.1484235294 0.0737882353 0.0301176471 0.0348235294)
( 0.0199013585 0.1610279484 0.2988664878 0.2318940902 0.1061694211 0.0445617375 0.0744137752 0.0631651813)
( 0.0358003760 0.2246589827 0.3366165220 0.2169409795 0.0844330945 0.0299421326 0.0446386988 0.0269692139)
)
(( 0.0826955221 0.0387085423 0.0153954429 0.0696753761 0.1497316794 0.3713380839 0.2011084719 0.0713468813)
( 0.0808796617 0.0127226434 0.0266240125 0.1011349007 0.1859137527 0.3794603282 0.1659230266 0.0473416741)
( 0.0295698925 0.0788530466 0.0419354839 0.1333333333 0.2097670251 0.3534050179 0.1244623656 0.0286738351)
( 0.0541981342 0.0657485562 0.0632607730 0.1682807641 0.2263882719 0.3159484673 0.0894713461 0.0167036873)
( 0.0557392516 0.0155865370 0.0974867039 0.2168890235 0.2493845914 0.2891538766 0.0657468468 0.0100131692)
( 0.0395839087 0.0258676240 0.1313633435 0.2439473442 0.2395286753 0.2315198380 0.0421614655 0.0460278008)
( 0.0722288766 0.0422218899 0.1740727039 0.2697200992 0.2261093314 0.1825911554 0.0265738649 0.0064820787)
( 0.0047560190 0.0671617036 0.2245065445 0.2901461698 0.2073831640 0.1403165903 0.0162672115 0.0494625974)
( 0.0544323484 0.0902021773 0.2439951616 0.2627440816 0.1600138241 0.0909797823 0.0440642820 0.0535683428)
)
(( 0.0534932728 0.0802399092 0.0599773059 0.0265034852 0.0790241530 0.2999675798 0.2548224996 0.1459717945)
( 0.0454469971 0.0561890146 0.0801519767 0.0420549242 0.1076573009 0.3338780913 0.2298561866 0.1047655085)
( 0.0179110106 0.0405354449 0.0153657617 0.0712669683 0.1561085973 0.3971530920 0.2210595777 0.0805995475)
( 0.0320113753 0.0809176431 0.0244506886 0.0949575833 0.1781788360 0.3728063171 0.1675094447 0.0491681119)
( 0.0260126238 0.0492381808 0.0410586785 0.1334871516 0.2143040074 0.3700854640 0.1340445092 0.0317693847)
( 0.0691367324 0.0522957335 0.0599244933 0.1631967340 0.2240076842 0.3202769146 0.0932552765 0.0179064314)
( 0.0521524749 0.0146026930 0.0935899867 0.2129717428 0.2498577660 0.2967001707 0.0693153802 0.0108097857)
( 0.0585012927 0.0244244104 0.1274155555 0.2422938661 0.2427582085 0.2401578911 0.0449483447 0.0195004309)
( 0.0495882997 0.0402279935 0.1701737680 0.2699953240 0.2309835256 0.1908490856 0.0285338094 0.0196481942)
)
(( 0.0608052493 0.0698438675 0.0493015535 0.0127349610 0.0476534026 0.2451685402 0.2834555843 0.2310368415)
( 0.0126347709 0.0791778976 0.0690700809 0.0218160377 0.0702493261 0.2939690027 0.2761118598 0.1769710243)
( 0.0447485898 0.0105290800 0.0737035597 0.0363216933 0.1001039905 0.3418976782 0.2603932022 0.1323022065)
( 0.0118448295 0.0019741383 0.0123346626 0.0620680320 0.1466344787 0.4099055467 0.2527125869 0.1025257253)
( 0.0523880288 0.0759626418 0.0187742542 0.0794631226 0.1606726874 0.3691105705 0.1838130473 0.0598156472)
( 0.0835168616 0.0018355354 0.0324857280 0.1150765621 0.1991356776 0.3767977383 0.1514165290 0.0397353679)
( 0.0549502272 0.0037896708 0.0525764248 0.1558346284 0.2305784106 0.3607405866 0.1167101898 0.0248198618)
( 0.0176869411 0.0114965117 0.0813599293 0.2018276506 0.2553797779 0.3313353641 0.0860764469 0.0148373784)
( 0.0315077122 0.0189953974 0.1092466999 0.2263695402 0.2447163142 0.2640823534 0.0550403221 0.0500416606)
)
(( 0.0008763466 0.0613442588 0.0499517536 0.0210323173 0.0361894934 0.2216058809 0.3041494711 0.3048504783)
( 0.0085120856 0.0817160222 0.0604358081 0.0144690985 0.0526845411 0.2616353465 0.2921055658 0.2284415322)
( 0.0294703889 0.0528733447 0.0546068970 0.0244406429 0.0765286798 0.3092348012 0.2802873730 0.1725578725)
( 0.0332778469 0.0761887547 0.0218933203 0.0390537777 0.1049022997 0.3460549988 0.2542873777 0.1243416241)
( 0.0177570079 0.0485981268 0.0128024569 0.0627974527 0.1444715206 0.3906151073 0.2322197468 0.0907385812)
( 0.0045909459 0.0789642694 0.0215752880 0.0885963952 0.1743466887 0.3874370859 0.1860983349 0.0583909921)
( 0.0757317903 0.0765827093 0.0325901974 0.1121511232 0.1889040163 0.3460687543 0.1340197413 0.0339516678)
( 0.0200036370 0.0772867794 0.0541916712 0.1558465175 0.2245862884 0.3403346063 0.1060192762 0.0217312239)
( 0.0138107921 0.0127256585 0.0870079905 0.2094307981 0.2579658676 0.3243563184 0.0811877281 0.0135148466)
)
(( 0.0201110523 0.0095766916 0.0047883458 0.0172380448 0.0365756452 0.2325713240 0.3313830146 0.3477558819)
( 0.0778395311 0.0532168223 0.0762509692 0.0122294799 0.0459002558 0.2364895614 0.2740515354 0.2240218448)
( 0.0361147944 0.0047519466 0.0123550612 0.0245175926 0.0789694552 0.3311775589 0.3117915554 0.2003220356)
( 0.0604872696 0.0443005355 0.0494121357 0.0350961451 0.0969403230 0.3316244970 0.2531692795 0.1289698146)
( 0.0047388865 0.0483366423 0.0117500880 0.0594137516 0.1404325132 0.3934384506 0.2430562660 0.0988334018)
( 0.0812723695 0.0463165116 0.0186976437 0.0792465551 0.1605026789 0.3693221659 0.1844426525 0.0601994228)
( 0.0334075622 0.0417594527 0.0326619054 0.1159868798 0.2009820654 0.3812720714 0.1535666289 0.0403634342)
( 0.0110844264 0.0711250693 0.0509883614 0.1514871605 0.2246443747 0.3522076483 0.1141695917 0.0242933678)
( 0.0281909200 0.0112752404 0.0801902872 0.1992607135 0.2525265043 0.3282455754 0.0855363063 0.0147744529)
)
(( 0.0136165544 0.0199709464 0.0599128393 0.0104372705 0.0423843941 0.2439598621 0.3155686136 0.2941495194)
( 0.0210286467 0.0674669083 0.0376763254 0.0172592881 0.0603637031 0.2824565728 0.2970875429 0.2166610126)
( 0.0853271961 0.0105559418 0.0290288399 0.0284102353 0.0852307060 0.3247386650 0.2771537198 0.1595546962)
( 0.0285635056 0.0230350851 0.0359347328 0.0465262189 0.1193098088 0.3717490953 0.2571379740 0.1177435796)
( 0.0122433591 0.0470898426 0.0151614130 0.0706277003 0.1552867705 0.3965509949 0.2217709791 0.0812689405)
( 0.0820793097 0.0649794535 0.0232511532 0.0906965941 0.1707079241 0.3585977666 0.1619032595 0.0477845392)
( 0.0704225352 0.0192061460 0.0399670752 0.1306017926 0.2104444851 0.3649167734 0.1327967807 0.0316444119)
( 0.0347222222 0.0593932749 0.0612207602 0.1673976608 0.2306286550 0.3310489766 0.0968567251 0.0187317251)
( 0.0019968051 0.0151757188 0.0977436102 0.2233426518 0.2629792332 0.3134984026 0.0736821086 0.0115814696)
)
(( 0.0368119080 0.0650629071 0.0445167259 0.0179761107 0.0615467792 0.2811121319 0.2884737773 0.2044996599)
( 0.0384483572 0.0281954620 0.0837319780 0.0292149074 0.0858508243 0.3194846680 0.2660094282 0.1490643750)
( 0.0265322367 0.0583709207 0.0397983550 0.0468736181 0.1181568940 0.3596002476 0.2425046431 0.1081630848)
( 0.0271076109 0.0704797883 0.0155385886 0.0707367142 0.1527660163 0.3811471410 0.2079641420 0.0742599988)
( 0.0797919850 0.0259996356 0.0258177457 0.0986990903 0.1824274739 0.3748055373 0.1650363535 0.0474221787)
( 0.0520787909 0.0841940453 0.0400098696 0.1280142249 0.2023926594 0.3432517014 0.1217653950 0.0282933134)
( 0.0545437273 0.0295830385 0.0649837388 0.1737829714 0.2350692001 0.3300952078 0.0941940680 0.0177480481)
( 0.0384800370 0.0155828565 0.0982104724 0.2196028487 0.2538466569 0.2960742743 0.0678142831 0.0103885710)
( 0.0248518448 0.0263811891 0.1350602179 0.2523418084 0.2490919518 0.2421143185 0.0443509845 0.0258076850)
)
(( 0.0700445649 0.0209224025 0.0095496213 0.0507494159 0.1255093172 0.3724352478 0.2446522112 0.1061372193)
( 0.0726413360 0.0533870060 0.0161020111 0.0716714517 0.1518314636 0.3697336793 0.1963745269 0.0682585254)
( 0.0380710660 0.0580130529 0.0277374909 0.1037889775 0.1881798405 0.3772661349 0.1617113851 0.0452320522)
( 0.0813766212 0.0754429092 0.0412816818 0.1291853861 0.2003899296 0.3318640332 0.1145206408 0.0259387980)
( 0.0873440285 0.0303030303 0.0657754011 0.1721033868 0.2283422460 0.3132798574 0.0868983957 0.0159536542)
( 0.0278422005 0.0161468614 0.0989227259 0.2163122645 0.2451724594 0.2795077395 0.0622674944 0.0538282543)
( 0.0106734009 0.0285299423 0.1422615491 0.2599718213 0.2516263279 0.2391080879 0.0426008322 0.0252280384)
( 0.0500446828 0.0425379803 0.1718498660 0.2620196604 0.2163538874 0.1719392315 0.0244861483 0.0607685433)
( 0.0706651356 0.0648352619 0.2123487324 0.2698524865 0.1900892147 0.1265789241 0.0143980214 0.0512322233)
)
)
)
(((( 0.4653502406 0.3186779855 0.0778349993 0.0105701851 0.0358234943 0.0655307823 0.0244648254 0.0017474875)
( 0.5222591022 0.2615078128 0.0506035674 0.0227004923 0.0369933948 0.0092483487 0.0823943793 0.0142929025)
( 0.5447698738 0.1960861977 0.0300242457 0.0766312453 0.0433469670 0.0278659074 0.0472172319 0.0340583312)
( 0.6005306181 0.1522961737 0.0183898963 0.0602874944 0.0270520808 0.0363270799 0.0293708306 0.0757458263)
( 0.6588074781 0.1149849927 0.0109172895 0.0070715772 0.0605012717 0.0597155409 0.0298577705 0.0581440793)
( 0.6853198784 0.0800221505 0.0748744184 0.0362793574 0.0640678013 0.0115785183 0.0015438024 0.0463140733)
( 0.7778824535 0.0589967051 0.0033633163 0.0058858036 0.0479272575 0.0428822830 0.0521314029 0.0109307780)
( 0.7477014041 0.0355562382 0.0408355167 0.0612532750 0.0455473070 0.0047117904 0.0510443958 0.0133500728)
( 0.6980324822 0.0200546889 0.0093491499 0.0345199382 0.0654440496 0.0604098919 0.0539374035 0.0582523958)
)
(( 0.2402150369 0.3707883557 0.1718550869 0.0402019633 0.0506728309 0.0390430009 0.0531649374 0.0340587880)
( 0.3000264619 0.3499769881 0.1294025769 0.0249752631 0.0630506586 0.0590089497 0.0282919622 0.0452671395)
( 0.4140147149 0.3616545628 0.1064325984 0.0169426998 0.0063097140 0.0531818752 0.0360555086 0.0054083263)
( 0.4533151436 0.2928656507 0.0684342577 0.0089046986 0.0684479472 0.0362856588 0.0140194591 0.0577271844)
( 0.5503433322 0.2592034288 0.0479910483 0.0353996959 0.0621653196 0.0103608866 0.0189949588 0.0155413299)
( 0.5815573023 0.1962533339 0.0287298683 0.0372348820 0.0024283619 0.0509955992 0.0623279546 0.0404726978)
( 0.6776683844 0.1604507310 0.0185333435 0.0042918425 0.0523604791 0.0231759498 0.0583690586 0.0051502111)
( 0.6780454719 0.1098799375 0.0099818250 0.0087866420 0.0623052795 0.0615064939 0.0511222806 0.0183720696)
( 0.7437225499 0.0802566390 0.0224177448 0.0066422948 0.0298903264 0.0141148764 0.0207571711 0.0821983976)
)
(( 0.1006822288 0.3264907589 0.2804230837 0.1116222333 0.0286320430 0.0820582395 0.0495768530 0.0205145599)
( 0.1626511050 0.4054714751 0.2794361402 0.0920212117 0.0199459590 0.0279464087 0.0106003619 0.0019273385)
( 0.2174714092 0.4150704309 0.2290948810 0.0622418171 0.0114359965 0.0037498820 0.0103121756 0.0506234076)
( 0.2772748176 0.4023965531 0.1774667352 0.0397785836 0.0687222070 0.0045211978 0.0162763122 0.0135635935)
( 0.3044970093 0.3334335881 0.1172282263 0.0216829292 0.0593007929 0.0678838024 0.0639824345 0.0319912172)
( 0.4262077851 0.3485215342 0.0975078089 0.0148439404 0.0666844083 0.0195607598 0.0115586308 0.0151151325)
( 0.4472513570 0.2697955805 0.0599109493 0.0361265395 0.0659702025 0.0604726856 0.0282729439 0.0321997417)
( 0.5194380893 0.2276251659 0.0399689488 0.0395850922 0.0490855143 0.0562108309 0.0665029549 0.0015834037)
( 0.6194631406 0.1935717005 0.0268709169 0.0067408102 0.0176946267 0.0539264815 0.0758341146 0.0058982089)
)
(( 0.0455108386 0.2550901625 0.3480240598 0.2067109937 0.0749590283 0.0247632504 0.0382482270 0.0066934397)
( 0.0709806157 0.3079627518 0.3383694413 0.1666666667 0.0513112885 0.0143481566 0.0009502090 0.0494108704)
( 0.0979655985 0.3282982625 0.2900550074 0.1183096132 0.0309089322 0.0471492185 0.0104776041 0.0768357636)
( 0.1451654891 0.3745539224 0.2656123890 0.0896160890 0.0198647499 0.0737210561 0.0152836336 0.0161826709)
( 0.2004289465 0.3960088055 0.2249437773 0.0626789447 0.0117635269 0.0044903448 0.0413111721 0.0583744823)
( 0.2413419279 0.3630303577 0.1648288066 0.0378495760 0.0635023117 0.0366359491 0.0162826440 0.0765284270)
( 0.3179769168 0.3612459254 0.1308132901 0.0247371270 0.0687745825 0.0276775759 0.0452905787 0.0234840038)
( 0.4034203573 0.3427219347 0.0987211561 0.0154332637 0.0120731237 0.0577785204 0.0353570050 0.0344946391)
( 0.4221746994 0.2650600447 0.0605916352 0.0077914337 0.0741469174 0.0431262683 0.0650677030 0.0620412982)
)
(( 0.0204990825 0.1675458342 0.3136815156 0.2453512406 0.1130638283 0.0478311925 0.0154897446 0.0765375617)
( 0.0335618268 0.2128549809 0.3219086620 0.2091159975 0.0819905635 0.0292887029 0.0578652186 0.0534140479)
( 0.0528694092 0.2595407446 0.3163425891 0.1704929298 0.0568018445 0.0172153283 0.0655537006 0.0611834539)
( 0.0825099747 0.3131466927 0.3071896148 0.1371906152 0.0388543739 0.0099581004 0.0257869458 0.0853636826)
( 0.1203319502 0.3521673877 0.2775668756 0.1025867396 0.0246314117 0.0361966982 0.0662134722 0.0203054648)
( 0.1721598000 0.3867994236 0.2444830439 0.0746533607 0.0152353797 0.0188239398 0.0179275617 0.0699174905)
( 0.1956847004 0.3357497900 0.1697941103 0.0428248424 0.0685033432 0.0639866392 0.0587171513 0.0647394232)
( 0.2835988378 0.3689465151 0.1489187085 0.0309898307 0.0368601437 0.0737202874 0.0201055329 0.0368601437)
( 0.3691794496 0.3610121475 0.1160799620 0.0198969381 0.0530111797 0.0286781792 0.0112974645 0.0408446794)
)
(( 0.0130024723 0.1306656900 0.2920062265 0.2661844153 0.1401886274 0.0682171962 0.0274700119 0.0622653603)
( 0.0216380534 0.1696740040 0.3064511302 0.2322132559 0.1041441269 0.0427483494 0.0756376635 0.0474934166)
( 0.0386936240 0.2348986098 0.3424857594 0.2155517979 0.0822003572 0.0285955319 0.0179329849 0.0396413350)
( 0.0597995559 0.2812963771 0.3305484653 0.1725198844 0.0559474372 0.0164173627 0.0577875582 0.0256833592)
( 0.0884553715 0.3214858365 0.3039372884 0.1313914128 0.0361660431 0.0089969713 0.0543381436 0.0552289328)
( 0.1292120197 0.3616866472 0.2746535684 0.0982689066 0.0229175218 0.0749130099 0.0026754646 0.0356728619)
( 0.1879329615 0.4035739879 0.2455731499 0.0725599156 0.0143637125 0.0444856229 0.0046339191 0.0268767305)
( 0.2292097425 0.3753761343 0.1827290006 0.0445475464 0.0386716425 0.0529633365 0.0176544455 0.0588481517)
( 0.3042604185 0.3773933147 0.1465245087 0.0294946316 0.0845336873 0.0094884751 0.0069007092 0.0414042550)
)
(( 0.0115097638 0.1218947426 0.2829408078 0.2667183848 0.1446423861 0.0725930772 0.0480376763 0.0516631613)
( 0.0206145909 0.1686899334 0.3166732465 0.2481113259 0.1145766323 0.0484995062 0.0009203863 0.0819143784)
( 0.0343942034 0.2187471338 0.3315601211 0.2158121618 0.0847473173 0.0303586169 0.0440245804 0.0403558654)
( 0.0535010006 0.2633280143 0.3218058522 0.1737449436 0.0580334773 0.0175966746 0.0675495463 0.0444404910)
( 0.0887860440 0.3378481932 0.3322750433 0.1486493615 0.0421829798 0.0108580335 0.0172977124 0.0221026325)
( 0.1201968182 0.3527130489 0.2786300321 0.1032028645 0.0248713593 0.0548817969 0.0637336996 0.0017703805)
( 0.1633335771 0.3681405682 0.2332239599 0.0713410989 0.0145924975 0.0392625242 0.0691361838 0.0409695904)
( 0.2286664034 0.3935497036 0.1994655636 0.0503736540 0.0070590166 0.0820610677 0.0317655746 0.0070590166)
( 0.3061867092 0.3995750218 0.1616615093 0.0337285912 0.0136029590 0.0408088769 0.0136029590 0.0308333737)
)
(( 0.0152080867 0.1424278299 0.2993352154 0.2588106730 0.1301338676 0.0602859485 0.0692104544 0.0245879246)
( 0.0271165584 0.1969966001 0.3346580132 0.2404586798 0.1028917494 0.0402496651 0.0056684001 0.0519603340)
( 0.0430999221 0.2429517899 0.3329949392 0.1986622734 0.0722907398 0.0239749036 0.0750434621 0.0109819701)
( 0.0658410549 0.2876870991 0.3176229508 0.1570741269 0.0485566643 0.0136315039 0.0302922309 0.0792943692)
( 0.1006152733 0.3393051031 0.3012124502 0.1233260948 0.0323923272 0.0678610206 0.0271444083 0.0081433225)
( 0.1347716371 0.3496663997 0.2491972130 0.0844109318 0.0188327178 0.0773563982 0.0319515558 0.0538131466)
( 0.1950530428 0.3877306088 0.2212712687 0.0619383591 0.0117014230 0.0563132305 0.0158380961 0.0501539709)
( 0.2374642540 0.3593378727 0.1639212226 0.0378589537 0.0773443956 0.0563969552 0.0177247573 0.0499515889)
( 0.3046613340 0.3482651295 0.1266932502 0.0241435831 0.0331098964 0.0605668837 0.0508761823 0.0516837408)
)
(( 0.0274849058 0.1938361719 0.3209876543 0.2256465711 0.0948003965 0.0363161215 0.0639812562 0.0369469226)
( 0.0451897165 0.2471823136 0.3303023544 0.1927368721 0.0687827411 0.0223226310 0.0435650662 0.0499183051)
( 0.0726758374 0.3077046381 0.3311514700 0.1602044488 0.0485751098 0.0133581552 0.0345665156 0.0317638251)
( 0.0996645652 0.3257935315 0.2818691999 0.1128504269 0.0291116428 0.0582291084 0.0214077605 0.0710737647)
( 0.1395811726 0.3510855378 0.2437025386 0.0807045126 0.0176462717 0.0710939858 0.0769487846 0.0192371962)
( 0.2042597484 0.3932311271 0.2186592595 0.0598201998 0.0111107338 0.0595714047 0.0337867669 0.0195607598)
( 0.2533823776 0.3711164420 0.1648943527 0.0372449561 0.0566759965 0.0825135831 0.0025004116 0.0316718804)
( 0.3335581152 0.3686785567 0.1305826221 0.0242744228 0.0370178926 0.0576790420 0.0215220306 0.0266873179)
( 0.3812151273 0.3148124951 0.0887235170 0.0136005391 0.0736176411 0.0080019175 0.0496118886 0.0704168741)
)
(( 0.0736343036 0.3019006447 0.3162683137 0.1494237575 0.0444499760 0.0119431249 0.0619667692 0.0404131104)
( 0.1149302016 0.3637258455 0.3062607353 0.1198288754 0.0302398317 0.0499386819 0E-10 0.0150758285)
( 0.1471511280 0.3580311154 0.2418146857 0.0781819561 0.0167351647 0.0524135236 0.0414235912 0.0642488353)
( 0.2132569997 0.3969943644 0.2146882548 0.0573396547 0.0103765990 0.0143125503 0.0384649790 0.0545665981)
( 0.2814850178 0.3982923357 0.1720285826 0.0379197970 0.0528957866 0.0080688488 0.0493096315 0E-10)
( 0.3546888269 0.3782813293 0.1302484280 0.0236815307 0.0124677039 0.0142488044 0.0151393547 0.0712440221)
( 0.4097842742 0.3261805555 0.0893173397 0.0133597902 0.0823598331 0.0403395101 0.0294142261 0.0092444711)
( 0.4921062066 0.2884672351 0.0626843457 0.0468522918 0.0017037197 0.0800748260 0.0127778978 0.0153334773)
( 0.6119818970 0.2602236694 0.0447994003 0.0322758463 0.0110660044 0.0055330022 0.0331980133 0.0009221670)
)
)
((( 0.3260614714 0.3552647315 0.1243842561 0.0228800471 0.0133133587 0.0665667937 0.0424363310 0.0490930104)
( 0.4090421960 0.3328463940 0.0926935538 0.0140315930 0.0119067847 0.0586834391 0.0042524231 0.0765436162)
( 0.4188259925 0.2512809307 0.0555795022 0.0520755717 0.0476748191 0.0344725615 0.0711454993 0.0689451230)
( 0.5003057978 0.2180137503 0.0381866334 0.0517424364 0.0418505001 0.0616343728 0.0502206001 0.0380459091)
( 0.6242400922 0.1938728546 0.0267761437 0.0737412521 0.0406848287 0.0169520120 0.0220376156 0.0016952012)
( 0.6252297220 0.1355143330 0.0147551406 0.0155363878 0.0753514811 0.0372873308 0.0419482472 0.0543773575)
( 0.7052755515 0.1039818827 0.0089244286 0.0507780383 0.0442260334 0.0229320173 0.0532350402 0.0106470080)
( 0.6718324920 0.0654396767 0.0675373803 0.0259759155 0.0222650704 0.0697638874 0.0066795211 0.0705060564)
( 0.7573673606 0.0472194299 0.0024224778 0.0314922114 0.0218023002 0.0113048964 0.0799417675 0.0484495561)
)
(( 0.1544880045 0.3646873911 0.2401912503 0.0759622987 0.0159785713 0.0401640618 0.0264911897 0.0820372326)
( 0.2047762526 0.3694442626 0.1947284320 0.0509034216 0.0090513425 0.0373754029 0.0739202412 0.0598006446)
( 0.2791561910 0.3825985463 0.1610350474 0.0347110378 0.0172726276 0.0241816786 0.0267725727 0.0742722986)
( 0.3085838138 0.3184820698 0.1068407253 0.0189653608 0.0702841187 0.0695283755 0.0581922273 0.0491233088)
( 0.4115704425 0.3164655317 0.0844458894 0.0123115827 0.0247933802 0.0008264460 0.0710743567 0.0785123707)
( 0.4404508154 0.2491068091 0.0526682952 0.0741849824 0.0591981173 0.0621954903 0.0224802977 0.0397151926)
( 0.5368996743 0.2197676355 0.0367608405 0.0701865744 0.0255223907 0.0342957125 0.0454617584 0.0311054137)
( 0.6325024353 0.1838934459 0.0242719100 0.0075872480 0.0539537638 0.0134884410 0.0370932126 0.0472095434)
( 0.6086133404 0.1228851917 0.0128176178 0.0596347172 0.0320536605 0.0670890569 0.0596347172 0.0372716983)
)
(( 0.0551965536 0.2683539759 0.3246275355 0.1737569557 0.0575300664 0.0173218453 0.0421827320 0.0610303357)
( 0.0837486650 0.3151477394 0.3066927732 0.1359914560 0.0382698469 0.0097899608 0.0551797793 0.0551797793)
( 0.1187531111 0.3443066305 0.2692367783 0.0988032763 0.0235614427 0.0756793549 0.0146198754 0.0550395308)
( 0.1823787272 0.4057551395 0.2543357625 0.0771169270 0.0156673076 0.0028150494 0.0375339920 0.0243970948)
( 0.2213478403 0.3760469780 0.1885711711 0.0471849222 0.0219094762 0.0514030020 0.0396055917 0.0539310185)
( 0.3014930404 0.3882517290 0.1554242561 0.0321263066 0.0035310696 0.0573798807 0.0044138370 0.0573798807)
( 0.3402808882 0.3293117786 0.1050014121 0.0178844178 0.0310089602 0.0302138587 0.0723542406 0.0739444437)
( 0.4327638156 0.3111690362 0.0788361702 0.0110237018 0.0668169954 0.0175394613 0.0785099696 0.0033408498)
( 0.4816885738 0.2539293432 0.0509920605 0.0118990719 0.0713944313 0.0713944313 0.0118990719 0.0468030161)
)
(( 0.0202573632 0.1694424302 0.3237391683 0.2575714260 0.1205029126 0.0516846742 0.0198807089 0.0369213166)
( 0.0321690548 0.2089201391 0.3223160572 0.2130306294 0.0847118443 0.0307393190 0.0562902168 0.0518227393)
( 0.0536933577 0.2699479848 0.3357686354 0.1841311872 0.0623028099 0.0191629742 0.0064808809 0.0685121697)
( 0.0797677535 0.3102277803 0.3105850826 0.1411344350 0.0405538187 0.0105404198 0.0527020992 0.0544886110)
( 0.1201118661 0.3600622027 0.2896172311 0.1089026404 0.0265193877 0.0136711546 0.0574188494 0.0236966680)
( 0.1727465125 0.3976411652 0.2564799382 0.0797505305 0.0164873338 0.0176023599 0.0342782799 0.0250138799)
( 0.2246910342 0.3952717148 0.2040226532 0.0523362436 0.0092253717 0.0869487774 0.0044361621 0.0230680430)
( 0.2808566865 0.3749564097 0.1545136069 0.0326676196 0.0543154776 0.0585588743 0.0178222661 0.0263090594)
( 0.3374713752 0.3390101214 0.1112756560 0.0194367944 0.0024303284 0.0583278816 0.0737199614 0.0583278816)
)
(( 0.0318828602 0.0953996100 0.2494867850 0.2606899913 0.1546904246 0.0854890814 0.0758295054 0.0465317420)
( 0.0154006083 0.1454606236 0.3077304478 0.2675386164 0.1352248535 0.0629171193 0E-10 0.0657277310)
( 0.0253508554 0.1859961693 0.3179644518 0.2296859413 0.0987964186 0.0388353529 0.0808988953 0.0224719154)
( 0.0419981488 0.2388644712 0.3293777229 0.1974999152 0.0722295748 0.0240765249 0.0724178431 0.0235357990)
( 0.0673115978 0.2962632379 0.3291813755 0.1636686110 0.0508064252 0.0143843962 0.0627074851 0.0156768713)
( 0.1050408901 0.3567570692 0.3187513653 0.1313011222 0.0346634937 0.0391594364 0.0028653246 0.0114612985)
( 0.1359527640 0.3554303829 0.2549435574 0.0868658492 0.0194462996 0.0154215154 0.0668265666 0.0651130649)
( 0.1935517160 0.3876317807 0.2226989490 0.0626973712 0.0118878443 0.0202553898 0.0598855003 0.0413914488)
( 0.2447205603 0.3733138979 0.1714298924 0.0398246095 0.0610877741 0.0359832094 0.0426777600 0.0309622965)
)
(( 0.0609699769 0.0747344111 0.2327020785 0.2829561201 0.1917782910 0.1224018476 0.0132101617 0.0212471132)
( 0.0091278807 0.1062810664 0.2681427926 0.2715770447 0.1568007230 0.0841391776 0.0433800271 0.0605512878)
( 0.0164321380 0.1482523831 0.3024058103 0.2547435315 0.1252837040 0.0566500227 0.0063549705 0.0898774399)
( 0.0290100782 0.2038240558 0.3358764246 0.2350946595 0.0983328624 0.0375812376 0.0188377131 0.0414429688)
( 0.0439383660 0.2390841110 0.3178761710 0.1846634310 0.0656891675 0.0212266858 0.0812298102 0.0462922575)
( 0.0705681410 0.2972851492 0.3183207479 0.1532722042 0.0462962963 0.0126752967 0.0521395182 0.0494426465)
( 0.1003403536 0.3260634149 0.2807649589 0.1119641084 0.0287175118 0.0427386664 0.0256431998 0.0837677861)
( 0.1534783590 0.3836958931 0.2650740915 0.0874151363 0.0190707343 0.0492835243 0.0082139207 0.0337683407)
( 0.2082744722 0.3984576889 0.2204253155 0.0600341754 0.0110707683 0.0261096444 0.0144053210 0.0612226143)
)
(( 0.0169347915 0.0707427204 0.2288790410 0.2876745201 0.2006572110 0.1322663098 0.0148634971 0.0479819091)
( 0.0202996617 0.1066215563 0.2794586757 0.2925084582 0.1739004350 0.0962783954 0.0241662639 0.0067665539)
( 0.0147361651 0.1395867507 0.2959889937 0.2578376951 0.1305461586 0.0609335906 0.0108508807 0.0895197655)
( 0.0243842224 0.1790201098 0.3067552536 0.2220612996 0.0956278047 0.0376610410 0.0563991450 0.0780911239)
( 0.0431450218 0.2457958817 0.3398370872 0.2042384473 0.0748033819 0.0249344606 0.0541701630 0.0130755566)
( 0.0696090451 0.3069691866 0.3419173317 0.1703363016 0.0530445818 0.0150324898 0.0124485294 0.0306425339)
( 0.0948147500 0.3229762718 0.2892932236 0.1194059729 0.0315183279 0.0606061084 0.0805195440 0.0008658015)
( 0.1509732762 0.3959109445 0.2845669596 0.0971156369 0.0217722372 0.0105052000 0.0114602182 0.0276955274)
( 0.1830124664 0.3677798468 0.2117596288 0.0597506427 0.0113651572 0.0610163560 0.0392845032 0.0660313989)
)
(( 0.0813825896 0.0827542063 0.2425932699 0.2799926847 0.1812362838 0.1100036576 0.0110643745 0.0109729334)
( 0.0105180121 0.1138574809 0.2701376107 0.2595319485 0.1431326146 0.0731001841 0.0482075554 0.0815145937)
( 0.0190576941 0.1599228198 0.3069007907 0.2451430745 0.1150653228 0.0496219205 0.0485480379 0.0557403398)
( 0.0322110526 0.2104576076 0.3261821476 0.2164293196 0.0864088630 0.0314872087 0.0760112083 0.0208125928)
( 0.0524579616 0.2653970741 0.3316549524 0.1825975737 0.0619625400 0.0191005470 0.0347317404 0.0520976107)
( 0.0814460623 0.3186059524 0.3204465414 0.1462347944 0.0421494876 0.0110435339 0.0266912093 0.0533824187)
( 0.1055564529 0.3183653691 0.2573089969 0.0971571636 0.0237441447 0.0654175416 0.0581489259 0.0743014053)
( 0.1562659873 0.3619191180 0.2346100371 0.0732787017 0.0151960441 0.0565687101 0.0295508187 0.0726105831)
( 0.2130424084 0.3770774490 0.1956062810 0.0504462799 0.0088873465 0.0177800270 0.0838201272 0.0533400809)
)
(( 0.0111735124 0.1170187231 0.2708494057 0.2546521435 0.1378066532 0.0690332512 0.0641025280 0.0753637829)
( 0.0204454454 0.1671983087 0.3129516169 0.2446183951 0.1126771211 0.0476151705 0.0545157360 0.0399782064)
( 0.0346693571 0.2194808768 0.3316518389 0.2153535724 0.0843804457 0.0300834633 0.0467761167 0.0376043291)
( 0.0544425478 0.2669122271 0.3252178600 0.1750965771 0.0583056329 0.0176084808 0.0871440122 0.0152726619)
( 0.0822415014 0.3118803116 0.3058604816 0.1364199717 0.0385977337 0.0099150142 0.0300991501 0.0849858357)
( 0.1225397823 0.3582829744 0.2821556923 0.1042261369 0.0250465910 0.0377120881 0.0269372058 0.0430995292)
( 0.1642606987 0.3687537371 0.2328521397 0.0710685914 0.0144358076 0.0512513881 0.0785854617 0.0187921756)
( 0.2104880796 0.3607327427 0.1822666671 0.0459305511 0.0525718845 0.0509542881 0.0452927005 0.0517630863)
( 0.2803275228 0.3643678836 0.1469051914 0.0305225296 0.0703234147 0.0198560230 0.0397120460 0.0479853889)
)
(( 0.0337667800 0.2070525193 0.3045729959 0.1931930200 0.0741693203 0.0259550623 0.0831653121 0.0781249902)
( 0.0614085588 0.2919785070 0.3461907503 0.1821147572 0.0593935905 0.0176549607 0.0143926310 0.0268662445)
( 0.0866355333 0.3181661143 0.3035347294 0.1323031891 0.0366227997 0.0092222062 0.0505498390 0.0629655890)
( 0.1294286133 0.3661705867 0.2806099348 0.1011500928 0.0238373427 0.0679840113 0.0281000580 0.0027193605)
( 0.1857738646 0.4034848638 0.2477913236 0.0739010439 0.0147616407 0.0362150409 0.0362150409 0.0018571816)
( 0.2260109120 0.3744485055 0.1839955254 0.0452860455 0.0201291442 0.0285162877 0.0494841462 0.0721294335)
( 0.3052134427 0.3829803969 0.1502038145 0.0304951281 0.0131107218 0.0734200420 0.0122366737 0.0323397804)
( 0.3916083251 0.3689896468 0.1151578036 0.0192079252 0.0224436537 0.0044887307 0.0484782920 0.0296256229)
( 0.4677868182 0.3271397971 0.0811185863 0.0111060496 0.0399857771 0.0079971554 0.0204371750 0.0444286413)
)
)
((( 0.1870392411 0.3872490147 0.2286722668 0.0658526629 0.0127285684 0.0583451063 0.0282885364 0.0318246034)
( 0.2436468646 0.3844971368 0.1814867811 0.0431332435 0.0602720361 0.0413293962 0.0404683671 0.0051661745)
( 0.3066348872 0.3659754330 0.1378720655 0.0270188830 0.0446240040 0.0420981169 0.0303106442 0.0454659663)
( 0.3823538873 0.3420215533 0.1025641906 0.0165726117 0.0050752786 0.0397563491 0.0389104693 0.0727456600)
( 0.4914254201 0.3255636764 0.0775410452 0.0103267268 0.0235592516 0.0063428754 0.0081551256 0.0570858790)
( 0.4769447256 0.2306821109 0.0434892490 0.0612753710 0.0567364547 0.0711096899 0.0189121516 0.0408502474)
( 0.5382298492 0.1867636390 0.0278785506 0.0143591170 0.0423216080 0.0680168701 0.0589479541 0.0634824121)
( 0.6309447638 0.1538556216 0.0180959285 0.0008045048 0.0788414744 0.0683829115 0.0040225242 0.0450522711)
( 0.6041364501 0.1010469677 0.0093681181 0.0701101491 0.0586635941 0.0672485103 0.0350550745 0.0543711360)
)
(( 0.0706225315 0.3055294339 0.3346812112 0.1643784089 0.0504984014 0.0141056987 0.0376151965 0.0225691179)
( 0.0981381590 0.3277362102 0.2886723508 0.1173655820 0.0306246737 0.0861318949 0.0348007656 0.0165303637)
( 0.1546442733 0.3974253013 0.2809895021 0.0945207142 0.0209622552 0.0076234006 0.0047646254 0.0390699280)
( 0.2092198582 0.4117207913 0.2331093692 0.0647629713 0.0121313923 0.0541246734 0E-10 0.0149309444)
( 0.2712476060 0.4062791698 0.1837777729 0.0420948572 0.0501229498 0.0182265272 0.0054679582 0.0227831590)
( 0.3259004629 0.3686401009 0.1330153548 0.0250956191 0.0505439493 0.0154201879 0.0719608769 0.0094234482)
( 0.3757055900 0.3178123398 0.0912839630 0.0141730364 0.0512573886 0.0704789093 0.0120134505 0.0672753225)
( 0.4928950576 0.3080373754 0.0702247658 0.0089873602 0.0713844906 0.0123380601 0.0282012802 0.0079316101)
( 0.4840559454 0.2201343047 0.0397454280 0.0187181522 0.0419286609 0.0636417174 0.0711289783 0.0606468131)
)
(( 0.0176093284 0.1543781533 0.3072052259 0.2531911203 0.1221704180 0.0541965857 0.0602244511 0.0310247172)
( 0.0297029703 0.2025615406 0.3255518212 0.2229085294 0.0914706150 0.0342447089 0.0472340812 0.0463257335)
( 0.0473209467 0.2500613580 0.3241173027 0.1842041459 0.0642531121 0.0204077152 0.0231749667 0.0864604527)
( 0.0762200966 0.3114399341 0.3250209695 0.1530869092 0.0453625060 0.0121952155 0.0711316437 0.0055427255)
( 0.1056483554 0.3331324264 0.2794041674 0.1089202686 0.0273807474 0.0749095919 0.0344411917 0.0361632512)
( 0.1682692308 0.4076923077 0.2744230769 0.0884615385 0.0188461538 0.0057692308 0.0182692308 0.0182692308)
( 0.2156593725 0.3996358989 0.2152993401 0.0573351504 0.0103509298 0.0351066639 0.0639121318 0.0027005126)
( 0.2525469297 0.3556795993 0.1530975695 0.0336302157 0.0424508646 0.0656786962 0.0392470258 0.0576690991)
( 0.3431415332 0.3642552944 0.1249660011 0.0225728422 0.0214592203 0.0042918441 0.0463519158 0.0729613490)
)
(( 0.0579168970 0.0752060716 0.2348671602 0.2861567668 0.1942278545 0.1242535096 0.0133595879 0.0140121525)
( 0.0097238778 0.1139638483 0.2880212617 0.2922997680 0.1690982357 0.0909182578 0.0359747505 0E-10)
( 0.0170233000 0.1548264384 0.3165002378 0.2671421778 0.1316214931 0.0596291013 0.0304327152 0.0228245364)
( 0.0279902652 0.1967524179 0.3249423621 0.2279337557 0.0955498304 0.0365605744 0.0592687033 0.0310020910)
( 0.0467737139 0.2549680983 0.3398329803 0.1978313460 0.0704873333 0.0228733730 0.0597628046 0.0074703506)
( 0.0709219450 0.2993776824 0.3213253943 0.1550850807 0.0469789866 0.0128784095 0.0598693699 0.0335631316)
( 0.1013950623 0.3304663709 0.2851898760 0.1139718665 0.0293169641 0.0034698102 0.0711311089 0.0650589411)
( 0.1360694881 0.3410667776 0.2361731150 0.0780207506 0.0170492795 0.0738876001 0.0470931956 0.0706397935)
( 0.2192201095 0.4206630470 0.2332897430 0.0636936110 0.0117880713 0.0066558876 0.0057050465 0.0389844842)
)
(( 0.0390885690 0.0404233006 0.1721803794 0.2745733626 0.2358661455 0.1959195348 0.0295547717 0.0123939365)
( 0.0789832047 0.0600998638 0.2073536087 0.2758057195 0.2020880617 0.1406264185 0.0168860645 0.0181570586)
( 0.0593471391 0.0859574798 0.2404191441 0.2663372877 0.1663299051 0.0972148553 0.0093375130 0.0750566759)
( 0.0119765714 0.1223009004 0.2767724451 0.2552670688 0.1357636157 0.0667890550 0.0655651718 0.0655651718)
( 0.0214732712 0.1703486287 0.3117667414 0.2389912196 0.1082648194 0.0449231616 0.0880582025 0.0161739556)
( 0.0390769974 0.2408439060 0.3559148631 0.2266073115 0.0872850520 0.0306332241 0.0196386460 0E-10)
( 0.0598883662 0.2859551594 0.3404677195 0.1797594109 0.0588509299 0.0175421041 0.0547066555 0.0028296546)
( 0.0949441505 0.3504801097 0.3358808544 0.1469723692 0.0408583186 0.0102880658 0.0156770527 0.0048990790)
( 0.1194507624 0.3396512509 0.2613933114 0.0946002864 0.0223233089 0.0513857299 0.0463313958 0.0648639542)
)
(( 0.0383107855 0.0252163639 0.1276856874 0.2364813778 0.2317588785 0.2233831251 0.0405422106 0.0766215710)
( 0.0703667559 0.0403688889 0.1658730381 0.2564611767 0.2145091941 0.1728210604 0.0250656500 0.0545342358)
( 0.0830208891 0.0633815390 0.2112122835 0.2723620782 0.1942510266 0.1311372969 0.0151758615 0.0294590252)
( 0.0533143771 0.0932113026 0.2514661454 0.2700373201 0.1642082815 0.0931224454 0.0417629287 0.0328771992)
( 0.0133911155 0.1310733031 0.2861796678 0.2557614385 0.1324035463 0.0632308965 0.0576496398 0.0603103924)
( 0.0251179920 0.1912239467 0.3375049729 0.2506987324 0.1104806698 0.0445579705 0.0028868368 0.0375288788)
( 0.0390698941 0.2307113423 0.3287478358 0.2027655152 0.0759692385 0.0259561565 0.0633140302 0.0334659874)
( 0.0604019751 0.2762242369 0.3171103691 0.1622199243 0.0516595839 0.0149238798 0.0803673895 0.0370926413)
( 0.0909477597 0.3212552014 0.2966107265 0.1256780518 0.0339409672 0.0508726867 0.0219278822 0.0587667243)
)
(( 0.0319693095 0.0235659481 0.1238582389 0.2371209353 0.2391304348 0.2381256851 0.0450310559 0.0611983924)
( 0.0075557272 0.0398604469 0.1701153194 0.2717500132 0.2338731431 0.1945794325 0.0293758269 0.0528900907)
( 0.0068526676 0.0645129711 0.2231032795 0.2973078806 0.2182085169 0.1521292217 0.0183064121 0.0195790504)
( 0.0530551273 0.0867538077 0.2431936506 0.2699007351 0.1689090446 0.0988692732 0.0094624439 0.0698559177)
( 0.0120162573 0.1231666372 0.2793779820 0.2581728221 0.1375684750 0.0677681569 0.0353419332 0.0865877363)
( 0.0219103002 0.1747277198 0.3205190424 0.2461904290 0.1116778171 0.0464091591 0.0785655324 0E-10)
( 0.0348127614 0.2151182502 0.3185895131 0.2032502633 0.0784166241 0.0276040583 0.0747318347 0.0474766950)
( 0.0574906077 0.2751726080 0.3284787727 0.1738363153 0.0570357769 0.0170106703 0.0655021792 0.0254730697)
( 0.0891283460 0.3299134215 0.3168905233 0.1389109143 0.0386992507 0.0097902639 0.0757435782 0.0009237022)
)
(( 0.0391221154 0.0311991523 0.1486491720 0.2615194997 0.2448227057 0.2241186811 0.0381641007 0.0124045732)
( 0.0812785388 0.0477625571 0.1847488584 0.2711415525 0.2166210046 0.1658447489 0.0225570776 0.0100456621)
( 0.0722182596 0.0711483595 0.2231633381 0.2730920114 0.1860734665 0.1194721826 0.0129279601 0.0419044223)
( 0.0204690832 0.0991897655 0.2518550107 0.2566311301 0.1489978678 0.0804264392 0.0656716418 0.0767590618)
( 0.0158405166 0.1447125159 0.2972110485 0.2519268599 0.1244867716 0.0566499831 0.0357941982 0.0733781063)
( 0.0272800936 0.1931214549 0.3206086252 0.2258035473 0.0949851445 0.0364634915 0.0603223193 0.0414153237)
( 0.0456726333 0.2507842775 0.3358553239 0.1962539214 0.0702159070 0.0227901827 0.0572061266 0.0212216276)
( 0.0723021827 0.3072375697 0.3313382973 0.1605781035 0.0487619372 0.0134515689 0.0420403568 0.0242899839)
( 0.0988317558 0.3240385435 0.2809755266 0.1127313038 0.0290781956 0.0306983883 0.0673659077 0.0562803786)
)
(( 0.0504916290 0.0488085747 0.1841615732 0.2645938524 0.2075471698 0.1555496501 0.0206395606 0.0682079901)
( 0.0416931025 0.0758633191 0.2319405420 0.2777123176 0.1857155805 0.1167406870 0.0123266564 0.0580077948)
( 0.0099623386 0.1139090035 0.2821409477 0.2812950888 0.1602432764 0.0847738624 0.0131591216 0.0545163609)
( 0.0175700851 0.1557137172 0.3120781783 0.2588101425 0.1255006079 0.0559639748 0.0139431177 0.0604201766)
( 0.0299006407 0.2053115424 0.3323428359 0.2289906212 0.0945305971 0.0355650478 0.0668585755 0.0065001393)
( 0.0457962741 0.2439549134 0.3185599336 0.1821343216 0.0639221417 0.0204025466 0.0700586680 0.0551712011)
( 0.0736911336 0.3035459102 0.3191170097 0.1512750421 0.0450837648 0.0122215025 0.0380262548 0.0570393823)
( 0.1094554321 0.3480538246 0.2940485867 0.1154158765 0.0291700533 0.0234805382 0.0162557572 0.0641199314)
( 0.1613060469 0.3942726039 0.2672592328 0.0867567423 0.0186373238 0.0410103144 0.0037282104 0.0270295254)
)
(( 0.0102157450 0.1123731947 0.2711169883 0.2641880483 0.1475508904 0.0763960059 0.0639658434 0.0541932840)
( 0.0187579363 0.1606899075 0.3135255068 0.2540175709 0.1207715406 0.0527624711 0.0304962466 0.0489788202)
( 0.0309504765 0.2059154239 0.3244837215 0.2184580368 0.0883396981 0.0325746997 0.0451263379 0.0541516055)
( 0.0502216278 0.2591762345 0.3293414690 0.1839344456 0.0632756249 0.0197623012 0.0072529459 0.0870353510)
( 0.0815883626 0.3255918320 0.3331128129 0.1542277099 0.0450306832 0.0119002863 0.0409328914 0.0076154217)
( 0.1092911453 0.3363929726 0.2765840349 0.1060210082 0.0262470840 0.0783266373 0.0387329525 0.0284041652)
( 0.1654742249 0.3913043478 0.2581177766 0.0817281233 0.0171528160 0.0715465052 0.0073381031 0.0073381031)
( 0.2160234448 0.3905275538 0.2061044491 0.0538961356 0.0096556595 0.0158033307 0.0781386907 0.0298507358)
( 0.2509799313 0.3445920295 0.1452386996 0.0313336150 0.0303289190 0.0692121485 0.0699898131 0.0583248442)
)
)
((( 0.0822743274 0.3198023352 0.3199863941 0.1453144999 0.0416893404 0.0108594750 0.0497008725 0.0303727554)
( 0.1089812443 0.3265306122 0.2624969016 0.0986532265 0.0240436255 0.0479220028 0.0685780385 0.0627943485)
( 0.1696948952 0.3904983253 0.2517231842 0.0782087900 0.0161874007 0E-10 0.0209204884 0.0727669161)
( 0.2316508747 0.4071938079 0.2100849558 0.0539147971 0.0094122442 0.0283337805 0.0365597168 0.0228498230)
( 0.2791312450 0.3723435565 0.1533873425 0.0324473207 0.0278175527 0.0699653597 0.0472055439 0.0177020790)
( 0.3774143105 0.3788627702 0.1242959609 0.0216363674 0.0425570164 0.0262585846 0.0054328106 0.0235421793)
( 0.4296902426 0.3209959011 0.0837675534 0.0120394650 0.0636078057 0.0432533079 0.0016962082 0.0449495161)
( 0.4851259725 0.2661522794 0.0550687968 0.0618387576 0.0179006930 0.0374287217 0.0097640144 0.0667207647)
( 0.5429351263 0.2153087262 0.0352337838 0.0007973836 0.0055816855 0.0637906915 0.0749540625 0.0613985406)
)
