net { }

node Age { 
 states = ( "0-3_days" "4-10_days" "11-30_days" ); 
}

node BirthAsphyxia { 
 states = ( "yes" "no" ); 
}

node CO2 { 
 states = ( "Normal" "Low" "High" ); 
}

node CO2Report { 
 states = ( "<7.5" ">=7.5" ); 
}

node CardiacMixing { 
 states = ( "None" "Mild" "Complete" "Transp." ); 
}

node ChestXray { 
 states = ( "Normal" "Oligaemic" "Plethoric" "Grd_Glass" "Asy/Patch" ); 
}

node Disease { 
 states = ( "PFC" "TGA" "Fallot" "PAIVS" "TAPVD" "Lung" ); 
}

node DuctFlow { 
 states = ( "Lt_to_Rt" "None" "Rt_to_Lt" ); 
}

node Grunting { 
 states = ( "yes" "no" ); 
}

node GruntingReport { 
 states = ( "yes" "no" ); 
}

node HypDistrib { 
 states = ( "Equal" "Unequal" ); 
}

node HypoxiaInO2 { 
 states = ( "Mild" "Moderate" "Severe" ); 
}

node LVH { 
 states = ( "yes" "no" ); 
}

node LVHreport { 
 states = ( "yes" "no" ); 
}

node LowerBodyO2 { 
 states = ( "<5" "5-12" "12+" ); 
}

node LungFlow { 
 states = ( "Normal" "Low" "High" ); 
}

node LungParench { 
 states = ( "Normal" "Congested" "Abnormal" ); 
}

node RUQO2 { 
 states = ( "<5" "5-12" "12+" ); 
}

node Sick { 
 states = ( "yes" "no" ); 
}

node XrayReport { 
 states = ( "Normal" "Oligaemic" "Plethoric" "Grd_Glass" "Asy/Patchy" ); 
}

potential ( Age | Disease Sick ) { 
 data = ((( 0.9500000000 0.0300000000 0.0200000000)
( 0.8500000000 0.1000000000 0.0500000000)
)
(( 0.8000000000 0.1500000000 0.0500000000)
( 0.7000000000 0.2000000000 0.1000000000)
)
(( 0.7000000000 0.1500000000 0.1500000000)
( 0.2500000000 0.2500000000 0.5000000000)
)
(( 0.8000000000 0.1500000000 0.0500000000)
( 0.8000000000 0.1500000000 0.0500000000)
)
(( 0.8000000000 0.1500000000 0.0500000000)
( 0.7000000000 0.2000000000 0.1000000000)
)
(( 0.9000000000 0.0800000000 0.0200000000)
( 0.8000000000 0.1500000000 0.0500000000))); 
}

potential ( BirthAsphyxia ) { 
 data = (  0.1000000000 0.9000000000); 
}

potential ( CO2 | LungParench ) { 
 data = (( 0.8000000000 0.1000000000 0.1000000000)
( 0.6500000000 0.0500000000 0.3000000000)
( 0.4500000000 0.0500000000 0.5000000000)); 
}

potential ( CO2Report | CO2 ) { 
 data = (( 0.5000000000 0.5000000000)
( 0.5000000000 0.1000000000)
( 0.5000000000 0.9000000000)); 
}

potential ( CardiacMixing | Disease ) { 
 data = (( 0.4000000000 0.4300000000 0.1500000000 0.0200000000)
( 0.0200000000 0.0900000000 0.0900000000 0.8000000000)
( 0.0200000000 0.1600000000 0.8000000000 0.0200000000)
( 0.0100000000 0.0200000000 0.9500000000 0.0200000000)
( 0.0100000000 0.0300000000 0.9500000000 0.0100000000)
( 0.4000000000 0.5300000000 0.0500000000 0.0200000000)); 
}

potential ( ChestXray | LungFlow LungParench ) { 
 data = ((( 0.9000000000 0.0300000000 0.0300000000 0.0100000000 0.0300000000)
( 0.0500000000 0.0200000000 0.1500000000 0.7000000000 0.0800000000)
( 0.0500000000 0.0500000000 0.0500000000 0.0500000000 0.8000000000)
)
(( 0.1400000000 0.8000000000 0.0200000000 0.0200000000 0.0200000000)
( 0.0500000000 0.2200000000 0.0800000000 0.5000000000 0.1500000000)
( 0.0500000000 0.1500000000 0.0500000000 0.0500000000 0.7000000000)
)
(( 0.1500000000 0.0100000000 0.7900000000 0.0400000000 0.0100000000)
( 0.0500000000 0.0200000000 0.4000000000 0.4000000000 0.1300000000)
( 0.2400000000 0.3300000000 0.0300000000 0.3400000000 0.0600000000))); 
}

potential ( Disease | BirthAsphyxia ) { 
 data = (( 0.1415162461 0.2122743692 0.1768953076 0.2556521712 0.0852173904 0.0852173904)
( 0.0216606464 0.2382671463 0.2093862844 0.4000000000 0.0869565240 0.0869565240)); 
}

potential ( DuctFlow | Disease ) { 
 data = (( 0.1428571429 0.0476190476 0.8255933953)
( 0.0952380952 0.7619047619 0.1031991744)
( 0.7619047619 0.1904761905 0.0712074303)
( 0.6490066225 0.0135135135 0.0133333333)
( 0.2185430464 0.4459459459 0.4533333333)
( 0.1324503311 0.5405405405 0.5333333333)); 
}

potential ( Grunting | LungParench Sick ) { 
 data = ((( 0.2000000000 0.8000000000)
( 0.0500000000 0.9500000000)
)
(( 0.4000000000 0.6000000000)
( 0.2000000000 0.8000000000)
)
(( 0.8000000000 0.2000000000)
( 0.6000000000 0.4000000000))); 
}

potential ( GruntingReport | Grunting ) { 
 data = (( 0.8888888889 0.1818181818)
( 0.1111111111 0.8181818182)); 
}

potential ( HypDistrib | CardiacMixing DuctFlow ) { 
 data = ((( 0.5000000000 0.5000000000)
( 0.5000000000 0.5000000000)
( 0.0909090909 0.6551724138)
)
(( 0.5000000000 0.5000000000)
( 0.5000000000 0.5000000000)
( 0.9090909091 0.3448275862)
)
(( 0.5000000000 0.5000000000)
( 0.5000000000 0.5000000000)
( 0.6551724138 0.0909090909)
)
(( 0.5000000000 0.5000000000)
( 0.5000000000 0.5000000000)
( 0.3448275862 0.9090909091))); 
}

potential ( HypoxiaInO2 | CardiacMixing LungParench ) { 
 data = ((( 0.8230088496 0.0574712644 0.0222222222)
( 0.5000000000 0.4848484848 0.0500000000)
( 0.7777777778 0.2298850575 0.1282051282)
)
(( 0.0884955752 0.9195402299 0.0909090909)
( 0.3333333333 0.4545454545 0.1428571429)
( 0.1111111111 0.7471264368 0.1724137931)
)
(( 0.0884955752 0.7777777778 0.1818181818)
( 0.1666666667 0.6500000000 0.2857142857)
( 0.1111111111 0.6410256410 0.2758620690)
)
(( 0.0229885057 0.2000000000 0.7272727273)
( 0.0606060606 0.3000000000 0.5714285714)
( 0.0229885057 0.2307692308 0.5517241379))); 
}

potential ( LVH | Disease ) { 
 data = (( 0.5000000000 0.5000000000)
( 0.5000000000 0.5000000000)
( 0.1000000000 0.9000000000)
( 0.9000000000 0.1000000000)
( 0.3333333333 0.5135135135)
( 0.6666666667 0.4864864865)); 
}

potential ( LVHreport | LVH ) { 
 data = (( 0.9473684211 0.0952380952)
( 0.0526315789 0.9047619048)); 
}

potential ( LowerBodyO2 | HypDistrib HypoxiaInO2 ) { 
 data = ((( 0.1250000000 0.2142857143 0.7500000000)
( 0.3750000000 0.4285714286 0.1250000000)
( 0.3125000000 0.3333333333 0.5000000000)
)
(( 0.5000000000 0.3571428571 0.1250000000)
( 0.3125000000 0.3750000000 0.2500000000)
( 0.3750000000 0.2916666667 0.2500000000))); 
}

potential ( LungFlow | Disease ) { 
 data = (( 0.4615384615 0.4333333333 0.0588235294)
( 0.3076923077 0.0333333333 0.8823529412)
( 0.2307692308 0.5333333333 0.0588235294)
( 0.0909090909 0.8095238095 0.0588235294)
( 0.2727272727 0.0952380952 0.7058823529)
( 0.6363636364 0.0952380952 0.2352941176)); 
}

potential ( LungParench | Disease ) { 
 data = (( 0.2727272727 0.5000000000 0.5000000000)
( 0.3636363636 0.2500000000 0.2500000000)
( 0.3636363636 0.2500000000 0.2500000000)
( 0.8602150538 0.0555555556 0.1282051282)
( 0.1075268817 0.6666666667 0.2564102564)
( 0.0322580645 0.2777777778 0.6153846154)); 
}

potential ( RUQO2 | HypoxiaInO2 ) { 
 data = (( 0.1111111111 0.2307692308 0.7500000000)
( 0.3333333333 0.4615384615 0.1250000000)
( 0.5555555556 0.3076923077 0.1250000000)); 
}

potential ( Sick | Disease ) { 
 data = (( 0.5714285714 0.4615384615)
( 0.4285714286 0.5384615385)
( 0.4000000000 0.5333333333)
( 0.6000000000 0.4666666667)
( 0.5000000000 0.5000000000)
( 0.5000000000 0.5000000000)); 
}

potential ( XrayReport | ChestXray ) { 
 data = (( 0.6896551724 0.0652173913 0.0555555556 0.0263157895 0.0555555556)
( 0.0862068966 0.8695652174 0.0185185185 0.0263157895 0.0555555556)
( 0.0862068966 0.0217391304 0.7407407407 0.0263157895 0.0555555556)
( 0.0689655172 0.0217391304 0.0925925926 0.7894736842 0.1851851852)
( 0.0689655172 0.0217391304 0.0925925926 0.1315789474 0.6481481481)); 
}

