net { }

node AMCINInScen { 
 states = ( "LessThanAve" "Average" "MoreThanAve" ); 
}

node AMDewptCalPl { 
 states = ( "Instability" "Neutral" "Stability" ); 
}

node AMInsWliScen { 
 states = ( "LessUnstable" "Average" "MoreUnstable" ); 
}

node AMInstabMt { 
 states = ( "None" "Weak" "Strong" ); 
}

node AreaMeso_ALS { 
 states = ( "StrongUp" "WeakUp" "Neutral" "Down" ); 
}

node AreaMoDryAir { 
 states = ( "VeryWet" "Wet" "Neutral" "Dry" ); 
}

node Boundaries { 
 states = ( "None" "Weak" "Strong" ); 
}

node CapChange { 
 states = ( "Decreasing" "LittleChange" "Increasing" ); 
}

node CapInScen { 
 states = ( "LessThanAve" "Average" "MoreThanAve" ); 
}

node CldShadeConv { 
 states = ( "None" "Some" "Marked" ); 
}

node CldShadeOth { 
 states = ( "Cloudy" "PC" "Clear" ); 
}

node CombClouds { 
 states = ( "Cloudy" "PC" "Clear" ); 
}

node CombMoisture { 
 states = ( "VeryWet" "Wet" "Neutral" "Dry" ); 
}

node CombVerMo { 
 states = ( "StrongUp" "WeakUp" "Neutral" "Down" ); 
}

node CompPlFcst { 
 states = ( "IncCapDecIns" "LittleChange" "DecCapIncIns" ); 
}

node CurPropConv { 
 states = ( "None" "Slight" "Moderate" "Strong" ); 
}

node Date { 
 states = ( "May15_Jun14" "Jun15_Jul1" "Jul2_Jul15" "Jul16_Aug10" "Aug11_Aug20" "Aug20_Sep15" ); 
}

node Dewpoints { 
 states = ( "LowEvrywhere" "LowAtStation" "LowSHighN" "LowNHighS" "LowMtsHighPl" "HighEvrywher" "Other" ); 
}

node IRCloudCover { 
 states = ( "Cloudy" "PC" "Clear" ); 
}

node InsChange { 
 states = ( "Decreasing" "LittleChange" "Increasing" ); 
}

node InsInMt { 
 states = ( "None" "Weak" "Strong" ); 
}

node InsSclInScen { 
 states = ( "LessUnstable" "Average" "MoreUnstable" ); 
}

node LIfr12ZDENSd { 
 states = ( "LIGt0" "N1GtLIGt_4" "N5GtLIGt_8" "LILt_8" ); 
}

node LLIW { 
 states = ( "Unfavorable" "Weak" "Moderate" "Strong" ); 
}

node LatestCIN { 
 states = ( "None" "PartInhibit" "Stifling" "TotalInhibit" ); 
}

node LoLevMoistAd { 
 states = ( "StrongPos" "WeakPos" "Neutral" "Negative" ); 
}

node LowLLapse { 
 states = ( "CloseToDryAd" "Steep" "ModerateOrLe" "Stable" ); 
}

node MeanRH { 
 states = ( "VeryMoist" "Average" "Dry" ); 
}

node MidLLapse { 
 states = ( "CloseToDryAd" "Steep" "ModerateOrLe" ); 
}

node MorningBound { 
 states = ( "None" "Weak" "Strong" ); 
}

node MorningCIN { 
 states = ( "None" "PartInhibit" "Stifling" "TotalInhibit" ); 
}

node MountainFcst { 
 states = ( "XNIL" "SIG" "SVR" ); 
}

node MvmtFeatures { 
 states = ( "StrongFront" "MarkedUpper" "OtherRapid" "NoMajor" ); 
}

node N0_7muVerMo { 
 states = ( "StrongUp" "WeakUp" "Neutral" "Down" ); 
}

node N34StarFcst { 
 states = ( "XNIL" "SIG" "SVR" ); 
}

node OutflowFrMt { 
 states = ( "None" "Weak" "Strong" ); 
}

node PlainsFcst { 
 states = ( "XNIL" "SIG" "SVR" ); 
}

node QGVertMotion { 
 states = ( "StrongUp" "WeakUp" "Neutral" "Down" ); 
}

node R5Fcst { 
 states = ( "XNIL" "SIG" "SVR" ); 
}

node RHRatio { 
 states = ( "MoistMDryL" "DryMMoistL" "Other" ); 
}

node RaoContMoist { 
 states = ( "VeryWet" "Wet" "Neutral" "Dry" ); 
}

node SatContMoist { 
 states = ( "VeryWet" "Wet" "Neutral" "Dry" ); 
}

node ScenRel3_4 { 
 states = ( "ACEFK" "B" "D" "GJ" "HI" ); 
}

node ScenRelAMCIN { 
 states = ( "AB" "CThruK" ); 
}

node ScenRelAMIns { 
 states = ( "ABI" "CDEJ" "F" "G" "H" "K" ); 
}

node Scenario { 
 states = ( "A" "B" "C" "D" "E" "F" "G" "H" "I" "J" "K" ); 
}

node ScnRelPlFcst { 
 states = ( "A" "B" "C" "D" "E" "F" "G" "H" "I" "J" "K" ); 
}

node SfcWndShfDis { 
 states = ( "DenvCyclone" "E_W_N" "E_W_S" "MovingFtorOt" "DryLine" "None" "Other" ); 
}

node SubjVertMo { 
 states = ( "StronUp" "WeakUp" "Neutral" "Down" ); 
}

node SynForcng { 
 states = ( "SigNegative" "NegToPos" "SigPositive" "PosToNeg" "LittleChange" ); 
}

node TempDis { 
 states = ( "QStationary" "Moving" "None" "Other" ); 
}

node VISCloudCov { 
 states = ( "Cloudy" "PC" "Clear" ); 
}

node WindAloft { 
 states = ( "LV" "SWQuad" "NWQuad" "AllElse" ); 
}

node WindFieldMt { 
 states = ( "Westerly" "LVorOther" ); 
}

node WindFieldPln { 
 states = ( "LV" "DenvCyclone" "LongAnticyc" "E_NE" "SEQuad" "WidespdDnsl" ); 
}

node WndHodograph { 
 states = ( "DCVZFavor" "StrongWest" "Westerly" "Other" ); 
}

potential ( AMCINInScen | MorningCIN ScenRelAMCIN ) { 
 data = ((( 0.9560229446 0.0353728489 0.0086042065)
( 0.7447864945 0.2482621648 0.0069513406)
)
(( 0.6000000000 0.3700000000 0.0300000000)
( 0.3000000000 0.6000000000 0.1000000000)
)
(( 0.2500000000 0.4500000000 0.3000000000)
( 0.0100000000 0.4000000000 0.5900000000)
)
(( 0.0089197225 0.0991080278 0.8919722498)
( 0.0867579909 0.0273972603 0.8858447489))); 
}

potential ( AMDewptCalPl ) { 
 data = (  0.3000000000 0.2500000000 0.4500000000); 
}

potential ( AMInsWliScen | AMDewptCalPl LIfr12ZDENSd ScenRelAMIns ) { 
 data = (((( 0.2500000000 0.6382978723 0.7692307692)
( 0.2000000000 0.5172413793 0.7142857143)
( 0.2000000000 0.3977272727 0.8108108108)
( 0.1935483871 0.4444444444 0.5454545455)
( 0.2631578947 0.3333333333 0.6250000000)
( 0.2500000000 0.3716216216 0.4687500000)
)
(( 0.1935483871 0.3750000000 0.6153846154)
( 0.1500000000 0.2727272727 0.6111111111)
( 0.0909090909 0.2695035461 0.6707317073)
( 0.3000000000 0.2121212121 0.5882352941)
( 0.1538461538 0.2173913043 0.5416666667)
( 0.1538461538 0.2592592593 0.5500000000)
)
(( 0.0789473684 0.2079207921 0.5934959350)
( 0.0441176471 0.1954022989 0.5517241379)
( 0.2187500000 0.0555555556 0.5277777778)
( 0.2333333333 0.1586206897 0.5600000000)
( 0.0909090909 0.2307692308 0.4000000000)
( 0.1666666667 0.2391304348 0.4101123596)
)
(( 0.0243902439 0.0677966102 0.4750000000)
( 0.0322580645 0.0645161290 0.4589371981)
( 0.1476510067 0.0869565217 0.3589743590)
( 0.1538461538 0.2432432432 0.3755868545)
( 0.0833333333 0.1551724138 0.3913043478)
( 0.1250000000 0.1960784314 0.3776824034)
)
)
((( 0.3541666667 0.2765957447 0.1538461538)
( 0.3500000000 0.3448275862 0.2380952381)
( 0.3142857143 0.4545454545 0.1351351351)
( 0.3225806452 0.3333333333 0.3636363636)
( 0.3007518797 0.3703703704 0.3125000000)
( 0.3333333333 0.3378378378 0.3125000000)
)
(( 0.3225806452 0.3750000000 0.3076923077)
( 0.2500000000 0.4545454545 0.2777777778)
( 0.2597402597 0.4255319149 0.2439024390)
( 0.4000000000 0.3636363636 0.2352941176)
( 0.2307692308 0.3913043478 0.3333333333)
( 0.3846153846 0.3703703704 0.2500000000)
)
(( 0.2631578947 0.3960396040 0.3252032520)
( 0.2941176471 0.3448275862 0.3448275862)
( 0.1302083333 0.3888888889 0.3333333333)
( 0.4333333333 0.3241379310 0.3200000000)
( 0.2272727273 0.3205128205 0.3500000000)
( 0.3333333333 0.3804347826 0.3089887640)
)
(( 0.1219512195 0.3389830508 0.3750000000)
( 0.1612903226 0.2903225806 0.3719806763)
( 0.5838926174 0.2173913043 0.3479853480)
( 0.3076923077 0.3513513514 0.3286384977)
( 0.2500000000 0.2931034483 0.3478260870)
( 0.2500000000 0.3137254902 0.3433476395)
)
)
((( 0.3958333333 0.0851063830 0.0769230769)
( 0.4500000000 0.1379310345 0.0476190476)
( 0.4857142857 0.1477272727 0.0540540541)
( 0.4838709677 0.2222222222 0.0909090909)
( 0.4360902256 0.2962962963 0.0625000000)
( 0.4166666667 0.2905405405 0.2187500000)
)
(( 0.4838709677 0.2500000000 0.0769230769)
( 0.6000000000 0.2727272727 0.1111111111)
( 0.6493506494 0.3049645390 0.0853658537)
( 0.3000000000 0.4242424242 0.1764705882)
( 0.6153846154 0.3913043478 0.1250000000)
( 0.4615384615 0.3703703704 0.2000000000)
)
(( 0.6578947368 0.3960396040 0.0813008130)
( 0.6617647059 0.4597701149 0.1034482759)
( 0.6510416667 0.5555555556 0.1388888889)
( 0.3333333333 0.5172413793 0.1200000000)
( 0.6818181818 0.4487179487 0.2500000000)
( 0.5000000000 0.3804347826 0.2808988764)
)
(( 0.8536585366 0.5932203390 0.1500000000)
( 0.8064516129 0.6451612903 0.1690821256)
( 0.2684563758 0.6956521739 0.2930402930)
( 0.5384615385 0.4054054054 0.2957746479)
( 0.6666666667 0.5517241379 0.2608695652)
( 0.6250000000 0.4901960784 0.2789699571)))); 
}

potential ( AMInstabMt ) { 
 data = (  0.3333330000 0.3333330000 0.3333340000); 
}

potential ( AreaMeso_ALS | CombVerMo ) { 
 data = (( 0.8424599832 0.0362257793 0.0454928391 0.0758213985)
( 0.0044483986 0.8896797153 0.0498220641 0.0560498221)
( 0.0468750000 0.0286458333 0.8680555556 0.0564236111)
( 0.0302222222 0.0080000000 0.0728888889 0.8888888889)); 
}

potential ( AreaMoDryAir | AreaMeso_ALS CombMoisture ) { 
 data = ((( 0.3680297398 0.0080645161 0.0246913580 0.4482758621)
( 0.5384615385 0.1576086957 0.0131578947 0.2773109244)
( 0.7604562738 0.5092592593 0.1148325359 0.0163934426)
( 0.4224598930 0.5868544601 0.4263565891 0.0819672131)
)
(( 0.2973977695 0.1612903226 0.5432098765 0.3678160920)
( 0.2692307692 0.2989130435 0.1315789474 0.1008403361)
( 0.0380228137 0.3611111111 0.2631578947 0.0819672131)
( 0.2941176471 0.0469483568 0.3333333333 0.2254098361)
)
(( 0.2602230483 0.2338709677 0.0617283951 0.1379310345)
( 0.1538461538 0.3260869565 0.2631578947 0.2016806723)
( 0.0380228137 0.0833333333 0.3827751196 0.1639344262)
( 0.0909090909 0.2159624413 0.2325581395 0.2868852459)
)
(( 0.0743494424 0.5967741935 0.3703703704 0.0459770115)
( 0.0384615385 0.2173913043 0.5921052632 0.4201680672)
( 0.1634980989 0.0462962963 0.2392344498 0.7377049180)
( 0.1925133690 0.1502347418 0.0077519380 0.4057377049))); 
}

potential ( Boundaries | MorningBound OutflowFrMt WndHodograph ) { 
 data = (((( 0.5000000000 0.4800000000 0.0200000000)
( 0.7500000000 0.2200000000 0.0300000000)
( 0.8000000000 0.1800000000 0.0200000000)
( 0.7000000000 0.2800000000 0.0200000000)
)
(( 0.3000000000 0.6300000000 0.0700000000)
( 0.1500000000 0.7000000000 0.1500000000)
( 0.1500000000 0.7000000000 0.1500000000)
( 0.4000000000 0.5500000000 0.0500000000)
)
(( 0.0108803165 0.5440158259 0.4451038576)
( 0.0636704120 0.4681647940 0.4681647940)
( 0.0850869167 0.6404391583 0.2744739250)
( 0.0200000000 0.7300000000 0.2500000000)
)
)
((( 0.3000000000 0.5000000000 0.2000000000)
( 0.4500000000 0.4500000000 0.1000000000)
( 0.3500000000 0.5000000000 0.1500000000)
( 0.2500000000 0.6000000000 0.1500000000)
)
(( 0.1000000000 0.5000000000 0.4000000000)
( 0.1000000000 0.7500000000 0.1500000000)
( 0.0500000000 0.8000000000 0.1500000000)
( 0.2000000000 0.6500000000 0.1500000000)
)
(( 0.0900818926 0.3639672429 0.5459508644)
( 0.0539262062 0.3784295175 0.5676442763)
( 0.0157480315 0.4921259843 0.4921259843)
( 0.0100000000 0.5000000000 0.4900000000)
)
)
((( 0.1000000000 0.2500000000 0.6500000000)
( 0.2500000000 0.4000000000 0.3500000000)
( 0.2500000000 0.3500000000 0.4000000000)
( 0.0500000000 0.3500000000 0.6000000000)
)
(( 0.0500000000 0.2000000000 0.7500000000)
( 0.0500000000 0.5000000000 0.4500000000)
( 0.0500000000 0.4500000000 0.5000000000)
( 0.0500000000 0.3000000000 0.6500000000)
)
(( 0.0099009901 0.1485148515 0.8415841584)
( 0.0128331688 0.1974333662 0.7897334650)
( 0.0215264188 0.1956947162 0.7827788650)
( 0.0100000000 0.2000000000 0.7900000000)))); 
}

potential ( CapChange | CompPlFcst ) { 
 data = (( 0.0875331565 0.0282935455 0.8841732980)
( 0.0307136405 0.9033423668 0.0659439928)
( 0.9416195857 0.0310734463 0.0273069680)); 
}

potential ( CapInScen | AMCINInScen CapChange ) { 
 data = ((( 0.4878048780 0.1004497751 0.0431266846)
( 0.9245283019 0.0204081633 0.0471698113)
( 0.8454106280 0.5426356589 0.1463414634)
)
(( 0.3658536585 0.3748125937 0.0134770889)
( 0.0283018868 0.9591836735 0.0283018868)
( 0.0893719807 0.3875968992 0.3658536585)
)
(( 0.1463414634 0.5247376312 0.9433962264)
( 0.0471698113 0.0204081633 0.9245283019)
( 0.0652173913 0.0697674419 0.4878048780))); 
}

potential ( CldShadeConv | InsInMt WndHodograph ) { 
 data = ((( 0.8857395926 0.0318866253 0.0823737821)
( 0.8620689655 0.0646551724 0.0732758621)
( 0.9066183137 0.0534904805 0.0398912058)
( 0.9285051068 0.0529247911 0.0185701021)
)
(( 0.3000000000 0.6000000000 0.1000000000)
( 0.2000000000 0.7000000000 0.1000000000)
( 0.5000000000 0.4600000000 0.0400000000)
( 0.8000000000 0.1900000000 0.0100000000)
)
(( 0.0530303030 0.2840909091 0.6628787879)
( 0E-10 0.2000000000 0.8000000000)
( 0.1000000000 0.5000000000 0.4000000000)
( 0.5000000000 0.3800000000 0.1200000000))); 
}

potential ( CldShadeOth | AreaMeso_ALS AreaMoDryAir CombClouds ) { 
 data = (((( 0.3472222222 0.1376146789 0.0347490347)
( 0.5862068966 0.2000000000 0.0426997245)
( 0.8064516129 0.4206730769 0.7874015748)
)
(( 0.3593750000 0.2000000000 0.5808383234)
( 0.7121057986 0.1847133758 0.0384615385)
( 0.6912442396 0.5063291139 0.2205882353)
)
(( 0.3776824034 0.2666666667 0.5321100917)
( 0.7936507937 0.2380952381 0.1250000000)
( 0.3921568627 0.6153846154 0.2192982456)
)
(( 0.3811659193 0.1386138614 0.2000000000)
( 0.9649122807 0.2077294686 0.0512820513)
( 0.5464480874 0.6097560976 0.2509652510)
)
)
((( 0.3298611111 0.0917431193 0.5269461078)
( 0.2758620690 0.7333333333 0.0877192982)
( 0.1612903226 0.5408653846 0.2380952381)
)
(( 0.3515625000 0.1428571429 0.0598802395)
( 0.2543234995 0.3174603175 0.5769230769)
( 0.0460829493 0.7142857143 0.3382352941)
)
(( 0.3953488372 0.3333333333 0.3761467890)
( 0.7894736842 0.3571428571 0.1250000000)
( 0.2424242424 0.3076923077 0.3508771930)
)
(( 0.2690582960 0.3861386139 0.1666666667)
( 0.0175438596 0.4347826087 0.1406250000)
( 0.0054644809 0.3658536585 0.3024911032)
)
)
((( 0.3229166667 0.1750000000 0.4131736527)
( 0.1379310345 0.4968152866 0.0350877193)
( 0.0322580645 0.3670886076 0.3333333333)
)
(( 0.3433476395 0.3174603175 0.3592814371)
( 0.0198412698 0.4708994709 0.3846153846)
( 0.3686274510 0.2380952381 0.4411764706)
)
(( 0.3720930233 0.4000000000 0.4000000000)
( 0.1578947368 0.4047619048 0.3076923077)
( 0.4909090909 0.0769230769 0.3667953668)
)
(( 0.3497757848 0.2574002574 0.3333333333)
( 0.0175438596 0.5096418733 0.3906250000)
( 0.4480874317 0.0787401575 0.3416370107)
)
)
((( 0.2890625000 0.6250000000 0.0598802395)
( 0.0335707019 0.3184713376 0.8771929825)
( 0.2626728111 0.1265822785 0.4285714286)
)
(( 0.2789699571 0.5396825397 0.0917431193)
( 0.1865079365 0.2116402116 0.7500000000)
( 0.2392156863 0.0476190476 0.4298245614)
)
(( 0.2325581395 0.4752475248 0.4000000000)
( 0.0526315789 0.3574879227 0.6410256410)
( 0.2666666667 0.0243902439 0.3822393822)
)
(( 0.7706422018 0.7078507079 0.5000000000)
( 0.0666666667 0.4476584022 0.4687500000)
( 0.0384615385 0.1338582677 0.3558718861)))); 
}

potential ( CombClouds | IRCloudCover VISCloudCov ) { 
 data = ((( 0.9500000000 0.0400000000 0.0100000000)
( 0.4500000000 0.5200000000 0.0300000000)
( 0.1000000000 0.4000000000 0.5000000000)
)
(( 0.8500000000 0.1300000000 0.0200000000)
( 0.1000000000 0.8000000000 0.1000000000)
( 0.0200000000 0.2800000000 0.7000000000)
)
(( 0.8000000000 0.1000000000 0.1000000000)
( 0.0500000000 0.4500000000 0.5000000000)
( 0.0548204159 0.0189035917 0.9262759924))); 
}

potential ( CombMoisture | RaoContMoist SatContMoist ) { 
 data = ((( 0.7839721254 0.0871080139 0.0670731707 0.0618466899)
( 0.5478087649 0.3984063745 0.0498007968 0.0039840637)
( 0.2500000000 0.3000000000 0.3500000000 0.1000000000)
( 0.2500000000 0.2500000000 0.2500000000 0.2500000000)
)
(( 0.5976095618 0.3486055777 0.0498007968 0.0039840637)
( 0.1500000000 0.6000000000 0.2000000000 0.0500000000)
( 0.1000000000 0.3500000000 0.5000000000 0.0500000000)
( 0.2500000000 0.2500000000 0.2500000000 0.2500000000)
)
(( 0.2806361085 0.4677268475 0.1870907390 0.0645463050)
( 0.0500000000 0.4000000000 0.4500000000 0.1000000000)
( 0.0697674419 0.1395348837 0.6511627907 0.1395348837)
( 0.2500000000 0.2500000000 0.2500000000 0.2500000000)
)
(( 0.2500000000 0.3500000000 0.2500000000 0.1500000000)
( 0.1000000000 0.3000000000 0.3000000000 0.3000000000)
( 0.0842490842 0.0915750916 0.3663003663 0.4578754579)
( 0.2500000000 0.2500000000 0.2500000000 0.2500000000))); 
}

potential ( CombVerMo | N0_7muVerMo QGVertMotion SubjVertMo ) { 
 data = (((( 0.9596928983 0.0287907869 0.0115163148 0E-10)
( 0.8637236084 0.0959692898 0.0095969290 0.0307101727)
( 0.6849315068 0.1956947162 0.0978473581 0.0215264188)
( 0.2000000000 0.5000000000 0.2000000000 0.1000000000)
)
(( 0.8466603951 0.0940733772 0.0442144873 0.0150517404)
( 0.6055363322 0.2595155709 0.0631487889 0.0717993080)
( 0.1399253731 0.6529850746 0.1399253731 0.0671641791)
( 0.1000000000 0.3500000000 0.4500000000 0.1000000000)
)
(( 0.6698564593 0.1913875598 0.0956937799 0.0430622010)
( 0.1453488372 0.6782945736 0.1453488372 0.0310077519)
( 0.1858736059 0.5576208178 0.1858736059 0.0706319703)
( 0.1000000000 0.2000000000 0.6000000000 0.1000000000)
)
(( 0.2000000000 0.5000000000 0.2000000000 0.1000000000)
( 0.1000000000 0.3500000000 0.4500000000 0.1000000000)
( 0.1000000000 0.2000000000 0.6000000000 0.1000000000)
( 0.1000000000 0.1000000000 0.2000000000 0.6000000000)
)
)
((( 0.7785467128 0.0865051903 0.0839100346 0.0510380623)
( 0.6410256410 0.2747252747 0.0201465201 0.0641025641)
( 0.1407129456 0.6566604128 0.1407129456 0.0619136961)
( 0.1000000000 0.3500000000 0.4500000000 0.1000000000)
)
(( 0.6222222222 0.2666666667 0.0346666667 0.0764444444)
( 0.0453703704 0.9259259259 0.0018518519 0.0268518519)
( 0.0550621670 0.6216696270 0.2664298401 0.0568383659)
( 0.0243902439 0.1951219512 0.6829268293 0.0975609756)
)
(( 0.1447876448 0.6756756757 0.1447876448 0.0347490347)
( 0.0108161259 0.6882989184 0.2949852507 0.0058997050)
( 0.0719424460 0.2697841727 0.6294964029 0.0287769784)
( 0E-10 0.1500000000 0.5000000000 0.3500000000)
)
(( 0.1000000000 0.3500000000 0.4500000000 0.1000000000)
( 0.0147783251 0.1970443350 0.6896551724 0.0985221675)
( 0.0900818926 0.1364877161 0.4549590537 0.3184713376)
( 0.0706319703 0.0929368030 0.1858736059 0.6505576208)
)
)
((( 0.6862745098 0.1960784314 0.0980392157 0.0196078431)
( 0.1498501499 0.6993006993 0.1498501499 0.0009990010)
( 0.1988071571 0.5964214712 0.1988071571 0.0059642147)
( 0.1000000000 0.2000000000 0.6000000000 0.1000000000)
)
(( 0.1373626374 0.6410256410 0.1373626374 0.0842490842)
( 0.0850091408 0.6398537477 0.2742230347 0.0009140768)
( 0.0557491289 0.2613240418 0.6097560976 0.0731707317)
( 0.0610328638 0.1408450704 0.4694835681 0.3286384977)
)
(( 0.1951219512 0.5853658537 0.1951219512 0.0243902439)
( 0.0478260870 0.2608695652 0.6086956522 0.0826086957)
( 0.0148285449 0.0509731233 0.9267840593 0.0074142725)
( 0.0766519824 0.0422907489 0.6167400881 0.2643171806)
)
(( 0.1000000000 0.2000000000 0.6000000000 0.1000000000)
( 0.0808823529 0.1378676471 0.4595588235 0.3216911765)
( 0.0554016620 0.0212373038 0.6463527239 0.2770083102)
( 0.0027649770 0.0755760369 0.2764976959 0.6451612903)
)
)
((( 0.2000000000 0.5000000000 0.2000000000 0.1000000000)
( 0.1000000000 0.3500000000 0.4500000000 0.1000000000)
( 0.1000000000 0.2000000000 0.6000000000 0.1000000000)
( 0.1000000000 0.1000000000 0.2000000000 0.6000000000)
)
(( 0.1000000000 0.3500000000 0.4500000000 0.1000000000)
( 0.0566037736 0.1886792453 0.6603773585 0.0943396226)
( 0.0253411306 0.1461988304 0.4873294347 0.3411306043)
( 0.0601503759 0.0939849624 0.1879699248 0.6578947368)
)
(( 0.1000000000 0.2000000000 0.6000000000 0.1000000000)
( 0.0706319703 0.1394052045 0.4646840149 0.3252788104)
( 0.0028011204 0.0634920635 0.6535947712 0.2801120448)
( 0.0571687840 0.0353901996 0.2722323049 0.6352087114)
)
(( 0.1000000000 0.1000000000 0.2000000000 0.6000000000)
( 0.0884229717 0.0911577028 0.1823154057 0.6381039198)
( 0.0236363636 0.0672727273 0.2727272727 0.6363636364)
( 0.0296861747 0.0551314673 0.0670059372 0.8481764207)))); 
}

potential ( CompPlFcst | AreaMeso_ALS Boundaries CldShadeConv CldShadeOth ) { 
 data = ((((( 0.2500000000 0.3684210526 0.5555555556)
( 0.1052631579 0.3333333333 0.5500000000)
( 0.1000000000 0.2400000000 0.5200000000)
)
(( 0.2352941176 0.3888888889 0.6250000000)
( 0.2083333333 0.3000000000 0.5625000000)
( 0.2142857143 0.2692307692 0.5000000000)
)
(( 0.2432432432 0.3797468354 0.6944444444)
( 0.2580645161 0.3333333333 0.5454545455)
( 0.2692307692 0.2777777778 0.5645161290)
)
)
((( 0.2258064516 0.4022988506 0.5172413793)
( 0.0500000000 0.3500000000 0.6000000000)
( 0.0384615385 0.2380952381 0.6153846154)
)
(( 0.2121212121 0.4216867470 0.5769230769)
( 0.0869565217 0.3645833333 0.6179775281)
( 0.0555555556 0.2678571429 0.6632653061)
)
(( 0.2105263158 0.4729729730 0.6944444444)
( 0.1666666667 0.4347826087 0.6034482759)
( 0.1600000000 0.3539823009 0.6451612903)
)
)
((( 0.2068965517 0.3157894737 0.6666666667)
( 0.0099009901 0.2631578947 0.7115384615)
( 0.0131578947 0.2150537634 0.6030534351)
)
(( 0.1935483871 0.3333333333 0.7272727273)
( 0.0434782609 0.4615384615 0.6363636364)
( 0.0449438202 0.2410714286 0.6969696970)
)
(( 0.1734104046 0.4216867470 0.7954545455)
( 0.1034482759 0.4117647059 0.7142857143)
( 0.0977443609 0.3888888889 0.6753246753)
)
)
)
(((( 0.3750000000 0.2631578947 0.3333333333)
( 0.4210526316 0.2857142857 0.3000000000)
( 0.4000000000 0.4000000000 0.2400000000)
)
(( 0.3823529412 0.2777777778 0.2500000000)
( 0.3750000000 0.3000000000 0.3125000000)
( 0.3571428571 0.3846153846 0.2500000000)
)
(( 0.3783783784 0.2784810127 0.2222222222)
( 0.3548387097 0.3333333333 0.2727272727)
( 0.3076923077 0.4166666667 0.2419354839)
)
)
((( 0.3225806452 0.2873563218 0.4310344828)
( 0.3000000000 0.3500000000 0.3500000000)
( 0.1923076923 0.4285714286 0.3418803419)
)
(( 0.3333333333 0.3012048193 0.3846153846)
( 0.3043478261 0.3645833333 0.3370786517)
( 0.2222222222 0.4464285714 0.3061224490)
)
(( 0.3421052632 0.3378378378 0.2777777778)
( 0.3000000000 0.3804347826 0.3448275862)
( 0.2400000000 0.4424778761 0.3225806452)
)
)
((( 0.2692307692 0.2777777778 0.5000000000)
( 0.1612903226 0.3571428571 0.4736842105)
( 0.1428571429 0.3181818182 0.4583333333)
)
(( 0.2758620690 0.2777777778 0.5384615385)
( 0.1818181818 0.3636363636 0.5000000000)
( 0.1463414634 0.3359375000 0.5000000000)
)
(( 0.2857142857 0.2976190476 0.6097560976)
( 0.2413793103 0.3571428571 0.5263157895)
( 0.1666666667 0.4090909091 0.5000000000)
)
)
)
(((( 0.3750000000 0.3684210526 0.1111111111)
( 0.4736842105 0.3809523810 0.1500000000)
( 0.5000000000 0.3600000000 0.2400000000)
)
(( 0.3823529412 0.3333333333 0.1250000000)
( 0.4166666667 0.4000000000 0.1250000000)
( 0.4285714286 0.3461538462 0.2500000000)
)
(( 0.3783783784 0.3417721519 0.0833333333)
( 0.3870967742 0.3333333333 0.1818181818)
( 0.4230769231 0.3055555556 0.1935483871)
)
)
((( 0.3793103448 0.3157894737 0.2500000000)
( 0.3960396040 0.4210526316 0.1923076923)
( 0.2631578947 0.4301075269 0.3053435115)
)
(( 0.3870967742 0.3333333333 0.1818181818)
( 0.3913043478 0.3076923077 0.2727272727)
( 0.2808988764 0.4464285714 0.2525252525)
)
(( 0.3757225434 0.3614457831 0.1136363636)
( 0.3793103448 0.3529411765 0.2142857143)
( 0.3759398496 0.3333333333 0.2597402597)
)
)
((( 0.3461538462 0.3333333333 0.3125000000)
( 0.3225806452 0.3571428571 0.3157894737)
( 0.2142857143 0.3636363636 0.3750000000)
)
(( 0.3448275862 0.3333333333 0.3076923077)
( 0.3181818182 0.3636363636 0.3125000000)
( 0.2439024390 0.3515625000 0.3888888889)
)
(( 0.3142857143 0.4166666667 0.2439024390)
( 0.3103448276 0.3571428571 0.3508771930)
( 0.3333333333 0.3181818182 0.3571428571)
)
)
)
(((( 0.4516129032 0.3103448276 0.0517241379)
( 0.6500000000 0.3000000000 0.0500000000)
( 0.7692307692 0.3333333333 0.0427350427)
)
(( 0.4545454545 0.2771084337 0.0384615385)
( 0.6086956522 0.2708333333 0.0449438202)
( 0.7222222222 0.2857142857 0.0306122449)
)
(( 0.4473684211 0.1891891892 0.0277777778)
( 0.5333333333 0.1847826087 0.0517241379)
( 0.6000000000 0.2035398230 0.0322580645)
)
)
((( 0.4137931034 0.3684210526 0.0833333333)
( 0.5940594059 0.3157894737 0.0961538462)
( 0.7236842105 0.3548387097 0.0916030534)
)
(( 0.4193548387 0.3333333333 0.0909090909)
( 0.5652173913 0.2307692308 0.0909090909)
( 0.6741573034 0.3125000000 0.0505050505)
)
(( 0.4508670520 0.2168674699 0.0909090909)
( 0.5172413793 0.2352941176 0.0714285714)
( 0.5263157895 0.2777777778 0.0649350649)
)
)
((( 0.3846153846 0.3888888889 0.1875000000)
( 0.5161290323 0.2857142857 0.2105263158)
( 0.6428571429 0.3181818182 0.1666666667)
)
(( 0.3793103448 0.3888888889 0.1538461538)
( 0.5000000000 0.2727272727 0.1875000000)
( 0.6097560976 0.3125000000 0.1111111111)
)
(( 0.4000000000 0.2857142857 0.1463414634)
( 0.4482758621 0.2857142857 0.1228070175)
( 0.5000000000 0.2727272727 0.1428571429))))); 
}

potential ( CurPropConv | LLIW LatestCIN ) { 
 data = ((( 0.6375227687 0.2550091075 0.0182149362 0.0892531876)
( 0.8563273073 0.0856327307 0.0095147479 0.0485252141)
( 0.9241245136 0.0486381323 0.0204280156 0.0068093385)
( 0.9099181074 0.0445859873 0.0291173794 0.0163785259)
)
(( 0.1000000000 0.5000000000 0.3000000000 0.1000000000)
( 0.6500000000 0.2500000000 0.0900000000 0.0100000000)
( 0.6906077348 0.2117863720 0.0184162063 0.0791896869)
( 0.8667883212 0.0456204380 0.0218978102 0.0656934307)
)
(( 0.0100000000 0.1400000000 0.3500000000 0.5000000000)
( 0.2500000000 0.3500000000 0.3000000000 0.1000000000)
( 0.4000000000 0.4000000000 0.1800000000 0.0200000000)
( 0.7345739471 0.1958863859 0.0489715965 0.0205680705)
)
(( 0.0706319703 0.0185873606 0.1672862454 0.7434944238)
( 0.0100000000 0.1500000000 0.3300000000 0.5100000000)
( 0.2000000000 0.3000000000 0.3500000000 0.1500000000)
( 0.5000000000 0.3500000000 0.1000000000 0.0500000000))); 
}

potential ( Date ) { 
 data = (  0.2540980000 0.1311480000 0.1065570000 0.2131150000 0.0737700000 0.2213120000); 
}

potential ( Dewpoints | Scenario ) { 
 data = (( 0.0400000000 0.0500000000 0.1500000000 0.0500000000 0.1900000000 0.3000000000 0.2200000000)
( 0.0500000000 0.0700000000 0.1500000000 0.1000000000 0.3000000000 0.2700000000 0.0600000000)
( 0.3710575139 0.2319109462 0.0723562152 0.1391465677 0.0463821892 0.0185528757 0.1205936920)
( 0.1300000000 0.2200000000 0.1800000000 0.0700000000 0.3400000000 0.0300000000 0.0300000000)
( 0.1500000000 0.2000000000 0.2000000000 0.1800000000 0.1100000000 0.1100000000 0.0500000000)
( 0.0095238095 0.0452380952 0.0539682540 0.0746031746 0.0230158730 0.7777777778 0.0158730159)
( 0.4916420846 0.2654867257 0.1474926254 0.0196656834 0.0196656834 0.0167158309 0.0393313668)
( 0.0662931839 0.0186741363 0.0933706816 0.0466853408 0.4668534080 0.1867413632 0.1213818861)
( 0.0285977860 0.0184501845 0.6457564576 0.0488929889 0.1845018450 0.0369003690 0.0369003690)
( 0.1000000000 0.4500000000 0.1000000000 0.0500000000 0.2600000000 0.0200000000 0.0200000000)
( 0.1000000000 0.1000000000 0.1000000000 0.2000000000 0.0500000000 0.1000000000 0.3500000000)); 
}

potential ( IRCloudCover ) { 
 data = (  0.1500000000 0.4500000000 0.4000000000); 
}

potential ( InsChange | CompPlFcst LoLevMoistAd ) { 
 data = ((( 0.2717391304 0.1562500000 0.3612167300)
( 0.1250000000 0.1428571429 0.5161290323)
( 0.2142857143 0.3125000000 0.5000000000)
( 0.2272727273 0.6153846154 0.6666666667)
)
(( 0.4565217391 0.3750000000 0.3346007605)
( 0.2500000000 0.3809523810 0.3225806452)
( 0.2857142857 0.3750000000 0.2857142857)
( 0.3636363636 0.2461538462 0.2666666667)
)
(( 0.2717391304 0.4687500000 0.3041825095)
( 0.6250000000 0.4761904762 0.1612903226)
( 0.5000000000 0.3125000000 0.2142857143)
( 0.4090909091 0.1384615385 0.0666666667))); 
}

potential ( InsInMt | AMInstabMt CldShadeOth ) { 
 data = ((( 0.9424083770 0.1818181818 0.0482076638)
( 0.7604562738 0.4582843713 0.0062111801)
( 0.7507507508 0.6756756757 0.0750000000)
)
(( 0.0104712042 0.7272727273 0.3646477132)
( 0.1191381496 0.4700352526 0.3726708075)
( 0.1051051051 0.2895752896 0.4250000000)
)
(( 0.0471204188 0.0909090909 0.5871446230)
( 0.1204055767 0.0716803760 0.6211180124)
( 0.1441441441 0.0347490347 0.5000000000))); 
}

potential ( InsSclInScen | AMInsWliScen InsChange ) { 
 data = ((( 0.5405405405 0.0831295844 0.1501014199)
( 0.8356545961 0.1111111111 0.0009514748)
( 0.8733624454 0.4142011834 0.1351351351)
)
(( 0.3243243243 0.4889975550 0.0385395538)
( 0.1392757660 0.7777777778 0.1427212179)
( 0.0742358079 0.4733727811 0.3243243243)
)
(( 0.1351351351 0.4278728606 0.8113590264)
( 0.0250696379 0.1111111111 0.8563273073)
( 0.0524017467 0.1124260355 0.5405405405))); 
}

potential ( LIfr12ZDENSd ) { 
 data = (  0.1000000000 0.5200000000 0.3000000000 0.0800000000); 
}

potential ( LLIW ) { 
 data = (  0.1200000000 0.3200000000 0.3800000000 0.1800000000); 
}

potential ( LatestCIN ) { 
 data = (  0.4000000000 0.4000000000 0.1500000000 0.0500000000); 
}

potential ( LoLevMoistAd ) { 
 data = (  0.1200000000 0.2800000000 0.3000000000 0.3000000000); 
}

potential ( LowLLapse | Scenario ) { 
 data = (( 0.0400000000 0.2500000000 0.3500000000 0.3600000000)
( 0.0700000000 0.3100000000 0.3100000000 0.3100000000)
( 0.3500000000 0.4700000000 0.1400000000 0.0400000000)
( 0.4000000000 0.4000000000 0.1300000000 0.0700000000)
( 0.4500000000 0.3500000000 0.1500000000 0.0500000000)
( 0.0100000000 0.3500000000 0.4500000000 0.1900000000)
( 0.7761194030 0.1890547264 0.0298507463 0.0049751244)
( 0.0825688073 0.0183486239 0.3027522936 0.5963302752)
( 0.2200000000 0.4000000000 0.3000000000 0.0800000000)
( 0.1300000000 0.4000000000 0.3500000000 0.1200000000)
( 0.0900000000 0.4000000000 0.3300000000 0.1800000000)); 
}

potential ( MeanRH | Scenario ) { 
 data = (( 0.3300000000 0.5000000000 0.1700000000)
( 0.4000000000 0.4000000000 0.2000000000)
( 0.0500000000 0.4500000000 0.5000000000)
( 0.1000000000 0.5000000000 0.4000000000)
( 0.0500000000 0.6500000000 0.3000000000)
( 0.8695652174 0.0643478261 0.0660869565)
( 0.0439770554 0.0669216061 0.8891013384)
( 0.4000000000 0.5500000000 0.0500000000)
( 0.2000000000 0.4500000000 0.3500000000)
( 0.0500000000 0.5500000000 0.4000000000)
( 0.2000000000 0.4000000000 0.4000000000)); 
}

potential ( MidLLapse | Scenario ) { 
 data = (( 0.2500000000 0.5500000000 0.2000000000)
( 0.2500000000 0.5000000000 0.2500000000)
( 0.4000000000 0.3800000000 0.2200000000)
( 0.4300000000 0.3700000000 0.2000000000)
( 0.0200000000 0.3800000000 0.6000000000)
( 0.0138067061 0.0986193294 0.8875739645)
( 0.7763401109 0.1478743068 0.0757855823)
( 0.2500000000 0.3100000000 0.4400000000)
( 0.4100000000 0.2900000000 0.3000000000)
( 0.2300000000 0.4200000000 0.3500000000)
( 0.1600000000 0.2800000000 0.5600000000)); 
}

potential ( MorningBound ) { 
 data = (  0.5000000000 0.3500000000 0.1500000000); 
}

potential ( MorningCIN ) { 
 data = (  0.1500000000 0.5700000000 0.2000000000 0.0800000000); 
}

potential ( MountainFcst | InsInMt ) { 
 data = (( 0.5952380952 0.0723562152 0.1919191919)
( 0.2857142857 0.4638218924 0.0505050505)
( 0.1190476190 0.4638218924 0.7575757576)); 
}

potential ( MvmtFeatures | Scenario ) { 
 data = (( 0.2308402585 0.5078485688 0.1846722068 0.0766389658)
( 0.0500000000 0.1000000000 0.1000000000 0.7500000000)
( 0.1000000000 0.3000000000 0.3000000000 0.3000000000)
( 0.1800000000 0.3800000000 0.3400000000 0.1000000000)
( 0.0200000000 0.0200000000 0.2600000000 0.7000000000)
( 0.0500000000 0.0700000000 0.0500000000 0.8300000000)
( 0.1000000000 0.2500000000 0.1500000000 0.5000000000)
( 0.0800367985 0.5519779209 0.0919963201 0.2759889604)
( 0.2000000000 0.1000000000 0.2000000000 0.5000000000)
( 0.0377002828 0.0574929312 0.0377002828 0.8671065033)
( 0.5000000000 0.3500000000 0.0900000000 0.0600000000)); 
}

potential ( N0_7muVerMo ) { 
 data = (  0.2500000000 0.2500000000 0.2500000000 0.2500000000); 
}

potential ( N34StarFcst | PlainsFcst ScenRel3_4 ) { 
 data = ((( 0.9400000000 0.0500000000 0.0100000000)
( 0.9124767225 0.0186219739 0.0689013035)
( 0.9200000000 0.0600000000 0.0200000000)
( 0.9200000000 0.0600000000 0.0200000000)
( 0.9401709402 0.0094966762 0.0503323837)
)
(( 0.0600000000 0.8900000000 0.0500000000)
( 0.0400000000 0.9400000000 0.0200000000)
( 0.0100000000 0.8900000000 0.1000000000)
( 0.0300000000 0.9200000000 0.0500000000)
( 0.0900000000 0.9000000000 0.0100000000)
)
(( 0.0100000000 0.0500000000 0.9400000000)
( 0.0884229717 0.0273473108 0.8842297174)
( 0.0069513406 0.0099304866 0.9831181728)
( 0.0100000000 0.0400000000 0.9500000000)
( 0.0300000000 0.1200000000 0.8500000000))); 
}

potential ( OutflowFrMt | InsInMt WndHodograph ) { 
 data = ((( 0.6451612903 0.0460157127 0.1017964072)
( 0.8620689655 0.0316901408 0.0500736377)
( 0.6896551724 0.0285714286 0.0450204638)
( 0.4166666667 0.0841121495 0.4210526316)
)
(( 0.3225806452 0.4489337823 0.1497005988)
( 0.1293103448 0.7042253521 0.3313696613)
( 0.2413793103 0.6857142857 0.0682128240)
( 0.3333333333 0.3551401869 0.0526315789)
)
(( 0.0322580645 0.5050505051 0.7485029940)
( 0.0086206897 0.2640845070 0.6185567010)
( 0.0689655172 0.2857142857 0.8867667121)
( 0.2500000000 0.5607476636 0.5263157895))); 
}

potential ( PlainsFcst | CapInScen CurPropConv InsSclInScen ScnRelPlFcst ) { 
 data = ((((( 0.3333333333 0.3333333333 0.3333333333)
( 0.3488372093 0.2857142857 0.3333333333)
( 0.3272727273 0.4000000000 0.4000000000)
( 0.3284671533 0.4000000000 0.3636363636)
( 0.3320754717 0.3448275862 0.3333333333)
( 0.3420074349 0.2580645161 0.5031446541)
( 0.3281853282 0.4193548387 0.2000000000)
( 0.3367003367 0.6590909091 0.4444444444)
( 0.3333333333 0.3333333333 0.3333333333)
( 0.3249097473 0.4444444444 0.4000000000)
( 0.3298611111 0.4444444444 0.3333333333)
)
(( 0.3703703704 0.3750000000 0.2352941176)
( 0.3428571429 0.3529411765 0.2500000000)
( 0.3238866397 0.3783783784 0.3750000000)
( 0.3373015873 0.3461538462 0.2727272727)
( 0.3617021277 0.2325581395 0.2272727273)
( 0.3371647510 0.3055555556 0.3333333333)
( 0.3478260870 0.2982456140 0.2307692308)
( 0.3333333333 0.3333333333 0.3333333333)
( 0.3720930233 0.2222222222 0.2580645161)
( 0.3151260504 0.4680851064 0.2000000000)
( 0.3296703297 0.3636363636 0.4000000000)
)
(( 0.3500000000 0.4651162791 0.2866242038)
( 0.3333333333 0.3684210526 0.2857142857)
( 0.3636363636 0.2500000000 0.2500000000)
( 0.3750000000 0.2857142857 0.2372881356)
( 0.4216216216 0.2307692308 0.1400000000)
( 0.3453815261 0.2666666667 0.3333333333)
( 0.3421052632 0.3125000000 0.3333333333)
( 0.3400000000 0.3125000000 0.2777777778)
( 0.3714285714 0.3333333333 0.2307692308)
( 0.3214285714 0.4444444444 0.2580645161)
( 0.3231939163 0.4000000000 0.4166666667)
)
)
((( 0.3589743590 0.3125000000 0.2000000000)
( 0.3278688525 0.3548387097 0.2916666667)
( 0.3253968254 0.3611111111 0.4166666667)
( 0.3333333333 0.3333333333 0.3333333333)
( 0.3360655738 0.3409090909 0.2500000000)
( 0.3427419355 0.2857142857 0.3333333333)
( 0.3375527426 0.3617021277 0.1875000000)
( 0.3451957295 0.1250000000 0.3333333333)
( 0.3410852713 0.2941176471 0.2500000000)
( 0.3295019157 0.3571428571 0.3636363636)
( 0.3247232472 0.4166666667 0.4000000000)
)
(( 0.3061224490 0.3809523810 0.3092783505)
( 0.3594771242 0.3617021277 0.2075471698)
( 0.3301886792 0.3448275862 0.3333333333)
( 0.3571428571 0.2884615385 0.2631578947)
( 0.3502824859 0.3218390805 0.2777777778)
( 0.3469387755 0.2800000000 0.2000000000)
( 0.3886010363 0.2352941176 0.2272727273)
( 0.3319838057 0.3414634146 0.3333333333)
( 0.3870967742 0.2941176471 0.2500000000)
( 0.3222748815 0.3859649123 0.3125000000)
( 0.3319838057 0.3488372093 0.3000000000)
)
(( 0.3797468354 0.4807692308 0.2662721893)
( 0.3636363636 0.3495145631 0.2758620690)
( 0.3939393939 0.2777777778 0.2380952381)
( 0.4000000000 0.2857142857 0.2500000000)
( 0.4000000000 0.3218390805 0.1904761905)
( 0.3624454148 0.2295081967 0.3000000000)
( 0.3383458647 0.3333333333 0.3191489362)
( 0.3255813953 0.3529411765 0.3529411765)
( 0.4583333333 0.3125000000 0.2000000000)
( 0.3191489362 0.4166666667 0.2884615385)
( 0.3257918552 0.3921568627 0.2857142857)
)
)
((( 0.3846153846 0.3478260870 0.1818181818)
( 0.3333333333 0.3589743590 0.2708333333)
( 0.3409090909 0.3157894737 0.3043478261)
( 0.3456221198 0.2884615385 0.3225806452)
( 0.3564356436 0.2972972973 0.2500000000)
( 0.3466666667 0.2916666667 0.3333333333)
( 0.3510638298 0.3103448276 0.2800000000)
( 0.3478260870 0.2631578947 0.2222222222)
( 0.3181818182 0.4074074074 0.3076923077)
( 0.3406113537 0.3018867925 0.3333333333)
( 0.3225806452 0.3809523810 0.4000000000)
)
(( 0.2739726027 0.3781512605 0.3240740741)
( 0.3539823009 0.3636363636 0.2597402597)
( 0.3825136612 0.2857142857 0.2127659574)
( 0.3823529412 0.2972972973 0.2321428571)
( 0.3496503497 0.3269230769 0.3018867925)
( 0.3410138249 0.3116883117 0.3333333333)
( 0.4615384615 0.2255639098 0.2702702703)
( 0.3489583333 0.3287671233 0.2571428571)
( 0.3500000000 0.3478260870 0.2941176471)
( 0.3296703297 0.3521126761 0.3191489362)
( 0.3521126761 0.3030303030 0.2380952381)
)
(( 0.4237288136 0.4516129032 0.2625698324)
( 0.3750000000 0.3518518519 0.2857142857)
( 0.3750000000 0.3333333333 0.2777777778)
( 0.4347826087 0.2941176471 0.2500000000)
( 0.4000000000 0.3181818182 0.2777777778)
( 0.3654822335 0.2727272727 0.2666666667)
( 0.3846153846 0.3220338983 0.3103448276)
( 0.3825503356 0.3010752688 0.2586206897)
( 0.3333333333 0.3535353535 0.3174603175)
( 0.3287671233 0.3513513514 0.3250000000)
( 0.3571428571 0.3333333333 0.2592592593)
)
)
((( 0.4210526316 0.3461538462 0.2000000000)
( 0.3500000000 0.3461538462 0.2857142857)
( 0.3529411765 0.3103448276 0.3023255814)
( 0.3636363636 0.2784810127 0.3214285714)
( 0.3666666667 0.3047619048 0.2888888889)
( 0.3556701031 0.2900000000 0.3333333333)
( 0.4500000000 0.2517482517 0.2702702703)
( 0.3571428571 0.2777777778 0.2777777778)
( 0.3005464481 0.4000000000 0.3571428571)
( 0.3517587940 0.3013698630 0.2857142857)
( 0.3181818182 0.3731343284 0.3846153846)
)
(( 0.2807017544 0.3560606061 0.3333333333)
( 0.3529411765 0.3750000000 0.2631578947)
( 0.3461538462 0.3478260870 0.2948717949)
( 0.3795620438 0.3023255814 0.2857142857)
( 0.3500000000 0.3383458647 0.2985074627)
( 0.3532608696 0.2990654206 0.3333333333)
( 0.5783132530 0.2307692308 0.2708333333)
( 0.3625000000 0.3125000000 0.2727272727)
( 0.3424657534 0.3658536585 0.2884615385)
( 0.3401360544 0.3255813953 0.3283582090)
( 0.3714285714 0.3103448276 0.2105263158)
)
(( 0.4186046512 0.4285714286 0.2780748663)
( 0.3448275862 0.3636363636 0.3030303030)
( 0.4000000000 0.2857142857 0.3333333333)
( 0.4545454545 0.3157894737 0.2564102564)
( 0.3846153846 0.3555555556 0.2700000000)
( 0.3684210526 0.2909090909 0.2631578947)
( 0.3947368421 0.3315789474 0.3055555556)
( 0.4081632653 0.3089430894 0.2784810127)
( 0.3225806452 0.3557692308 0.3208955224)
( 0.3157894737 0.3684210526 0.3181818182)
( 0.3623188406 0.3404255319 0.2647058824)
)
)
)
(((( 0.3333333333 0.3333333333 0.3333333333)
( 0.3023255814 0.4285714286 0.3333333333)
( 0.3272727273 0.4000000000 0.4000000000)
( 0.3321167883 0.3333333333 0.3636363636)
( 0.3207547170 0.4482758621 0.3333333333)
( 0.3345724907 0.3225806452 0.0691823899)
( 0.3243243243 0.3870967742 0.4000000000)
( 0.3333333333 0.1136363636 0.5000000000)
( 0.3259259259 0.4166666667 0.3333333333)
( 0.3321299639 0.3333333333 0.4000000000)
( 0.3333333333 0.3333333333 0.3333333333)
)
(( 0.2592592593 0.3750000000 0.4117647059)
( 0.3142857143 0.3529411765 0.3750000000)
( 0.3319838057 0.3513513514 0.3125000000)
( 0.3253968254 0.3846153846 0.3636363636)
( 0.3191489362 0.4186046512 0.3181818182)
( 0.3371647510 0.3055555556 0.3333333333)
( 0.3260869565 0.3508771930 0.3846153846)
( 0.3260869565 0.3888888889 0.5000000000)
( 0.3255813953 0.3703703704 0.3225806452)
( 0.3361344538 0.3191489362 0.3333333333)
( 0.3296703297 0.3636363636 0.4000000000)
)
(( 0.2500000000 0.3488372093 0.3821656051)
( 0.3333333333 0.3684210526 0.2857142857)
( 0.2954545455 0.5000000000 0.3750000000)
( 0.2864583333 0.4081632653 0.4237288136)
( 0.2972972973 0.3846153846 0.4000000000)
( 0.3253012048 0.3777777778 0.3333333333)
( 0.3157894737 0.3500000000 0.4000000000)
( 0.3200000000 0.4062500000 0.3888888889)
( 0.3428571429 0.3333333333 0.3076923077)
( 0.3348214286 0.3333333333 0.3225806452)
( 0.3346007605 0.3200000000 0.3333333333)
)
)
((( 0.3333333333 0.3125000000 0.4000000000)
( 0.3169398907 0.3440860215 0.4166666667)
( 0.3174603175 0.4166666667 0.4166666667)
( 0.3333333333 0.3333333333 0.3333333333)
( 0.3278688525 0.3636363636 0.3333333333)
( 0.3346774194 0.3265306122 0.3333333333)
( 0.3248945148 0.3617021277 0.3750000000)
( 0.3309608541 0.3750000000 0.3333333333)
( 0.3294573643 0.3529411765 0.3750000000)
( 0.3256704981 0.3571428571 0.4545454545)
( 0.3321033210 0.3333333333 0.4000000000)
)
(( 0.2857142857 0.3523809524 0.3608247423)
( 0.3137254902 0.3723404255 0.3207547170)
( 0.3301886792 0.3448275862 0.3333333333)
( 0.3333333333 0.3269230769 0.3421052632)
( 0.3389830508 0.3333333333 0.3055555556)
( 0.3346938776 0.3200000000 0.4000000000)
( 0.3264248705 0.3529411765 0.3181818182)
( 0.3238866397 0.3658536585 0.4166666667)
( 0.3225806452 0.3529411765 0.3333333333)
( 0.3317535545 0.3508771930 0.3125000000)
( 0.3238866397 0.3720930233 0.4000000000)
)
(( 0.2784810127 0.3269230769 0.3609467456)
( 0.3181818182 0.3592233010 0.3218390805)
( 0.2727272727 0.4166666667 0.3968253968)
( 0.3000000000 0.3571428571 0.3750000000)
( 0.3200000000 0.3333333333 0.3650793651)
( 0.3144104803 0.4098360656 0.3000000000)
( 0.3233082707 0.3333333333 0.3617021277)
( 0.3162790698 0.3921568627 0.3529411765)
( 0.2916666667 0.3750000000 0.3500000000)
( 0.3191489362 0.3333333333 0.3846153846)
( 0.3348416290 0.3137254902 0.3571428571)
)
)
((( 0.3461538462 0.3043478261 0.3636363636)
( 0.3333333333 0.2991452991 0.4166666667)
( 0.3181818182 0.3508771930 0.4347826087)
( 0.3317972350 0.3269230769 0.3548387097)
( 0.3465346535 0.2972972973 0.3333333333)
( 0.3333333333 0.3333333333 0.3333333333)
( 0.3297872340 0.3448275862 0.3200000000)
( 0.3359683794 0.3157894737 0.3333333333)
( 0.3409090909 0.2777777778 0.3846153846)
( 0.3318777293 0.3207547170 0.3888888889)
( 0.3225806452 0.3809523810 0.4000000000)
)
(( 0.3150684932 0.3361344538 0.3425925926)
( 0.3362831858 0.3181818182 0.3506493506)
( 0.3169398907 0.3571428571 0.3617021277)
( 0.3235294118 0.3378378378 0.3571428571)
( 0.3706293706 0.3076923077 0.2830188679)
( 0.3364055300 0.3246753247 0.3333333333)
( 0.2692307692 0.3984962406 0.3243243243)
( 0.3385416667 0.3287671233 0.3142857143)
( 0.3000000000 0.3478260870 0.3529411765)
( 0.3296703297 0.3380281690 0.3404255319)
( 0.3192488263 0.3636363636 0.3809523810)
)
(( 0.3220338983 0.2903225806 0.3519553073)
( 0.3125000000 0.3703703704 0.3125000000)
( 0.2916666667 0.3333333333 0.3888888889)
( 0.3043478261 0.3529411765 0.3500000000)
( 0.3500000000 0.3181818182 0.3333333333)
( 0.3299492386 0.3409090909 0.3333333333)
( 0.3384615385 0.3276836158 0.3448275862)
( 0.3020134228 0.3763440860 0.3448275862)
( 0.3333333333 0.3434343434 0.3253968254)
( 0.3287671233 0.3513513514 0.3250000000)
( 0.3452380952 0.3205128205 0.3148148148)
)
)
((( 0.3684210526 0.3076923077 0.3333333333)
( 0.3500000000 0.3076923077 0.3571428571)
( 0.3235294118 0.3448275862 0.3488372093)
( 0.3333333333 0.3417721519 0.3214285714)
( 0.3333333333 0.3333333333 0.3333333333)
( 0.3350515464 0.3300000000 0.3333333333)
( 0.3166666667 0.3496503497 0.3243243243)
( 0.3333333333 0.3333333333 0.3333333333)
( 0.3551912568 0.2666666667 0.3571428571)
( 0.3366834171 0.3150684932 0.3571428571)
( 0.3181818182 0.3731343284 0.3846153846)
)
(( 0.3157894737 0.3409090909 0.3333333333)
( 0.3529411765 0.2916666667 0.3684210526)
( 0.3461538462 0.3260869565 0.3205128205)
( 0.3284671533 0.3488372093 0.3246753247)
( 0.3500000000 0.3233082707 0.3283582090)
( 0.3369565217 0.3271028037 0.3333333333)
( 0.2409638554 0.3846153846 0.3125000000)
( 0.3250000000 0.3437500000 0.3409090909)
( 0.3150684932 0.3414634146 0.3365384615)
( 0.3197278912 0.3488372093 0.3432835821)
( 0.3142857143 0.3448275862 0.3947368421)
)
(( 0.3488372093 0.2857142857 0.3475935829)
( 0.3103448276 0.3636363636 0.3181818182)
( 0.3333333333 0.3333333333 0.3333333333)
( 0.2840909091 0.3684210526 0.3418803419)
( 0.3846153846 0.3111111111 0.3300000000)
( 0.3391812865 0.3272727273 0.3157894737)
( 0.3421052632 0.3263157895 0.3472222222)
( 0.3061224490 0.3658536585 0.3164556962)
( 0.3548387097 0.3365384615 0.3208955224)
( 0.3684210526 0.3368421053 0.3000000000)
( 0.3623188406 0.3191489362 0.2941176471)
)
)
)
(((( 0.3333333333 0.3333333333 0.3333333333)
( 0.3488372093 0.2857142857 0.3333333333)
( 0.3454545455 0.2000000000 0.2000000000)
( 0.3394160584 0.2666666667 0.2727272727)
( 0.3471698113 0.2068965517 0.3333333333)
( 0.3234200743 0.4193548387 0.4276729560)
( 0.3474903475 0.1935483871 0.4000000000)
( 0.3299663300 0.2272727273 0.0555555556)
( 0.3407407407 0.2500000000 0.3333333333)
( 0.3429602888 0.2222222222 0.2000000000)
( 0.3368055556 0.2222222222 0.3333333333)
)
(( 0.3703703704 0.2500000000 0.3529411765)
( 0.3428571429 0.2941176471 0.3750000000)
( 0.3441295547 0.2702702703 0.3125000000)
( 0.3373015873 0.2692307692 0.3636363636)
( 0.3191489362 0.3488372093 0.4545454545)
( 0.3256704981 0.3888888889 0.3333333333)
( 0.3260869565 0.3508771930 0.3846153846)
( 0.3405797101 0.2777777778 0.1666666667)
( 0.3023255814 0.4074074074 0.4193548387)
( 0.3487394958 0.2127659574 0.4666666667)
( 0.3406593407 0.2727272727 0.2000000000)
)
(( 0.4000000000 0.1860465116 0.3312101911)
( 0.3333333333 0.2631578947 0.4285714286)
( 0.3409090909 0.2500000000 0.3750000000)
( 0.3385416667 0.3061224490 0.3389830508)
( 0.2810810811 0.3846153846 0.4600000000)
( 0.3293172691 0.3555555556 0.3333333333)
( 0.3421052632 0.3375000000 0.2666666667)
( 0.3400000000 0.2812500000 0.3333333333)
( 0.2857142857 0.3333333333 0.4615384615)
( 0.3437500000 0.2222222222 0.4193548387)
( 0.3422053232 0.2800000000 0.2500000000)
)
)
((( 0.3076923077 0.3750000000 0.4000000000)
( 0.3551912568 0.3010752688 0.2916666667)
( 0.3571428571 0.2222222222 0.1666666667)
( 0.3333333333 0.3333333333 0.3333333333)
( 0.3360655738 0.2954545455 0.4166666667)
( 0.3225806452 0.3877551020 0.3333333333)
( 0.3375527426 0.2765957447 0.4375000000)
( 0.3238434164 0.5000000000 0.3333333333)
( 0.3294573643 0.3529411765 0.3750000000)
( 0.3448275862 0.2857142857 0.1818181818)
( 0.3431734317 0.2500000000 0.2000000000)
)
(( 0.4081632653 0.2666666667 0.3298969072)
( 0.3267973856 0.2659574468 0.4716981132)
( 0.3396226415 0.3103448276 0.3333333333)
( 0.3095238095 0.3846153846 0.3947368421)
( 0.3107344633 0.3448275862 0.4166666667)
( 0.3183673469 0.4000000000 0.4000000000)
( 0.2849740933 0.4117647059 0.4545454545)
( 0.3441295547 0.2926829268 0.2500000000)
( 0.2903225806 0.3529411765 0.4166666667)
( 0.3459715640 0.2631578947 0.3750000000)
( 0.3441295547 0.2790697674 0.3000000000)
)
(( 0.3417721519 0.1923076923 0.3727810651)
( 0.3181818182 0.2912621359 0.4022988506)
( 0.3333333333 0.3055555556 0.3650793651)
( 0.3000000000 0.3571428571 0.3750000000)
( 0.2800000000 0.3448275862 0.4444444444)
( 0.3231441048 0.3606557377 0.4000000000)
( 0.3383458647 0.3333333333 0.3191489362)
( 0.3581395349 0.2549019608 0.2941176471)
( 0.2500000000 0.3125000000 0.4500000000)
( 0.3617021277 0.2500000000 0.3269230769)
( 0.3393665158 0.2941176471 0.3571428571)
)
)
((( 0.2692307692 0.3478260870 0.4545454545)
( 0.3333333333 0.3418803419 0.3125000000)
( 0.3409090909 0.3333333333 0.2608695652)
( 0.3225806452 0.3846153846 0.3225806452)
( 0.2970297030 0.4054054054 0.4166666667)
( 0.3200000000 0.3750000000 0.3333333333)
( 0.3191489362 0.3448275862 0.4000000000)
( 0.3162055336 0.4210526316 0.4444444444)
( 0.3409090909 0.3148148148 0.3076923077)
( 0.3275109170 0.3773584906 0.2777777778)
( 0.3548387097 0.2380952381 0.2000000000)
)
(( 0.4109589041 0.2857142857 0.3333333333)
( 0.3097345133 0.3181818182 0.3896103896)
( 0.3005464481 0.3571428571 0.4255319149)
( 0.2941176471 0.3648648649 0.4107142857)
( 0.2797202797 0.3653846154 0.4150943396)
( 0.3225806452 0.3636363636 0.3333333333)
( 0.2692307692 0.3759398496 0.4054054054)
( 0.3125000000 0.3424657534 0.4285714286)
( 0.3500000000 0.3043478261 0.3529411765)
( 0.3406593407 0.3098591549 0.3404255319)
( 0.3286384977 0.3333333333 0.3809523810)
)
(( 0.2542372881 0.2580645161 0.3854748603)
( 0.3125000000 0.2777777778 0.4017857143)
( 0.3333333333 0.3333333333 0.3333333333)
( 0.2608695652 0.3529411765 0.4000000000)
( 0.2500000000 0.3636363636 0.3888888889)
( 0.3045685279 0.3863636364 0.4000000000)
( 0.2769230769 0.3502824859 0.3448275862)
( 0.3154362416 0.3225806452 0.3965517241)
( 0.3333333333 0.3030303030 0.3571428571)
( 0.3424657534 0.2972972973 0.3500000000)
( 0.2976190476 0.3461538462 0.4259259259)
)
)
((( 0.2105263158 0.3461538462 0.4666666667)
( 0.3000000000 0.3461538462 0.3571428571)
( 0.3235294118 0.3448275862 0.3488372093)
( 0.3030303030 0.3797468354 0.3571428571)
( 0.3000000000 0.3619047619 0.3777777778)
( 0.3092783505 0.3800000000 0.3333333333)
( 0.2333333333 0.3986013986 0.4054054054)
( 0.3095238095 0.3888888889 0.3888888889)
( 0.3442622951 0.3333333333 0.2857142857)
( 0.3115577889 0.3835616438 0.3571428571)
( 0.3636363636 0.2537313433 0.2307692308)
)
(( 0.4035087719 0.3030303030 0.3333333333)
( 0.2941176471 0.3333333333 0.3684210526)
( 0.3076923077 0.3260869565 0.3846153846)
( 0.2919708029 0.3488372093 0.3896103896)
( 0.3000000000 0.3383458647 0.3731343284)
( 0.3097826087 0.3738317757 0.3333333333)
( 0.1807228916 0.3846153846 0.4166666667)
( 0.3125000000 0.3437500000 0.3863636364)
( 0.3424657534 0.2926829268 0.3750000000)
( 0.3401360544 0.3255813953 0.3283582090)
( 0.3142857143 0.3448275862 0.3947368421)
)
(( 0.2325581395 0.2857142857 0.3743315508)
( 0.3448275862 0.2727272727 0.3787878788)
( 0.2666666667 0.3809523810 0.3333333333)
( 0.2613636364 0.3157894737 0.4017094017)
( 0.2307692308 0.3333333333 0.4000000000)
( 0.2923976608 0.3818181818 0.4210526316)
( 0.2631578947 0.3421052632 0.3472222222)
( 0.2857142857 0.3252032520 0.4050632911)
( 0.3225806452 0.3076923077 0.3582089552)
( 0.3157894737 0.2947368421 0.3818181818)
( 0.2753623188 0.3404255319 0.4411764706))))); 
}

potential ( QGVertMotion ) { 
 data = (  0.1500000000 0.1500000000 0.5000000000 0.2000000000); 
}

potential ( R5Fcst | MountainFcst N34StarFcst ) { 
 data = ((( 0.9699321048 0.0082342177 0.0467372134)
( 0.2580645161 0.4770992366 0.0037418148)
( 0.3063063063 0.5042735043 0.3333333333)
)
(( 0.0135790495 0.9149130833 0.0714285714)
( 0.2688172043 0.4770992366 0.0608044902)
( 0.2837837838 0.2307692308 0.3333333333)
)
(( 0.0164888458 0.0768526990 0.8818342152)
( 0.4731182796 0.0458015267 0.9354536950)
( 0.4099099099 0.2649572650 0.3333333333))); 
}

potential ( RHRatio | Scenario ) { 
 data = (( 0.0500000000 0.5000000000 0.4500000000)
( 0.1000000000 0.5000000000 0.4000000000)
( 0.4000000000 0.1500000000 0.4500000000)
( 0.2000000000 0.4500000000 0.3500000000)
( 0.8000000000 0.0500000000 0.1500000000)
( 0.0877350045 0.0170098478 0.8952551477)
( 0.5628517824 0.0619136961 0.3752345216)
( 0.0800367985 0.6439742410 0.2759889604)
( 0.1000000000 0.7000000000 0.2000000000)
( 0.4000000000 0.4000000000 0.2000000000)
( 0.1500000000 0.4500000000 0.4000000000)); 
}

potential ( RaoContMoist ) { 
 data = (  0.1500000000 0.2000000000 0.4000000000 0.2500000000); 
}

potential ( SatContMoist ) { 
 data = (  0.1500000000 0.2000000000 0.4000000000 0.2500000000); 
}

potential ( ScenRel3_4 | Scenario ) { 
 data = (( 0.7987220447 0.0431309904 0.0638977636 0.0311501597 0.0630990415)
( 0.0115146147 0.8857395926 0.0088573959 0.0646589903 0.0292294066)
( 0.7911392405 0.0356012658 0.0625000000 0.0553797468 0.0553797468)
( 0.0483050847 0.0186440678 0.8474576271 0.0186440678 0.0669491525)
( 0.8968609865 0.0358744395 0.0376681614 0.0008968610 0.0286995516)
( 0.8354218881 0.0442773601 0.0559732665 0.0033416876 0.0609857978)
( 0.0457831325 0.0449799197 0.0385542169 0.8032128514 0.0674698795)
( 0.0134228188 0.0511744966 0.0587248322 0.0377516779 0.8389261745)
( 0.0480769231 0.0472756410 0.0777243590 0.0256410256 0.8012820513)
( 0.0211685013 0.0423370025 0.0304826418 0.8467400508 0.0592718036)
( 0.7898894155 0.0758293839 0.0173775671 0.0600315956 0.0568720379)); 
}

potential ( ScenRelAMCIN | Scenario ) { 
 data = (( 0.9107468124 0.0892531876)
( 0.9442870633 0.0557129367)
( 0.0749306198 0.9250693802)
( 0.0783410138 0.9216589862)
( 0.0850869167 0.9149130833)
( 0.0697674419 0.9302325581)
( 0.0196078431 0.9803921569)
( 0.0403071017 0.9596928983)
( 0.0366088632 0.9633911368)
( 0.0215264188 0.9784735812)
( 0.0601503759 0.9398496241)); 
}

potential ( ScenRelAMIns | Scenario ) { 
 data = (( 0.8190008190 0.0466830467 0.0401310401 0.0155610156 0.0376740377 0.0409500410)
( 0.7524454477 0.0368698269 0.0677200903 0.0526711813 0.0203160271 0.0699774266)
( 0.0685045948 0.8354218881 0.0292397661 0.0200501253 0.0375939850 0.0091896408)
( 0.0611423974 0.8045052293 0.0064360418 0.0764279968 0.0209171360 0.0305711987)
( 0.0257289880 0.8576329331 0.0051457976 0.0445969125 0.0180102916 0.0488850772)
( 0.0095770152 0.0518754988 0.7980845970 0.0534716680 0.0710295291 0.0159616919)
( 0.0066445183 0.0730897010 0.0282392027 0.8305647841 0.0307308970 0.0307308970)
( 0.0097165992 0.0647773279 0.0510121457 0.0469635628 0.8097165992 0.0178137652)
( 0.7974481659 0.0398724083 0.0550239234 0.0653907496 0.0039872408 0.0382775120)
( 0.0130208333 0.8680555556 0.0190972222 0.0789930556 0.0078125000 0.0130208333)
( 0.0444264943 0.0678513732 0.0323101777 0.0290791599 0.0185783522 0.8077544426)); 
}

potential ( Scenario | Date ) { 
 data = (( 0.0990099010 0.1584158416 0.0990099010 0.0792079208 0.0769230769 0.0096153846 0.0860215054 0.1075268817 0.1343283582 0.0447761194 0.1268656716)
( 0.0495049505 0.1584158416 0.0891089109 0.0891089109 0.1153846154 0.0192307692 0.1397849462 0.0645161290 0.1044776119 0.0820895522 0.0746268657)
( 0.0396039604 0.1287128713 0.0990099010 0.0792079208 0.1442307692 0.0288461538 0.1505376344 0.0597014925 0.0895522388 0.1119402985 0.0597014925)
( 0.0396039604 0.1287128713 0.0891089109 0.0693069307 0.1923076923 0.0860215054 0.0645161290 0.0746268657 0.1044776119 0.0970149254 0.0597014925)
( 0.0396039604 0.1089108911 0.0990099010 0.0673076923 0.1634615385 0.0537634409 0.1075268817 0.0746268657 0.1044776119 0.1044776119 0.0746268657)
( 0.0495049505 0.1089108911 0.0990099010 0.0769230769 0.1057692308 0.0215053763 0.1182795699 0.0895522388 0.1194029851 0.0820895522 0.1268656716)); 
}

potential ( ScnRelPlFcst | Scenario ) { 
 data = (( 0.7490636704 0.0542005420 0.0359915314 0.0488281250 0.0477402928 0.0203545634 0.0591861899 0.0404040404 0.0402955003 0.0546875000 0.0340425532)
( 0.0134831461 0.6775067751 0.0296400847 0.0182291667 0.0019096117 0.0499015102 0.0345252774 0.0536616162 0.0288784419 0.0269886364 0.0035460993)
( 0.0659176030 0.0298102981 0.7057163020 0.0377604167 0.0388287715 0.0518713066 0.0406905055 0.0239898990 0.0114170584 0.0063920455 0.0531914894)
( 0.0374531835 0.0325203252 0.0599858857 0.6510416667 0.0318268619 0.0512147078 0.0585696671 0.0315656566 0.0342511753 0.0063920455 0.0659574468)
( 0.0157303371 0.0548780488 0.0395201129 0.0156250000 0.6365372374 0.0426789232 0.0246609125 0.0523989899 0.0443250504 0.0099431818 0.0368794326)
( 0.0044943820 0.0643631436 0.0127028934 0.0390625000 0.0547422024 0.6565988181 0.0258939581 0.0340909091 0.0369375420 0.0269886364 0.0390070922)
( 0.0149812734 0.0088075881 0.0557515879 0.0514322917 0.0553787397 0.0328299409 0.6165228113 0.0088383838 0.0335795836 0.0312500000 0.0241134752)
( 0.0194756554 0.0420054201 0.0049400141 0.0410156250 0.0420114577 0.0308601445 0.0271270037 0.6313131313 0.0208193418 0.0390625000 0E-10)
( 0.0044943820 0.0318428184 0.0056457304 0.0546875000 0.0420114577 0.0039395929 0.0474722565 0.0574494949 0.6715916723 0.0610795455 0.0241134752)
( 0.0456928839 0.0033875339 0.0254057869 0.0410156250 0.0152768937 0.0098489823 0.0493218249 0.0473484848 0.0564137005 0.7102272727 0.0099290780)
( 0.0292134831 0.0006775068 0.0247000706 0.0013020833 0.0337364736 0.0499015102 0.0160295931 0.0189393939 0.0214909335 0.0269886364 0.7092198582)); 
}

potential ( SfcWndShfDis | Scenario ) { 
 data = (( 0.3920386007 0.0561797753 0.1449275362 0.0824742268 0.0325203252 0.0551181102 0.0222222222)
( 0.3920386007 0.0561797753 0.1449275362 0.1030927835 0.0162601626 0.0366492147 0.0222222222)
( 0.0349819059 0.7303370787 0.2898550725 0.0224971879 0.0487804878 0.0261780105 0.0444444444)
( 0.0723763571 0.0338983051 0.0289855072 0.0224971879 0.3658536585 0.1413612565 0.2222222222)
( 0.0361881785 0.2372881356 0.0579710145 0.0449943757 0.2032520325 0.2094240838 0.0985915493)
( 0.0603136309 0.1694915254 0.1449275362 0.0224971879 0.0606299213 0.2931937173 0.1690140845)
( 0.0120627262 0.0847457627 0.0515463918 0.1001124859 0.2755905512 0.1727748691 0.2816901408)
( 0.0112359551 0.1694915254 0.1546391753 0.4499437570 0.0259842520 0.1204188482 0.1549295775)
( 0.0224719101 0.1694915254 0.5154639175 0.3374578178 0.0078740157 0.0444444444 0.0704225352)
( 0.0674157303 0.1355932203 0.0412371134 0.0162601626 0.4724409449 0.3111111111 0.0845070423)
( 0.0561797753 0.1884057971 0.0515463918 0.3170731707 0.1023622047 0.3333333333 0.1408450704)); 
}

potential ( SubjVertMo ) { 
 data = (  0.1500000000 0.1500000000 0.5000000000 0.2000000000); 
}

potential ( SynForcng | Scenario ) { 
 data = (( 0.3465346535 0.2450980392 0.0179806362 0.3017241379 0.0833333333)
( 0.0594059406 0.0980392157 0.0829875519 0.2586206897 0.2774566474)
( 0.0990099010 0.2647058824 0.5532503458 0.0909090909 0.0867052023)
( 0.3465346535 0.1960784314 0.1666666667 0.2840909091 0.0578034682)
( 0.1485148515 0.1875000000 0.1666666667 0.1704545455 0.2601156069)
( 0.1851851852 0.1250000000 0.0833333333 0.1704545455 0.3179190751)
( 0.1851851852 0.1250000000 0.1666666667 0.2840909091 0.2380952381)
( 0.3086419753 0.3125000000 0.4166666667 0.2500000000 0.0595238095)
( 0.3086419753 0.2500000000 0.1293103448 0.3333333333 0.1190476190)
( 0.0123456790 0.0691562932 0.0086206897 0.0833333333 0.5238095238)
( 0.1960784314 0.2766251729 0.3017241379 0.2500000000 0.0595238095)); 
}

potential ( TempDis | Scenario ) { 
 data = (( 0.2600000000 0.1200000000 0.1428571429 0.3444444444)
( 0.3000000000 0.3409090909 0.3571428571 0.2500000000)
( 0.2400000000 0.2272727273 0.1508620690 0.2388888889)
( 0.2000000000 0.3409090909 0.1724137931 0.5555555556)
( 0.2352941176 0.0909090909 0.3534482759 0.1587301587)
( 0.2941176471 0.1621621622 0.3232758621 0.1269841270)
( 0.1764705882 0.0405405405 0.4721753794 0.1587301587)
( 0.2941176471 0.5405405405 0.2810567735 0.0704225352)
( 0.6400000000 0.2567567568 0.0219224283 0.0140845070)
( 0.0800000000 0.0714285714 0.2248454188 0.6338028169)
( 0.1600000000 0.4285714286 0.1666666667 0.2816901408)); 
}

potential ( VISCloudCov ) { 
 data = (  0.1000000000 0.5000000000 0.4000000000); 
}

potential ( WindAloft | Scenario ) { 
 data = (( 0.2572944297 0.4439252336 0.0330033003 0.0425531915)
( 0.5305039788 0.2189781022 0.6600660066 0.3191489362)
( 0.1326259947 0.0656934307 0.5442804428 0.2872340426)
( 0.0795755968 0.2335766423 0.3874538745 0.1949152542)
( 0.0686274510 0.4817518248 0.0184501845 0.2118644068)
( 0.4901960784 0.0889603430 0.0498154982 0.4237288136)
( 0.2450980392 0.3215434084 0.3140703518 0.1694915254)
( 0.1960784314 0.1500535906 0.5402010050 0.2053571429)
( 0.0934579439 0.4394426581 0.1256281407 0.2589285714)
( 0.4485981308 0.0429042904 0.0201005025 0.0357142857)
( 0.0140186916 0.2640264026 0.3510638298 0.5000000000)); 
}

potential ( WindFieldMt | Scenario ) { 
 data = (( 0.6956521739 0.2222222222)
( 0.3043478261 0.7222222222)
( 0.5172413793 0.2777777778)
( 0.4827586207 0.4615384615)
( 0.8125000000 0.5384615385)
( 0.1875000000 0.7391304348)
( 0.7000000000 0.2608695652)
( 0.3000000000 0.5833333333)
( 0.9803921569 0.4166666667)
( 0.0196078431 0.7674418605)
( 0.7777777778 0.2325581395)); 
}

potential ( WindFieldPln | Scenario ) { 
 data = (( 0.0367647059 0.3351955307 0.0408163265 0.2159827214 0.2643678161 0.0116429495)
( 0.0588235294 0.6269592476 0.0408163265 0.2159827214 0.2298850575 0.0181112549)
( 0.0735294118 0.0282131661 0.5172413793 0.0928725702 0.0689655172 0.1940491591)
( 0.0735294118 0.1567398119 0.1379310345 0.0354609929 0.3448275862 0.2587322122)
( 0.3161764706 0.1044932079 0.1034482759 0.0425531915 0.0909090909 0.2587322122)
( 0.4411764706 0.0731452456 0.0068965517 0.0851063830 0.3030303030 0.0029940120)
( 0.1396648045 0.0104493208 0.2068965517 0.0070921986 0.0454545455 0.3992015968)
( 0.0223463687 0.0408163265 0.0275862069 0.5673758865 0.1515151515 0.0688622754)
( 0.1117318436 0.6122448980 0.1079913607 0.2624113475 0.1060606061 0.0099800399)
( 0.3351955307 0.1632653061 0.1511879050 0.0344827586 0.3030303030 0.0199600798)
( 0.0558659218 0.1020408163 0.2159827214 0.0574712644 0.2587322122 0.4990019960)); 
}

potential ( WndHodograph ) { 
 data = (  0.3000000000 0.2500000000 0.2500000000 0.2000000000); 
}

