net { }

node ChHepatitis { 
 states = ( "active" "persistent" "absent" ); 
}

node Cirrhosis { 
 states = ( "decompensate" "compensate" "absent" ); 
}

node ESR { 
 states = ( "a200_50" "a49_15" "a14_0" ); 
}

node Hyperbilirubinemia { 
 states = ( "present" "absent" ); 
}

node PBC { 
 states = ( "present" "absent" ); 
}

node RHepatitis { 
 states = ( "present" "absent" ); 
}

node Steatosis { 
 states = ( "present" "absent" ); 
}

node THepatitis { 
 states = ( "present" "absent" ); 
}

node age { 
 states = ( "age65_100" "age51_65" "age31_50" "age0_30" ); 
}

node albumin { 
 states = ( "a70_50" "a49_30" "a29_0" ); 
}

node alcohol { 
 states = ( "present" "absent" ); 
}

node alcoholism { 
 states = ( "present" "absent" ); 
}

node alt { 
 states = ( "a850_200" "a199_100" "a99_35" "a34_0" ); 
}

node ama { 
 states = ( "present" "absent" ); 
}

node amylase { 
 states = ( "a1400_500" "a499_300" "a299_0" ); 
}

node anorexia { 
 states = ( "present" "absent" ); 
}

node ascites { 
 states = ( "present" "absent" ); 
}

node ast { 
 states = ( "a700_400" "a399_150" "a149_40" "a39_0" ); 
}

node bilirubin { 
 states = ( "a88_20" "a19_7" "a6_2" "a1_0" ); 
}

node bleeding { 
 states = ( "present" "absent" ); 
}

node carcinoma { 
 states = ( "present" "absent" ); 
}

node choledocholithotomy { 
 states = ( "present" "absent" ); 
}

node cholesterol { 
 states = ( "a999_350" "a349_240" "a239_0" ); 
}

node consciousness { 
 states = ( "present" "absent" ); 
}

node density { 
 states = ( "present" "absent" ); 
}

node diabetes { 
 states = ( "present" "absent" ); 
}

node edema { 
 states = ( "present" "absent" ); 
}

node edge { 
 states = ( "present" "absent" ); 
}

node encephalopathy { 
 states = ( "present" "absent" ); 
}

node fat { 
 states = ( "present" "absent" ); 
}

node fatigue { 
 states = ( "present" "absent" ); 
}

node fibrosis { 
 states = ( "present" "absent" ); 
}

node flatulence { 
 states = ( "present" "absent" ); 
}

node gallstones { 
 states = ( "present" "absent" ); 
}

node ggtp { 
 states = ( "a640_70" "a69_30" "a29_10" "a9_0" ); 
}

node hbc_anti { 
 states = ( "present" "absent" ); 
}

node hbeag { 
 states = ( "present" "absent" ); 
}

node hbsag { 
 states = ( "present" "absent" ); 
}

node hbsag_anti { 
 states = ( "present" "absent" ); 
}

node hcv_anti { 
 states = ( "present" "absent" ); 
}

node hepatalgia { 
 states = ( "present" "absent" ); 
}

node hepatomegaly { 
 states = ( "present" "absent" ); 
}

node hepatotoxic { 
 states = ( "present" "absent" ); 
}

node hospital { 
 states = ( "present" "absent" ); 
}

node injections { 
 states = ( "present" "absent" ); 
}

node inr { 
 states = ( "a200_110" "a109_70" "a69_0" ); 
}

node irregular_liver { 
 states = ( "present" "absent" ); 
}

node itching { 
 states = ( "present" "absent" ); 
}

node jaundice { 
 states = ( "present" "absent" ); 
}

node joints { 
 states = ( "present" "absent" ); 
}

node le_cells { 
 states = ( "present" "absent" ); 
}

node nausea { 
 states = ( "present" "absent" ); 
}

node obesity { 
 states = ( "present" "absent" ); 
}

node pain { 
 states = ( "present" "absent" ); 
}

node pain_ruq { 
 states = ( "present" "absent" ); 
}

node palms { 
 states = ( "present" "absent" ); 
}

node phosphatase { 
 states = ( "a4000_700" "a699_240" "a239_0" ); 
}

node platelet { 
 states = ( "a597_300" "a299_150" "a149_100" "a99_0" ); 
}

node pressure_ruq { 
 states = ( "present" "absent" ); 
}

node proteins { 
 states = ( "a10_6" "a5_2" ); 
}

node sex { 
 states = ( "female" "male" ); 
}

node skin { 
 states = ( "present" "absent" ); 
}

node spiders { 
 states = ( "present" "absent" ); 
}

node spleen { 
 states = ( "present" "absent" ); 
}

node surgery { 
 states = ( "present" "absent" ); 
}

node transfusion { 
 states = ( "present" "absent" ); 
}

node triglycerides { 
 states = ( "a17_4" "a3_2" "a1_0" ); 
}

node upper_pain { 
 states = ( "present" "absent" ); 
}

node urea { 
 states = ( "a165_50" "a49_40" "a39_0" ); 
}

node vh_amn { 
 states = ( "present" "absent" ); 
}

potential ( ChHepatitis | injections transfusion vh_amn ) { 
 data = (((( 0.2018031260 0.0414352236 0.7567616503)
( 0.0600000000 0.0600000000 0.8800000000)
)
(( 0.1538461500 0.0512820500 0.7948718000)
( 0.0771481334 0.0030087771 0.9198430895)
)
)
((( 0.4615385000 0.3076923000 0.2307692000)
( 0.1304347800 0.0434782600 0.8260869600)
)
(( 0.2400000000 0.1400000000 0.6200000000)
( 0.1309523800 0.0535714300 0.8154761900)))); 
}

potential ( Cirrhosis | Steatosis fibrosis ) { 
 data = ((( 0.5600000000 0.2400000000 0.2000000000)
( 0.3500000000 0.1500000000 0.5000000000)
)
(( 0.4900000000 0.2100000000 0.3000000000)
( 0.0258697591 0.0838537021 0.8902765388))); 
}

potential ( ESR | ChHepatitis Hyperbilirubinemia PBC Steatosis ) { 
 data = ((((( 0.2932234494 0.3308795784 0.3579123848)
( 0.2967626266 0.3507583053 0.3516050652)
)
(( 0.6632977903 0.4903719851 0.2482770819)
( 0.5915550370 0.5255426874 0.2913762163)
)
)
((( 0.2997439903 0.3449119224 0.3517331632)
( 0.2860331807 0.3424597677 0.3704954729)
)
(( 0.4426459025 0.5272156847 0.2884916274)
( 0.2426546559 0.6688580689 0.2947103297)
)
)
)
(((( 0.3353930782 0.3398457316 0.3299377564)
( 0.3363308826 0.3156533943 0.3378865451)
)
(( 0.1489332198 0.3341129732 0.3665809304)
( 0.3074317102 0.2447200953 0.3461223865)
)
)
((( 0.3342793889 0.3211510639 0.3370972178)
( 0.3283660825 0.3065189245 0.3502707757)
)
(( 0.2175832510 0.2790885495 0.3605413685)
( 0.4089181007 0.1690724697 0.3505704528)
)
)
)
(((( 0.3713834723 0.3292746900 0.3121498588)
( 0.3669064908 0.3335883004 0.3105083897)
)
(( 0.1877689900 0.1755150417 0.3851419877)
( 0.1010132528 0.2297372172 0.3625013971)
)
)
((( 0.3659766208 0.3339370137 0.3111696190)
( 0.3856007368 0.3510213077 0.2792337514)
)
(( 0.3397708465 0.1936957657 0.3509670041)
( 0.3484272435 0.1620694615 0.3547192175))))); 
}

potential ( Hyperbilirubinemia | age sex ) { 
 data = ((( 0.0531737614 0.9468262386)
( 0.0880116733 0.9119883267)
)
(( 0.0112994400 0.9887005600)
( 0.0212766000 0.9787234000)
)
(( 0.0459770100 0.9540229900)
( 0.0769230800 0.9230769200)
)
(( 0.2187500000 0.7812500000)
( 0.4531250000 0.5468750000))); 
}

potential ( PBC | age sex ) { 
 data = ((( 0.6571429000 0.3428571000)
( 0.3684211000 0.6315789000)
)
(( 0.7005650000 0.2994350000)
( 0.0851063800 0.9148936200)
)
(( 0.6149425000 0.3850575000)
( 0.0673076900 0.9326923100)
)
(( 0.1250000000 0.8750000000)
( 0.0118760151 0.9881239849))); 
}

potential ( RHepatitis | hepatotoxic ) { 
 data = (( 0.0175438600 0.9824561400)
( 0.0249221200 0.9750778800)); 
}

potential ( Steatosis | alcoholism obesity ) { 
 data = ((( 0.3636364000 0.6363636000)
( 0.2380952000 0.7619048000)
)
(( 0.1891892000 0.8108108000)
( 0.0634920600 0.9365079400))); 
}

potential ( THepatitis | alcoholism hepatotoxic ) { 
 data = ((( 0.2000000000 0.8000000000)
( 0.0888888900 0.9111111100)
)
(( 0.0495200078 0.9504799922)
( 0.0326087000 0.9673913000))); 
}

potential ( age ) { 
 data = (  0.0772532192 0.3876967061 0.3977110160 0.1373390586); 
}

potential ( albumin | Cirrhosis ) { 
 data = (( 0.3486820997 0.3432983585 0.3418246970)
( 0.3687149807 0.0877607922 0.1409121478)
( 0.2826029196 0.5689408493 0.5172631551)); 
}

potential ( alcohol | Cirrhosis ) { 
 data = (( 0.4781492155 0.8767654209)
( 0.5218507845 0.4656192493)
( 0.1232345791 0.5343807507)); 
}

potential ( alcoholism ) { 
 data = (  0.1359084000 0.8640916000); 
}

potential ( alt | ChHepatitis Cirrhosis RHepatitis Steatosis THepatitis ) { 
 data = (((((( 0.3178050594 0.2633376697 0.2531602539 0.2339049050)
( 0.4196521110 0.2869296546 0.2490697587 0.2196833630)
)
(( 0.4352040630 0.3674240389 0.2570142224 0.1886684006)
( 0.6959092044 0.3632755645 0.2594098085 0.1797769057)
)
)
((( 0.3953107109 0.3338066846 0.2506088392 0.2023630000)
( 0.4763416738 0.3423119426 0.2500778808 0.2015080693)
)
(( 0.2582711626 0.2596267168 0.2573952774 0.2190447454)
( 0.3392200204 0.2213694876 0.2512048004 0.2416535700)
)
)
)
(((( 0.2946919367 0.2747090544 0.2571056071 0.2283090913)
( 0.3604071143 0.3080274294 0.2501331530 0.2169696269)
)
(( 0.3158559740 0.3230484606 0.2456201384 0.1982340847)
( 0.5501603310 0.3208300867 0.2409115090 0.1967295425)
)
)
((( 0.2428640794 0.3068242121 0.2517238555 0.2145587011)
( 0.4079898646 0.2976445983 0.2522452551 0.2156888878)
)
(( 0.5543229850 0.3581104014 0.2557613764 0.1880190178)
( 0.4010167955 0.3497974502 0.2543325424 0.1880278604)
)
)
)
(((( 0.2811736050 0.3023354567 0.2515187169 0.2163874808)
( 0.2244165171 0.3172824551 0.2439338010 0.2071947489)
)
(( 0.2938005391 0.3037809152 0.2537635970 0.1993423092)
( 0.3742161664 0.2798209766 0.2473423996 0.2045878127)
)
)
((( 0.2607217375 0.2854668500 0.2440813904 0.2267914630)
( 0.4177816214 0.3000256951 0.2456992023 0.2208654211)
)
(( 0.4404020526 0.3841908360 0.2601024246 0.1764412389)
( 0.5334144169 0.3127218090 0.2446638154 0.1781769663)
)
)
)
)
((((( 0.2794492848 0.2604999648 0.2438070376 0.2489750003)
( 0.1178254063 0.2014025561 0.2368634865 0.2960655804)
)
(( 0.1533105015 0.2353335775 0.2507236643 0.2531913557)
( 0.1750714560 0.2558922183 0.2533636312 0.2496524553)
)
)
((( 0.1104143666 0.2330891681 0.2367567177 0.2725171770)
( 0.1928049814 0.2282079549 0.2306919978 0.2773134884)
)
(( 0.1226519265 0.2037524799 0.2440481616 0.2795648329)
( 0.1578382323 0.2019285254 0.2311043622 0.3006944338)
)
)
)
(((( 0.1283618541 0.2484408683 0.2517290196 0.2469639740)
( 0.2298025135 0.2261591153 0.2458855080 0.2707623938)
)
(( 0.1980416917 0.2256035525 0.2358549191 0.2876442476)
( 0.1500437146 0.2449975261 0.2289012559 0.2897289609)
)
)
((( 0.2304780136 0.2149536290 0.2389280397 0.2890666132)
( 0.0974303950 0.2132378873 0.2380122842 0.2903166595)
)
(( 0.1451798023 0.2411763960 0.2386344947 0.2718217868)
( 0.1218400382 0.2338119889 0.2361128124 0.2887284164)
)
)
)
(((( 0.5845598955 0.2065850207 0.2379627932 0.2833924978)
( 0.2405745063 0.2303320867 0.2361125737 0.2793395638)
)
(( 0.2480264131 0.2092978819 0.2259433627 0.3131400791)
( 0.0867323793 0.2075338962 0.2231095278 0.3319224165)
)
)
((( 0.1686415719 0.2067489719 0.2345464498 0.2873153192)
( 0.1104617608 0.2075860424 0.2325241975 0.2876430491)
)
(( 0.0960877340 0.2235292155 0.2211780087 0.2881011128)
( 0.1225775864 0.1882122265 0.1717932649 0.3916451003)
)
)
)
)
((((( 0.1080537191 0.2014533110 0.2459271014 0.2888110034)
( 0.1021153684 0.2036403599 0.2639336018 0.2672814298)
)
(( 0.0900189508 0.2008774024 0.2566730456 0.2636513357)
( 0.1859696698 0.1952092901 0.2600662137 0.2693255122)
)
)
((( 0.1164369753 0.2106883842 0.2605259741 0.2554504476)
( 0.1850927905 0.1916946772 0.2531020789 0.2662209482)
)
(( 0.1778452863 0.1969607227 0.2615559673 0.2605943625)
( 0.3193049340 0.2144620355 0.2784502829 0.2225492894)
)
)
)
(((( 0.0059046454 0.2426386543 0.2587894703 0.2532560475)
( 0.3052064632 0.2262263429 0.2740681173 0.2427032936)
)
(( 0.3960833835 0.2504705846 0.2618518968 0.2504703320)
( 0.1138262845 0.2389630971 0.2701210213 0.2442159845)
)
)
((( 0.2659361696 0.1927553089 0.2652667144 0.2695832227)
( 0.0767981190 0.1890918194 0.2640432583 0.2731290316)
)
(( 0.0777179999 0.2410609191 0.2824641711 0.2330229630)
( 0.1423481335 0.2622828465 0.3192029656 0.1819254705)
)
)
)
(((( 0.3778379472 0.2224157631 0.2521084690 0.2696693755)
( 0.1457605543 0.2377854253 0.2661280425 0.2549574941)
)
(( 0.1999018852 0.2272944861 0.2628977628 0.2684728663)
( 0.1998314339 0.2912756396 0.2783432722 0.2218362009)
)
)
((( 0.2428438635 0.1904934118 0.2577156636 0.2708249245)
( 0.0185575788 0.1732461748 0.2547023628 0.2829275900)
)
(( 0.3857922135 0.1512190293 0.2362553956 0.3024346853)
( 0.2016598632 0.2367831180 0.2643399541 0.2482524629)))))); 
}

potential ( ama | PBC ) { 
 data = (( 0.9794181265 0.3042810445)
( 0.0205818735 0.6957189555)); 
}

potential ( amylase | gallstones ) { 
 data = (( 0.0186915900 0.0467289700 0.9345794400)
( 0.0101351400 0.0168918900 0.9729729700)); 
}

potential ( anorexia | RHepatitis THepatitis ) { 
 data = ((( 0.4500000495 0.5126582152)
( 0.2951781035 0.5509757518)
)
(( 0.5499999505 0.4873417848)
( 0.7048218965 0.4490242482))); 
}

potential ( ascites | proteins ) { 
 data = (( 0.1280932000 0.8719068000)
( 0.5833333000 0.4166667000)); 
}

potential ( ast | ChHepatitis Cirrhosis RHepatitis Steatosis THepatitis ) { 
 data = (((((( 0.3249908177 0.2719648023 0.2507504371 0.2386189005)
( 0.2292093856 0.3082437538 0.2498089206 0.2225700361)
)
(( 0.1046462824 0.3822700882 0.2680888395 0.1933450790)
( 0.1344086022 0.3935615667 0.2708566001 0.1785921166)
)
)
((( 0.1144754245 0.3721306292 0.2537018363 0.2046155185)
( 0.1082250963 0.3719764588 0.2505128917 0.2043673209)
)
(( 0.1259688886 0.3320813889 0.2399874817 0.2304938384)
( 0.2364707011 0.2932213944 0.2232599838 0.2608891967)
)
)
)
(((( 0.3013552002 0.2521855530 0.2615782938 0.2329103118)
( 0.2426922323 0.2967052061 0.2569463189 0.2160238596)
)
(( 0.1779359577 0.3904356317 0.2484714911 0.2051538131)
( 0.2061005902 0.3707153843 0.2449185395 0.1991810845)
)
)
((( 0.3902366694 0.3219679124 0.2557877977 0.2164772894)
( 0.2582729367 0.3217008038 0.2536231596 0.2137620112)
)
(( 0.1180777113 0.3819162171 0.2619542758 0.1918231175)
( 0.4852536558 0.3527431745 0.2593211692 0.1899226239)
)
)
)
(((( 0.1309929104 0.3595731551 0.2475179449 0.2202930958)
( 0.1192392714 0.3689773897 0.2468091458 0.2124814157)
)
(( 0.1726992715 0.3577143946 0.2530885362 0.2001330870)
( 0.2168090991 0.3360514806 0.2398790497 0.2132378940)
)
)
((( 0.3391341976 0.3357665338 0.2413453586 0.2315434761)
( 0.2623724927 0.3268071684 0.2436462480 0.2239411775)
)
(( 0.1724137931 0.4395625108 0.2639312614 0.1795346988)
( 0.4369958288 0.3650239863 0.2345441155 0.1983494058)
)
)
)
)
((((( 0.2907813103 0.2780993563 0.2430519559 0.2472118232)
( 0.0577607605 0.1936272028 0.2367259746 0.2947664594)
)
(( 0.5839263376 0.2627577264 0.2579834945 0.2404819985)
( 0.3064516129 0.2494184734 0.2603427595 0.2420841976)
)
)
((( 0.2364489704 0.2394485318 0.2420038348 0.2648882973)
( 0.2972583012 0.2250524811 0.2377221988 0.2745443994)
)
(( 0.3409493384 0.2336095388 0.2345731882 0.2745612872)
( 0.1400618910 0.1992023044 0.2316770854 0.2969339488)
)
)
)
(((( 0.0730940543 0.2196948674 0.2581347771 0.2501737854)
( 0.3014368269 0.1978901313 0.2508040186 0.2659022909)
)
(( 0.1565836271 0.1929376392 0.2499544741 0.2683556302)
( 0.0519373446 0.1862306482 0.2420247687 0.2909627013)
)
)
((( 0.0569745543 0.1804503437 0.2457582807 0.2799853933)
( 0.0991768077 0.1841029978 0.2445352399 0.2867150960)
)
(( 0.2545755060 0.1842867008 0.2553646838 0.2647237177)
( 0.1621768161 0.1793985556 0.2476224706 0.2821072852)
)
)
)
(((( 0.2923762170 0.2103659888 0.2359384723 0.2773744922)
( 0.3014368269 0.2204266036 0.2328054556 0.2820802581)
)
(( 0.2087934485 0.1630357172 0.2396723391 0.2992485086)
( 0.1865280682 0.1763893679 0.2316737081 0.3328581887)
)
)
((( 0.1492256196 0.1971775967 0.2304701617 0.2849392615)
( 0.3064516129 0.1894399830 0.2346772006 0.2865497235)
)
(( 0.1600000000 0.2127344237 0.2403729875 0.2724394897)
( 0.2209257066 0.1757522885 0.1835090534 0.3923868722)
)
)
)
)
((((( 0.0828726718 0.1977502884 0.2446193132 0.2812589644)
( 0.4703376215 0.2014238373 0.2565187859 0.2666396449)
)
(( 0.4110320212 0.2381233133 0.2338055106 0.2782114070)
( 0.5564715489 0.2310202905 0.2414919672 0.2760137618)
)
)
((( 0.2225402075 0.2104047179 0.2551800896 0.2578251054)
( 0.3232684026 0.2100689430 0.2433688789 0.2722824203)
)
(( 0.2863974443 0.2001875432 0.2481078523 0.2688918776)
( 0.2125076372 0.2686559655 0.2613792748 0.2310361421)
)
)
)
(((( 0.5035368182 0.2103659888 0.2584088057 0.2521586266)
( 0.2778870748 0.2127058754 0.2695813800 0.2395360353)
)
(( 0.2544483940 0.1785034158 0.2677685241 0.2482791496)
( 0.1854905163 0.2120336770 0.2715647247 0.2338424525)
)
)
((( 0.2136545787 0.1618152101 0.2571085630 0.2719938413)
( 0.3801777629 0.1673890300 0.2581953524 0.2755817153)
)
(( 0.4744827586 0.1746895264 0.2832049516 0.2402887120)
( 0.2565588286 0.1020497185 0.3442502378 0.1772069733)
)
)
)
(((( 0.4265353976 0.1780161211 0.2491142393 0.2726710787)
( 0.2712481999 0.1929021170 0.2683960306 0.2488058595)
)
(( 0.4925383914 0.1471684993 0.2672516429 0.2701245660)
( 0.3601921316 0.1943377571 0.3051872584 0.1930147206)
)
)
((( 0.1622017604 0.1577945887 0.2434575044 0.2812336609)
( 0.2526881720 0.1675799769 0.2341234397 0.2927739623)
)
(( 0.1931034483 0.1730135391 0.2124907995 0.3077370994)
( 0.0855196360 0.3571740067 0.2376965933 0.2320567487)))))); 
}

potential ( bilirubin | ChHepatitis Cirrhosis Hyperbilirubinemia PBC gallstones ) { 
 data = (((((( 0.1872335943 0.2596740456 0.2456187632 0.2583729485)
( 0.2418586933 0.2461459058 0.2425072702 0.2570658521)
)
(( 0.0642938758 0.1720691128 0.2666331806 0.2814598321)
( 0.3250775906 0.1129535470 0.2400207469 0.2901030552)
)
)
((( 0.1559787359 0.1773643387 0.2740671220 0.2827409428)
( 0.3074344211 0.2590743917 0.2293185956 0.2607800454)
)
(( 0.1922356649 0.6137661307 0.3427304298 0.1725974534)
( 0.0881057068 0.2896835178 0.1722064633 0.2710022597)
)
)
)
(((( 0.1537990454 0.1919733213 0.2774176165 0.2711890683)
( 0.2540737661 0.2370293789 0.2279387794 0.2700489784)
)
(( 0.3001667576 0.1452393044 0.2788363127 0.2388908324)
( 0.0206185567 0.1235889696 0.2049710047 0.2754294857)
)
)
((( 0.2039948742 0.2230444619 0.2559564015 0.2636648591)
( 0.2606027873 0.2424703031 0.2412821380 0.2570157452)
)
(( 0.6215312495 0.1874819868 0.3433390006 0.2171448560)
( 0.2721039099 0.0744761223 0.1530548723 0.2987473070)
)
)
)
(((( 0.1775357013 0.1957216617 0.2495339499 0.2905192603)
( 0.3192303126 0.2628039562 0.2442738828 0.2479203320)
)
(( 0.2105621078 0.0803672585 0.3089236825 0.2581842056)
( 0.3586784220 0.0587023941 0.2155369817 0.2745837863)
)
)
((( 0.2146513332 0.2151380241 0.2359819745 0.2845521970)
( 0.3184741153 0.2689245085 0.2548998390 0.2374662034)
)
(( 0.3916380437 0.1783054033 0.2637518970 0.2649287096)
( 0.0633669294 0.2890053846 0.3343667045 0.2380220488)
)
)
)
)
((((( 0.3189905569 0.2654445826 0.2353846437 0.2445505258)
( 0.2286664146 0.2521130731 0.2534142913 0.2477180020)
)
(( 0.3105394976 0.1773819987 0.2443252259 0.3048043834)
( 0.3521673898 0.1080496280 0.2595480116 0.2775081326)
)
)
((( 0.2605553732 0.2539534844 0.2441688853 0.2518964709)
( 0.2205507781 0.2478102955 0.2388458397 0.2611343707)
)
(( 0.1241820802 0.3180376261 0.2837468791 0.2128282794)
( 0.1918680802 0.3150912679 0.2832986739 0.2340612824)
)
)
)
(((( 0.2471575541 0.2600900077 0.2605428020 0.2348409974)
( 0.2045553930 0.2315481558 0.2397829927 0.2639546108)
)
(( 0.4452473572 0.1725007106 0.2854159963 0.2416511256)
( 0.3144329897 0.4784005945 0.2135935858 0.2770592445)
)
)
((( 0.2437566069 0.2665192229 0.2563282507 0.2369660716)
( 0.1908711821 0.2367874054 0.2416688081 0.2625761820)
)
(( 0.1229402471 0.1207182158 0.3571184941 0.2237086562)
( 0.2536561238 0.0694268764 0.1070087048 0.3156256892)
)
)
)
(((( 0.2521007026 0.2526588682 0.2453110697 0.2528454714)
( 0.2273654365 0.2495692191 0.2566502243 0.2463013721)
)
(( 0.0747155866 0.0114810369 0.2766902135 0.2697857765)
( 0.3404405361 0.3677821847 0.2323893476 0.2703091592)
)
)
((( 0.2464599385 0.2885742322 0.2397504088 0.2343129419)
( 0.1585744199 0.3642062994 0.2321761692 0.2338513668)
)
(( 0.3384944333 0.4571933600 0.1034719029 0.2598339221)
( 0.4722103200 0.0585235857 0.1282372247 0.2738605975)
)
)
)
)
((((( 0.3399768033 0.2829080505 0.2415789766 0.2258874575)
( 0.2754011260 0.2647116422 0.2761396591 0.2251671675)
)
(( 0.1851028339 0.6175074608 0.1693594247 0.2688568793)
( 0.4432989691 0.3980104359 0.3217968275 0.1955955564)
)
)
((( 0.2939599122 0.2865116289 0.2375951074 0.2344574879)
( 0.2628325819 0.2704490908 0.2579141108 0.2368808414)
)
(( 0.1313464231 0.3737621712 0.0157956263 0.3463182084)
( 0.2823718860 0.5410057334 0.4566377490 0.1515657214)
)
)
)
(((( 0.3232060419 0.2915294624 0.2446121785 0.2217942709)
( 0.2488488579 0.2560786689 0.2592929001 0.2418236851)
)
(( 0.0694830513 0.0647525242 0.2663882662 0.2506011627)
( 0.2216494845 0E-10 0.2596385821 0.2519157134)
)
)
((( 0.3375971857 0.2952982911 0.2517333733 0.2148168724)
( 0.2300519153 0.2518177829 0.2621492149 0.2429418694)
)
(( 0.2000194499 0.2701597290 0.6114248503 0.1535382270)
( 0.1769903819 0.4036109521 0.2334802052 0.2417528013)
)
)
)
(((( 0.2895059787 0.2821705479 0.2441688853 0.2309050983)
( 0.2091822190 0.2226662219 0.2739214539 0.2412047425)
)
(( 0.5224866407 0.2943855739 0.0716556743 0.2994325645)
( 0.2127753351 0.2838319034 0.3798672074 0.1841047948)
)
)
((( 0.3787066882 0.3619746563 0.2492911847 0.1794228426)
( 0.1641805997 0.4147905256 0.2682550722 0.1985374455)
)
(( 0.0698480730 0.0943415077 0.0213513497 0.3216991413)
( 0.2874323687 0.2488600776 0.3039158656 0.2463645524)))))); 
}

potential ( bleeding | inr platelet ) { 
 data = ((( 0.1428571000 0.8571429000)
( 0.1304348000 0.8695652000)
( 0.2000000000 0.8000000000)
( 0.5000000000 0.5000000000)
)
(( 0.1063830000 0.8936170000)
( 0.1373494000 0.8626506000)
( 0.1333333000 0.8666667000)
( 0.2558139744 0.7441860256)
)
(( 0.0909090900 0.9090909100)
( 0.4250000000 0.5750000000)
( 0.2500000000 0.7500000000)
( 0.6666667000 0.3333333000))); 
}

potential ( carcinoma | Cirrhosis PBC ) { 
 data = ((( 0.5714285714 0.4666666618)
( 0.7500000000 0.4375000000)
)
(( 0.4285714286 0.5333333382)
( 0.9523809524 0.4469273743)
)
(( 0.2500000000 0.5625000000)
( 0.0476190476 0.5530726257))); 
}

potential ( choledocholithotomy | gallstones ) { 
 data = (( 0.7102804000 0.2897196000)
( 0.0371621600 0.9628378400)); 
}

potential ( cholesterol | ChHepatitis PBC Steatosis ) { 
 data = (((( 0.3094819099 0.3108721980 0.3485156998)
( 0.3062784685 0.3096122232 0.3525278077)
)
(( 0.4460009383 0.3767604264 0.3063160739)
( 0.1673733416 0.3445384953 0.3250190608)
)
)
((( 0.3334234858 0.3310771644 0.3344584355)
( 0.3168554414 0.3203044251 0.3441945877)
)
(( 0.3363239757 0.3217943504 0.3372106425)
( 0.4467752801 0.1447506924 0.3497012750)
)
)
((( 0.3570946043 0.3580506375 0.3170258647)
( 0.3768660901 0.3700833518 0.3032776045)
)
(( 0.2176750860 0.3014452232 0.3564732836)
( 0.3858513783 0.5107108122 0.3252796643)))); 
}

potential ( consciousness | encephalopathy ) { 
 data = (( 0.3043478000 0.6956522000)
( 0.0162721900 0.9837278100)); 
}

potential ( density | encephalopathy ) { 
 data = (( 0.7391304000 0.2608696000)
( 0.3772189000 0.6227811000)); 
}

potential ( diabetes ) { 
 data = (  0.0357653800 0.9642346200); 
}

potential ( edema | Cirrhosis ) { 
 data = (( 0.8423913077 0.8332135560)
( 0.1576086923 0.5184642318)
( 0.1667864440 0.4815357682)); 
}

potential ( edge | Cirrhosis ) { 
 data = (( 0.6268382402 0.5073066621)
( 0.3731617598 0.4173541998)
( 0.4926933379 0.5826458002)); 
}

potential ( encephalopathy | Cirrhosis PBC ) { 
 data = ((( 0.5212464867 0.4988562215)
( 0.4912280735 0.5004874876)
)
(( 0.4787535133 0.5011437785)
( 0.8545242547 0.5030116802)
)
(( 0.5087719265 0.4995125124)
( 0.1454757453 0.4969883198))); 
}

potential ( fat | gallstones ) { 
 data = (( 0.1775701000 0.8224299000)
( 0.2804054000 0.7195946000)); 
}

potential ( fatigue | ChHepatitis RHepatitis THepatitis ) { 
 data = (((( 0.5117493153 0.4806867475)
( 0.5141681182 0.4781654068)
)
(( 0.5038759752 0.4936708761)
( 0.4612728338 0.5735707178)
)
)
((( 0.4882506847 0.5193132525)
( 0.4858318818 0.5218345932)
)
(( 0.4708519891 0.5496183691)
( 0.4961424664 0.5043830234)
)
)
((( 0.4961240248 0.5063291239)
( 0.5387271662 0.4264292822)
)
(( 0.5291480109 0.4503816309)
( 0.5038575336 0.4956169766)))); 
}

potential ( fibrosis | ChHepatitis ) { 
 data = (( 0.8571428571 0.9681881051)
( 0.1428571429 0.4874294510)
( 0.0318118949 0.5125705490)); 
}

potential ( flatulence | gallstones ) { 
 data = (( 0.3925234000 0.6074766000)
( 0.4307432000 0.5692568000)); 
}

potential ( gallstones ) { 
 data = (  0.1530758000 0.8469242000); 
}

potential ( ggtp | ChHepatitis Hyperbilirubinemia PBC RHepatitis Steatosis THepatitis ) { 
 data = ((((((( 0.2447402828 0.2458353421 0.2453557123 0.2535315107)
( 0.2513915740 0.2560830345 0.2444154163 0.2490574768)
)
(( 0.2363410013 0.2447321240 0.2545554059 0.2551593633)
( 0.2392100900 0.2405814260 0.2532404650 0.2563860396)
)
)
((( 0.2445627117 0.2556927436 0.2518566339 0.2496704012)
( 0.2513081248 0.2594580374 0.2433433260 0.2481657045)
)
(( 0.2397142313 0.2410829495 0.2537510275 0.2556657081)
( 0.2402907933 0.2380053633 0.2463342043 0.2592150724)
)
)
)
(((( 0.2671282061 0.2866402473 0.2659172246 0.2358437937)
( 0.1311512788 0.1154779672 0.2300103521 0.2968105324)
)
(( 0.1287201003 0.1150147605 0.2347065075 0.2976238989)
( 0.1211644455 0.1064454856 0.2239185930 0.3089725008)
)
)
((( 0.1225744731 0.1076997736 0.2178132417 0.2988675859)
( 0.1321165774 0.1423759071 0.2337432210 0.2951165020)
)
(( 0.1181326560 0.1037772310 0.2209386046 0.3070889404)
( 0.1047075855 0.1168836823 0.2356308545 0.3179171099)
)
)
)
)
((((( 0.2609731375 0.2674472147 0.2698911971 0.2382628064)
( 0.2575796386 0.2631964433 0.2679516963 0.2395933106)
)
(( 0.2554648057 0.2668554098 0.2784285909 0.2369101402)
( 0.2557908911 0.2671518729 0.2716322057 0.2367631832)
)
)
((( 0.2595358162 0.2624018878 0.2685614562 0.2395495525)
( 0.2537215240 0.2630916760 0.2704295637 0.2397432636)
)
(( 0.2556757765 0.2670254461 0.2714851525 0.2374195082)
( 0.2552539066 0.2589926146 0.2678964328 0.2399513667)
)
)
)
(((( 0.3545145428 0.3330950809 0.3278239388 0.2106609962)
( 0.3168903895 0.5496375293 0.2943838474 0.2250952742)
)
(( 0.3315342429 0.4270653784 0.4058863917 0.2145481278)
( 0.2968465790 0.4608047711 0.3539363992 0.2180993090)
)
)
((( 0.3215070706 0.5544439890 0.2986309837 0.2261927661)
( 0.3334445782 0.4614918975 0.2803263195 0.2258176184)
)
(( 0.3503161721 0.4820776327 0.3808981100 0.2169913834)
( 0.3531852953 0.3660574470 0.3307928064 0.1978037316)
)
)
)
)
)
(((((( 0.2378919318 0.2401816749 0.2448498282 0.2570677242)
( 0.2384997131 0.2368767516 0.2512047781 0.2572556227)
)
(( 0.2453132066 0.2392459880 0.2383930694 0.2573402134)
( 0.2404756848 0.2411102611 0.2460050810 0.2574848179)
)
)
((( 0.2425415480 0.2390892832 0.2404086901 0.2574434384)
( 0.2387129868 0.2355598296 0.2490479010 0.2585764872)
)
(( 0.2405835374 0.2412127309 0.2460927853 0.2570873572)
( 0.2430225563 0.2465821115 0.2464105933 0.2549007452)
)
)
)
(((( 0.0983180257 0.0750219159 0.2007637264 0.3285470050)
( 0.0999499786 0.0782269952 0.2337202075 0.3077528542)
)
(( 0.0817909042 0.0487215206 0.1988485523 0.3230717794)
( 0.0859166209 0.0943494195 0.2315521957 0.3172608755)
)
)
((( 0.0975024266 0.0761513594 0.2310140529 0.3056600279)
( 0.0904264553 0.0974483963 0.2444203695 0.3090808285)
)
(( 0.0817084322 0.0897240735 0.2228564743 0.3164592844)
( 0.0813113829 0.1361502203 0.2533579385 0.3147728764)
)
)
)
)
((((( 0.3062983993 0.3116295653 0.2710310383 0.2209938035)
( 0.3682911656 0.3947735016 0.2728030908 0.2011606326)
)
(( 0.3755270066 0.4067187440 0.2904917371 0.1940486351)
( 0.3756097130 0.3858648205 0.2798981866 0.1924746757)
)
)
((( 0.3737592128 0.3997946180 0.2805171000 0.2009431731)
( 0.3750929301 0.3674731156 0.2681299946 0.2013682682)
)
(( 0.3799441793 0.3902996886 0.2865297592 0.1930938017)
( 0.3713421773 0.3487267190 0.2571253536 0.1973095281)
)
)
)
(((( 0.2061972307 0.0738053148 0.2542308137 0.2562662783)
( 0.2086194984 0.2412297712 0.2818948212 0.2487436819)
)
(( 0.2020780248 0.1301532373 0.3092467901 0.2487514515)
( 0.1330691561 0.1807467019 0.3239331875 0.2512959968)
)
)
((( 0.2077430517 0.2388374094 0.2806713531 0.2491828492)
( 0.1825170113 0.2273454530 0.2640101133 0.2540778400)
)
(( 0.1501355023 0.1807791123 0.3332858620 0.2486359583)
( 0.2129265798 0.1419613344 0.3648113153 0.2493094146)
)
)
)
)
)
(((((( 0.2563946479 0.2465357684 0.2399032624 0.2511379587)
( 0.2525290743 0.2438437706 0.2364281092 0.2540935899)
)
(( 0.2628809865 0.2491664782 0.2286229337 0.2505902831)
( 0.2645233341 0.2511564400 0.2291222483 0.2493659593)
)
)
((( 0.2533599241 0.2428160855 0.2391732198 0.2533366079)
( 0.2562573644 0.2418904569 0.2371792092 0.2535145447)
)
(( 0.2640264549 0.2506788735 0.2286710347 0.2498274264)
( 0.2614327439 0.2564199106 0.2393587695 0.2459328157)
)
)
)
(((( 0.1902761796 0.2459193481 0.1876807524 0.2719511233)
( 0.1925718608 0.1113368620 0.1951579531 0.2686920254)
)
(( 0.1841057922 0.2077246000 0.1408716394 0.2719538637)
( 0.1187386239 0.0806408572 0.1651703178 0.2767134988)
)
)
((( 0.1929042334 0.1108887667 0.1954675642 0.2669816251)
( 0.1605473959 0.1499848707 0.1965032434 0.2718175073)
)
(( 0.1339046533 0.0806176921 0.1698599570 0.2701396112)
( 0.1124895139 0.2459906093 0.0334765763 0.3262184281)
)
)
)
)
((((( 0.3282553690 0.3267082715 0.2622880106 0.2146153979)
( 0.4006075770 0.4115215360 0.2634663495 0.1942759808)
)
(( 0.4139619889 0.4295449749 0.2759532030 0.1852556866)
( 0.4173092205 0.4133402744 0.2646310247 0.1812919480)
)
)
((( 0.4061638875 0.4163542490 0.2706556054 0.1945292132)
( 0.4023640371 0.3927025810 0.2537064150 0.1944344013)
)
(( 0.4202147325 0.4161990069 0.2696751619 0.1833579736)
( 0.4426388542 0.3982393784 0.2538858535 0.1700004856)
)
)
)
(((( 0.2490120469 0.3471802562 0.2302644951 0.2611216021)
( 0.2819182513 0.0977958375 0.2285633783 0.2574690185)
)
(( 0.2822819401 0.2350567843 0.1439951787 0.2647465570)
( 0.4513456410 0.2778076698 0.1569600955 0.2538911954)
)
)
((( 0.2778456443 0.0958298348 0.2252300990 0.2576427596)
( 0.3234910145 0.1611777788 0.2591603238 0.2482870343)
)
(( 0.3656436723 0.2565255629 0.1159560710 0.2642330471)
( 0.3213986111 0.2459906093 0.2709193020 0.2266684256))))))); 
}

potential ( hbc_anti | ChHepatitis vh_amn ) { 
 data = ((( 0.9054054054 0.9192760700)
( 0.3782894442 0.9005870243)
)
(( 0.0945945946 0.5209637824)
( 0.6217105558 0.4918524347)
)
(( 0.0807239300 0.4790362176)
( 0.0994129757 0.5081475653))); 
}

potential ( hbeag | ChHepatitis vh_amn ) { 
 data = ((( 0.5263157895 0.9851696779)
( 0.6391194561 0.9139521318)
)
(( 0.4736842105 0.4983965917)
( 0.3608805439 0.4893972963)
)
(( 0.0148303221 0.5016034083)
( 0.0860478682 0.5106027037))); 
}

potential ( hbsag | ChHepatitis vh_amn ) { 
 data = ((( 0.5199999792 0.8163265306)
( 0.8141593026 0.9454052187)
)
(( 0.4800000208 0.3776129299)
( 0.1858406974 0.5008560464)
)
(( 0.1836734694 0.6223870701)
( 0.0545947813 0.4991439536))); 
}

potential ( hbsag_anti | ChHepatitis hbsag vh_amn ) { 
 data = (((( 0.6466431461 0.5023529402)
( 0.4782608621 0.5020746895)
)
(( 0.8666666748 0.4842406878)
( 0.3529411765 0.5005948822)
)
)
((( 0.3533568539 0.4976470598)
( 0.5217391379 0.4979253105)
)
(( 0.2500000444 0.5072463758)
( 0.8376360084 0.5026256548)
)
)
((( 0.1333333252 0.5157593122)
( 0.6470588235 0.4994051178)
)
(( 0.7499999556 0.4927536242)
( 0.1623639916 0.4973743452)))); 
}

potential ( hcv_anti | ChHepatitis vh_amn ) { 
 data = ((( 0.5474860335 0.9736184180)
( 0.5079365079 0.9215443911)
)
(( 0.4525139665 0.4983965917)
( 0.4920634921 0.4994240480)
)
(( 0.0263815820 0.5016034083)
( 0.0784556089 0.5005759520))); 
}

potential ( hepatalgia | hepatomegaly ) { 
 data = (( 0.3142251000 0.6857749000)
( 0.0307017500 0.9692982500)); 
}

potential ( hepatomegaly | Hyperbilirubinemia RHepatitis Steatosis THepatitis ) { 
 data = ((((( 0.4727685335 0.5494505479)
( 0.4748122136 0.5413534202)
)
(( 0.4675779896 0.5558912267)
( 0.4404145460 0.6017698444)
)
)
((( 0.4703389741 0.5522388245)
( 0.4607689915 0.5687294716)
)
(( 0.4312499973 0.6486486657)
( 0.3496932584 0.6737588500)
)
)
)
(((( 0.5272314665 0.4505494521)
( 0.5251877864 0.4586465798)
)
(( 0.5324220104 0.4441087733)
( 0.5595854540 0.3982301556)
)
)
((( 0.5296610259 0.4477611755)
( 0.5392310085 0.4312705284)
)
(( 0.5687500027 0.3513513343)
( 0.6503067416 0.3262411500))))); 
}

potential ( hepatotoxic ) { 
 data = (  0.0815450600 0.9184549400); 
}

potential ( hospital ) { 
 data = (  0.5350501000 0.4649499000); 
}

potential ( injections | choledocholithotomy hospital surgery ) { 
 data = (((( 0.5277577486 0.4130925555)
( 0.6336405349 0.2433628751)
)
(( 0.6164383899 0.4491017857)
( 0.1450939373 0.5139687755)
)
)
((( 0.4722422514 0.5869074445)
( 0.3663594651 0.7566371249)
)
(( 0.3835616101 0.5508982143)
( 0.8549060627 0.4860312245)))); 
}

potential ( inr | ChHepatitis Cirrhosis Hyperbilirubinemia THepatitis ) { 
 data = ((((( 0.2130928529 0.3367161802 0.3367865476)
( 0.2977346538 0.3456423942 0.2862476647)
)
(( 0.2181562210 0.3458596006 0.2937103741)
( 0.2048558698 0.3711442646 0.2287592594)
)
)
((( 0.3207395587 0.3480156994 0.2606139786)
( 0.2738858252 0.3432221678 0.2819458153)
)
(( 0.1851676508 0.3481825644 0.2734247856)
( 0.1607975387 0.3611837885 0.2188646970)
)
)
((( 0.2036638706 0.3405722908 0.3156449841)
( 0.1833393988 0.3343784126 0.4348576321)
)
(( 0.1809651483 0.3311068202 0.4691572560)
( 0.1290461264 0.3381249638 0.4670472273)
)
)
)
(((( 0.3680694622 0.3392670623 0.2908611006)
( 0.4012945033 0.3371397502 0.3086496547)
)
(( 0.5418719526 0.3340830224 0.3086509657)
( 0.3034901410 0.3493796319 0.2772839531)
)
)
((( 0.4501607932 0.3376003675 0.2926192099)
( 0.4059378932 0.3391361866 0.2785893376)
)
(( 0.5668399373 0.3361574180 0.2790048842)
( 0.2733558322 0.3528807143 0.2289661395)
)
)
((( 0.4711885108 0.3372228660 0.2434211254)
( 0.4074208608 0.3353647808 0.2415875734)
)
(( 0.4705093669 0.3296978564 0.3049522042)
( 0.4892999204 0.3335433255 0.1686559499)
)
)
)
(((( 0.4188376848 0.3240167575 0.3723523518)
( 0.3009708429 0.3172178556 0.4051026806)
)
(( 0.2399718263 0.3200573769 0.3976386601)
( 0.4916539892 0.2794761035 0.4939567875)
)
)
((( 0.2290996481 0.3143839331 0.4467668115)
( 0.3201762816 0.3176416456 0.4394648471)
)
(( 0.2479924118 0.3156600176 0.4475703303)
( 0.5658466292 0.2859354972 0.5521691634)
)
)
((( 0.3251476186 0.3222048432 0.4409338906)
( 0.4092397404 0.3302568066 0.3235547944)
)
(( 0.3485254848 0.3391953234 0.2258905397)
( 0.3816539532 0.3283317107 0.3642968227))))); 
}

potential ( irregular_liver | Cirrhosis ) { 
 data = (( 0.6297156280 0.7882022011)
( 0.3702843720 0.4193160436)
( 0.2117977989 0.5806839564)); 
}

potential ( itching | bilirubin ) { 
 data = (( 0.5603345152 0.2851064063)
( 0.4396654848 0.7148935937)
( 0.6216730301 0.4041916012)
( 0.3783269699 0.5958083988)); 
}

potential ( jaundice | bilirubin ) { 
 data = (( 0.5694050901 0.3661202298)
( 0.4305949099 0.6338797702)
( 0.6409382779 0.4477426895)
( 0.3590617221 0.5522573105)); 
}

potential ( joints | PBC ) { 
 data = (( 0.5619131323 0.4920017893)
( 0.4380868677 0.5079982107)); 
}

potential ( le_cells | PBC ) { 
 data = (( 0.7495528279 0.4780043876)
( 0.2504471721 0.5219956124)); 
}

potential ( nausea | RHepatitis THepatitis ) { 
 data = ((( 0.4954128490 0.5026595719)
( 0.5528203705 0.4752325012)
)
(( 0.5045871510 0.4973404281)
( 0.4471796295 0.5247674988))); 
}

potential ( obesity | diabetes ) { 
 data = (( 0.7938751474 0.4476683213)
( 0.2061248526 0.5523316787)); 
}

potential ( pain | PBC joints ) { 
 data = ((( 0.3245033201 0.7623762253)
( 0.4463299037 0.5106272176)
)
(( 0.6754966799 0.2376237747)
( 0.5536700963 0.4893727824))); 
}

potential ( pain_ruq | Hyperbilirubinemia Steatosis ) { 
 data = ((( 0.4516853997 0.5372778403)
( 0.4037855010 0.5526770244)
)
(( 0.5483146003 0.4627221597)
( 0.5962144990 0.4473229756))); 
}

potential ( palms | Cirrhosis ) { 
 data = (( 0.6326530457 0.7800511589)
( 0.3673469543 0.4524002071)
( 0.2199488411 0.5475997929)); 
}

potential ( phosphatase | ChHepatitis Cirrhosis RHepatitis THepatitis ) { 
 data = ((((( 0.3285714398 0.3138401582 0.3429636516)
( 0.2675461150 0.2925828639 0.3583192391)
)
(( 0.3125533704 0.3025314314 0.3502811327)
( 0.2875605704 0.2671438442 0.3805986968)
)
)
((( 0.4203948224 0.3367462999 0.3283977727)
( 0.4198875995 0.3328874983 0.3305021227)
)
(( 0.3150000068 0.3451109312 0.3299134324)
( 0.3028130994 0.3254082948 0.3403493581)
)
)
((( 0.4371534849 0.3542628876 0.3241946521)
( 0.4084029269 0.3450870558 0.3250371226)
)
(( 0.2886657692 0.3863895427 0.3231266840)
( 0.1209400231 0.2916278967 0.3785901212)
)
)
)
(((( 0.3428571203 0.3274853829 0.3355079218)
( 0.3128929298 0.3250645253 0.3388074417)
)
(( 0.3228010198 0.3298088508 0.3359253507)
( 0.2810985428 0.3013160937 0.3589916721)
)
)
((( 0.2785115629 0.3187063236 0.3410455236)
( 0.2870659301 0.3186208988 0.3414439163)
)
(( 0.2800000060 0.3221035342 0.3411349787)
( 0.2625035718 0.3008970205 0.3576280142)
)
)
((( 0.2781885145 0.3381600283 0.3340187356)
( 0.2456798476 0.3277759409 0.3351945360)
)
(( 0.2516073111 0.3545110307 0.3338005396)
( 0.1019031849 0.2580096746 0.3940554036)
)
)
)
(((( 0.3285714398 0.3586744588 0.3215284266)
( 0.4195609552 0.3823526107 0.3028733192)
)
(( 0.3646456098 0.3676597178 0.3137935166)
( 0.4313408868 0.4315400621 0.2604096310)
)
)
((( 0.3010936146 0.3445473765 0.3305567038)
( 0.2930464703 0.3484916029 0.3280539610)
)
(( 0.4049999871 0.3327855346 0.3289515890)
( 0.4346833288 0.3736946847 0.3020226277)
)
)
((( 0.2846580006 0.3075770841 0.3417866123)
( 0.3459172255 0.3271370033 0.3397683414)
)
(( 0.4597269197 0.2590994267 0.3430727764)
( 0.7771567920 0.4503624287 0.2273544752))))); 
}

potential ( platelet | Cirrhosis PBC ) { 
 data = ((( 0.2477332395 0.4439274723 0.2270630776 0.2204787824)
( 0.2609353367 0.1848412342 0.3507733046 0.4157888970)
)
(( 0.2481024395 0.4456278224 0.2223481074 0.2226474258)
( 0.0449682344 0.2561718426 0.2987131819 0.2828827765)
)
(( 0.2432289843 0.2666016958 0.1998155103 0.2348937368)
( 0.0654764709 0.2923852274 0.2581606098 0.0664345898))); 
}

potential ( pressure_ruq | ChHepatitis PBC gallstones ) { 
 data = (((( 0.5039369829 0.4980544872)
( 0.5148180947 0.4926150912)
)
(( 0.5484949778 0.4721689087)
( 0.6156111860 0.4288304660)
)
)
((( 0.4960630171 0.5019455128)
( 0.4851819053 0.5073849088)
)
(( 0.2413792994 0.5600000052)
( 0.4860139749 0.5110294197)
)
)
((( 0.4515050222 0.5278310913)
( 0.3843888140 0.5711695340)
)
(( 0.7586207006 0.4399999948)
( 0.5139860251 0.4889705803)))); 
}

potential ( proteins | Cirrhosis ) { 
 data = (( 0.5003744894 0.0585790525)
( 0.4996255106 0.6958175028)
( 0.9414209475 0.3041824972)); 
}

potential ( sex ) { 
 data = (  0.5979971000 0.4020029000); 
}

potential ( skin | bilirubin ) { 
 data = (( 0.5260058848 0.4242947890)
( 0.4739941152 0.5757052110)
( 0.7942424900 0.2660876829)
( 0.2057575100 0.7339123171)); 
}

potential ( spiders | Cirrhosis ) { 
 data = (( 0.5549872057 0.6835232729)
( 0.4450127943 0.3873323255)
( 0.3164767271 0.6126676745)); 
}

potential ( spleen | Cirrhosis RHepatitis THepatitis ) { 
 data = (((( 0.5169398663 0.4922847298)
( 0.6024097013 0.4545454283)
)
(( 0.6908139666 0.4321741706)
( 0.8040539922 0.3695652376)
)
)
((( 0.4830601337 0.5077152702)
( 0.3975902987 0.5454545717)
)
(( 0.6600000490 0.4687499888)
( 0.7193010476 0.4520609802)
)
)
((( 0.3091860334 0.5678258294)
( 0.1959460078 0.6304347624)
)
(( 0.3399999510 0.5312500112)
( 0.2806989524 0.5479390198)))); 
}

potential ( surgery ) { 
 data = (  0.4234621000 0.5765379000); 
}

potential ( transfusion | choledocholithotomy hospital surgery ) { 
 data = (((( 0.5350876827 0.4841270014)
( 0.5851064689 0.4858657092)
)
(( 0.2941176471 0.5555555556)
( 0.5045371109 0.4999500460)
)
)
((( 0.4649123173 0.5158729986)
( 0.4148935311 0.5141342908)
)
(( 0.7058823529 0.4444444444)
( 0.4954628891 0.5000499540)))); 
}

potential ( triglycerides | Steatosis ) { 
 data = (( 0.4879995187 0.4473328240 0.4021577161)
( 0.0646676572 0.0193790046 0.5784632793)); 
}

potential ( upper_pain | gallstones ) { 
 data = (( 0.5152816409 0.4898538288)
( 0.4847183591 0.5101461712)); 
}

potential ( urea | encephalopathy ) { 
 data = (( 0.5671140612 0.3402684889 0.4034054698)
( 0.0926174499 0.0402609822 0.5563335480)); 
}

potential ( vh_amn ) { 
 data = (  0.1731044000 0.8268956000); 
}

