net { }

node Accident { 
 states = ( "None" "Mild" "Moderate" "Severe" ); 
}

node Age { 
 states = ( "Adolescent" "Adult" "Senior" ); 
}

node Airbag { 
 states = ( "True" "False" ); 
}

node AntiTheft { 
 states = ( "True" "False" ); 
}

node Antilock { 
 states = ( "True" "False" ); 
}

node CarValue { 
 states = ( "FiveThou" "TenThou" "TwentyThou" "FiftyThou" "Million" ); 
}

node Cushioning { 
 states = ( "Poor" "Fair" "Good" "Excellent" ); 
}

node DrivHist { 
 states = ( "Zero" "One" "Many" ); 
}

node DrivQuality { 
 states = ( "Poor" "Normal" "Excellent" ); 
}

node DrivingSkill { 
 states = ( "SubStandard" "Normal" "Expert" ); 
}

node GoodStudent { 
 states = ( "True" "False" ); 
}

node HomeBase { 
 states = ( "Secure" "City" "Suburb" "Rural" ); 
}

node ILiCost { 
 states = ( "Thousand" "TenThou" "HundredThou" "Million" ); 
}

node MakeModel { 
 states = ( "SportsCar" "Economy" "FamilySedan" "Luxury" "SuperLuxury" ); 
}

node MedCost { 
 states = ( "Thousand" "TenThou" "HundredThou" "Million" ); 
}

node Mileage { 
 states = ( "FiveThou" "TwentyThou" "FiftyThou" "Domino" ); 
}

node OtherCar { 
 states = ( "True" "False" ); 
}

node OtherCarCost { 
 states = ( "Thousand" "TenThou" "HundredThou" "Million" ); 
}

node PropCost { 
 states = ( "Thousand" "TenThou" "HundredThou" "Million" ); 
}

node RiskAversion { 
 states = ( "Psychopath" "Adventurous" "Normal" "Cautious" ); 
}

node RuggedAuto { 
 states = ( "EggShell" "Football" "Tank" ); 
}

node SeniorTrain { 
 states = ( "True" "False" ); 
}

node SocioEcon { 
 states = ( "Prole" "Middle" "UpperMiddle" "Wealthy" ); 
}

node Theft { 
 states = ( "True" "False" ); 
}

node ThisCarCost { 
 states = ( "Thousand" "TenThou" "HundredThou" "Million" ); 
}

node ThisCarDam { 
 states = ( "None" "Mild" "Moderate" "Severe" ); 
}

node VehicleYear { 
 states = ( "Current" "Older" ); 
}

potential ( Accident | Antilock DrivQuality Mileage ) { 
 data = (((( 0.7000000000 0.2000000000 0.0700000000 0.0300000000)
( 0.4000000000 0.3000000000 0.2000000000 0.1000000000)
( 0.3000000000 0.3000000000 0.2000000000 0.2000000000)
( 0.2000000000 0.2000000000 0.3000000000 0.3000000000)
)
(( 0.8389830508 0.0805084746 0.0728813559 0.0076271186)
( 0.9023941068 0.0092081031 0.0322283610 0.0561694291)
( 0.8842297174 0.0182315406 0.0692798541 0.0282588879)
( 0.9500000000 0.0300000000 0.0100000000 0.0100000000)
)
(( 0.9460227273 0.0255681818 0.0217803030 0.0066287879)
( 0.8102605863 0.0602605863 0.0635179153 0.0659609121)
( 0.8222591362 0.0348837209 0.0647840532 0.0780730897)
( 0.9061637534 0.0091996320 0.0818767249 0.0027598896)
)
)
((( 0.6000000000 0.2000000000 0.1000000000 0.1000000000)
( 0.3000000000 0.2000000000 0.2000000000 0.3000000000)
( 0.2000000000 0.2000000000 0.2000000000 0.4000000000)
( 0.1000000000 0.1000000000 0.3000000000 0.5000000000)
)
(( 0.8820882088 0.0090009001 0.0576057606 0.0513051305)
( 0.8864265928 0.0184672207 0.0138504155 0.0812557710)
( 0.9108341323 0.0287631831 0.0143815916 0.0460210930)
( 0.9400000000 0.0300000000 0.0200000000 0.0100000000)
)
(( 0.8468085106 0.0817021277 0.0255319149 0.0459574468)
( 0.8439897698 0.0289855072 0.0767263427 0.0502983802)
( 0.8805031447 0.0089847260 0.0700808625 0.0404312668)
( 0.8664898320 0.0088417330 0.0707338638 0.0539345712)))); 
}

potential ( Age ) { 
 data = (  0.2000000000 0.6000000000 0.2000000000); 
}

potential ( Airbag | MakeModel VehicleYear ) { 
 data = ((( 0.9328358209 0.0671641791)
( 0.1000000000 0.9000000000)
)
(( 0.9765625000 0.0234375000)
( 0.0500000000 0.9500000000)
)
(( 0.9208103131 0.0791896869)
( 0.2000000000 0.8000000000)
)
(( 0.9505703422 0.0494296578)
( 0.6000000000 0.4000000000)
)
(( 0.9560229446 0.0439770554)
( 0.1000000000 0.9000000000))); 
}

potential ( AntiTheft | RiskAversion SocioEcon ) { 
 data = ((( 0.0808824273 0.9191175727)
( 0.0714949596 0.9285050404)
( 0.0500000000 0.9500000000)
( 0.5000000000 0.5000000000)
)
(( 0.0439770975 0.9560229025)
( 0.0458015704 0.9541984296)
( 0.2000000000 0.8000000000)
( 0.5000000000 0.5000000000)
)
(( 0.1000000000 0.9000000000)
( 0.3000000000 0.7000000000)
( 0.9000000000 0.1000000000)
( 0.8000000000 0.2000000000)
)
(( 0.9500000000 0.0500000000)
( 0.9813542506 0.0186457494)
( 0.9813542506 0.0186457494)
( 0.9208102402 0.0791897598))); 
}

potential ( Antilock | MakeModel VehicleYear ) { 
 data = ((( 0.9000000000 0.1000000000)
( 0.1000000000 0.9000000000)
)
(( 0.0801104972 0.9198895028)
( 0.0521327014 0.9478672986)
)
(( 0.4000000000 0.6000000000)
( 0.0262901655 0.9737098345)
)
(( 0.9900000000 0.0100000000)
( 0.3000000000 0.7000000000)
)
(( 0.9900000000 0.0100000000)
( 0.1500000000 0.8500000000))); 
}

potential ( CarValue | MakeModel Mileage VehicleYear ) { 
 data = (((( 0.0566037736 0.0943396226 0.7547169811 0.0849056604 0.0094339623)
( 0.0300000000 0.3000000000 0.6000000000 0.0600000000 0.0100000000)
)
(( 0.0627928772 0.0937207123 0.7497656982 0.0843486410 0.0093720712)
( 0.1600000000 0.5000000000 0.3000000000 0.0300000000 0.0100000000)
)
(( 0.0366088632 0.0963391137 0.7707129094 0.0867052023 0.0096339114)
( 0.4000000000 0.4700000000 0.1000000000 0.0200000000 0.0100000000)
)
(( 0.0448901624 0.0955109838 0.7640878701 0.0859598854 0.0095510984)
( 0.9000000000 0.0600000000 0.0200000000 0.0100000000 0.0100000000)
)
)
((( 0.0952380952 0.7619047619 0.0952380952 0.0076190476 0.0400000000)
( 0.2448579824 0.6856023506 0.0489715965 0.0166503428 0.0039177277)
)
(( 0.0848176421 0.6785411366 0.0848176421 0.0788804071 0.0729431722)
( 0.5668475180 0.2428536724 0.0623532270 0.0761195238 0.0518260588)
)
(( 0.0879507476 0.7036059807 0.0879507476 0.0439753738 0.0765171504)
( 0.9260991581 0.0009354537 0.0168381665 0.0299345182 0.0261927035)
)
(( 0.0965250965 0.7722007722 0.0965250965 0.0135135135 0.0212355212)
( 0.8417505753 0.0664984284 0.0016835045 0.0547138968 0.0353535949)
)
)
((( 0.0103480715 0.0940733772 0.8466603951 0.0065851364 0.0423330198)
( 0.1829826167 0.2744739250 0.4574565416 0.0375114364 0.0475754803)
)
(( 0.0160000000 0.0888888889 0.8000000000 0.0302222222 0.0648888889)
( 0.4237288136 0.2542372881 0.1694915254 0.0779661017 0.0745762712)
)
(( 0.0511708586 0.0867302689 0.7805724198 0.0581092801 0.0234171726)
( 0.6024096386 0.1721170396 0.0860585198 0.0826161790 0.0567986231)
)
(( 0.0293040293 0.0915750916 0.8241758242 0.0467032967 0.0082417582)
( 0.8910891089 0.0063006301 0.0486048605 0.0441044104 0.0099009901)
)
)
((( 0.0689102564 0.0200320513 0.0785256410 0.8012820513 0.0312500000)
( 0.0096061479 0.0864553314 0.1921229587 0.6724303554 0.0393852065)
)
(( 0.0319634703 0.0027397260 0.0200913242 0.9132420091 0.0319634703)
( 0.0460829493 0.1382488479 0.2764976959 0.4608294931 0.0783410138)
)
(( 0.0237489398 0E-10 0.0712468193 0.8481764207 0.0568278202)
( 0.0918273646 0.2754820937 0.2754820937 0.2754820937 0.0817263545)
)
(( 0.0305480683 0.0386343217 0.0044923630 0.8984725966 0.0278526505)
( 0.1982160555 0.1982160555 0.2973240833 0.2973240833 0.0089197225)
)
)
((( 0.0468119451 0.0266343826 0.0403551251 0.0790960452 0.8071025020)
( 0.0262009649 0.0541486608 0.0096070205 0.0366813509 0.8733620030)
)
(( 0.0034100597 0.0468883205 0.0230179028 0.0741687980 0.8525149190)
( 0.0538463379 0.0188034831 0.0188034831 0.0538463379 0.8547003579)
)
(( 0.0387531592 0.0067396799 0.0353833193 0.0766638585 0.8424599832)
( 0.0025575535 0.0639388370 0.0187553922 0.0622338013 0.8525144161)
)
(( 0.0451388889 0.0416666667 0.0208333333 0.0243055556 0.8680555556)
( 0.0462047730 0.0387790059 0.0519803696 0.0379539206 0.8250819310)))); 
}

potential ( Cushioning | Airbag RuggedAuto ) { 
 data = ((( 0.2777777778 0.1666666667 0.4819277108 0.2144578313)
( 0.0243902439 0.1219512195 0.4846526656 0.2423263328)
( 0.3367875648 0.4196891192 0.0123456790 0.4938271605)
)
(( 0.3888888889 0.1666666667 0.2072289157 0.0963855422)
( 0.1219512195 0.7317073171 0.2423263328 0.0306946688)
( 0.0829015544 0.1606217617 0.3456790123 0.1481481481))); 
}

potential ( DrivHist | DrivingSkill RiskAversion ) { 
 data = ((( 0.0181470869 0.0315186246 0.9503342884)
( 0.0734618916 0.0174471993 0.9090909091)
( 0.0300000000 0.1500000000 0.8200000000)
( 0.3000000000 0.3000000000 0.4000000000)
)
(( 0.1000000000 0.3000000000 0.6000000000)
( 0.5000000000 0.3000000000 0.2000000000)
( 0.9000000000 0.0700000000 0.0300000000)
( 0.9500000000 0.0400000000 0.0100000000)
)
(( 0.3000000000 0.3000000000 0.4000000000)
( 0.6000000000 0.3000000000 0.1000000000)
( 0.8761061947 0.0743362832 0.0495575221)
( 0.9025268999 0.0225632176 0.0749098825))); 
}

potential ( DrivQuality | DrivingSkill RiskAversion ) { 
 data = ((( 0.9090909091 0.0709090909 0.0200000000)
( 0.9416195857 0.0188323917 0.0395480226)
( 0.9250693802 0.0314523589 0.0434782609)
( 0.8873114463 0.0647737356 0.0479148181)
)
(( 0.5000000000 0.2000000000 0.3000000000)
( 0.3000000000 0.4000000000 0.3000000000)
( 0.0591259640 0.8568980291 0.0839760069)
( 0.0059642147 0.7952286282 0.1988071571)
)
(( 0.3000000000 0.2000000000 0.5000000000)
( 0.0100000000 0.0100000000 0.9800000000)
( 0.0470366886 0.0122295390 0.9407337723)
( 0.0741364785 0.0834035383 0.8424599832))); 
}

potential ( DrivingSkill | Age SeniorTrain ) { 
 data = ((( 0.5555555556 0.2727272727 0.1111111111)
( 0.4166666667 0.2903225806 0.2000000000)
)
(( 0.3333333333 0.3636363636 0.2222222222)
( 0.2500000000 0.3870967742 0.4000000000)
)
(( 0.1111111111 0.3636363636 0.6666666667)
( 0.3333333333 0.3225806452 0.4000000000))); 
}

potential ( GoodStudent | Age SocioEcon ) { 
 data = ((( 0.5154639175 0.9635974304)
( 0.9132420091 0.9269988413)
( 0.9140767824 1.0000000000)
( 0.9828009828 0.9933774834)
)
(( 0.4845360825 0.5000000000)
( 0.0867579909 0.5000000000)
( 0.0859232176 0.5000000000)
( 0.0171990172 0.5000000000)
)
(( 0.0364025696 0.5000000000)
( 0.0730011587 0.5000000000)
( 0E-10 0.5000000000)
( 0.0066225166 0.5000000000))); 
}

potential ( HomeBase | RiskAversion SocioEcon ) { 
 data = ((( 0.0530303532 0.7575764750 0.0473475827 0.1420455891)
( 0.1500000000 0.8000000000 0.0400000000 0.0100000000)
( 0.3500000000 0.6000000000 0.0400000000 0.0100000000)
( 0.4861106013 0.4960322381 0.0079365158 0.0099206448)
)
(( 0.0592662834 0.7525877259 0.0470367329 0.1411092579)
( 0.0100000000 0.2500000000 0.6000000000 0.1400000000)
( 0.2000000000 0.4000000000 0.3000000000 0.1000000000)
( 0.8318753623 0.0621717376 0.0621717376 0.0437811625)
)
(( 0.0783410860 0.7373278685 0.0460829918 0.1382480537)
( 0.2808982031 0.0636704716 0.5617982788 0.0936330465)
( 0.4712539786 0.0574929854 0.3770031828 0.0942498532)
( 0.7522130551 0.0469026964 0.0690266098 0.1318576388)
)
(( 0.0842491614 0.7326014035 0.0457875877 0.1373618474)
( 0.9064894146 0.0458015704 0.0233254039 0.0243836111)
( 0.9337066304 0.0345472490 0.0298787018 0.0018674189)
( 0.9149128497 0.0064044092 0.0768529099 0.0018298312))); 
}

potential ( ILiCost | Accident ) { 
 data = (( 0.2703433360 0.0522088353 0.1319796954 0.1871657754)
( 0.2700729927 0.3453815261 0.4111675127 0.4919786096)
( 0.2433090024 0.2008032129 0.1522842640 0.1069518717)
( 0.2162746688 0.4016064257 0.3045685279 0.2139037433)); 
}

potential ( MakeModel | RiskAversion SocioEcon ) { 
 data = ((( 0.0939849624 0.6578947368 0.1879699248 0.0150375940 0.0451127820)
( 0.1397949674 0.1863932898 0.6057781920 0.0540540541 0.0139794967)
( 0.1857010214 0.0464252553 0.2785515320 0.4178272981 0.0714948932)
( 0.3000000000 0.0100000000 0.0900000000 0.4000000000 0.2000000000)
)
(( 0.0913242009 0.6392694064 0.1826484018 0.0255707763 0.0611872146)
( 0.1367365542 0.1823154057 0.5925250684 0.0027347311 0.0856882407)
( 0.1892147588 0.0473036897 0.2838221381 0.4257332072 0.0539262062)
( 0.3000000000 0.0100000000 0.0900000000 0.4000000000 0.2000000000)
)
(( 0.0940733772 0.6585136406 0.1881467545 0.0065851364 0.0526810913)
( 0.1415094340 0.1886792453 0.6132075472 0.0518867925 0.0047169811)
( 0.1984126984 0.0496031746 0.2976190476 0.4464285714 0.0079365079)
( 0.3000000000 0.0100000000 0.0900000000 0.4000000000 0.2000000000)
)
(( 0.0894454383 0.6261180680 0.1788908766 0.0268336315 0.0787119857)
( 0.1348920863 0.1798561151 0.5845323741 0.0584532374 0.0422661871)
( 0.1843317972 0.0460829493 0.2764976959 0.4147465438 0.0783410138)
( 0.3000000000 0.0100000000 0.0900000000 0.4000000000 0.2000000000))); 
}

potential ( MedCost | Accident Age Cushioning ) { 
 data = (((( 0.3623188406 0.0501792115 0.1816479401 0.2020202020)
( 0.3048780488 0.0212201592 0.0800000000 0.2916666667)
( 0.2604166667 0.0714285714 0.0277777778 0.0645161290)
( 0.2538715410 0.2903225806 0.1311475410 0.2474226804)
)
(( 0.3623188406 0.1254125413 0.0492170022 0.0949720670)
( 0.3048780488 0.0977995110 0.2492113565 0.1124260355)
( 0.2604166667 0.3833992095 0.5310344828 0.4220183486)
( 0.2538715410 0.2617449664 0.5679012346 0.4879518072)
)
(( 0.4166666667 0.1093750000 0.1186440678 0.0989399293)
( 0.3636363636 0.0939597315 0.0021978022 0.0513595166)
( 0.2881844380 0.1987829615 0.3207547170 0.0330578512)
( 0.2604166667 0.2971887550 0.1617647059 0.2394366197)
)
)
((( 0.3478260870 0.0537634409 0.0692883895 0.0404040404)
( 0.2987804878 0.0503978780 0.2628571429 0.1527777778)
( 0.2578125000 0.2142857143 0.4166666667 0.2903225806)
( 0.2536176695 0.5000000000 0.4262295082 0.3505154639)
)
(( 0.3478260870 0.0495049505 0.0559284116 0.0670391061)
( 0.2987804878 0.0464547677 0.0252365931 0.1775147929)
( 0.2578125000 0.2608695652 0.1931034483 0.3944954128)
( 0.2536176695 0.3624161074 0.1172839506 0.1867469880)
)
(( 0.3750000000 0.1093750000 0.0338983051 0.0176678445)
( 0.3454545455 0.0671140940 0.1186813187 0.0422960725)
( 0.2795389049 0.0507099391 0.3396226415 0.6363636364)
( 0.2578125000 0.3815261044 0.2500000000 0.5492957746)
)
)
((( 0.1811594203 0.3584229391 0.3745318352 0.2525252525)
( 0.2439024390 0.3978779841 0.0857142857 0.0925925926)
( 0.2473958333 0.1587301587 0.2777777778 0.3225806452)
( 0.2513328256 0.0483870968 0.2786885246 0.2989690722)
)
(( 0.1811594203 0.3300330033 0.4474272931 0.2793296089)
( 0.2439024390 0.3667481663 0.0946372240 0.1183431953)
( 0.2473958333 0.0790513834 0.1379310345 0.0917431193)
( 0.2513328256 0.1744966443 0.2530864198 0.2650602410)
)
(( 0.1250000000 0.4687500000 0.3389830508 0.3533568905)
( 0.1818181818 0.3355704698 0.4395604396 0.3021148036)
( 0.2593659942 0.1419878296 0.0754716981 0.0826446281)
( 0.2473958333 0.1204819277 0.1470588235 0.0704225352)
)
)
((( 0.1086956522 0.5376344086 0.3745318352 0.5050505051)
( 0.1524390244 0.5305039788 0.5714285714 0.4629629630)
( 0.2343750000 0.5555555556 0.2777777778 0.3225806452)
( 0.2411779640 0.1612903226 0.1639344262 0.1030927835)
)
(( 0.1086956522 0.4950495050 0.4474272931 0.5586592179)
( 0.1524390244 0.4889975550 0.6309148265 0.5917159763)
( 0.2343750000 0.2766798419 0.1379310345 0.0917431193)
( 0.2411779640 0.2013422819 0.0617283951 0.0602409639)
)
(( 0.0833333333 0.3125000000 0.5084745763 0.5300353357)
( 0.1090909091 0.5033557047 0.4395604396 0.6042296073)
( 0.1729106628 0.6085192698 0.2641509434 0.2479338843)
( 0.2343750000 0.2008032129 0.4411764706 0.1408450704)))); 
}

potential ( Mileage ) { 
 data = (  0.1000000000 0.4000000000 0.4000000000 0.1000000000); 
}

potential ( OtherCar | SocioEcon ) { 
 data = (( 0.5000000000 0.5000000000)
( 0.8000000000 0.2000000000)
( 0.9000000000 0.1000000000)
( 0.9500000000 0.0500000000)); 
}

potential ( OtherCarCost | Accident RuggedAuto ) { 
 data = ((( 0.3584229391 0.0162337662 0.0611676912 0.0972222222)
( 0.3876020522 0.0819672131 0.0563097526 0.3204225352)
( 0.4246284501 0.0308370044 0.0179754507 0.4144736842)
)
(( 0.3548387097 0.0097402597 0.0214086919 0.4166666667)
( 0.3798367164 0.0353089533 0.0869128790 0.2394366197)
( 0.4033970276 0.0330396476 0.0256535360 0.2236842105)
)
(( 0.2150537634 0.3246753247 0.3058078723 0.4305555556)
( 0.1938010261 0.2522068096 0.3672007932 0.3380281690)
( 0.1698513800 0.3303964758 0.3851368702 0.3618421053)
)
(( 0.0716845878 0.6493506494 0.6116157446 0.0555555556)
( 0.0387602052 0.6305170240 0.4895765751 0.1021126761)
( 0.0021231423 0.6057268722 0.5712341431 0E-10))); 
}

potential ( PropCost | OtherCarCost ThisCarCost ) { 
 data = ((( 0.8139534884 0.2316602317 0.0142095915 0.0486725664)
( 0.5328467153 0.5681818182 0.0390625000 0.0345368917)
( 0.4360189573 0.3048327138 0.3810264386 0.0136054422)
( 0.0829015544 0.1585365854 0.3986928105 0.2500000000)
)
(( 0.0476744186 0.7335907336 0.0444049734 0.0486725664)
( 0.0218978102 0.3588516746 0.3125000000 0.0235478807)
( 0.3601895735 0.3568773234 0.3693623639 0.0340136054)
( 0.4093264249 0.4024390244 0.0196078431 0.2500000000)
)
(( 0.0906976744 0.0285714286 0.8703374778 0.0176991150)
( 0.0875912409 0.0574162679 0.6250000000 0.1569858713)
( 0.0473933649 0.0446096654 0.2332814930 0.2721088435)
( 0.0207253886 0.3495934959 0.4901960784 0.2500000000)
)
(( 0.0476744186 0.0061776062 0.0710479574 0.8849557522)
( 0.3576642336 0.0155502392 0.0234375000 0.7849293564)
( 0.1563981043 0.2936802974 0.0163297045 0.6802721088)
( 0.4870466321 0.0894308943 0.0915032680 0.2500000000))); 
}

potential ( RiskAversion | Age SocioEcon ) { 
 data = ((( 0.0320000000 0.9280000000 0.2553191489 0.0833333333)
( 0.0470588235 0.8941176471 0.3773584906 0.0800000000)
( 0.0380952381 0.9142857143 0.3137254902 0.0833333333)
( 0.0320000000 0.9280000000 0.2790697674 0.0769230769)
)
(( 0.0240000000 0.2425531915 0.4255319149 0.1666666667)
( 0.0352941176 0.1396226415 0.4528301887 0.1600000000)
( 0.0285714286 0.2235294118 0.3921568627 0.1666666667)
( 0.0240000000 0.2651162791 0.3720930233 0.2307692308)
)
(( 0.0160000000 0.0765957447 0.3333333333 0.4166666667)
( 0.0235294118 0.0301886792 0.2800000000 0.4800000000)
( 0.0190476190 0.0705882353 0.3333333333 0.4166666667)
( 0.0160000000 0.0837209302 0.3076923077 0.3846153846))); 
}

potential ( RuggedAuto | MakeModel VehicleYear ) { 
 data = ((( 0.5757575758 0.2105263158 0.0162866450)
( 0.5000000000 0.2105263158 0.0168350168)
)
(( 0.3030303030 0.2941176471 0.0879478827)
( 0.4736842105 0.0800000000 0.0572390572)
)
(( 0.1212121212 0.3529411765 0.2222222222)
( 0.0263157895 0.4400000000 0.3636363636)
)
(( 0.5263157895 0.3529411765 0.3333333333)
( 0.5263157895 0.4800000000 0.2727272727)
)
(( 0.2631578947 0.8957654723 0.4444444444)
( 0.2631578947 0.9259259259 0.3636363636))); 
}

potential ( SeniorTrain | Age RiskAversion ) { 
 data = ((( 0.6296296296 0.5000000000)
( 0.3253968254 0.5000002500)
( 0.6233766234 0.5000000000)
( 0.1643454039 0.5882352941)
)
(( 0.3703703704 0.5000000000)
( 0.3507462687 0.5000002500)
( 0.3766233766 0.5000000000)
( 0.0750256937 0.9090909091)
)
(( 0.6746031746 0.4999997500)
( 0.6492537313 0.4999997500)
( 0.8356545961 0.4117647059)
( 0.9249743063 0.0909090909))); 
}

potential ( SocioEcon | Age ) { 
 data = (( 0.2352941176 0.2352941176 0.1938775510 0.0312500000)
( 0.2352941176 0.4081632653 0.1938775510 0.0312500000)
( 0.2941176471 0.2040816327 0.9062500000 0.0312500000)); 
}

potential ( Theft | AntiTheft CarValue HomeBase ) { 
 data = (((( 0.7307692308 0.5000000000)
( 0.6000000000 0.5001250938)
( 0.9814814815 0.5000000000)
( 0.7472527473 0.5000000000)
)
(( 0.4363636364 0.5000000000)
( 0.4615384615 0.5007526342)
( 0.6886792453 0.5000250038)
( 0.6902654867 0.5000200012)
)
(( 0.3821656051 0.5000000000)
( 0.9019607843 0.5012594458)
( 0.2467532468 0.5000500200)
( 0.7685185185 0.5000375047)
)
(( 0.5783132530 0.5000000000)
( 0.7916666667 0.5012594458)
( 0.2500000000 0.5000500200)
( 0.0816326531 0.5000375047)
)
(( 0.5030674847 0.5000000000)
( 0.0120481928 0.5000000000)
( 0.5849056604 0.5000000000)
( 1.0000000000 0.5000000000)
)
)
((( 0.2692307692 0.5000000000)
( 0.4000000000 0.4998749062)
( 0.0185185185 0.5000000000)
( 0.2527472527 0.5000000000)
)
(( 0.5636363636 0.5000000000)
( 0.5384615385 0.4992473658)
( 0.3113207547 0.4999749962)
( 0.3097345133 0.4999799988)
)
(( 0.6178343949 0.5000000000)
( 0.0980392157 0.4987405542)
( 0.7532467532 0.4999499800)
( 0.2314814815 0.4999624953)
)
(( 0.4216867470 0.5000000000)
( 0.2083333333 0.4987405542)
( 0.7500000000 0.4999499800)
( 0.9183673469 0.4999624953)
)
(( 0.4969325153 0.5000000000)
( 0.9879518072 0.5000000000)
( 0.4150943396 0.5000000000)
( 0E-10 0.5000000000)))); 
}

potential ( ThisCarCost | CarValue Theft ThisCarDam ) { 
 data = (((( 0.6060606061 0.2133333333 0.0130456598 0.0902777778)
( 0.6250000000 0.2242744063 0.0386740331 0.5136986301)
( 0.2475247525 0.4584942085 0.0196721311 0.0158730159)
( 0.3409090909 0.4592805205 0.0175867466 0.0506913377)
)
(( 0.3289473684 0.6808510638 0.1275964392 0.0857740586)
( 0.3264604811 0.4166666667 0.1828978622 0.0451541850)
( 0.4950495050 0.8116883117 0.0477453581 0.0682764363)
( 0.6849315068 0.9073543457 0.0792682927 0.0296167247)
)
)
((( 0.1515151515 0.2533333333 0.0336176618 0.1458333333)
( 0.1250000000 0.2559366755 0.0070316424 0.1232876712)
( 0.0495049505 0.4777992278 0.0454332553 0.0186741363)
( 0.2500000000 0.4734845992 0.0053737281 0.0018433214)
)
(( 0.3289473684 0.2829268293 0.1394658754 0.0653061224)
( 0.3264604811 0.6250000000 0.1068883610 0.2542955326)
( 0.2970297030 0.8771929825 0.0698496905 0.0192113246)
( 0.1369863014 0.8490566038 0.0182926829 0.0568965517)
)
)
((( 0.1212121212 0.1063829787 0.4766683392 0.0334728033)
( 0.1250000000 0.1666666667 0.4771471622 0.0792951542)
( 0.3712871287 0.0681818182 0.4674473068 0.0333055787)
( 0.1022727273 0.0057306590 0.4885197626 0.0313588850)
)
(( 0.3289473684 0.1414634146 0.1394658754 0.3673469388)
( 0.3402061856 0.1250000000 0.1163895487 0.2130584192)
( 0.0198019802 0.0103199174 0.8664898320 0.0070778564)
( 0.0821917808 0.0574614065 0.8623693380 0.0844827586)
)
)
((( 0.1212121212 0.1063829787 0.4766683392 0.0962343096)
( 0.1250000000 0.1666666667 0.4771471622 0.1046255507)
( 0.3316831683 0.0909090909 0.4674473068 0.0824313072)
( 0.3068181818 0.0448901624 0.4885197626 0.0766550523)
)
(( 0.2666666667 0.4780487805 0.3611111111 0.2040816327)
( 0.2612137203 0.1250000000 0.2945205479 0.3092783505)
( 0.0308880309 0.0196078431 0.9243697479 0.0131445905)
( 0.0402462312 0.0849056604 0.9198173637 0.0224137931)
)
)
((( 0.0131578947 0.1063829787 0.5934718101 0.7845188285)
( 0.0068728522 0.2500000000 0.5938242280 0.7709251101)
( 0.1881188119 0.0292207792 0.0159151194 0.8159866778)
( 0.0958904110 0.0420248329 0.0400696864 0.8623693380)
)
(( 0.2666666667 0.0975609756 0.4027777778 0.3632653061)
( 0.2585751979 0.1250000000 0.0684931507 0.2233676976)
( 0.0328185328 0.0928792570 0.0410830999 0.9605662285)
( 0.0269886491 0.0085763293 0.0276479772 0.8362068966)))); 
}

potential ( ThisCarDam | Accident RuggedAuto ) { 
 data = ((( 0.8992805755 0.0636704120 0.0247469066 0.0326918790)
( 0.7651109411 0.0731958763 0.0477778309 0.0173160173)
( 0.5555555556 0.0072859745 0.1380471380 0.1176470588)
)
(( 0.0359712230 0.8426966292 0.1102362205 0.0022289918)
( 0.1530221882 0.7731958763 0.0555545062 0.0389610390)
( 0.3888888889 0.2641165756 0.0202020202 0.0420168067)
)
(( 0.0611510791 0.0617977528 0.7874015748 0.2221561780)
( 0.0382555471 0.1020618557 0.8888898765 0.0865800866)
( 0.0277777778 0.5464480874 0.5050505051 0.0700280112)
)
(( 0.0035971223 0.0318352060 0.0776152981 0.7429229512)
( 0.0436113236 0.0515463918 0.0077777864 0.8571428571)
( 0.0277777778 0.1821493625 0.3367003367 0.7703081232))); 
}

potential ( VehicleYear | RiskAversion SocioEcon ) { 
 data = ((( 0.5000000000 0.5000000000)
( 0.5000000000 0.5000000000)
( 0.5000000000 0.5000000000)
( 0.5000000000 0.5000000000)
)
(( 0.5000000000 0.5000000000)
( 0.5000000000 0.5000000000)
( 0.5000000000 0.5000000000)
( 0.5000000000 0.5000000000)
)
(( 0.5000000000 0.5000000000)
( 0.5000000000 0.5000000000)
( 0.5000000000 0.5000000000)
( 0.5000000000 0.5000000000)
)
(( 0.5000000000 0.5000000000)
( 0.5000000000 0.5000000000)
( 0.5000000000 0.5000000000)
( 0.5000000000 0.5000000000))); 
}

