net { }

node node0 { 
 states = ( "state0" "state1" ); 
}

node node1 { 
 states = ( "state0" "state1" "state2" ); 
}

node node10 { 
 states = ( "state0" "state1" "state2" ); 
}

node node11 { 
 states = ( "state0" "state1" ); 
}

node node12 { 
 states = ( "state0" "state1" ); 
}

node node13 { 
 states = ( "state0" "state1" "state2" ); 
}

node node14 { 
 states = ( "state0" "state1" ); 
}

node node15 { 
 states = ( "state0" "state1" ); 
}

node node16 { 
 states = ( "state0" "state1" "state2" ); 
}

node node17 { 
 states = ( "state0" "state1" "state2" ); 
}

node node18 { 
 states = ( "state0" "state1" ); 
}

node node19 { 
 states = ( "state0" "state1" ); 
}

node node2 { 
 states = ( "state0" "state1" ); 
}

node node20 { 
 states = ( "state0" "state1" "state2" ); 
}

node node21 { 
 states = ( "state0" "state1" "state2" ); 
}

node node22 { 
 states = ( "state0" "state1" "state2" ); 
}

node node23 { 
 states = ( "state0" "state1" ); 
}

node node24 { 
 states = ( "state0" "state1" "state2" ); 
}

node node25 { 
 states = ( "state0" "state1" "state2" ); 
}

node node26 { 
 states = ( "state0" "state1" ); 
}

node node27 { 
 states = ( "state0" "state1" "state2" ); 
}

node node28 { 
 states = ( "state0" "state1" "state2" ); 
}

node node29 { 
 states = ( "state0" "state1" "state2" ); 
}

node node3 { 
 states = ( "state0" "state1" ); 
}

node node4 { 
 states = ( "state0" "state1" ); 
}

node node5 { 
 states = ( "state0" "state1" "state2" ); 
}

node node6 { 
 states = ( "state0" "state1" ); 
}

node node7 { 
 states = ( "state0" "state1" "state2" ); 
}

node node8 { 
 states = ( "state0" "state1" "state2" ); 
}

node node9 { 
 states = ( "state0" "state1" "state2" ); 
}

potential ( node0 | node10 node14 node20 ) { 
 data = (((( 0.3300188335 0.6699811665)
( 0.3995193480 0.6004806520)
( 0.8389361832 0.1610638168)
)
(( 0.1468323659 0.8531676341)
( 0.6679222867 0.3320777133)
( 0.7024831979 0.2975168021)
)
)
((( 0.2010861999 0.7989138001)
( 0.2213124000 0.7786876000)
( 0.4191250290 0.5808749710)
)
(( 0.1565392769 0.8434607231)
( 0.0344139445 0.9655860555)
( 0.6963699139 0.3036300861)
)
)
((( 0.3824006300 0.6175993700)
( 0.2026619220 0.7973380780)
( 0.3576049872 0.6423950128)
)
(( 0.3766654249 0.6233345751)
( 0.7526337726 0.2473662274)
( 0.8538508656 0.1461491344)))); 
}

potential ( node1 | node25 ) { 
 data = (( 0.0921939382 0.0422575792 0.8655484827)
( 0.5826405291 0.0483821724 0.3689772984)
( 0.6937716278 0.1996808480 0.1065475243)); 
}

potential ( node10 | node20 ) { 
 data = (( 0.3140623426 0.3802964152 0.3056412422)
( 0.3062330139 0.3198147936 0.3739521925)
( 0.0891812455 0.2564465872 0.6543721673)); 
}

potential ( node11 | node1 node14 node2 node22 node28 ) { 
 data = (((((( 0.2446313645 0.4915928705)
( 0.6982331666 0.4672139845)
( 0.5022524000 0.0553453649)
)
(( 0.4305100695 0.3556298336)
( 0.1691007154 0.9121898394)
( 0.5382962623 0.1796462980)
)
(( 0.3969425102 0.6731427813)
( 0.4790515229 0.1374187363)
( 0.5775412876 0.5235458922)
)
)
((( 0.5086592137 0.4014866208)
( 0.1844892282 0.6485308211)
( 0.7178962292 0.7135301342)
)
(( 0.6935894467 0.2919549851)
( 0.7437634867 0.6699485640)
( 0.5085487094 0.8673234686)
)
(( 0.3057381815 0.5480067501)
( 0.3158105075 0.5248007899)
( 0.7876428720 0.3874077312)
)
)
)
(((( 0.5046702086 0.8514606552)
( 0.4206867167 0.8496016324)
( 0.4849003551 0.4241790311)
)
(( 0.2676824647 0.9805812404)
( 0.5008740764 0.2952415640)
( 0.5301584134 0.3143623112)
)
(( 0.1437716061 0.5337240243)
( 0.1500328988 0.6966187413)
( 0.5991771661 0.5278866797)
)
)
((( 0.4735282984 0.4238773905)
( 0.5506280802 0.3336078719)
( 0.5659050861 0.8143219472)
)
(( 0.0480876198 0.6340660999)
( 0.4504778289 0.5278396925)
( 0.4319881389 0.3957547516)
)
(( 0.5395363775 0.0425422220)
( 0.5467963416 0.2122392136)
( 0.6501635651 0.1975327413)
)
)
)
)
((((( 0.7553686355 0.7930489069)
( 0.3017668334 0.7274533685)
( 0.4977476000 0.3021620131)
)
(( 0.5694899305 0.2718323096)
( 0.8308992846 0.2914982469)
( 0.4617037377 0.8969465549)
)
(( 0.6030574898 0.4602423938)
( 0.5209484771 0.0911115023)
( 0.4224587124 0.5140116771)
)
)
((( 0.4913407863 0.4279094183)
( 0.8155107718 0.2224830692)
( 0.2821037708 0.5007807066)
)
(( 0.3064105533 0.6475260136)
( 0.2562365133 0.5333705080)
( 0.4914512906 0.0617551783)
)
(( 0.6942618185 0.1112911333)
( 0.6841894925 0.3826252095)
( 0.2123571280 0.5609902978)
)
)
)
(((( 0.4953297914 0.3481093349)
( 0.5793132833 0.4507330275)
( 0.5150996449 0.4840536831)
)
(( 0.7323175353 0.1660853088)
( 0.4991259236 0.5365309877)
( 0.4698415866 0.4452475733)
)
(( 0.8562283939 0.6801921918)
( 0.8499671012 0.1157737586)
( 0.4008228339 0.3155369363)
)
)
((( 0.5264717016 0.3056851815)
( 0.4493719198 0.8214754148)
( 0.4340949139 0.3818751902)
)
(( 0.9519123802 0.2071872503)
( 0.5495221711 0.5190453620)
( 0.5680118611 0.4325956160)
)
(( 0.4604636225 0.6555052936)
( 0.4532036584 0.7388269944)
( 0.3498364349 0.4150652596)
)
)
)
)
((((( 0.5084071295 0.2069510931)
( 0.5327860155 0.2725466315)
( 0.9446546351 0.6978379869)
)
(( 0.6443701664 0.7281676904)
( 0.0878101606 0.7085017531)
( 0.8203537020 0.1030534451)
)
(( 0.3268572187 0.5397576062)
( 0.8625812637 0.9088884977)
( 0.4764541078 0.4859883229)
)
)
((( 0.5985133792 0.5720905817)
( 0.3514691789 0.7775169308)
( 0.2864698658 0.4992192934)
)
(( 0.7080450149 0.3524739864)
( 0.3300514360 0.4666294920)
( 0.1326765314 0.9382448217)
)
(( 0.4519932499 0.8887088667)
( 0.4751992101 0.6173747905)
( 0.6125922688 0.4390097022)
)
)
)
(((( 0.1485393448 0.6518906651)
( 0.1503983676 0.5492669725)
( 0.5758209689 0.5159463169)
)
(( 0.0194187596 0.8339146912)
( 0.7047584360 0.4634690123)
( 0.6856376888 0.5547524267)
)
(( 0.4662759757 0.3198078082)
( 0.3033812587 0.8842262414)
( 0.4721133203 0.6844630637)
)
)
((( 0.5761226095 0.6943148185)
( 0.6663921281 0.1785245852)
( 0.1856780528 0.6181248098)
)
(( 0.3659339001 0.7928127497)
( 0.4721603075 0.4809546380)
( 0.6042452484 0.5674043840)
)
(( 0.9574577780 0.3444947064)
( 0.7877607864 0.2611730056)
( 0.8024672587 0.5849347404)))))); 
}

potential ( node12 | node1 node11 node15 ) { 
 data = (((( 0.1241056491 0.5636459519)
( 0.4591171635 0.9196612889)
)
(( 0.8847567410 0.2419350283)
( 0.4811045044 0.5552872192)
)
)
((( 0.8758943509 0.4363540481)
( 0.5408828365 0.0803387111)
)
(( 0.5945536373 0.1638300400)
( 0.1685638970 0.9869668516)
)
)
((( 0.1152432590 0.7580649717)
( 0.5188954956 0.4447127808)
)
(( 0.4054463627 0.8361699600)
( 0.8314361030 0.0130331484)))); 
}

potential ( node13 | node14 node2 node3 ) { 
 data = (((( 0.6738281764 0.0404455536 0.2857262700)
( 0.4197536252 0.1328128480 0.4474335268)
)
(( 0.2486419401 0.0900681864 0.6612898735)
( 0.1906630000 0.2846466000 0.5246904000)
)
)
((( 0.1140801801 0.0809789032 0.8049409167)
( 0.0109648745 0.0504789561 0.9385561694)
)
(( 0.4447856589 0.1756523335 0.3795620076)
( 0.2428005154 0.3226256506 0.4345738339)))); 
}

potential ( node14 | node7 ) { 
 data = (( 0.5866350500 0.4133649500)
( 0.7477018626 0.2522981374)
( 0.8606505056 0.1393494944)); 
}

potential ( node15 | node0 ) { 
 data = (( 0.2682205418 0.7426733520)
( 0.7317794582 0.2573266480)); 
}

potential ( node16 | node3 ) { 
 data = (( 0.2827109471 0.0304724358 0.6868166172)
( 0.4457986700 0.0620813900 0.4921199400)); 
}

potential ( node17 | node10 ) { 
 data = (( 0.0289147561 0.3787497497 0.4630122632)
( 0.2136228985 0.6116427155 0.0145680206)
( 0.7574623454 0.0096075349 0.5224197162)); 
}

potential ( node18 | node22 node4 ) { 
 data = ((( 0.4728867189 0.5271132811)
( 0.4290703500 0.5709296500)
)
(( 0.9617590492 0.0382409508)
( 0.4502343110 0.5497656890)
)
(( 0.9376166566 0.0623833434)
( 0.4258685656 0.5741314344))); 
}

potential ( node19 | node18 node20 node23 ) { 
 data = (((( 0.3726450504 0.5119059370)
( 0.2141504964 0.8226338568)
)
(( 0.5352254311 0.4746265956)
( 0.4513224571 0.5723068855)
)
(( 0.5049400615 0.3823654488)
( 0.4598279447 0.6279066445)
)
)
((( 0.6273549496 0.4880940630)
( 0.7858495036 0.1773661432)
)
(( 0.4647745689 0.5253734044)
( 0.5486775429 0.4276931145)
)
(( 0.4950599385 0.6176345512)
( 0.5401720553 0.3720933555)))); 
}

potential ( node2 | node20 node22 ) { 
 data = ((( 0.3279992300 0.6720007700)
( 0.4946399798 0.5053600202)
( 0.4665020000 0.5334980000)
)
(( 0.1153289612 0.8846710388)
( 0.0240069571 0.9759930429)
( 0.7914097775 0.2085902225)
)
(( 0.4857430346 0.5142569654)
( 0.2069275000 0.7930725000)
( 0.6346028400 0.3653971600))); 
}

potential ( node20 ) { 
 data = (  0.8744059245 0.0778234172 0.0477706583); 
}

potential ( node21 | node12 node17 node20 node22 node25 ) { 
 data = (((((( 0.4622301803 0.3894890162 0.0185564167)
( 0.5306694783 0.2960016744 0.3481950126)
( 0.5593585414 0.0555380343 0.5229501564)
)
(( 0.6614991224 0.3663989083 0.0641097024)
( 0.4398198992 0.2398241051 0.2640283981)
( 0.2492764709 0.5535037320 0.0456738352)
)
(( 0.2959224358 0.6416665216 0.1310826902)
( 0.5151635590 0.2027235203 0.3896711943)
( 0.0731563791 0.6551842209 0.2271126193)
)
)
((( 0.2937305731 0.7055825437 0.0662351000)
( 0.3870435055 0.4040755239 0.1784194912)
( 0.2062690221 0.4514282185 0.4506246868)
)
(( 0.7940331472 0.2191061035 0.0107336411)
( 0.1669891447 0.4485423896 0.3846695299)
( 0.4990345147 0.0359447449 0.4233706514)
)
(( 0.2162269118 0.2741547907 0.4145995132)
( 0.6317914459 0.4668195525 0.0328076121)
( 0.4918370568 0.2816942644 0.2272202349)
)
)
((( 0.0815769477 0.5317962251 0.5938565413)
( 0.5514686266 0.1851109755 0.2903610049)
( 0.3669782088 0.1373436434 0.4249901541)
)
(( 0.1410608787 0.4847735091 0.6118077600)
( 0.2423546478 0.4495249753 0.3044704571)
( 0.2674697333 0.2767324816 0.5198122565)
)
(( 0.4469724765 0.1146887655 0.4110084986)
( 0.3793147604 0.1553459586 0.3967410933)
( 0.0727779909 0.0225175512 0.7618014509)
)
)
)
(((( 0.4945287339 0.1276682996 0.2719902156)
( 0.3239366617 0.3040117678 0.3683745391)
( 0.2046392686 0.5396016985 0.1410497342)
)
(( 0.2849952396 0.0009023262 0.7008170914)
( 0.1641002911 0.2558537255 0.6468096774)
( 0.3415710449 0.2517629744 0.4518541518)
)
(( 0.3864875459 0.0785925918 0.4909260242)
( 0.1057237829 0.5175465809 0.1770988921)
( 0.6606054139 0.3081125494 0.1672542480)
)
)
((( 0.3723606839 0.2210540359 0.3159818639)
( 0.2106106433 0.2634354842 0.5466487004)
( 0.1876079894 0.4906351661 0.4251238334)
)
(( 0.0376590345 0.0590021765 0.7355695476)
( 0.7598282966 0.2480741514 0.0431085424)
( 0.2817681818 0.7276310953 0.0721258628)
)
(( 0.4549838787 0.3971085957 0.2483120995)
( 0.1588883198 0.1419746125 0.6520847941)
( 0.4694514027 0.4520351163 0.1193711654)
)
)
((( 0.5575131809 0.1771093782 0.0761943294)
( 0.3404418153 0.3177865256 0.3490270366)
( 0.3282533290 0.0861961933 0.5332226039)
)
(( 0.4269726363 0.3621612475 0.1362384369)
( 0.6907769560 0.0388698321 0.1151069921)
( 0.0961195785 0.4161153133 0.2400580037)
)
(( 0.1289171416 0.5232974504 0.3897645428)
( 0.4434875591 0.1948160783 0.3115662657)
( 0.2860417880 0.8269014377 0.0621927915)
)
)
)
(((( 0.4915306025 0.1044978089 0.4266458652)
( 0.2149262274 0.3346820939 0.6351738744)
( 0.4373891767 0.6899372240 0.0573114349)
)
(( 0.0411443006 0.1246143364 0.5564402464)
( 0.3840307642 0.7488093088 0.1146557115)
( 0.3794730689 0.1917609556 0.3377995589)
)
(( 0.4078022789 0.2514440883 0.2387463800)
( 0.0732199945 0.5198916993 0.4112380944)
( 0.2291676161 0.6815053312 0.0306472593)
)
)
((( 0.0964170156 0.1313516583 0.6883799083)
( 0.1105041707 0.4947786515 0.2897005981)
( 0.0991807263 0.8500903665 0.2158579572)
)
(( 0.6186266413 0.1517015936 0.3201107935)
( 0.0404544328 0.5142422008 0.5077885065)
( 0.8532867284 0.1528915709 0.2377600425)
)
(( 0.5793793048 0.3912518722 0.0642795832)
( 0.4707393159 0.2615263173 0.2730429941)
( 0.2679483905 0.0372744586 0.5405868090)
)
)
((( 0.3361446332 0.3805033845 0.2222493490)
( 0.1350128678 0.4965341470 0.3448032980)
( 0.5274266451 0.3753135706 0.2008217289)
)
(( 0.0324974951 0.3551754209 0.6521910508)
( 0.2391830290 0.1418413323 0.5716830589)
( 0.0155051202 0.5547311428 0.4353883671)
)
(( 0.5674357523 0.3069860753 0.0865609891)
( 0.0558557466 0.1165711769 0.7966960241)
( 0.4283428776 0.2907117769 0.1700972660)
)
)
)
)
((((( 0.0432410857 0.4828426842 0.7094533677)
( 0.1453938600 0.3999865578 0.2834304482)
( 0.2360021900 0.4048602672 0.3360001093)
)
(( 0.0535056380 0.6326987655 0.2350732063)
( 0.3960798098 0.5043221693 0.0891619244)
( 0.4091524841 0.1947332936 0.5024720130)
)
(( 0.3175900184 0.2797408866 0.3779912856)
( 0.3791126581 0.2797298988 0.4332299136)
( 0.2662382070 0.0367032297 0.6056331327)
)
)
((( 0.3339087430 0.0733634204 0.6177830361)
( 0.4023458511 0.3324889919 0.2749318084)
( 0.6061229885 0.0579366154 0.1242514797)
)
(( 0.1683078184 0.7218917201 0.2536968113)
( 0.0731825587 0.3033834590 0.5722219277)
( 0.2191973035 0.2364241597 0.5045034857)
)
(( 0.3287892096 0.3287366136 0.3370883873)
( 0.2093202343 0.3912058350 0.3151075938)
( 0.0387115404 0.2662706193 0.6534085997)
)
)
((( 0.3609098714 0.2910943967 0.3299491293)
( 0.1080895581 0.4971024988 0.3606119584)
( 0.3047684622 0.7764601632 0.0417872419)
)
(( 0.4319664850 0.1530652434 0.2519538031)
( 0.0668683962 0.5116051926 0.5804225508)
( 0.6364106882 0.3071522051 0.2401297399)
)
(( 0.4241103819 0.3620137841 0.1992269586)
( 0.1771976805 0.6498379632 0.2916926410)
( 0.6411802210 0.1505810111 0.1760057576)
)
)
)
(((( 0.1722050163 0.2818314577 0.5170160504)
( 0.1870164278 0.6418748523 0.1492036670)
( 0.4465835454 0.0093447904 0.4391036109)
)
(( 0.0589522629 0.7931233746 0.3824738167)
( 0.5026222653 0.1956326164 0.2558477956)
( 0.3287618353 0.4715211285 0.1343609106)
)
(( 0.5413897883 0.1742396526 0.1776277354)
( 0.0769267597 0.4251882267 0.4416532714)
( 0.4007009408 0.0484108142 0.5864648278)
)
)
((( 0.3244224125 0.6181603035 0.0732773811)
( 0.6554664085 0.3186283514 0.1270160918)
( 0.2176459770 0.1133740922 0.5915521337)
)
(( 0.0488390687 0.5113377088 0.3729494467)
( 0.4774339438 0.0654509965 0.2999102680)
( 0.1037810567 0.3144447426 0.6760818151)
)
(( 0.1598342048 0.1133368159 0.6835918334)
( 0.2108482636 0.2919657190 0.4253671844)
( 0.3830392372 0.6300547204 0.1418299902)
)
)
((( 0.2138757684 0.3649212762 0.3206346699)
( 0.1298675697 0.4134292352 0.4766146375)
( 0.0355763459 0.1973813679 0.5502873347)
)
(( 0.0211067492 0.5342476740 0.2488556315)
( 0.3769763825 0.4178685890 0.2250240021)
( 0.7337941266 0.2827413334 0.0134317451)
)
(( 0.3630617564 0.5772660337 0.0325980222)
( 0.7736576268 0.2205713114 0.1353354593)
( 0.3367247832 0.4535682748 0.1984447969)
)
)
)
(((( 0.3362643812 0.6136707334 0.0563380844)
( 0.5980573448 0.0234430538 0.2156224586)
( 0.1160272779 0.3007179856 0.5035849543)
)
(( 0.8999034366 0.0822622890 0.0610859369)
( 0.1133469705 0.0555580747 0.6294964929)
( 0.2917650958 0.3367179158 0.5278395305)
)
(( 0.0508079328 0.5743162590 0.5836258846)
( 0.8498532457 0.0549200740 0.1471086342)
( 0.3701314430 0.2700838546 0.3828879130)
)
)
((( 0.5791605718 0.2504880381 0.2383427106)
( 0.2340294208 0.1865929971 0.5832833101)
( 0.6831732967 0.0365355413 0.1925899091)
)
(( 0.3325342900 0.3369606977 0.3069397598)
( 0.4821116234 0.4203068027 0.1923012254)
( 0.0429322149 0.5326636865 0.0861581424)
)
(( 0.2607864904 0.4954113119 0.2521285834)
( 0.3184124205 0.4465079637 0.3015898215)
( 0.3490123723 0.3326708210 0.3175832008)
)
)
((( 0.4499795984 0.2545753392 0.4571159811)
( 0.7351195625 0.0900366178 0.1785820645)
( 0.4369970090 0.4273050616 0.2488909364)
)
(( 0.9463957557 0.1105769050 0.0989533177)
( 0.3838405885 0.4402900787 0.2032929390)
( 0.2507007532 0.1625275238 0.5511798878)
)
(( 0.0695024912 0.1157478910 0.8808409887)
( 0.1704866266 0.6628575117 0.0679685166)
( 0.2349323392 0.2557199483 0.6314579371)))))); 
}

potential ( node22 ) { 
 data = (  0.0572335981 0.2891885006 0.6535779013); 
}

potential ( node23 | node13 node18 node25 ) { 
 data = (((( 0.5837830668 0.2369016206)
( 0.7076397902 0.1807871917)
( 0.2848865593 0.6072440331)
)
(( 0.0590422599 0.7740284391)
( 0.3570286561 0.7505738274)
( 0.0489906252 0.7273224888)
)
)
((( 0.4162169332 0.7630983794)
( 0.2923602098 0.8192128083)
( 0.7151134407 0.3927559669)
)
(( 0.5356749963 0.4032560718)
( 0.6386895496 0.3739327462)
( 0.7165878861 0.4400273077)
)
)
((( 0.9409577401 0.2259715609)
( 0.6429713439 0.2494261726)
( 0.9510093748 0.2726775112)
)
(( 0.4643250037 0.5967439282)
( 0.3613104504 0.6260672538)
( 0.2834121139 0.5599726923)))); 
}

potential ( node24 | node12 node15 node16 node18 ) { 
 data = ((((( 0.5411182790 0.1335273972 0.3092974714)
( 0.6046012376 0.0310207907 0.4304028339)
)
(( 0.2499205784 0.3326671309 0.3460629211)
( 0.3853210177 0.4105419848 0.1554075987)
)
(( 0.0986907022 0.3381122844 0.4514575310)
( 0.2842076041 0.1947710621 0.4839248985)
)
)
((( 0.1620976693 0.2792652334 0.6076522289)
( 0.0198193517 0.9314268941 0.0150794442)
)
(( 0.6924421535 0.1151643386 0.4041104043)
( 0.6676243041 0.4810705957 0.0258815696)
)
(( 0.4717057507 0.2160929344 0.3030807715)
( 0.4191861981 0.3614067570 0.2168892220)
)
)
)
(((( 0.2967840517 0.5872073695 0.0830502997)
( 0.3755794107 0.0375523153 0.5545177218)
)
(( 0.1577310754 0.4530215330 0.1066963897)
( 0.3326126367 0.0665211029 0.6452560983)
)
(( 0.2020239890 0.7099784493 0.1793557395)
( 0.1111943453 0.3842016449 0.5497185885)
)
)
((( 0.5923483462 0.2143113360 0.5472406892)
( 0.2820663455 0.5229369123 0.1993363030)
)
(( 0.2088671443 0.5467233770 0.1444320647)
( 0.0481680917 0.3241583422 0.4901935319)
)
(( 0.3262702604 0.0739286163 0.5175634890)
( 0.4696194566 0.2543915981 0.2333921895))))); 
}

potential ( node25 ) { 
 data = (  0.3493934300 0.1021015700 0.5485050000); 
}

potential ( node26 | node12 node15 node19 node24 node5 node8 ) { 
 data = ((((((( 0.9314055391 0.3975285649)
( 0.3470843522 0.7524309760)
( 0.2997480304 0.6251828583)
)
(( 0.6309088996 0.3325202549)
( 0.8279654949 0.2316078281)
( 0.8499062000 0.2936570082)
)
(( 0.4501953141 0.6636108842)
( 0.9245949720 0.3213410913)
( 0.5000972465 0.4994994921)
)
)
((( 0.6596517525 0.4040184025)
( 0.5852023832 0.3381721779)
( 0.2204551842 0.6809204746)
)
(( 0.4641915363 0.6423771189)
( 0.3058616301 0.6333789875)
( 0.2399737346 0.8234478208)
)
(( 0.6969237810 0.2574876232)
( 0.2561221037 0.6904980614)
( 0.5430842367 0.3736979687)
)
)
((( 0.4012094389 0.6052543453)
( 0.4925381492 0.5079026982)
( 0.0553826240 0.9316263016)
)
(( 0.0214068221 0.5479722348)
( 0.8257895343 0.0653279469)
( 0.4564727172 0.5791097373)
)
(( 0.5610585968 0.4711969918)
( 0.6652961534 0.3294234302)
( 0.3782035777 0.7111529843)
)
)
)
(((( 0.8058792060 0.0755179914)
( 0.6927238074 0.4096564998)
( 0.0420809026 0.6217294743)
)
(( 0.4488934357 0.8115053796)
( 0.2660726194 0.9446717950)
( 0.4349065121 0.5053439022)
)
(( 0.5808949526 0.3032890884)
( 0.4404478177 0.9021465741)
( 0.6410465228 0.3829274842)
)
)
((( 0.3367939109 0.7831958476)
( 0.6314339259 0.3628200804)
( 0.3860264154 0.6413122178)
)
(( 0.3818025651 0.7138395576)
( 0.2955573925 0.5929726572)
( 0.7654444961 0.1022847447)
)
(( 0.3334184252 0.5659746331)
( 0.9576205435 0.1243028118)
( 0.2657395718 0.8018587414)
)
)
((( 0.7848844357 0.3115444492)
( 0.9360230801 0.3339406128)
( 0.1831018461 0.9195496056)
)
(( 0.7519045504 0.1418981798)
( 0.1289487753 0.8614906019)
( 0.5170786729 0.4919662253)
)
(( 0.5075995158 0.4782327527)
( 0.8745902430 0.1052269166)
( 0.5123396264 0.4918211335)
)
)
)
)
((((( 0.7196331258 0.2408717889)
( 0.6307607581 0.3988662133)
( 0.5881968410 0.3735107450)
)
(( 0.5765315945 0.2944219221)
( 0.1739640575 0.5793605187)
( 0.4280999776 0.6373341067)
)
(( 0.2860847712 0.8738564744)
( 0.5302735248 0.4844278561)
( 0.1182381467 0.5909126731)
)
)
((( 0.2719839420 0.8693106026)
( 0.4416101360 0.5791547670)
( 0.1694841097 0.6734441591)
)
(( 0.9400749686 0.3004805915)
( 0.5388006237 0.4631056971)
( 0.1734184463 0.6276491189)
)
(( 0.7442250445 0.3949972892)
( 0.5551265223 0.4781630590)
( 0.5382572990 0.4273858001)
)
)
((( 0.7349111963 0.4535727443)
( 0.4755405611 0.5416160570)
( 0.8597134116 0.0967489922)
)
(( 0.1174578808 0.6139383471)
( 0.7818167011 0.1761003128)
( 0.3375113305 0.6657704400)
)
(( 0.7965924665 0.3280408429)
( 0.7105728922 0.2803767378)
( 0.3023609559 0.6055544418)
)
)
)
(((( 0.3704413195 0.7388687793)
( 0.4298171418 0.7025007753)
( 0.5322961970 0.4176544108)
)
(( 0.3991231284 0.7697693414)
( 0.2421992075 0.5159552796)
( 0.7619040257 0.3649313216)
)
(( 0.6024404794 0.4675653769)
( 0.5540197603 0.4941850889)
( 0.6100682780 0.1750259090)
)
)
((( 0.1190142148 0.6472123945)
( 0.5170063354 0.4883834588)
( 0.4974249547 0.5010295862)
)
(( 0.5463639256 0.1105690202)
( 0.1426867072 0.7807586168)
( 0.8069759688 0.2609125399)
)
(( 0.3693804678 0.7426921786)
( 0.1326638621 0.9822484672)
( 0.4836843593 0.5338673364)
)
)
((( 0.6399254540 0.4663527880)
( 0.5052902086 0.4951425822)
( 0.7594342623 0.3461048229)
)
(( 0.2345629265 0.7751089224)
( 0.6028056162 0.1638666014)
( 0.7163513891 0.0912668801)
)
(( 0.5437182937 0.4594917166)
( 0.3857389930 0.6231012205)
( 0.3230186376 0.5174849633)
)
)
)
)
)
(((((( 0.0685944609 0.6024714351)
( 0.6529156478 0.2475690240)
( 0.7002519696 0.3748171417)
)
(( 0.3690911004 0.6674797451)
( 0.1720345051 0.7683921719)
( 0.1500938000 0.7063429918)
)
(( 0.5498046859 0.3363891158)
( 0.0754050280 0.6786589087)
( 0.4999027535 0.5005005079)
)
)
((( 0.3403482475 0.5959815975)
( 0.4147976168 0.6618278221)
( 0.7795448158 0.3190795254)
)
(( 0.5358084637 0.3576228811)
( 0.6941383699 0.3666210125)
( 0.7600262654 0.1765521792)
)
(( 0.3030762190 0.7425123768)
( 0.7438778963 0.3095019386)
( 0.4569157633 0.6263020313)
)
)
((( 0.5987905611 0.3947456547)
( 0.5074618508 0.4920973018)
( 0.9446173760 0.0683736984)
)
(( 0.9785931779 0.4520277652)
( 0.1742104657 0.9346720531)
( 0.5435272828 0.4208902627)
)
(( 0.4389414032 0.5288030082)
( 0.3347038466 0.6705765698)
( 0.6217964223 0.2888470157)
)
)
)
(((( 0.1941207940 0.9244820086)
( 0.3072761926 0.5903435002)
( 0.9579190974 0.3782705257)
)
(( 0.5511065643 0.1884946204)
( 0.7339273806 0.0553282050)
( 0.5650934879 0.4946560978)
)
(( 0.4191050474 0.6967109116)
( 0.5595521823 0.0978534259)
( 0.3589534772 0.6170725158)
)
)
((( 0.6632060891 0.2168041524)
( 0.3685660741 0.6371799196)
( 0.6139735846 0.3586877822)
)
(( 0.6181974349 0.2861604424)
( 0.7044426075 0.4070273428)
( 0.2345555039 0.8977152553)
)
(( 0.6665815748 0.4340253669)
( 0.0423794565 0.8756971882)
( 0.7342604282 0.1981412586)
)
)
((( 0.2151155643 0.6884555508)
( 0.0639769199 0.6660593872)
( 0.8168981539 0.0804503944)
)
(( 0.2480954496 0.8581018202)
( 0.8710512247 0.1385093981)
( 0.4829213271 0.5080337747)
)
(( 0.4924004842 0.5217672473)
( 0.1254097570 0.8947730834)
( 0.4876603736 0.5081788665)
)
)
)
)
((((( 0.2803668742 0.7591282111)
( 0.3692392419 0.6011337867)
( 0.4118031590 0.6264892550)
)
(( 0.4234684055 0.7055780779)
( 0.8260359425 0.4206394813)
( 0.5719000224 0.3626658933)
)
(( 0.7139152288 0.1261435256)
( 0.4697264752 0.5155721439)
( 0.8817618533 0.4090873269)
)
)
((( 0.7280160580 0.1306893974)
( 0.5583898640 0.4208452330)
( 0.8305158903 0.3265558409)
)
(( 0.0599250314 0.6995194085)
( 0.4611993763 0.5368943029)
( 0.8265815537 0.3723508811)
)
(( 0.2557749555 0.6050027108)
( 0.4448734777 0.5218369410)
( 0.4617427010 0.5726141999)
)
)
((( 0.2650888037 0.5464272557)
( 0.5244594389 0.4583839430)
( 0.1402865884 0.9032510078)
)
(( 0.8825421192 0.3860616529)
( 0.2181832989 0.8238996872)
( 0.6624886695 0.3342295600)
)
(( 0.2034075335 0.6719591571)
( 0.2894271078 0.7196232622)
( 0.6976390441 0.3944455582)
)
)
)
(((( 0.6295586805 0.2611312207)
( 0.5701828582 0.2974992247)
( 0.4677038030 0.5823455892)
)
(( 0.6008768716 0.2302306586)
( 0.7578007925 0.4840447204)
( 0.2380959743 0.6350686784)
)
(( 0.3975595206 0.5324346231)
( 0.4459802397 0.5058149111)
( 0.3899317220 0.8249740910)
)
)
((( 0.8809857852 0.3527876055)
( 0.4829936646 0.5116165412)
( 0.5025750453 0.4989704138)
)
(( 0.4536360744 0.8894309798)
( 0.8573132928 0.2192413832)
( 0.1930240312 0.7390874601)
)
(( 0.6306195322 0.2573078214)
( 0.8673361379 0.0177515328)
( 0.5163156407 0.4661326636)
)
)
((( 0.3600745460 0.5336472120)
( 0.4947097914 0.5048574178)
( 0.2405657377 0.6538951771)
)
(( 0.7654370735 0.2248910776)
( 0.3971943838 0.8361333986)
( 0.2836486109 0.9087331199)
)
(( 0.4562817063 0.5405082834)
( 0.6142610070 0.3768987795)
( 0.6769813624 0.4825150367))))))); 
}

potential ( node27 | node24 ) { 
 data = (( 0.0272760922 0.3430454664 0.5981290276)
( 0.3615406196 0.5746757419 0.0670858912)
( 0.6111832882 0.0822787917 0.3347850812)); 
}

potential ( node28 | node10 node15 node17 node23 ) { 
 data = ((((( 0.2419344368 0.2646459063 0.5860608911)
( 0.1022258927 0.3686548022 0.4742549699)
)
(( 0.6338655426 0.3389995623 0.0981530125)
( 0.1348650814 0.0819787875 0.6193687622)
)
(( 0.5157574633 0.0634922781 0.2982030593)
( 0.6351873738 0.1716467353 0.0986427717)
)
)
((( 0.3959087275 0.0270139298 0.5482139258)
( 0.0363472627 0.5161900025 0.2243087367)
)
(( 0.3137432893 0.1133144278 0.9017424855)
( 0.1973301905 0.6672339624 0.0576741577)
)
(( 0.0692824869 0.0384184139 0.9050790562)
( 0.3838991033 0.2449383033 0.3478741458)
)
)
)
(((( 0.5182716992 0.1618853288 0.3293699888)
( 0.6932455592 0.1753991694 0.3263222367)
)
(( 0.0803954964 0.2627511110 0.5692529903)
( 0.4624411066 0.3789910713 0.2375239948)
)
(( 0.3554015484 0.0186166529 0.6651911451)
( 0.1915381378 0.6086196422 0.4182092530)
)
)
((( 0.1491162243 0.7094296575 0.3828283053)
( 0.4071281306 0.2201816080 0.4829922452)
)
(( 0.2322254149 0.4772447154 0.0382113443)
( 0.5442061991 0.0157647725 0.2836936838)
)
(( 0.6148861860 0.3910758367 0.0726438914)
( 0.4828781026 0.4755372836 0.1637483130)
)
)
)
(((( 0.2397938640 0.5734687649 0.0845691201)
( 0.2045285481 0.4559460284 0.1994227934)
)
(( 0.2857389610 0.3982493268 0.3325939972)
( 0.4026938120 0.5390301413 0.1431072430)
)
(( 0.1288409883 0.9178910690 0.0366057956)
( 0.1732744884 0.2197336226 0.4831479753)
)
)
((( 0.4549750482 0.2635564128 0.0689577689)
( 0.5565246067 0.2636283894 0.2926990181)
)
(( 0.4540312958 0.4094408568 0.0600461702)
( 0.2584636103 0.3170012651 0.6586321585)
)
(( 0.3158313271 0.5705057495 0.0222770524)
( 0.1332227941 0.2795244131 0.4883775412))))); 
}

potential ( node29 | node10 node19 node25 node27 node4 ) { 
 data = (((((( 0.6621342379 0.3476926053 0.1399009747)
( 0.1101499925 0.7736502345 0.0223235768)
)
(( 0.1840406516 0.5720366339 0.5710028989)
( 0.6716077435 0.6456446266 0.1438536743)
)
(( 0.2919266468 0.0254036576 0.5360004983)
( 0.0198318302 0.6191427691 0.2186612359)
)
)
((( 0.4431559187 0.1677261377 0.4056857838)
( 0.3544988490 0.8005138088 0.2698060204)
)
(( 0.2269965407 0.5900427233 0.2108208488)
( 0.6003293638 0.4568980229 0.2596280052)
)
(( 0.7228515321 0.0273352570 0.2680336411)
( 0.4087127655 0.3077776418 0.2994539059)
)
)
((( 0.4261449005 0.1969990994 0.5543831316)
( 0.0699137737 0.0854724914 0.6203428483)
)
(( 0.5269651831 0.3266632589 0.1398910207)
( 0.3015260792 0.3933220784 0.2979594380)
)
(( 0.2640928884 0.1816526559 0.4131462625)
( 0.2412770309 0.0031512477 0.6029012205)
)
)
)
(((( 0.1016322820 0.2124390477 0.6062300927)
( 0.4879545524 0.4702546586 0.0994022143)
)
(( 0.1500670277 0.3357626487 0.4146678301)
( 0.3592640580 0.4551795091 0.2405337264)
)
(( 0.3907737376 0.3581210321 0.1445225774)
( 0.6193759107 0.0084304511 0.3071164195)
)
)
((( 0.1454724964 0.8927675359 0.0528030641)
( 0.4266147331 0.6092107699 0.0149487305)
)
(( 0.0283588990 0.2411022690 0.8740189816)
( 0.2410364850 0.0484088414 0.5531509198)
)
(( 0.2057470519 0.5793818434 0.1366598913)
( 0.6402851916 0.0723108147 0.4617889805)
)
)
((( 0.6500327930 0.3710958302 0.1215757130)
( 0.2247600637 0.2283116351 0.6699228113)
)
(( 0.3856821888 0.2523453947 0.3782600435)
( 0.2713918206 0.4905179847 0.0676846893)
)
(( 0.3539508052 0.4808231281 0.2529237996)
( 0.7652961870 0.0788680190 0.0949197386)
)
)
)
)
((((( 0.2356545425 0.2813200393 0.4365997831)
( 0.5829827572 0.0828361987 0.4454446577)
)
(( 0.3033092143 0.3366945831 0.4003754078)
( 0.0365870955 0.2103822671 0.4350921487)
)
(( 0.5075517289 0.2928452105 0.2980483411)
( 0.5275907257 0.2462792631 0.0539936362)
)
)
((( 0.1133900691 0.3964090959 0.5111429049)
( 0.5917210956 0.0537701641 0.2932831097)
)
(( 0.4928523656 0.1386273024 0.3789625097)
( 0.2031584087 0.5257974653 0.2864831607)
)
(( 0.0311975720 0.1111876155 0.6841366027)
( 0.0758197772 0.3471035868 0.5079666700)
)
)
((( 0.0790711843 0.5549109120 0.1066588574)
( 0.3962804190 0.4611535408 0.2252549221)
)
(( 0.0802960255 0.4696219071 0.1303886349)
( 0.5833002256 0.0853664041 0.2969600373)
)
(( 0.3207234316 0.2533350452 0.3605855362)
( 0.5003670293 0.5007665804 0.0743135268)
)
)
)
(((( 0.0375228306 0.4859236822 0.3737224839)
( 0.0941448031 0.2200561663 0.6354051264)
)
(( 0.2299468899 0.2396559340 0.4665166460)
( 0.3700870640 0.2618428418 0.3451891409)
)
(( 0.3632892970 0.2756668852 0.5686708008)
( 0.1885512576 0.3898066437 0.6514005407)
)
)
((( 0.0335798795 0.0382058619 0.6745003034)
( 0.3940563209 0.1434138512 0.2837405473)
)
(( 0.5408762712 0.2840297091 0.0570442045)
( 0.3149590926 0.4391667586 0.3107505595)
)
(( 0.4691346466 0.1581568843 0.3664700516)
( 0.2506034267 0.4467280283 0.2559606425)
)
)
((( 0.3089184933 0.2131348976 0.5107631450)
( 0.1056902232 0.6990920945 0.0851329120)
)
(( 0.4471891202 0.5369019737 0.0325067647)
( 0.5650300226 0.1544085777 0.5745111652)
)
(( 0.1758553372 0.2264468983 0.4746336342)
( 0.0901600012 0.5167965003 0.1003824275)
)
)
)
)
((((( 0.1022112196 0.3709873554 0.4234992422)
( 0.3068672503 0.1435135668 0.5322317655)
)
(( 0.5126501341 0.0912687830 0.0286216933)
( 0.2918051610 0.1439731063 0.4210541770)
)
(( 0.2005216242 0.6817511319 0.1659511606)
( 0.4525774441 0.1345779678 0.7273451279)
)
)
((( 0.4434540123 0.4358647664 0.0831713113)
( 0.0537800554 0.1457160272 0.4369108699)
)
(( 0.2801510937 0.2713299742 0.4102166415)
( 0.1965122275 0.0173045117 0.4538888341)
)
(( 0.2459508959 0.8614771274 0.0478297562)
( 0.5154674573 0.3451187714 0.1925794241)
)
)
((( 0.4947839152 0.2480899886 0.3389580110)
( 0.5338058073 0.4533739678 0.1544022297)
)
(( 0.3927387914 0.2037148340 0.7297203444)
( 0.1151736952 0.5213115175 0.4050805247)
)
(( 0.4151836800 0.5650122989 0.2262682013)
( 0.2583559398 0.4960821719 0.3227852527)
)
)
)
(((( 0.8608448874 0.3016372700 0.0200474233)
( 0.4179006445 0.3096891751 0.2651926593)
)
(( 0.6199860824 0.4245814173 0.1188155239)
( 0.2706488780 0.2829776490 0.4142771327)
)
(( 0.2459369654 0.3662120826 0.2868066218)
( 0.1920728317 0.6017629051 0.0414830398)
)
)
((( 0.8209476240 0.0690266022 0.2726966325)
( 0.1793289459 0.2473753789 0.7013107221)
)
(( 0.4307648298 0.4748680219 0.0689368140)
( 0.4440044224 0.5124244000 0.1360985207)
)
(( 0.3251183016 0.2624612723 0.4968700571)
( 0.1091113817 0.4809611570 0.2822503770)
)
)
((( 0.0410487137 0.4157692722 0.3676611421)
( 0.6695497130 0.0725962704 0.2449442767)
)
(( 0.1671286911 0.2107526316 0.5892331917)
( 0.1635781568 0.3550734377 0.3578041454)
)
(( 0.4701938576 0.2927299736 0.2724425663)
( 0.1445438118 0.4043354807 0.8046978340)))))); 
}

potential ( node3 | node10 node17 ) { 
 data = ((( 0.4324911231 0.6303293127)
( 0.7618472031 0.5456630419)
( 0.3456426022 0.5125149927)
)
(( 0.5675088769 0.5088595301)
( 0.5154681244 0.4543369581)
( 0.6543573978 0.4121237201)
)
(( 0.2381527969 0.4911404699)
( 0.4845318756 0.4874850073)
( 0.3696706873 0.5878762799))); 
}

potential ( node4 | node20 node3 ) { 
 data = ((( 0.2974576342 0.5697005410)
( 0.5241295977 0.4021378899)
)
(( 0.7025423658 0.4302994590)
( 0.4335577212 0.5239086617)
)
(( 0.4758704023 0.5978621101)
( 0.5664422788 0.4760913383))); 
}

potential ( node5 | node0 node14 node18 node4 node7 ) { 
 data = (((((( 0.1643705074 0.6299206028 0.0967339778)
( 0.5070200635 0.1848455770 0.2567990568)
( 0.0463383777 0.7651382068 0.1208839967)
)
(( 0.2802108229 0.4872286274 0.2683660236)
( 0.2215707888 0.5137928392 0.1892697512)
( 0.5948424106 0.1307558334 0.0814503578)
)
)
((( 0.5492225950 0.2317242324 0.0134814957)
( 0.2373362407 0.3935828519 0.2060191055)
( 0.4781430180 0.1172700238 0.1504103654)
)
(( 0.5264614232 0.1955163229 0.2382411677)
( 0.3248690970 0.0853384046 0.5772100892)
( 0.4288253055 0.3249245394 0.3059684979)
)
)
)
(((( 0.4118490555 0.1897113442 0.3459881350)
( 0.0783821990 0.2137855913 0.4855835479)
( 0.6722322423 0.4095720540 0.2813971933)
)
(( 0.4779937187 0.3866766322 0.5712085390)
( 0.2262122185 0.2758778254 0.3281876715)
( 0.6280129420 0.1126346257 0.1119518034)
)
)
((( 0.2299830813 0.0192767086 0.6733025997)
( 0.7156306147 0.2552470185 0.1290652193)
( 0.1350379383 0.0911471638 0.4426688750)
)
(( 0.3433690528 0.0988837595 0.4849311139)
( 0.0356166881 0.2479131851 0.6998467207)
( 0.0854888860 0.6296675726 0.3055430405)
)
)
)
)
((((( 0.4237804371 0.1363448598 0.3649038071)
( 0.4145977375 0.0323214634 0.3903549656)
( 0.2814293800 0.1906778894 0.5526272409)
)
(( 0.3705286281 0.1260947404 0.6634867964)
( 0.2846236360 0.2103293355 0.2318023769)
( 0.1168293249 0.7566095409 0.4126925356)
)
)
((( 0.2626294368 0.3710127746 0.3132159046)
( 0.6031297760 0.6894359819 0.6649156751)
( 0.1421849310 0.1200465451 0.4069207595)
)
(( 0.1301695240 0.2291264666 0.4932578822)
( 0.6395142149 0.6979330373 0.1171381971)
( 0.4856858085 0.3906066993 0.1217625870)
)
)
)
(((( 0.1881479682 0.5785644233 0.2891080579)
( 0.1595339833 0.3926315568 0.1240614864)
( 0.3796720509 0.4731579222 0.1659755657)
)
(( 0.1514776533 0.5753572106 0.1905502933)
( 0.4891641455 0.2167285581 0.0946022393)
( 0.2551577331 0.2844687613 0.5820796987)
)
)
((( 0.4898060958 0.6097105168 0.0681471800)
( 0.0627985966 0.0553169996 0.5789278719)
( 0.2701196511 0.7888062911 0.5058571067)
)
(( 0.2337345374 0.8043822627 0.0218110039)
( 0.7828329596 0.4952877581 0.1830150822)
( 0.0441839038 0.2494484308 0.5726943725)))))); 
}

potential ( node6 | node0 node15 node21 node22 node27 node9 ) { 
 data = ((((((( 0.4921633044 0.5018519571)
( 0.9511251431 0.4166618527)
( 0.3941442343 0.6335983974)
)
(( 0.6955196295 0.0485796732)
( 0.5167494013 0.4681640704)
( 0.5013084780 0.4986076956)
)
(( 0.5027683176 0.4955481472)
( 0.4138112982 0.5364202712)
( 0.4424976152 0.5595522347)
)
)
((( 0.8413047720 0.2531532359)
( 0.0189159347 0.7070317868)
( 0.3049247802 0.6014344165)
)
(( 0.2035517786 0.6972764050)
( 0.5949250978 0.4327172290)
( 0.5499425643 0.2690336332)
)
(( 0.4201698497 0.7067418437)
( 0.6999366736 0.0869152695)
( 0.9359783469 0.1684131550)
)
)
((( 0.5476040937 0.2853631474)
( 0.9192440658 0.2149042311)
( 0.6224608948 0.4579726212)
)
(( 0.0898196290 0.7556709688)
( 0.1876734738 0.5110602963)
( 0.7923312455 0.4767227140)
)
(( 0.9035992275 0.4124199306)
( 0.4475501314 0.7130493552)
( 0.3812403755 0.7958234119)
)
)
)
(((( 0.8245663629 0.0539103864)
( 0.5030613237 0.4964866948)
( 0.4330397176 0.5237736475)
)
(( 0.4968030008 0.5014681137)
( 0.2897053361 0.5232696025)
( 0.3438494540 0.8532386399)
)
(( 0.5597864507 0.4981402124)
( 0.2233245279 0.8902902438)
( 0.3632623453 0.5780386829)
)
)
((( 0.3113153034 0.5747678142)
( 0.7225738321 0.3545728102)
( 0.6253021253 0.1815475850)
)
(( 0.2210419759 0.5583953168)
( 0.2148844083 0.9099035923)
( 0.8933468163 0.0243653856)
)
(( 0.7355018299 0.0446683593)
( 0.1461862037 0.7586856669)
( 0.1619643207 0.9074159301)
)
)
((( 0.7284030090 0.3769918073)
( 0.4888626705 0.5709017458)
( 0.5671682862 0.4785948653)
)
(( 0.6354778240 0.3339397207)
( 0.0196111821 0.8468218457)
( 0.6023321167 0.2070589213)
)
(( 0.7962935699 0.2500713441)
( 0.7138935840 0.3949998975)
( 0.8248731430 0.1939323415)
)
)
)
(((( 0.7710386881 0.2773730252)
( 0.4444399980 0.5250911143)
( 0.2578986481 0.8282543534)
)
(( 0.1644536248 0.8377088375)
( 0.8588760696 0.1463675117)
( 0.5465234891 0.3890565685)
)
(( 0.5213608890 0.4239728499)
( 0.1754711978 0.6105098808)
( 0.5471097187 0.4272291687)
)
)
((( 0.6249219011 0.3525823470)
( 0.8406248922 0.4411814079)
( 0.4574721809 0.5380482599)
)
(( 0.4593762747 0.5378364518)
( 0.7259424741 0.0221003734)
( 0.4729678525 0.8982029057)
)
(( 0.6990503451 0.3519969980)
( 0.3290617104 0.8763372812)
( 0.7114687796 0.2147258020)
)
)
((( 0.8549626232 0.0712158106)
( 0.5704480605 0.4592409267)
( 0.9614591284 0.3012651025)
)
(( 0.7736621404 0.4613610764)
( 0.7419461560 0.4202833204)
( 0.5374488684 0.4938661763)
)
(( 0.6269326601 0.4240403749)
( 0.7519036965 0.4109114275)
( 0.5425919392 0.3571472376)
)
)
)
)
((((( 0.4738472521 0.8028359471)
( 0.8488912962 0.4301596541)
( 0.7282027843 0.2700563330)
)
(( 0.8264316012 0.3058045586)
( 0.0713991129 0.9531234161)
( 0.4478699162 0.7544054129)
)
(( 0.4396204980 0.5915375896)
( 0.3302227698 0.8832563255)
( 0.0239098194 0.8474245150)
)
)
((( 0.4712193822 0.5324198752)
( 0.2422188417 0.5959796632)
( 0.0609415933 0.6093370706)
)
(( 0.5917822345 0.2389494004)
( 0.8296997491 0.0478169186)
( 0.4149002052 0.5542241934)
)
(( 0.6166974425 0.1180043816)
( 0.5507387155 0.3979950151)
( 0.3906309577 0.5568771960)
)
)
((( 0.9101767680 0.0929872807)
( 0.2166347615 0.8496151084)
( 0.0599471050 0.8484397342)
)
(( 0.3448115671 0.5819149537)
( 0.0134715867 0.8162942458)
( 0.6033711439 0.4247919226)
)
(( 0.3728834417 0.8410715569)
( 0.5998585353 0.3765847644)
( 0.4910271015 0.5048760678)
)
)
)
(((( 0.6520357407 0.2694961537)
( 0.4546844363 0.5283543536)
( 0.4524837786 0.6547487734)
)
(( 0.4071725259 0.6471651123)
( 0.4056248312 0.5320292926)
( 0.1592032149 0.5907042299)
)
(( 0.6916254599 0.2119279606)
( 0.9318389715 0.3502868276)
( 0.5253551999 0.2390635293)
)
)
((( 0.6521289502 0.1047654442)
( 0.4410205063 0.5349034761)
( 0.6610118613 0.3566320884)
)
(( 0.3905049321 0.8621868037)
( 0.4914833733 0.5078088624)
( 0.3178337746 0.5484845213)
)
(( 0.4894685124 0.5817012087)
( 0.0310282786 0.9066518729)
( 0.1368585748 0.6407299627)
)
)
((( 0.1611357389 0.6871868141)
( 0.3854764275 0.5402583705)
( 0.5667297833 0.4907234593)
)
(( 0.6638463080 0.3073624659)
( 0.9484361997 0.1100553031)
( 0.5380820682 0.4753496672)
)
(( 0.3114550307 0.7685015805)
( 0.8957316641 0.4003596011)
( 0.5102151852 0.6797800723)
)
)
)
(((( 0.3584380341 0.9594267002)
( 0.4813888930 0.5369874478)
( 0.7134010436 0.1913768927)
)
(( 0.7848931113 0.2034032856)
( 0.4738003882 0.6923026884)
( 0.0741258575 0.7829143886)
)
(( 0.5394786498 0.4161301712)
( 0.2539928419 0.7933472004)
( 0.0755007427 0.8437666178)
)
)
((( 0.4926685898 0.5032008695)
( 0.5610957205 0.2893702058)
( 0.2112918548 0.8273417658)
)
(( 0.9471128277 0.1014859018)
( 0.6662151701 0.3137890587)
( 0.1479194306 0.9406455914)
)
(( 0.5522984945 0.4395611538)
( 0.2655184647 0.6453033223)
( 0.8052095555 0.3343167362)
)
)
((( 0.5076191058 0.4003376816)
( 0.8350542107 0.3991669786)
( 0.4472760813 0.5213694705)
)
(( 0.7192703876 0.4265674883)
( 0.8830567786 0.1578605405)
( 0.9690137916 0.4181419063)
)
(( 0.4449701404 0.8992621707)
( 0.8969686229 0.3919627106)
( 0.4212833502 0.8105185459)
)
)
)
)
)
(((((( 0.5078366956 0.4981480429)
( 0.0488748569 0.5833381473)
( 0.6058557657 0.3664016026)
)
(( 0.3044803705 0.9514203268)
( 0.4832505987 0.5318359296)
( 0.4986915220 0.5013923044)
)
(( 0.4972316824 0.5044518528)
( 0.5861887018 0.4635797288)
( 0.5575023848 0.4404477653)
)
)
((( 0.1586952280 0.7468467641)
( 0.9810840653 0.2929682132)
( 0.6950752198 0.3985655835)
)
(( 0.7964482214 0.3027235950)
( 0.4050749022 0.5672827710)
( 0.4500574357 0.7309663668)
)
(( 0.5798301503 0.2932581563)
( 0.3000633264 0.9130847305)
( 0.0640216531 0.8315868450)
)
)
((( 0.4523959063 0.7146368526)
( 0.0807559342 0.7850957689)
( 0.3775391052 0.5420273788)
)
(( 0.9101803710 0.2443290312)
( 0.8123265262 0.4889397037)
( 0.2076687545 0.5232772860)
)
(( 0.0964007725 0.5875800694)
( 0.5524498686 0.2869506448)
( 0.6187596245 0.2041765881)
)
)
)
(((( 0.1754336371 0.9460896136)
( 0.4969386763 0.5035133052)
( 0.5669602824 0.4762263525)
)
(( 0.5031969992 0.4985318863)
( 0.7102946639 0.4767303975)
( 0.6561505460 0.1467613601)
)
(( 0.4402135493 0.5018597876)
( 0.7766754721 0.1097097562)
( 0.6367376547 0.4219613171)
)
)
((( 0.6886846966 0.4252321858)
( 0.2774261679 0.6454271898)
( 0.3746978747 0.8184524150)
)
(( 0.7789580241 0.4416046832)
( 0.7851155917 0.0900964077)
( 0.1066531837 0.9756346144)
)
(( 0.2644981701 0.9553316407)
( 0.8538137963 0.2413143331)
( 0.8380356793 0.0925840699)
)
)
((( 0.2715969910 0.6230081927)
( 0.5111373295 0.4290982542)
( 0.4328317138 0.5214051347)
)
(( 0.3645221760 0.6660602793)
( 0.9803888179 0.1531781543)
( 0.3976678833 0.7929410787)
)
(( 0.2037064301 0.7499286559)
( 0.2861064160 0.6050001025)
( 0.1751268570 0.8060676585)
)
)
)
(((( 0.2289613119 0.7226269748)
( 0.5555600020 0.4749088857)
( 0.7421013519 0.1717456466)
)
(( 0.8355463752 0.1622911625)
( 0.1411239304 0.8536324883)
( 0.4534765109 0.6109434315)
)
(( 0.4786391110 0.5760271501)
( 0.8245288022 0.3894901192)
( 0.4528902813 0.5727708313)
)
)
((( 0.3750780989 0.6474176530)
( 0.1593751078 0.5588185921)
( 0.5425278191 0.4619517401)
)
(( 0.5406237253 0.4621635482)
( 0.2740575259 0.9778996266)
( 0.5270321475 0.1017970943)
)
(( 0.3009496549 0.6480030020)
( 0.6709382896 0.1236627188)
( 0.2885312204 0.7852741980)
)
)
((( 0.1450373768 0.9287841894)
( 0.4295519395 0.5407590733)
( 0.0385408716 0.6987348975)
)
(( 0.2263378596 0.5386389236)
( 0.2580538440 0.5797166796)
( 0.4625511316 0.5061338237)
)
(( 0.3730673399 0.5759596251)
( 0.2480963035 0.5890885725)
( 0.4574080608 0.6428527624)
)
)
)
)
((((( 0.5261527479 0.1971640529)
( 0.1511087038 0.5698403459)
( 0.2717972157 0.7299436670)
)
(( 0.1735683988 0.6941954414)
( 0.9286008871 0.0468765839)
( 0.5521300838 0.2455945871)
)
(( 0.5603795020 0.4084624104)
( 0.6697772302 0.1167436745)
( 0.9760901806 0.1525754850)
)
)
((( 0.5287806178 0.4675801248)
( 0.7577811583 0.4040203368)
( 0.9390584067 0.3906629294)
)
(( 0.4082177655 0.7610505996)
( 0.1703002509 0.9521830814)
( 0.5850997948 0.4457758066)
)
(( 0.3833025575 0.8819956184)
( 0.4492612845 0.6020049849)
( 0.6093690423 0.4431228040)
)
)
((( 0.0898232320 0.9070127193)
( 0.7833652385 0.1503848916)
( 0.9400528950 0.1515602658)
)
(( 0.6551884329 0.4180850463)
( 0.9865284133 0.1837057542)
( 0.3966288561 0.5752080774)
)
(( 0.6271165583 0.1589284431)
( 0.4001414647 0.6234152356)
( 0.5089728985 0.4951239322)
)
)
)
(((( 0.3479642593 0.7305038463)
( 0.5453155637 0.4716456464)
( 0.5475162214 0.3452512266)
)
(( 0.5928274741 0.3528348877)
( 0.5943751688 0.4679707074)
( 0.8407967851 0.4092957701)
)
(( 0.3083745401 0.7880720394)
( 0.0681610285 0.6497131724)
( 0.4746448001 0.7609364707)
)
)
((( 0.3478710498 0.8952345558)
( 0.5589794937 0.4650965239)
( 0.3389881387 0.6433679116)
)
(( 0.6094950679 0.1378131963)
( 0.5085166267 0.4921911376)
( 0.6821662254 0.4515154787)
)
(( 0.5105314876 0.4182987913)
( 0.9689717214 0.0933481271)
( 0.8631414252 0.3592700373)
)
)
((( 0.8388642611 0.3128131859)
( 0.6145235725 0.4597416295)
( 0.4332702167 0.5092765407)
)
(( 0.3361536920 0.6926375341)
( 0.0515638003 0.8899446969)
( 0.4619179318 0.5246503328)
)
(( 0.6885449693 0.2314984195)
( 0.1042683359 0.5996403989)
( 0.4897848148 0.3202199277)
)
)
)
(((( 0.6415619659 0.0405732998)
( 0.5186111070 0.4630125522)
( 0.2865989564 0.8086231073)
)
(( 0.2151068887 0.7965967144)
( 0.5261996118 0.3076973116)
( 0.9258741425 0.2170856114)
)
(( 0.4605213502 0.5838698288)
( 0.7460071581 0.2066527996)
( 0.9244992573 0.1562333822)
)
)
((( 0.5073314102 0.4967991305)
( 0.4389042795 0.7106297942)
( 0.7887081452 0.1726582342)
)
(( 0.0528871723 0.8985140982)
( 0.3337848299 0.6862109413)
( 0.8520805694 0.0593544086)
)
(( 0.4477015055 0.5604388462)
( 0.7344815353 0.3546966777)
( 0.1947904445 0.6656832638)
)
)
((( 0.4923808942 0.5996623184)
( 0.1649457893 0.6008330214)
( 0.5527239187 0.4786305295)
)
(( 0.2807296124 0.5734325117)
( 0.1169432214 0.8421394595)
( 0.0309862084 0.5818580937)
)
(( 0.5550298596 0.1007378293)
( 0.1030313771 0.6080372894)
( 0.5787166498 0.1894814541))))))); 
}

potential ( node7 | node1 node16 node2 node4 ) { 
 data = ((((( 0.6286920428 0.1512572327 0.1128746020)
( 0.4183360807 0.0263167577 0.5853805914)
)
(( 0.1725391238 0.4838717596 0.4293145979)
( 0.3967959209 0.4762826675 0.1170384854)
)
)
((( 0.5510037666 0.1550140824 0.4054694878)
( 0.1102222916 0.4857298221 0.6960675977)
)
(( 0.3021785905 0.5324736767 0.1460105863)
( 0.5030917742 0.2656644884 0.1274899657)
)
)
((( 0.3536109202 0.3927554336 0.2562644703)
( 0.2622627924 0.0241717295 0.6516024969)
)
(( 0.0258395890 0.5250506821 0.1323882344)
( 0.4736222178 0.1700302121 0.3627779993)
)
)
)
(((( 0.1751511184 0.5395959971 0.3211265449)
( 0.4350057432 0.0955498890 0.2769910251)
)
(( 0.2570867884 0.2727386610 0.4778900519)
( 0.1360070358 0.1933883168 0.6285891542)
)
)
((( 0.1415450851 0.5697344019 0.1932201384)
( 0.4980259521 0.2356906284 0.0527884145)
)
(( 0.4895923832 0.2136908488 0.3699196050)
( 0.4395449050 0.2151450306 0.2911948144)
)
)
((( 0.5794910880 0.2862190422 0.1472413222)
( 0.4919950732 0.3201892034 0.2890627725)
)
(( 0.4746080238 0.2518007101 0.3810959919)
( 0.1522714059 0.3583441352 0.4579889909)
)
)
)
(((( 0.1961568387 0.3091467702 0.5659988531)
( 0.1466581761 0.8781333533 0.1376283835)
)
(( 0.5703740878 0.2433895794 0.0927953502)
( 0.4671970433 0.3303290157 0.2543723605)
)
)
((( 0.3074511483 0.2752515157 0.4013103738)
( 0.3917517563 0.2785795495 0.2511439879)
)
(( 0.2082290262 0.2538354745 0.4840698087)
( 0.0573633208 0.5191904810 0.5813152198)
)
)
((( 0.0668979918 0.3210255242 0.5964942075)
( 0.2457421344 0.6556390671 0.0593347306)
)
(( 0.4995523872 0.2231486078 0.4865157737)
( 0.3741063764 0.4716256528 0.1792330099))))); 
}

potential ( node8 | node1 node14 node16 node23 node27 ) { 
 data = (((((( 0.1383075237 0.5080278825 0.2124641155)
( 0.5829883543 0.2384228674 0.2965165765)
( 0.5573264719 0.1312675159 0.5486398553)
)
(( 0.5985498885 0.4327523565 0.0572970295)
( 0.1025018691 0.5199035332 0.5087709380)
( 0.3334948836 0.0466773767 0.6807841543)
)
)
((( 0.5137878045 0.2159626628 0.2220238951)
( 0.5346208978 0.1622089390 0.0867810284)
( 0.3486949637 0.4655133102 0.2312641634)
)
(( 0.0832534335 0.0571639075 0.7736912921)
( 0.3915667868 0.5868897831 0.0825547160)
( 0.3063092279 0.1054310006 0.3638532195)
)
)
((( 0.3798939218 0.3034342084 0.2885113170)
( 0.0512737214 0.0620354212 0.9057053662)
( 0.0311206148 0.6439651454 0.6359044056)
)
(( 0.1598760021 0.3021924441 0.4943473264)
( 0.2994844958 0.0202118371 0.5667922260)
( 0.0828458889 0.0316577735 0.6320009099)
)
)
)
(((( 0.1609865541 0.7884038900 0.1534415192)
( 0.2854599238 0.9024974335 0.1740333485)
( 0.2675412166 0.3560803363 0.3523710499)
)
(( 0.1262281341 0.6192501325 0.4143301510)
( 0.7126646002 0.5495475534 0.0483749262)
( 0.2978693896 0.1891181972 0.7725644080)
)
)
((( 0.4445753080 0.4665244040 0.0716571625)
( 0.4141191599 0.3852127739 0.1249012742)
( 0.1880902633 0.3599540747 0.6625386435)
)
(( 0.4782232400 0.2553152566 0.2786858892)
( 0.3971675199 0.4278937731 0.0398200207)
( 0.5343580867 0.2530121760 0.2796401916)
)
)
((( 0.5521773322 0.0978452771 0.2422921987)
( 0.3269174033 0.2878871126 0.4180058003)
( 0.1739381453 0.3224387437 0.5171070572)
)
(( 0.6709593723 0.1214372647 0.0510142695)
( 0.4657582832 0.2507557994 0.2018491228)
( 0.1613959478 0.2012049643 0.6027730386)
)
)
)
)
((((( 0.1740745905 0.0435161358 0.6911807803)
( 0.0836724310 0.1460129269 0.5665481971)
( 0.0135007906 0.4958105017 0.3146760524)
)
(( 0.0383266397 0.1565290394 0.6593903748)
( 0.6042222618 0.1583179420 0.0711738423)
( 0.4263911559 0.4428296226 0.1248090915)
)
)
((( 0.2426845201 0.7205263788 0.1995240682)
( 0.0868703330 0.5225512708 0.6595207725)
( 0.1102833955 0.2251842999 0.5071269468)
)
(( 0.7277236893 0.1782610723 0.0341922667)
( 0.2829363629 0.3269358102 0.3680957626)
( 0.4876661260 0.2045701460 0.2492223454)
)
)
((( 0.6044095418 0.3448905598 0.0254164230)
( 0.6493816173 0.1583841477 0.0523962072)
( 0.5102796814 0.2748834555 0.0683441082)
)
(( 0.4621867947 0.3568304247 0.1232144881)
( 0.5238195355 0.0410222356 0.1707412702)
( 0.1223005297 0.6538707982 0.3006561595)
)
)
)
(((( 0.3162694119 0.1062891452 0.5631735432)
( 0.0315759400 0.0737541354 0.6274907832)
( 0.5809733251 0.5142685462 0.0971733255)
)
(( 0.5832547272 0.1660784043 0.0362520387)
( 0.1211841534 0.3555620234 0.3942015435)
( 0.6255304926 0.1069709798 0.1983081578)
)
)
((( 0.2159085823 0.3253640605 0.4519743748)
( 0.2381160911 0.3143656921 0.5397633774)
( 0.1248872700 0.6022505319 0.2531027288)
)
(( 0.0281570894 0.4091917266 0.4780148308)
( 0.5279897986 0.1371243099 0.4401396465)
( 0.1440847756 0.1373612402 0.5860079633)
)
)
((( 0.2422762903 0.6145423817 0.3266119346)
( 0.0757528680 0.6457724372 0.2965086625)
( 0.1747177170 0.5196512098 0.0567192080)
)
(( 0.1123780703 0.4753771255 0.5125266601)
( 0.5107941577 0.0989547150 0.3124177771)
( 0.4760235545 0.6841375970 0.0905613641)
)
)
)
)
((((( 0.6876178858 0.4484559817 0.0963551043)
( 0.3333392147 0.6155642057 0.1369352264)
( 0.4291727375 0.3729219824 0.1366840924)
)
(( 0.3631234717 0.4107186041 0.2833125957)
( 0.2932758690 0.3217785249 0.4200552197)
( 0.2401139605 0.5104930007 0.1944067542)
)
)
((( 0.2435276754 0.0635109584 0.5784520366)
( 0.3785087692 0.3152397902 0.2536981991)
( 0.5410216408 0.3093023899 0.2616088898)
)
(( 0.1890228772 0.7645750202 0.1921164412)
( 0.3254968503 0.0861744066 0.5493495214)
( 0.2060246460 0.6899988535 0.3869244351)
)
)
((( 0.0156965365 0.3516752319 0.6860722600)
( 0.2993446613 0.7795804310 0.0418984265)
( 0.4585997038 0.0811513991 0.2957514863)
)
(( 0.3779372032 0.3409771312 0.3824381854)
( 0.1766959688 0.9387659273 0.2624665039)
( 0.7948535814 0.3144714283 0.0673429306)
)
)
)
(((( 0.5227440340 0.1053069648 0.2833849376)
( 0.6829641362 0.0237484311 0.1984758683)
( 0.1514854583 0.1296511175 0.5504556246)
)
(( 0.2905171386 0.2146714631 0.5494178103)
( 0.1661512464 0.0948904232 0.5574235303)
( 0.0766001178 0.7039108230 0.0291274342)
)
)
((( 0.3395161097 0.2081115355 0.4763684626)
( 0.3477647489 0.3004215340 0.3353353484)
( 0.6870224667 0.0377953935 0.0843586278)
)
(( 0.4936196706 0.3354930168 0.2432992800)
( 0.0748426815 0.4349819170 0.5200403327)
( 0.3215571376 0.6096265838 0.1343518451)
)
)
((( 0.2055463775 0.2876123412 0.4310958668)
( 0.5973297287 0.0663404502 0.2854855372)
( 0.6513441377 0.1579100465 0.4261737348)
)
(( 0.2166625574 0.4031856098 0.4364590704)
( 0.0234475590 0.6502894856 0.4857331001)
( 0.3625804978 0.1146574387 0.3066655973)))))); 
}

potential ( node9 | node13 node17 node19 node2 node28 ) { 
 data = (((((( 0.6225218644 0.4184016415 0.1221333969)
( 0.1365256041 0.5447232565 0.3301867364)
( 0.1981086531 0.7594572074 0.1976502669)
)
(( 0.2884915390 0.0997924678 0.4889630971)
( 0.1882733931 0.1991949588 0.4909285996)
( 0.3109531874 0.3127318978 0.5450983064)
)
)
((( 0.2675313940 0.3207623619 0.5019363310)
( 0.1137288748 0.1204634984 0.6107890814)
( 0.4357349038 0.5880143620 0.0167176851)
)
(( 0.7997068003 0.0311042325 0.1497841194)
( 0.4872622339 0.3971562726 0.1327723703)
( 0.3791173466 0.4899271098 0.1692205608)
)
)
)
(((( 0.4303657269 0.1450296775 0.3667255753)
( 0.1546459230 0.3929237466 0.2735746281)
( 0.2547809771 0.3244245679 0.5705648394)
)
(( 0.2168117985 0.0879202965 0.5871511660)
( 0.1050944223 0.2293349302 0.7697857718)
( 0.4109123060 0.2271809763 0.1046809735)
)
)
((( 0.3365033030 0.0377335154 0.5021399957)
( 0.2165287553 0.8404934930 0.1422418790)
( 0.1760422979 0.5967302286 0.2237289721)
)
(( 0.0767149821 0.0901472688 0.7550549318)
( 0.4889149419 0.1562611781 0.2741934416)
( 0.3178268964 0.7467584411 0.1946735452)
)
)
)
(((( 0.6937985034 0.1953704807 0.6637553544)
( 0.3434506095 0.8089902415 0.0850192013)
( 0.0921301738 0.1740405517 0.6505090420)
)
(( 0.3123518754 0.2320074646 0.6380040023)
( 0.6016696105 0.3403563174 0.1339943195)
( 0.1494812552 0.0935681005 0.7042492865)
)
)
((( 0.0608464048 0.5049822350 0.1009267187)
( 0.2045868212 0.7559247309 0.4264448967)
( 0.5795386864 0.0771649382 0.1075632496)
)
(( 0.5510237799 0.2406978169 0.1786331982)
( 0.7946476943 0.1620106839 0.0525451435)
( 0.3890757796 0.6450947411 0.0555241464)
)
)
)
)
((((( 0.2063182074 0.3023465587 0.4174037773)
( 0.2822503446 0.3028883322 0.4206808558)
( 0.6311607907 0.1432295973 0.3354443928)
)
(( 0.5331345921 0.4532002835 0.0413051898)
( 0.4024426754 0.2673406026 0.2896290454)
( 0.3759502404 0.2719126417 0.4012711701)
)
)
((( 0.5489530418 0.0895143859 0.1427372868)
( 0.4600748435 0.1322668979 0.3378235662)
( 0.3621435215 0.3227402707 0.3288050016)
)
(( 0.0985719066 0.7531814512 0.2933289057)
( 0.4412047313 0.1422242065 0.4581606660)
( 0.5302539906 0.0286603431 0.5925665470)
)
)
)
(((( 0.2461837689 0.3761748555 0.5369987363)
( 0.5793200729 0.3605166617 0.0988562225)
( 0.4115332009 0.5389329983 0.0440767438)
)
(( 0.6817364195 0.0165465377 0.3129889264)
( 0.1583047660 0.5478440256 0.0987198818)
( 0.2588571754 0.0695597842 0.7509948275)
)
)
((( 0.0651123809 0.7470401978 0.2590829300)
( 0.2331057152 0.1128284623 0.5529805846)
( 0.2791834767 0.0428476656 0.5353310602)
)
(( 0.3534267208 0.4761867133 0.1956667716)
( 0.0121802222 0.6823531597 0.5296405080)
( 0.4985888226 0.0411092193 0.3340788029)
)
)
)
(((( 0.1231823702 0.4213867922 0.1054543944)
( 0.0935079705 0.0192065621 0.6947651614)
( 0.7144224177 0.1117382946 0.2676901254)
)
(( 0.2964257223 0.4694542321 0.0448763824)
( 0.2323908689 0.4488573165 0.2124879846)
( 0.0373743781 0.5006117360 0.2523786752)
)
)
((( 0.3383922592 0.3487064162 0.2950855381)
( 0.3221741598 0.1380734373 0.3694376860)
( 0.4100772055 0.4350231123 0.0773066058)
)
(( 0.1693436252 0.5264390378 0.2543284075)
( 0.0245800364 0.5978574843 0.4395622046)
( 0.0479281965 0.0312728847 0.7807807315)
)
)
)
)
((((( 0.1711599282 0.2792517998 0.4604628258)
( 0.5812240512 0.1523884113 0.2491324078)
( 0.1707305562 0.0973131953 0.4669053402)
)
(( 0.1783738688 0.4470072487 0.4697317130)
( 0.4092839316 0.5334644386 0.2194423550)
( 0.3130965723 0.4153554605 0.0536305235)
)
)
((( 0.1835155642 0.5897232522 0.3553263822)
( 0.4261962817 0.7472696037 0.0513873523)
( 0.2021215747 0.0892453673 0.6544773133)
)
(( 0.1017212931 0.2157143162 0.5568869749)
( 0.0715330348 0.4606195209 0.4090669637)
( 0.0906286628 0.4814125471 0.2382128922)
)
)
)
(((( 0.3234505042 0.4787954670 0.0962756883)
( 0.2660340041 0.2465595918 0.6275691495)
( 0.3336858220 0.1366424338 0.3853584168)
)
(( 0.1014517819 0.8955331658 0.0998599076)
( 0.7366008117 0.2228210442 0.1314943464)
( 0.3302305186 0.7032592394 0.1443241990)
)
)
((( 0.5983843161 0.2152262868 0.2387770743)
( 0.5503655295 0.0466780446 0.3047775364)
( 0.5447742254 0.3604221058 0.2409399677)
)
(( 0.5698582971 0.4336660179 0.0492782967)
( 0.4989048359 0.1613856622 0.1961660504)
( 0.1835842810 0.2121323395 0.4712476518)
)
)
)
(((( 0.1830191264 0.3832427271 0.2307902512)
( 0.5630414199 0.1718031964 0.2202156373)
( 0.1934474086 0.7142211537 0.0818008326)
)
(( 0.3912224023 0.2985383033 0.3171196153)
( 0.1659395206 0.2107863661 0.6535176959)
( 0.8131443667 0.4058201635 0.0433720383)
)
)
((( 0.6007613360 0.1463113488 0.6039877431)
( 0.4732390190 0.1060018318 0.2041174173)
( 0.0103841081 0.4878119495 0.8151301446)
)
(( 0.2796325948 0.2328631452 0.5670383942)
( 0.1807722693 0.2401318318 0.5078926518)
( 0.5629960239 0.3236323742 0.1636951221)))))); 
}

