net { }

node node0 { 
 states = ( "state0" "state1" ); 
}

node node1 { 
 states = ( "state0" "state1" "state2" ); 
}

node node2 { 
 states = ( "state0" "state1" ); 
}

node node3 { 
 states = ( "state0" "state1" "state2" ); 
}

node node4 { 
 states = ( "state0" "state1" ); 
}

node node5 { 
 states = ( "state0" "state1" "state2" ); 
}

node node6 { 
 states = ( "state0" "state1" "state2" ); 
}

node node7 { 
 states = ( "state0" "state1" "state2" ); 
}

node node8 { 
 states = ( "state0" "state1" ); 
}

node node9 { 
 states = ( "state0" "state1" ); 
}

potential ( node0 | node3 node7 ) { 
 data = ((( 0.2188564000 0.7811436000)
( 0.0944570164 0.9055429836)
( 0.9176362633 0.0823637367)
)
(( 0.8307201502 0.1692798498)
( 0.1148979089 0.8851020911)
( 0.2158951000 0.7841049000)
)
(( 0.6767407903 0.3232592097)
( 0.5395271432 0.4604728568)
( 0.5678967546 0.4321032454))); 
}

potential ( node1 | node2 node5 node7 ) { 
 data = (((( 0.2630118613 0.0482262614 0.6887618773)
( 0.1835388118 0.4474266545 0.3690345337)
( 0.5251171390 0.3615143855 0.1133684755)
)
(( 0.0314929342 0.5437351033 0.4247719625)
( 0.8598441785 0.1012218125 0.0389340090)
( 0.4102095261 0.0896225910 0.5001678830)
)
(( 0.0971053519 0.7204490144 0.1824456336)
( 0.5896289288 0.0290690419 0.3813020292)
( 0.5858662141 0.1071759786 0.3069578074)
)
)
((( 0.3335310700 0.3099501907 0.3565187393)
( 0.1186118600 0.5224215400 0.3589666000)
( 0.2061219355 0.0423574811 0.7515205835)
)
(( 0.2386550452 0.0982324680 0.6631124867)
( 0.1108345900 0.4476151800 0.4415502300)
( 0.7367669565 0.2101974876 0.0530355559)
)
(( 0.3876618439 0.3398600234 0.2724781327)
( 0.1109765256 0.3897767719 0.4992467025)
( 0.0542704778 0.5496695787 0.3960599435)))); 
}

potential ( node2 | node3 node4 ) { 
 data = ((( 0.1605916852 0.8394083148)
( 0.7591585500 0.2408414500)
)
(( 0.9569449048 0.0430550952)
( 0.3856067700 0.6143932300)
)
(( 0.2957770023 0.7042229977)
( 0.7540250000 0.2459750000))); 
}

potential ( node3 ) { 
 data = (  0.4528749792 0.3440702690 0.2030547517); 
}

potential ( node4 | node7 ) { 
 data = (( 0.0485605048 0.9514394952)
( 0.1959318098 0.8040681902)
( 0.8353888400 0.1646111600)); 
}

potential ( node5 | node7 ) { 
 data = (( 0.2356832894 0.3098065124 0.4545101982)
( 0.1922295596 0.6742716737 0.1334987667)
( 0.1766183661 0.7966041825 0.0267774514)); 
}

potential ( node6 | node0 node1 node3 node7 node9 ) { 
 data = (((((( 0.3693728040 0.5865703214 0.0309565540)
( 0.4388723546 0.7648119525 0.1285239606)
)
(( 0.3645309280 0.0617699265 0.5397367188)
( 0.2539162468 0.3086547165 0.4388311820)
)
(( 0.0292011078 0.4160439009 0.5794753256)
( 0.8752245561 0.5000205456 0.0238230517)
)
)
((( 0.2754724402 0.3659614619 0.4145481340)
( 0.4040779916 0.3138498534 0.3161038228)
)
(( 0.0589962350 0.5119909020 0.1046281324)
( 0.2171614905 0.4367988477 0.4244063817)
)
(( 0.4813306225 0.1649552659 0.3584728625)
( 0.2307818081 0.4443277626 0.1915397730)
)
)
((( 0.0925653987 0.3837988295 0.6896191603)
( 0.2624214716 0.2026083869 0.4695926401)
)
(( 0.1536825283 0.4698194871 0.4102105782)
( 0.4537628181 0.0493273981 0.4080777349)
)
(( 0.3787081935 0.4160057210 0.1077734588)
( 0.1189417005 0.2226290336 0.5449301158)
)
)
)
(((( 0.5559185431 0.0585692928 0.1956766949)
( 0.3631849348 0.1243116098 0.3204538732)
)
(( 0.1002046115 0.4609801432 0.4130554560)
( 0.4204431002 0.2112723892 0.4448022387)
)
(( 0.5420958368 0.3654659426 0.0526783095)
( 0.0841609102 0.3718512505 0.3687422167)
)
)
((( 0.2513984622 0.2567743463 0.4724172404)
( 0.4022642837 0.2620687034 0.4060124662)
)
(( 0.9172540122 0.2533115371 0.1034522866)
( 0.2263513194 0.0458871218 0.5264365349)
)
(( 0.0474769903 0.6624360597 0.2796948108)
( 0.4070155246 0.2428916685 0.4538445091)
)
)
((( 0.7757394266 0.0973933484 0.1125047035)
( 0.3325385051 0.5525024583 0.2612476976)
)
(( 0.6075413599 0.2526152649 0.0220806394)
( 0.1930073354 0.0402026112 0.5826772988)
)
(( 0.3976732739 0.2299870971 0.4517192013)
( 0.2171954314 0.7016960839 0.2010789525)
)
)
)
(((( 0.1626646814 0.2411022778 0.6149344536)
( 0.1438255241 0.0409814687 0.5884074543)
)
(( 0.8833995594 0.0300427546 0.2102750087)
( 0.3556243793 0.2290708132 0.3621446624)
)
(( 0.4743578007 0.2597108104 0.1951573909)
( 0.1531329547 0.2557083885 0.8322951664)
)
)
((( 0.3424294525 0.5279364330 0.2803873546)
( 0.3874106225 0.2402148182 0.3234313096)
)
(( 0.3639805878 0.2950938715 0.3133377894)
( 0.1348381731 0.3854348842 0.4584399049)
)
(( 0.3051577895 0.3109259169 0.3801489583)
( 0.3450822632 0.1640658537 0.4677690207)
)
)
((( 0.2510027326 0.4046357857 0.3322112915)
( 0.3242354049 0.2357273420 0.4438883591)
)
(( 0.1809302401 0.2012230988 0.5011969532)
( 0.0514877428 0.0628268912 0.6958131564)
)
(( 0.6213870959 0.1402296152 0.4818309079)
( 0.0369708609 0.8270795864 0.0750741289)
)
)
)
)
((((( 0.0747086529 0.3548603859 0.7733667510)
( 0.1979427106 0.1108764377 0.5510221662)
)
(( 0.5352644605 0.4772499303 0.0472078253)
( 0.3256406530 0.4800728942 0.1163665794)
)
(( 0.4287030555 0.2184901566 0.3678463649)
( 0.0406145338 0.1281282039 0.6074347315)
)
)
((( 0.4731290976 0.3772641918 0.1130346257)
( 0.1936577247 0.4240814432 0.2778837110)
)
(( 0.0237497528 0.2346975609 0.7919195810)
( 0.5564871901 0.5173140305 0.0491570834)
)
(( 0.4711923872 0.1726086744 0.3618323267)
( 0.3622026672 0.3127805689 0.3546157179)
)
)
((( 0.1316951747 0.5188078220 0.1978761362)
( 0.4050400233 0.2448891548 0.2691596623)
)
(( 0.2387761118 0.2775652480 0.5677087824)
( 0.3532298465 0.9104699907 0.0092449664)
)
(( 0.2236185326 0.3540071818 0.4405073399)
( 0.6638628681 0.0756748826 0.2539909318)
)
)
)
(((( 0.3549752442 0.4634392358 0.1174305621)
( 0.6916326352 0.0956718068 0.3402465927)
)
(( 0.1113154319 0.3320889003 0.7077941244)
( 0.2081691924 0.5292949051 0.3618477033)
)
(( 0.4987850719 0.1083608623 0.4590173218)
( 0.3753148448 0.3973427161 0.0850150853)
)
)
((( 0.0618399258 0.2116330533 0.6740364487)
( 0.2177571649 0.2794111374 0.5768637975)
)
(( 0.2547113339 0.4888438522 0.2775823616)
( 0.5508116198 0.2625384734 0.2049775054)
)
(( 0.3255008181 0.0856567155 0.5684736315)
( 0.2282491139 0.6863289009 0.1150102202)
)
)
((( 0.2068679102 0.2090005427 0.5187589997)
( 0.1056150723 0.6349446745 0.3935420521)
)
(( 0.3544730845 0.3746147587 0.3021749262)
( 0.4458185021 0.3406649947 0.2907214670)
)
(( 0.2826270545 0.4306946153 0.1532887998)
( 0.3122398901 0.0700466604 0.5789272768)
)
)
)
(((( 0.4823600744 0.2954584864 0.2676349843)
( 0.1645418407 0.8633467245 0.0713459530)
)
(( 0.0052850087 0.6378683451 0.0819308668)
( 0.4362064282 0.2416342817 0.2760076344)
)
(( 0.0268571275 0.6319283273 0.3458252873)
( 0.4715522005 0.3469488953 0.0826897483)
)
)
((( 0.5957306217 0.2604305137 0.0455761967)
( 0.3948322125 0.4803740444 0.0997048929)
)
(( 0.3813080783 0.2160622763 0.4090798490)
( 0.3143502070 0.3520266425 0.3365825897)
)
(( 0.3693413924 0.6034173676 0.0513774102)
( 0.4266686229 0.1496052454 0.4172207591)
)
)
((( 0.5421293572 0.3863636716 0.1490297088)
( 0.5701495228 0.1293279836 0.1625695887)
)
(( 0.4645966754 0.4241621425 0.1966281206)
( 0.5026937551 0.5965081141 0.0134653766)
)
(( 0.0959858496 0.4290757695 0.3648802922)
( 0.6507892490 0.1028737532 0.3459985943)))))); 
}

potential ( node7 ) { 
 data = (  0.2094306621 0.3291665333 0.4614028046); 
}

potential ( node8 | node2 node3 node5 node7 ) { 
 data = ((((( 0.5731949287 0.4044706054)
( 0.5095506692 0.4968183174)
( 0.1752176873 0.5768162039)
)
(( 0.2868040596 0.6424938195)
( 0.5188370738 0.4821794019)
( 0.3846721956 0.7523222921)
)
(( 0.6561907936 0.3326485655)
( 0.6234918389 0.0623418779)
( 0.4813075121 0.5337482778)
)
)
((( 0.4763462943 0.5080416590)
( 0.3766493471 0.5596729324)
( 0.4938812343 0.5051892739)
)
(( 0.0246193990 0.6423479513)
( 0.5625758987 0.3839163676)
( 0.5040473150 0.4994249508)
)
(( 0.3942674818 0.6230218697)
( 0.2471116977 0.5723194961)
( 0.7535574500 0.0979735198)
)
)
((( 0.5992036556 0.2268039597)
( 0.6938563115 0.2609885630)
( 0.5891828839 0.4929363595)
)
(( 0.7751423833 0.2893827917)
( 0.5365109484 0.2531069907)
( 0.3110893963 0.8733067150)
)
(( 0.2259790279 0.6517502848)
( 0.9716998485 0.0136657111)
( 0.6067606865 0.4907596488)
)
)
)
(((( 0.4268050713 0.5955293946)
( 0.4904493308 0.5031816826)
( 0.8247823127 0.4231837961)
)
(( 0.7131959404 0.3575061805)
( 0.4811629262 0.5178205981)
( 0.6153278044 0.2476777079)
)
(( 0.3438092064 0.6673514345)
( 0.3765081611 0.9376581221)
( 0.5186924879 0.4662517222)
)
)
((( 0.5236537057 0.4919583410)
( 0.6233506529 0.4403270676)
( 0.5061187657 0.4948107261)
)
(( 0.9753806010 0.3576520487)
( 0.4374241013 0.6160836324)
( 0.4959526850 0.5005750492)
)
(( 0.6057325182 0.3769781303)
( 0.7528883023 0.4276805039)
( 0.2464425500 0.9020264802)
)
)
((( 0.4007963444 0.7731960403)
( 0.3061436885 0.7390114370)
( 0.4108171161 0.5070636405)
)
(( 0.2248576167 0.7106172083)
( 0.4634890516 0.7468930093)
( 0.6889106037 0.1266932850)
)
(( 0.7740209721 0.3482497152)
( 0.0283001515 0.9863342889)
( 0.3932393135 0.5092403512))))); 
}

potential ( node9 | node0 node1 node2 node8 ) { 
 data = ((((( 0.5149831840 0.4652799315)
( 0.1083137344 0.7068580863)
)
(( 0.0749137222 0.5505983046)
( 0.5552294407 0.3769177063)
)
)
((( 0.7742349677 0.3257683072)
( 0.3869973690 0.5294991079)
)
(( 0.6678819428 0.2174267513)
( 0.4456006163 0.6492860016)
)
)
((( 0.6379398360 0.1621602903)
( 0.1559935053 0.7723093479)
)
(( 0.0550418599 0.9172331966)
( 0.5056978930 0.4807787875)
)
)
)
(((( 0.4850168160 0.5347200685)
( 0.8916862656 0.2931419137)
)
(( 0.9250862778 0.4494016954)
( 0.4447705593 0.6230822937)
)
)
((( 0.2257650323 0.6742316928)
( 0.6130026310 0.4705008921)
)
(( 0.3321180572 0.7825732487)
( 0.5543993837 0.3507139984)
)
)
((( 0.3620601640 0.8378397097)
( 0.8440064947 0.2276906521)
)
(( 0.9449581401 0.0827668034)
( 0.4943021070 0.5192212125))))); 
}

