net { }

node node0 { 
 states = ( "state0" "state1" ); 
}

node node1 { 
 states = ( "state0" "state1" "state2" ); 
}

node node2 { 
 states = ( "state0" "state1" ); 
}

node node3 { 
 states = ( "state0" "state1" ); 
}

node node4 { 
 states = ( "state0" "state1" "state2" ); 
}

node node5 { 
 states = ( "state0" "state1" "state2" ); 
}

node node6 { 
 states = ( "state0" "state1" "state2" ); 
}

node node7 { 
 states = ( "state0" "state1" ); 
}

node node8 { 
 states = ( "state0" "state1" ); 
}

node node9 { 
 states = ( "state0" "state1" "state2" ); 
}

potential ( node0 ) { 
 data = (  0.9829794423 0.0170205577); 
}

potential ( node1 | node4 node5 node8 ) { 
 data = (((( 0.5118509039 0.4161780125 0.0719710835)
( 0.2573992223 0.5893059223 0.1532948554)
)
(( 0.3912035827 0.5547464039 0.0540500134)
( 0.0192439228 0.9671068377 0.0136492395)
)
(( 0.6447353974 0.0769228337 0.2783417689)
( 0.2128948957 0.4823435104 0.3047615939)
)
)
((( 0.8428184882 0.1324360981 0.0247454137)
( 0.2760366993 0.1951633637 0.5287999370)
)
(( 0.0269419672 0.6331532879 0.3399047450)
( 0.4979895651 0.2508661524 0.2511442824)
)
(( 0.0522432302 0.9129694216 0.0347873482)
( 0.3023980058 0.3056435755 0.3919584186)
)
)
((( 0.0901708066 0.8691422670 0.0406869265)
( 0.5425733837 0.2424787227 0.2149478936)
)
(( 0.2253396782 0.7483159240 0.0263443978)
( 0.2283660477 0.2841258972 0.4875080551)
)
(( 0.3500095105 0.1331786240 0.5168118655)
( 0.3144076486 0.4863623214 0.1992300301)))); 
}

potential ( node2 ) { 
 data = (  0.0633710881 0.9366289119); 
}

potential ( node3 | node5 node7 node9 ) { 
 data = (((( 0.9871653088 0.0128346912)
( 0.5692130772 0.4307869228)
( 0.6720443602 0.3279556398)
)
(( 0.1659847333 0.8340152667)
( 0.0842174158 0.9157825842)
( 0.1787665836 0.8212334164)
)
)
((( 0.1200898648 0.8799101352)
( 0.4856905794 0.5143094206)
( 0.6097637583 0.3902362417)
)
(( 0.1193485140 0.8806514860)
( 0.4868374897 0.5131625103)
( 0.9836178311 0.0163821689)
)
)
((( 0.7622668766 0.2377331234)
( 0.4873533103 0.5126466897)
( 0.8953800373 0.1046199627)
)
(( 0.4003587640 0.5996412360)
( 0.0373323039 0.9626676961)
( 0.1218617512 0.8781382488)))); 
}

potential ( node4 | node0 node3 node7 ) { 
 data = (((( 0.8383543096 0.1045568090 0.3742309711)
( 0.2634253401 0.4363592409 0.3385391039)
)
(( 0.0181032275 0.5127036849 0.6537906544)
( 0.4737885318 0.0412114954 0.2904494643)
)
)
((( 0.1435424629 0.4248546619 0.1999685519)
( 0.2627861281 0.5246990081 0.4149320204)
)
(( 0.4705885291 0.1130653441 0.1462407937)
( 0.0389417510 0.6202494007 0.2946185153)))); 
}

potential ( node5 | node0 node2 ) { 
 data = ((( 0.2456959461 0.1106613358 0.5663137081)
( 0.6097234603 0.3952115861 0.0495735357)
)
(( 0.1445805935 0.7042456935 0.3168663099)
( 0.1850929707 0.0384747058 0.6335601544))); 
}

potential ( node6 | node1 node4 node7 node8 node9 ) { 
 data = (((((( 0.2483612209 0.8830110119 0.0332847646)
( 0.1660873834 0.1675395781 0.7932487660)
( 0.3263572918 0.6386055640 0.2143803009)
)
(( 0.1180911224 0.3319218789 0.5558110242)
( 0.2228672106 0.0947035036 0.7068154913)
( 0.5730592884 0.1091445784 0.1169957269)
)
)
((( 0.4844355764 0.0899085405 0.2966982445)
( 0.7020074811 0.0781506617 0.0221301297)
( 0.3806541846 0.1562501832 0.5257752287)
)
(( 0.5429201512 0.4664469563 0.1706145222)
( 0.4918324317 0.2328697957 0.0552926531)
( 0.3549432574 0.3313775165 0.3222234043)
)
)
)
(((( 0.4340445544 0.0407152172 0.3795743991)
( 0.3112960225 0.4849941650 0.0713706616)
( 0.6830987307 0.5666945274 0.0507525362)
)
(( 0.3217583607 0.3331175620 0.3715426947)
( 0.0700053759 0.3044174819 0.6609094481)
( 0.2016164073 0.2356772532 0.6864707059)
)
)
((( 0.3055606609 0.4705254135 0.1826242047)
( 0.2023261996 0.4645047791 0.3769269075)
( 0.6716402868 0.2229674065 0.2571668888)
)
(( 0.4348946859 0.1013753287 0.3565663369)
( 0.4592163202 0.1093257042 0.3678715725)
( 0.0839887452 0.5866500273 0.0509616583)
)
)
)
(((( 0.5983451390 0.0235033874 0.2303328372)
( 0.8887600961 0.1068445058 0.0899199028)
( 0.0637093053 0.5094882359 0.2303585049)
)
(( 0.3377347938 0.5299099175 0.1309992283)
( 0.1204921106 0.3558203992 0.3885013885)
( 0.3332957943 0.4660025686 0.1022858267)
)
)
((( 0.7914276571 0.1651783457 0.3272746317)
( 0.1500972246 0.1542685347 0.6468963786)
( 0.3447824169 0.0303044250 0.5644747952)
)
(( 0.6320385974 0.1106361815 0.2815780465)
( 0.4241483352 0.4252738045 0.1627506142)
( 0.5262618851 0.2498672022 0.0662548714)
)
)
)
)
((((( 0.1868239707 0.0154682646 0.8646884810)
( 0.3288037416 0.4654989127 0.0516196061)
( 0.4696856363 0.0568399700 0.4033083462)
)
(( 0.4876378310 0.0562024384 0.3709116796)
( 0.3447733614 0.5049829269 0.1067995874)
( 0.1310610654 0.7534994046 0.3004844206)
)
)
((( 0.0866644664 0.5526129819 0.5608340190)
( 0.0153942450 0.8230427714 0.3179306036)
( 0.5839674074 0.2985615509 0.2531437119)
)
(( 0.3807744854 0.4871642005 0.2486794030)
( 0.1008756760 0.4712055501 0.7898387013)
( 0.4418115176 0.5339693080 0.2198855449)
)
)
)
(((( 0.5450911103 0.1336623254 0.1973933079)
( 0.3340804816 0.2446879259 0.5138834409)
( 0.0161520425 0.2472994482 0.5236503857)
)
(( 0.2699520487 0.3527294391 0.3635803519)
( 0.6363233796 0.2665668645 0.0180251135)
( 0.3371240587 0.4769989582 0.1664950999)
)
)
((( 0.6408632285 0.1786186591 0.4177538596)
( 0.2006413420 0.4937247406 0.3417241459)
( 0.3075087383 0.3815817312 0.2653374087)
)
(( 0.5408313951 0.0313302373 0.3127147149)
( 0.1715192391 0.3581864696 0.4524061600)
( 0.7075768310 0.3185761995 0.0412059429)
)
)
)
(((( 0.0294873252 0.5522891065 0.5501748355)
( 0.0900753899 0.3942746893 0.4675312579)
( 0.1873664402 0.4819515807 0.2145806074)
)
(( 0.3443804882 0.2611796214 0.3811259019)
( 0.7630183590 0.1919502637 0.3477315403)
( 0.4921441352 0.1498841993 0.4764400147)
)
)
((( 0.1123919356 0.3836915314 0.3955517563)
( 0.5039029150 0.2829594123 0.2970415123)
( 0.1651413045 0.6932238259 0.1611754594)
)
(( 0.1365772562 0.6540583448 0.0532178906)
( 0.1997281061 0.1379327832 0.6442912250)
( 0.1689121690 0.0179223561 0.8904867032)
)
)
)
)
((((( 0.5648148085 0.1015207234 0.1020267544)
( 0.5051088750 0.3669615092 0.1551316279)
( 0.2039570718 0.3045544661 0.3823113529)
)
(( 0.3942710466 0.6118756828 0.0732772962)
( 0.4323594281 0.4003135696 0.1863849213)
( 0.2958796462 0.1373560169 0.5825198525)
)
)
((( 0.4288999573 0.3574784775 0.1424677365)
( 0.2825982739 0.0988065669 0.6599392667)
( 0.0353784079 0.5451882659 0.2210810594)
)
(( 0.0763053633 0.0463888432 0.5807060748)
( 0.4072918923 0.2959246542 0.1548686455)
( 0.2032452250 0.1346531756 0.4578910508)
)
)
)
(((( 0.0208643352 0.8256224575 0.4230322929)
( 0.3546234959 0.2703179091 0.4147458974)
( 0.3007492268 0.1860060245 0.4255970781)
)
(( 0.4082895906 0.3141529989 0.2648769533)
( 0.2936712446 0.4290156535 0.3210654384)
( 0.4612595340 0.2873237887 0.1470341942)
)
)
((( 0.0535761107 0.3508559274 0.3996219357)
( 0.5970324584 0.0417704803 0.2813489466)
( 0.0208509748 0.3954508623 0.4774957025)
)
(( 0.0242739190 0.8672944340 0.3307189482)
( 0.3692644408 0.5324878262 0.1797222676)
( 0.2084344239 0.0947737731 0.9078323988)
)
)
)
(((( 0.3721675358 0.4242075060 0.2194923272)
( 0.0211645140 0.4988808049 0.4425488393)
( 0.7489242545 0.0085601833 0.5550608876)
)
(( 0.3178847180 0.2089104611 0.4878748698)
( 0.1164895304 0.4522293372 0.2637670713)
( 0.1745600705 0.3841132320 0.4212741586)
)
)
((( 0.0961804073 0.4511301230 0.2771736120)
( 0.3459998603 0.5627720530 0.0560621091)
( 0.4900762786 0.2764717491 0.2743497454)
)
(( 0.2313841464 0.2353054737 0.6652040630)
( 0.3761235587 0.4367934123 0.1929581608)
( 0.3048259459 0.7322104417 0.0432584254)))))); 
}

potential ( node7 | node0 node5 ) { 
 data = ((( 0.2354096552 0.7113536258)
( 0.1549724410 0.7120569706)
( 0.3883794310 0.6019480142)
)
(( 0.7645903448 0.2886463742)
( 0.8450275590 0.2879430294)
( 0.6116205690 0.3980519858))); 
}

potential ( node8 | node3 node7 ) { 
 data = ((( 0.1991509528 0.7771573856)
( 0.4423197779 0.8600568362)
)
(( 0.8008490472 0.2228426144)
( 0.5576802221 0.1399431638))); 
}

potential ( node9 | node0 ) { 
 data = (( 0.3681948557 0.4259387576 0.0438658216)
( 0.2058663867 0.6848975343 0.2712366441)); 
}

