net { }

node node0 { 
 states = ( "state0" "state1" "state2" ); 
}

node node1 { 
 states = ( "state0" "state1" "state2" ); 
}

node node2 { 
 states = ( "state0" "state1" ); 
}

node node3 { 
 states = ( "state0" "state1" ); 
}

node node4 { 
 states = ( "state0" "state1" ); 
}

potential ( node0 | node1 node2 node4 ) { 
 data = (((( 0.4809611556 0.1511105855 0.3679282590)
( 0.0602341046 0.4369951407 0.5027707548)
)
(( 0.5104837898 0.4755970795 0.0139191307)
( 0.5127393344 0.3632566118 0.1240040538)
)
)
((( 0.6976372209 0.1084209399 0.1939418391)
( 0.7670551707 0.1892834351 0.0436613942)
)
(( 0.0650942107 0.0701478807 0.8647579086)
( 0.3278760000 0.1584415000 0.5136825000)
)
)
((( 0.0907644291 0.6761968932 0.2330386777)
( 0.1596113128 0.4857649589 0.3546237284)
)
(( 0.1379751886 0.5350132546 0.3270115567)
( 0.1220839851 0.4478804321 0.4300355828)))); 
}

potential ( node1 | node3 ) { 
 data = (( 0.0911197182 0.2666954523 0.6421848295)
( 0.0129533163 0.8399879502 0.1470587335)); 
}

potential ( node2 | node1 node3 ) { 
 data = ((( 0.3703198596 0.5354505686)
( 0.1584942879 0.5166133182)
)
(( 0.6296801404 0.6271959663)
( 0.8415057121 0.8862155629)
)
(( 0.4645494314 0.3728040337)
( 0.4833866818 0.1137844371))); 
}

potential ( node3 ) { 
 data = (  0.5140842743 0.4859157257); 
}

potential ( node4 | node3 ) { 
 data = (( 0.5426821763 0.4631821780)
( 0.4573178237 0.5368178220)); 
}

