net { }

node CBODD_12_00 { 
 states = ( "15_MG_L" "20_MG_L" "25_MG_L" "30_MG_L" ); 
}

node CBODD_12_15 { 
 states = ( "15_MG_L" "20_MG_L" "25_MG_L" "30_MG_L" ); 
}

node CBODD_12_30 { 
 states = ( "15_MG_L" "20_MG_L" "25_MG_L" "30_MG_L" ); 
}

node CBODD_12_45 { 
 states = ( "15_MG_L" "20_MG_L" "25_MG_L" "30_MG_L" ); 
}

node CBODN_12_00 { 
 states = ( "5_MG_L" "10_MG_L" "15_MG_L" "20_MG_L" ); 
}

node CBODN_12_15 { 
 states = ( "5_MG_L" "10_MG_L" "15_MG_L" "20_MG_L" ); 
}

node CBODN_12_30 { 
 states = ( "5_MG_L" "10_MG_L" "15_MG_L" "20_MG_L" ); 
}

node CBODN_12_45 { 
 states = ( "5_MG_L" "10_MG_L" "15_MG_L" "20_MG_L" ); 
}

node CKND_12_00 { 
 states = ( "2_MG_L" "4_MG_L" "6_MG_L" ); 
}

node CKND_12_15 { 
 states = ( "2_MG_L" "4_MG_L" "6_MG_L" ); 
}

node CKND_12_30 { 
 states = ( "2_MG_L" "4_MG_L" "6_MG_L" ); 
}

node CKND_12_45 { 
 states = ( "2_MG_L" "4_MG_L" "6_MG_L" ); 
}

node CKNI_12_00 { 
 states = ( "20_MG_L" "30_MG_L" "40_MG_L" ); 
}

node CKNI_12_15 { 
 states = ( "20_MG_L" "30_MG_L" "40_MG_L" ); 
}

node CKNI_12_30 { 
 states = ( "20_MG_L" "30_MG_L" "40_MG_L" ); 
}

node CKNI_12_45 { 
 states = ( "20_MG_L" "30_MG_L" "40_MG_L" ); 
}

node CKNN_12_00 { 
 states = ( "0_5_MG_L" "1_MG_L" "2_MG_L" ); 
}

node CKNN_12_15 { 
 states = ( "0_5_MG_L" "1_MG_L" "2_MG_L" ); 
}

node CKNN_12_30 { 
 states = ( "0_5_MG_L" "1_MG_L" "2_MG_L" ); 
}

node CKNN_12_45 { 
 states = ( "0_5_MG_L" "1_MG_L" "2_MG_L" ); 
}

node CNOD_12_00 { 
 states = ( "0_5_MG_L" "1_MG_L" "2_MG_L" "4_MG_L" ); 
}

node CNOD_12_15 { 
 states = ( "0_5_MG_L" "1_MG_L" "2_MG_L" "4_MG_L" ); 
}

node CNOD_12_30 { 
 states = ( "0_5_MG_L" "1_MG_L" "2_MG_L" "4_MG_L" ); 
}

node CNOD_12_45 { 
 states = ( "0_5_MG_L" "1_MG_L" "2_MG_L" "4_MG_L" ); 
}

node CNON_12_00 { 
 states = ( "2_MG_L" "4_MG_L" "6_MG_L" "10_MG_L" ); 
}

node CNON_12_15 { 
 states = ( "2_MG_L" "4_MG_L" "6_MG_L" "10_MG_L" ); 
}

node CNON_12_30 { 
 states = ( "2_MG_L" "4_MG_L" "6_MG_L" "10_MG_L" ); 
}

node CNON_12_45 { 
 states = ( "2_MG_L" "4_MG_L" "6_MG_L" "10_MG_L" ); 
}

node C_NI_12_00 { 
 states = ( "3" "4" "5" "6" ); 
}

node C_NI_12_15 { 
 states = ( "3" "4" "5" "6" ); 
}

node C_NI_12_30 { 
 states = ( "3" "4" "5" "6" ); 
}

node C_NI_12_45 { 
 states = ( "3" "4" "5" "6" ); 
}

potential ( CBODD_12_00 ) { 
 data = (  0.0559566787 0.9025270758 0.0216606498 0.0198555957); 
}

potential ( CBODD_12_15 | CBODD_12_00 CBODN_12_00 CKNI_12_00 CNOD_12_00 C_NI_12_00 ) { 
 data = (((((( 0.7853608733 0.0689999169 0.0262077400 0.0630848491)
( 0.8845643521 0.0579964851 0.0519549137 0.0040695900)
( 0.8263144569 0.0188662213 0.0290314067 0.0240017456)
( 0.9441841922 0.0461997019 0.0188747079 0.0717515235)
)
(( 0.8438818565 0.0276538805 0.0056211355 0.0535569927)
( 0.8685833406 0.0009337068 0.0509208181 0.0543598846)
( 0.8755058948 0.0657118787 0.0470843897 0.0551350341)
( 0.8993651979 0.0326610744 0.0723011718 0.0230648584)
)
(( 0.7855459544 0.0672078205 0.0037358737 0.0387680379)
( 0.7804573480 0.0287281274 0.0505552793 0.0748531363)
( 0.8399832003 0.0568422839 0.0008743552 0.0156233726)
( 0.8329351536 0.0210712705 0.0035727045 0.0080572062)
)
(( 0.7662835249 0.0526843954 0.0792693434 0.0847457627)
( 0.7991688644 0.0524567232 0.0644318677 0.0530152419)
( 0.8485362749 0.0265533723 0.0079463182 0.0571994280)
( 0.8687367678 0.0131147541 0.0774677218 0.0424882885)
)
)
((( 0.9015858632 0.0621276596 0.0378954790 0.0632254412)
( 0.8959614111 0.0457982098 0.0467448581 0.0409197194)
( 0.8056774425 0.0859689723 0.0251821207 0.0786713287)
( 0.9025526957 0.1367292225 0.0091583478 0.0164033497)
)
(( 0.9204712813 0.0295395308 0.0090301607 0.0425652667)
( 0.8869453139 0.0321729958 0.0477666974 0.0239486541)
( 0.9224415794 0.0758148748 0.0476148488 0.0321248279)
( 0.8680131987 0.1140608786 0.0492831541 0.0311804009)
)
(( 0.8558712770 0.0409459347 0.0686615241 0.0497306258)
( 0.8972426471 0.0216265334 0.0803693570 0.0160176194)
( 0.8021769178 0.0647677794 0.0129569644 0.0398332561)
( 0.8783649053 0.1011474713 0.0027685493 0.0453350258)
)
(( 0.8799718409 0.0559958649 0.0323257033 0.0921616086)
( 0.8299342660 0.0139834407 0.0561247216 0.0862325305)
( 0.9305003971 0.0552816901 0.0512820513 0.0092927207)
( 0.8411497731 0.0991112308 0.0179581575 0.0263133164)
)
)
((( 0.7998817867 0.0462402387 0.0700328549 0.0742846662)
( 0.7999637944 0.0975077620 0.0369669101 0.0283587380)
( 0.8542122253 0.1586474795 0.0339449541 0.0034812881)
( 0.8336638026 0.2168137648 0.0574121680 0.0665391969)
)
(( 0.8724868683 0.0319483240 0.0080263979 0.0682945084)
( 0.8514523607 0.0889461525 0.0275898896 0.0683745889)
( 0.8419569156 0.1377800236 0.0737913486 0.0367317685)
( 0.8744201833 0.1851761252 0.0324232082 0.0096432015)
)
(( 0.8850407978 0.0218248510 0.0665767740 0.0800452020)
( 0.8612814948 0.0765386639 0.0775590216 0.0827331127)
( 0.8533105596 0.1374373005 0.0594981461 0.0422119038)
( 0.8891151844 0.1805309735 0.0841335939 0.0601443464)
)
(( 0.8883276204 0.0130921619 0.0533096402 0.0806380927)
( 0.8253157753 0.0688478698 0.0083163925 0.0355007474)
( 0.8265561765 0.1299817185 0.0406504065 0.0749197289)
( 0.8584242948 0.1823581560 0.0853064067 0.0601745911)
)
)
)
(((( 0.8392782207 0.0111420613 0.0177999288 0.0744121441)
( 0.8853422552 0.0180203483 0.0521055779 0.0665606994)
( 0.8976594333 0.0458779490 0.0409346751 0.0476022567)
( 0.9006492229 0.0725896620 0.0591613015 0.0303839425)
)
(( 0.8289811821 0.0521091811 0.0185955902 0.0363489499)
( 0.9242987182 0.0129990715 0.0134240200 0.0210610771)
( 0.9279522250 0.0317818687 0.0752244601 0E-10)
( 0.8542086925 0.0604560721 0.0625330280 0.0171330668)
)
(( 0.8596234849 0.0570826381 0.0257684521 0.0235432607)
( 0.9161704077 0.0727303842 0.0552862125 0.0328017193)
( 0.9514619883 0.0218448830 0.0330262472 0.0239486541)
( 0.8693051081 0.0476313079 0.0162645703 0.0328312090)
)
(( 0.8255593164 0.0453831384 0.0055427252 0.0755419312)
( 0.8543357540 0.0574907000 0.0304189119 0.0822114891)
( 0.8749111585 0.0138307552 0.0612329334 0.0723309866)
( 0.8585712999 0.0401988515 0.0095602294 0.0717881783)
)
)
((( 0.8485595983 0.0331920267 0.0471142521 0.0610761028)
( 0.8568220101 0.0685788576 0.0425004427 0.0561543338)
( 0.8749873979 0.1156945174 0.0446070122 0.0822078685)
( 0.8686857990 0.1497874469 0.0843989770 0.0043103448)
)
(( 0.8697930544 0.0178633069 0.0433095732 0.0050813008)
( 0.8534261634 0.0600315956 0.0803525143 0.0147987372)
( 0.8796019900 0.0963935516 0.0027782923 0.0009992006)
( 0.8462161068 0.1461497231 0.0670679278 0.0640492431)
)
(( 0.8395531861 0.0328557087 0.0173405129 0.0198609732)
( 0.7940311055 0.0501264451 0.0056619798 0.0452614077)
( 0.9237820579 0.0917668002 0.0351957765 0.0669987975)
( 0.7912978664 0.1208985158 0.0340700620 0.0307823856)
)
(( 0.8477449983 0.0742372328 0.0018439978 0.0655021834)
( 0.8608978412 0.0402678801 0.0453119554 0.0650276145)
( 0.8855633803 0.0866935484 0.0379791556 0.0374598644)
( 0.8241737125 0.1222699914 0.0749128920 0.0822863210)
)
)
((( 0.8649159267 0.0722169932 0.0348089968 0.0102411321)
( 0.8435798436 0.1249471995 0.0676216745 0.0729246163)
( 0.8401875133 0.1819746923 0.0320651703 0.0262553331)
( 0.8201560909 0.2358239684 0.0406173842 0.0638147010)
)
(( 0.8653167379 0.0632513409 0.0819389339 0.0462160601)
( 0.8985612255 0.1146557719 0.0102611940 0.0278624293)
( 0.8188479544 0.1688266805 0.0405734379 0.0150137626)
( 0.8586654310 0.2147005144 0.0111627907 0.0328839198)
)
(( 0.8574670903 0.0501264451 0.0581934722 0.0194552529)
( 0.8142329020 0.1084282460 0.0226121563 0.0827412537)
( 0.8380317786 0.1586266841 0.0297109931 0.0607954066)
( 0.8177874187 0.2243297465 0.0124710493 0.0345152181)
)
(( 0.8524282265 0.0400273107 0.0017705382 0.0058846607)
( 0.8024535450 0.0960083486 0.0161914185 0.0502197112)
( 0.8074479523 0.1438497808 0.0249353528 0.0328246984)
( 0.8081814328 0.2078809107 0.0751010976 0.0556601457)
)
)
)
(((( 0.9281448479 0.0190207499 0.0613242728 0.0074262678)
( 0.8366157379 0.0450542874 0.0074446306 0.0347151317)
( 0.8849797023 0.0680261143 0.0172664486 0.0285404980)
( 0.8615714564 0.1034083830 0.0664277598 0.0694444444)
)
(( 0.8343954385 0.0159292035 0.0728075916 0.0437110698)
( 0.8539266088 0.0321447392 0.0229418512 0.0902269921)
( 0.8225322267 0.0630182421 0.0723374586 0.0740673007)
( 0.9404326471 0.0836676697 0.0799932637 0.0768952415)
)
(( 0.8435259384 0.0606743521 0.0462195866 0.0896039100)
( 0.8578207381 0.0213548677 0.0074101519 0.0578952283)
( 0.8288723124 0.0476313079 0.0827912478 0.0104702075)
( 0.8307090198 0.0776276009 0.0390659682 0.0457183049)
)
(( 0.8528784648 0.0557588430 0.0681289465 0.0457665904)
( 0.8264518295 0.0134038801 0.0692603677 0.0173664317)
( 0.9824760334 0.0419987463 0.0027609056 0.0864779874)
( 0.9173553719 0.0719970725 0.0137842308 0.0282265914)
)
)
((( 0.8350367581 0.0585374179 0.0730752501 0.0332973362)
( 0.8524305556 0.0989188729 0.0680568886 0.0744330968)
( 0.7850168982 0.1425959781 0.0091332542 0.0027417291)
( 0.8736982052 0.1835547452 0.0420998368 0.0226390686)
)
(( 0.8425967096 0.0461619625 0.0723158074 0.0648328239)
( 0.8234056181 0.0922240649 0.0437598460 0.0227811190)
( 0.8931153725 0.1306617127 0.0552200173 0.0102583232)
( 0.8332642916 0.1716444132 0.0762718967 0.0443226690)
)
(( 0.8760375810 0.0356981880 0.0438792872 0.0465251527)
( 0.8564323919 0.0789616498 0.0278451451 0.0448391067)
( 0.8230425269 0.1111568886 0.0009384384 0.0645617759)
( 0.8600736454 0.1536842105 0.0043717758 0.0487888385)
)
(( 0.9039932823 0.0277703366 0.0716285197 0.0209434527)
( 0.8656393874 0.0699493378 0.0092319055 0.0557931932)
( 0.8568206335 0.1065822785 0.0244388125 0.0255802937)
( 0.7655453619 0.1433753813 0.0617601647 0.0582349081)
)
)
((( 0.9085115132 0.1047129855 0.0639733590 0.0441563322)
( 0.8039792218 0.1537605887 0.0793522267 0.0107047279)
( 0.7819797479 0.2162354406 0.0112254443 0.0073740270)
( 0.8441495191 0.2707450565 0.0044251704 0.0602322206)
)
(( 0.9355442354 0.0867117117 0.0666324962 0.0634683592)
( 0.8394219189 0.1369725385 0.0699062234 0.0847457627)
( 0.9104723760 0.2036040882 0.0289330922 0.0724250972)
( 0.8178464376 0.2521693856 0.0201754386 0.0606681374)
)
(( 0.8548281352 0.0760718020 0.0599322505 0.0161377084)
( 0.9444012009 0.1407753386 0.0435255713 0.0451693852)
( 0.7751035707 0.1888056413 0.0770041339 0.0230769231)
( 0.8022881262 0.2443466784 0.0702235163 0.0663324335)
)
(( 0.9003224861 0.0672592086 0.0653196307 0.0036218761)
( 0.7885640743 0.1253968254 0.0534759358 0.0046502976)
( 0.8119186344 0.1773275862 0.0441252812 0.0474282443)
( 0.8240866035 0.2316695353 0.0676239773 0.0408676517)
)
)
)
(((( 0.8263979761 0.0444463186 0.0578642820 0.0494578657)
( 0.9105011933 0.0713018501 0.0799727752 0.0700913850)
( 0.8965307365 0.1038705640 0.0664277598 0.0277161863)
( 0.8893643670 0.1287542439 0.0594024293 0.0070590311)
)
(( 0.9261680446 0.0327194708 0.0533665392 0.0573985796)
( 0.9101211411 0.0594059406 0.0583864119 0.0355222734)
( 0.8458501739 0.0925651933 0.0737538149 0.0781635675)
( 0.9243956980 0.1177258122 0.0725524476 0.0393873085)
)
(( 0.8898814950 0.0210899424 0.0640078779 0.0235319285)
( 0.7933641327 0.0471457696 0.0746697300 0.0826960697)
( 0.8429851298 0.0767405063 0.0838059765 0.0105728566)
( 0.8382492864 0.1012335177 0.0567388268 0.0798971439)
)
(( 0.8835456666 0.0138939671 0.0532417347 0.0496573642)
( 0.8229859252 0.0401988515 0.0403572042 0.0734123474)
( 0.9128108590 0.0698872214 0.0821074239 0.0879898403)
( 0.8540706605 0.0948535098 0.0569112702 0.0479888317)
)
)
((( 0.8395073248 0.0825039072 0.0549306827 0.0477582846)
( 0.9035097020 0.1277533040 0E-10 0.0564579171)
( 0.8358441558 0.1742890256 0.0221627112 0.0685945904)
( 0.7967993262 0.2032255369 0.0219378428 0.0619144603)
)
(( 0.8289283128 0.0736271424 0.0657382579 0.0792261631)
( 0.8314337707 0.1122171176 0.0166821131 0.0286353468)
( 0.9286926995 0.1616534582 0.0617597293 0.0741289844)
( 0.8793946979 0.2028765410 0.0255241568 0.0237549843)
)
(( 0.9206821337 0.0634441088 0.0697775840 0.0257756563)
( 0.7958446251 0.1036134088 0.0172790105 0.0407016184)
( 0.8167385339 0.1438066465 0.0156155114 0.0379609544)
( 0.8733051789 0.1942857143 0.0313108234 0.0076857387)
)
(( 0.9141630901 0.0529957806 0.0112306972 0.0404538727)
( 0.7931526391 0.0974490246 0.0108528534 0.0678510847)
( 0.9092872570 0.1348237904 0.0184535892 0.0066019051)
( 0.8367217950 0.1711314476 0.0498338870 0.0176694054)
)
)
((( 0.8402524406 0.1281962382 0.0573888092 0.0107594369)
( 0.8419816357 0.1932888361 0.0778614067 0.0745214936)
( 0.8631115343 0.2420533592 0.0864704341 0.0527417979)
( 0.7984552257 0.3205456095 0.0368813792 0.0310467179)
)
(( 0.8671461392 0.1156611715 0.0797918474 0.0853712761)
( 0.8419840938 0.1708938254 0.0725677158 0.0371361948)
( 0.8252059675 0.2216892239 0.0018001800 0.0008289125)
( 0.8257584988 0.2787097890 0.0763546798 0.0566936276)
)
(( 0.8740079365 0.1051701281 0.0632801664 0.0744948319)
( 0.9478260870 0.1727401798 0.0539984572 0.0319709669)
( 0.8177874187 0.2199177543 0.0346209913 0.0723485451)
( 0.8561686299 0.2617114832 0.0138683432 0.0365491510)
)
(( 0.8395620989 0.0914740244 0.0752515431 0.0409716125)
( 0.8667506033 0.1497975709 0.0045754026 0.0266735502)
( 0.8719414590 0.2062554301 0.0075493064 0.0679694138)
( 0.8442217124 0.2563032368 0.0525087515 0.0524626106)
)
)
)
)
((((( 0.0709180869 0.7562557154 0.0611513934 0.0662390916)
( 0.0517470146 0.8273286467 0.0281789362 0.0498524774)
( 0.0226179424 0.8784979238 0.0519046362 0.0054549422)
( 0.0239210605 0.8722714123 0.0422433939 0.0029486927)
)
(( 0.0919831224 0.7948260482 0.0140528387 0.0889248181)
( 0.0671414922 0.8615312792 0.0611049818 0.0122032394)
( 0.0400316734 0.8041280539 0.0054328142 0.0925147183)
( 0.0128827483 0.8800642513 0.0581733566 0.0710397638)
)
(( 0.0974076984 0.7645980623 0.0177454002 0.1066121042)
( 0.0720362132 0.7901976147 0.0812199569 0.0862232329)
( 0.0508189836 0.7970645627 0.0830637405 0.0624934903)
( 0.0245733788 0.8598494909 0.0607359771 0.0251787693)
)
(( 0.1026819923 0.7242013715 0.0172324660 0.0121065375)
( 0.0817549748 0.7848400070 0.0226382238 0.0463883366)
( 0.0598218074 0.8227119844 0.0662193184 0.0252997470)
( 0.0342272406 0.8293356342 0.0491461891 0.0130733195)
)
)
((( 0.0386044404 0.8148085106 0.0414206398 0.0858733604)
( 0.0085122482 0.8646910576 0.0654428013 0.0477396726)
( 0.0716396525 0.8120339419 0.0473064124 0.0463286713)
( 0.0307170851 0.8318387723 0.0917666453 0.0733834067)
)
(( 0.0565169367 0.8154648132 0.0460538198 0.0785092698)
( 0.0127048426 0.8669127989 0.0754211011 0.0287383849)
( 0.0423045931 0.8699801909 0.0298033683 0.0330426801)
( 0.0619938006 0.7942753373 0.0730286738 0.0596881960)
)
(( 0.0653885656 0.7717890867 0.0432313300 0.0248653129)
( 0.0264705882 0.8825079509 0.0239398085 0.0750825908)
( 0.0725639254 0.8900580552 0.0173993522 0.0444650301)
( 0.0418743769 0.7934551636 0.0613695090 0.0607489346)
)
(( 0.0760295671 0.7870434183 0.0515463918 0.0688884751)
( 0.0326984662 0.8842686293 0.0097995546 0.0406383190)
( 0.0039714059 0.8725352113 0.0053981107 0.0402684564)
( 0.0794251135 0.8470239698 0.0507317949 0.0676628136)
)
)
((( 0.0802161614 0.8730367641 0.0268026976 0.0596111519)
( 0.0696958726 0.7816564572 0.0617617888 0.0850762141)
( 0.0083307300 0.7663105853 0.1211009174 0.0513489991)
( 0.0077109495 0.7172149416 0.1675235647 0.0543021033)
)
(( 0.0124977359 0.8608589385 0.0588602515 0.0551969314)
( 0.0851546977 0.8444108761 0.0442328231 0.0406785529)
( 0.0130863700 0.7468418393 0.0960135708 0.0089589679)
( 0.0644869329 0.6713144162 0.1507679181 0.0008766547)
)
(( 0.0261106074 0.8906006419 0.0505646385 0.0508522460)
( 0.0339718788 0.8463089602 0.0295747038 0E-10)
( 0.0472219431 0.8224350205 0.0846770717 0.0726044745)
( 0.0079203440 0.7065318163 0.1374182035 0.0481154771)
)
(( 0.0349990980 0.8279069767 0.0151043980 0.0858970988)
( 0.0179163307 0.8532061937 0.0228238773 0.0840807175)
( 0.0510695702 0.8334552102 0.0796747967 0.0098109169)
( 0.0399870312 0.7520390071 0.1320508357 0.0067802356)
)
)
)
(((( 0.0490977759 0.8741875580 0.0525097900 0.0436551245)
( 0.0242336558 0.8391101914 0.0555223371 0.0317901848)
( 0.0236899460 0.8661965700 0.0682244585 0.0643511989)
( 0.0649222900 0.8285026232 0.0319297025 0.0276217660)
)
(( 0.0640802454 0.7631927213 0.0549012663 0.0504846527)
( 0.0422626788 0.8862581244 0.0501163415 0.0792297663)
( 0.0132922366 0.8563737409 0.0784599207 0.0494386652)
( 0.0247570145 0.8679512109 0.0158534437 0.0694841043)
)
(( 0.0793432477 0.7971370862 0.0101233204 0.0882872278)
( 0.0554283097 0.8038846582 0.0535850982 0.0056554688)
( 0.0280701754 0.8914180817 0.0564922649 0.0459814158)
( 0.0524620341 0.8556470992 0.0370470769 0.0366937041)
)
(( 0.0844547181 0.7834700646 0.0258660508 0.0503612875)
( 0.0602306707 0.7858471424 0.0582304884 0.0565203987)
( 0.0344705046 0.8746132848 0.0711625983 0.0511138972)
( 0.0459418070 0.8511185395 0.0790891709 0.0522095842)
)
)
((( 0.0096026782 0.8921259132 0.0063423032 0.0106640814)
( 0.0159086655 0.7827252783 0.0324951302 0.0733629200)
( 0.0816614578 0.8019793309 0.0752074226 0.0520090596)
( 0.0921317378 0.7235142119 0.1125319693 0.0594827586)
)
(( 0.0262900790 0.8374180186 0.0126319589 0.0609756098)
( 0.0540491022 0.8618571178 0.0155520995 0.0434096290)
( 0.0417910448 0.7764666777 0.0607519911 0.0109912070)
( 0.0394577094 0.7922101126 0.0973344798 0.0499085011)
)
(( 0.0377422358 0.8719540020 0.0264670987 0.0943396226)
( 0.0731399748 0.9004696532 0.0056619798 0.0415665989)
( 0.0628283036 0.8450378282 0.0445226573 0.0532554544)
( 0.0689462406 0.7234657040 0.0857866690 0.0726806327)
)
(( 0.0462868769 0.7712514276 0.0313479624 0.0021834061)
( 0.0731641225 0.8525800635 0.0409550366 0.0774986638)
( 0.0635758998 0.8792155425 0.0358593888 0.0793792365)
( 0.0826287471 0.7840068788 0.0768292683 0.0097327907)
)
)
((( 0.0094464387 0.8242491657 0.0327561585 0.0232753003)
( 0.0752400752 0.7601588240 0.0891538393 0.0330704655)
( 0.0266354144 0.7198932599 0.1418667129 0.0566130620)
( 0.0203596878 0.6629493008 0.2050726600 0.0055148507)
)
(( 0.0557310050 0.9080821158 0.0155252717 0.0510302330)
( 0.0165614326 0.7984179416 0.0760261194 0.0835872878)
( 0.0987176878 0.7387247278 0.1307366333 0.0700642255)
( 0.0335959222 0.6567114651 0.1938604651 0.0131535679)
)
(( 0.0108942351 0.9004696532 0.0581934722 0.0522219947)
( 0.0896487985 0.8505694761 0.0601483357 0.0305782894)
( 0.0738083034 0.7561929596 0.1170433060 0.0270201807)
( 0.0629067245 0.7355462338 0.1722786389 0.0682459994)
)
(( 0.0769161971 0.8474865580 0.0699362606 0.0529619459)
( 0.0757712430 0.8205061310 0.0508230638 0.0313873195)
( 0.0869905190 0.7279344859 0.1108237902 0.0186302342)
( 0.0953793981 0.7150612960 0.1513575968 0.0171891626)
)
)
)
(((( 0.0254052517 0.8856934838 0.0729261623 0.0021217908)
( 0.0750684448 0.8506454646 0.0204727340 0.0091892996)
( 0E-10 0.7764165391 0.0333515085 0.0216514123)
( 0.0750633652 0.8289579069 0.0598723888 0.0164473684)
)
(( 0.0381519369 0.8446902655 0.0711714660 0.0021855535)
( 0.0122318738 0.8661514140 0.0538251125 0.0417893437)
( 0.0706339396 0.9047355814 0.0156876416 0.0246891002)
( 0.0334413209 0.7942995654 0.0418491074 0.0009046499)
)
(( 0.0510333193 0.8143364826 0.0401151129 0.0091640362)
( 0.0253075571 0.8714221624 0.0222304557 0.0915118125)
( 0.0842474770 0.8556470992 0.0321027287 0.0809061489)
( 0.0728133248 0.8583496354 0.0308088431 0.0738526464)
)
(( 0.0601279318 0.8098100714 0.0606513792 0.0686498856)
( 0.0325612622 0.8476190476 0.0342026507 0.0837674941)
( 0.0092773941 0.8892271872 0.0322105651 0.0039308176)
( 0.0009957184 0.8922330985 0.0226980334 0.0019466615)
)
)
((( 0.0797920029 0.8355661746 0.0180948238 0.0494960403)
( 0.0607638889 0.7929684175 0.0597679086 0.0597195776)
( 0.0920015021 0.7694785410 0.1060370810 0.0191921038)
( 0.0421005983 0.7261439611 0.1406478220 0.0735769728)
)
(( 0.0613606047 0.8774289985 0.0374340650 0.0148189312)
( 0.0786897246 0.8755297586 0.0434972869 0.0182248952)
( 0.0356282092 0.7985668790 0.0839516825 0.0111908981)
( 0.0704225352 0.7510541110 0.1215321432 0.0717221372)
)
(( 0.0117668521 0.8898404399 0.0179099131 0.0872346612)
( 0.0722529793 0.8731005789 0.0311685979 0.0826446281)
( 0.0019027685 0.7561799604 0.0772334835 0.0353763156)
( 0.0715412941 0.7326315789 0.1136661712 0.0265342806)
)
(( 0.0213659265 0.8724886151 0.0650419891 0.0967388052)
( 0.0582542516 0.8668562794 0.0228028065 0.0399851218)
( 0.0284397372 0.7828691983 0.0654417089 0.0322122217)
( 0.0648688722 0.7255338445 0.1029336078 0.0647965879)
)
)
((( 0.0041118421 0.8394160584 0.0600297958 0.0159714393)
( 0.0833088307 0.7427055703 0.1068825911 0.0205173952)
( 0.1012605910 0.7153018583 0.1828811974 0.0507988529)
( 0.1132351151 0.6542196328 0.2291353217 0.0595065312)
)
(( 0.0187129639 0.8231981982 0.0424568597 0.0018667164)
( 0.0662384585 0.7424648359 0.0965046888 0.0034240712)
( 0.0129579456 0.7381208535 0.1597649186 0.0670885111)
( 0.1106755822 0.6593196807 0.2107017544 0E-10)
)
(( 0.0028097780 0.8411467410 0.0301398419 0.0860677784)
( 0.0055598799 0.8424100887 0.0821963673 0.0777917189)
( 0.0887749063 0.7389158219 0.1310691416 0.0264957265)
( 0.0022214817 0.6817421909 0.1928577546 0.0269957578)
)
(( 0.0420209127 0.8335185027 0.0215119317 0.0796812749)
( 0.0854936569 0.8040564374 0.0786096257 0.0409226190)
( 0.0531534294 0.7312931034 0.1312510815 0.0523346144)
( 0.0868290483 0.6753872633 0.1796627150 0.0440113172)
)
)
)
(((( 0.0863648260 0.8391667369 0.0263019463 0.0342400609)
( 0.0427605410 0.8138041734 0.0312234133 0.0097595599)
( 0.0831811727 0.8326629123 0.0598723888 0.0480413895)
( 0.0553178165 0.7833202751 0.0888376629 0.0626489014)
)
(( 0.0132666795 0.8816377615 0.0160099618 0.0525342932)
( 0.0390777648 0.8528747612 0.0159235669 0.0681643625)
( 0.0563962778 0.8787682634 0.0421329264 0.0748724700)
( 0.0553721648 0.8197965012 0.0712412587 0.0673960613)
)
(( 0.0262534184 0.8606114311 0.0763170852 0.0064177987)
( 0.0663586728 0.8469249066 0.0656437187 0.0720256091)
( 0.0840491364 0.8485407876 0.0293744180 0.0422914264)
( 0.0114176974 0.7941301574 0.0580481844 0.0146937276)
)
(( 0.0348106944 0.8786106033 0.0463718334 0.0794517827)
( 0.0319488818 0.8511185395 0.0592478104 0.0769502919)
( 0.0445853562 0.8660864932 0.0211255559 0.0154208999)
( 0.0364823349 0.8106366526 0.0487194964 0.0532239770)
)
)
((( 0.0727815620 0.7793041046 0.0458627605 0.0038986355)
( 0.0180256601 0.7772307161 0.0892332354 0.0277946669)
( 0.0561038961 0.7597396808 0.1364853634 0.0724920103)
( 0.0800168457 0.6722653965 0.1787020110 0.0016293279)
)
(( 0.0814627082 0.8448758307 0.0292362252 0.0073698756)
( 0.0325639307 0.7814361069 0.0755329008 0.0581655481)
( 0.0158460668 0.7843119597 0.1092216582 0.0354171815)
( 0.0011377859 0.7354832946 0.1610756609 0.0186646305)
)
(( 0.0456077732 0.8718677803 0.0163977322 0.0887828162)
( 0.0731707317 0.8127993034 0.0604765369 0.0038763446)
( 0.0499803998 0.7646957272 0.0989849918 0E-10)
( 0.0633474105 0.7603628118 0.1368367606 0.0426985482)
)
(( 0.0078033554 0.8364556962 0.0074871315 0.0365071534)
( 0.0766761769 0.8328184306 0.0510988514 0.0642799750)
( 0.0647948164 0.7644850243 0.0960509319 0E-10)
( 0.1042873696 0.7057404326 0.1326280818 0.0097181730)
)
)
((( 0.0581796667 0.7799254572 0.0845640982 0.0439343674)
( 0.0950245569 0.7646520984 0.1416212475 0.0486350800)
( 0.0321390311 0.6804613895 0.1984452791 0.0310245870)
( 0.0374125030 0.6718764801 0.2493352775 0.0487876996)
)
(( 0.0559384677 0.8054191512 0.0706851691 0.0071142730)
( 0.0188363332 0.7477698093 0.1223525441 0.0155453839)
( 0.0879536851 0.6780880589 0.1875787579 0.0373010610)
( 0.0024369441 0.6296264268 0.2232348112 0.0181419608)
)
(( 0.0724206349 0.8250110473 0.0576456311 0.0074494832)
( 0.0034782609 0.8234737340 0.1114253878 0.0345632075)
( 0.1030368764 0.7210799213 0.1762026239 0.0182858960)
( 0.0024798512 0.6283612380 0.2375184911 0.0441635575)
)
(( 0.0632314081 0.7817549093 0.0477720470 0.0068286021)
( 0.0272794040 0.7580325609 0.1098096633 0.0533471003)
( 0.0457351932 0.7094700261 0.1730678494 0.0571560979)
( 0.0869460210 0.6414821124 0.2057842974 0.0109623365)
)
)
)
)
((((( 0.0659703134 0.1132263696 0.7546081943 0.0094627274)
( 0.0477664750 0.0918277680 0.7885699190 0.0803744023)
( 0.0725799646 0.0656255642 0.8157825284 0.0076369190)
( 0.0029901326 0.0359428421 0.8619449937 0.0265382347)
)
(( 0.0362869198 0.1400535236 0.7897695334 0.0525464834)
( 0.0495092504 0.1169934641 0.7423406603 0.0144220102)
( 0.0774238958 0.0787700084 0.8208076784 0.0485935894)
( 0.0494772218 0.0551490273 0.7796891881 0.0830334902)
)
(( 0.0424194815 0.1516103692 0.7717381153 0.0161533491)
( 0.0764848201 0.1236180030 0.7110890104 0.0710631040)
( 0.0403191936 0.0934928311 0.7780012241 0.0447870014)
( 0.0784982935 0.0694997787 0.8230618078 0.0866149663)
)
(( 0.0727969349 0.1545408931 0.7023953128 0.0594320933)
( 0.0687285223 0.1338520720 0.7373966043 0.0187762315)
( 0.0721255834 0.1073641352 0.7758255342 0.0043999560)
( 0.0749823571 0.0773080242 0.7583506872 0.0054472165)
)
)
((( 0.0543724513 0.0754042553 0.8032078964 0.0330282155)
( 0.0671521801 0.0356304858 0.8150603434 0.0204598597)
( 0.0394018089 0.0754264164 0.8933357316 0.0340909091)
( 0.0180065671 0.0314320052 0.8661049547 0.0468790469)
)
(( 0.0009204713 0.0950477845 0.8042261152 0.0804010594)
( 0.0589210090 0.0543248945 0.7862230789 0.0929207779)
( 0.0171232877 0.0127858815 0.8692355172 0.0725103258)
( 0.0449955004 0.0250778277 0.8661290323 0.0297550111)
)
(( 0.0316672372 0.1053731094 0.7407815546 0.0694156651)
( 0.0726102941 0.0713312131 0.7878761970 0.0340374412)
( 0.0552868003 0.0279390421 0.8969921333 0.0620657712)
( 0.0299102692 0.0730981725 0.9073458841 0.0152325687)
)
(( 0.0140795495 0.1181943487 0.7538004543 0.0809905046)
( 0.0741614697 0.0824287029 0.8110467706 0.0188323917)
( 0.0575853852 0.0369718310 0.8618983356 0.0113577697)
( 0.0680786687 0.0520693060 0.8927897998 0.0065783291)
)
)
((( 0.0692392130 0.0359743792 0.8291544181 0.0275128393)
( 0.0597393193 0.0528656541 0.8813452349 0.0199397377)
( 0.1030927835 0.0035313852 0.8385321101 0.0748476936)
( 0.0804141881 0.0427921904 0.7287917738 0.1143403442)
)
(( 0.0470929179 0.0539455307 0.8367073932 0.0420993545)
( 0.0189232662 0.0071085836 0.8884834461 0.0640470833)
( 0.0704650695 0.0336870473 0.7928753181 0.0584124709)
( 0.0135761964 0.0774624918 0.7434300341 0.1128254581)
)
(( 0.0516772439 0.0719853278 0.7765885724 0.0461437047)
( 0.0500141549 0.0131509732 0.8395124862 0.0048666537)
( 0.0291369436 0.0227998176 0.8204708114 0.0409455466)
( 0.0463905861 0.0800674252 0.7546528427 0.0898155573)
)
(( 0.0054122316 0.0771748493 0.8088849400 0.0780085897)
( 0.0806234883 0.0228326481 0.8999260765 0.0158819133)
( 0.0809404510 0.0329067642 0.8695573622 0.0333571174)
( 0.0464714147 0.0159574468 0.7826427577 0.0855157217)
)
)
)
(((( 0.0814099874 0.0970287837 0.7969918120 0.0377021530)
( 0.0488290080 0.0626832212 0.7920902024 0.0248360819)
( 0.0549606747 0.0356925220 0.8178406959 0.0819816643)
( 0.0285264608 0.0395630859 0.8620149643 0.0708958659)
)
(( 0.0820691370 0.1036393714 0.7745506066 0.0767366721)
( 0.0083596508 0.0868152275 0.8112582781 0.0371076121)
( 0.0288961664 0.0536644668 0.7588772952 0.0319291379)
( 0.0669356318 0.0265158211 0.8543244671 0.0342661336)
)
(( 0.0103154818 0.1247036094 0.7896189950 0.0931920738)
( 0.0219880898 0.0942928040 0.7568257208 0.0090487501)
( 0.0068226121 0.0720513997 0.8008864940 0.0929207779)
( 0.0055223194 0.0400789564 0.8613897172 0.0560061800)
)
(( 0.0231156609 0.1336184325 0.7823556582 0E-10)
( 0.0580948313 0.1025532634 0.7636885103 0.0082211489)
( 0.0062189055 0.0815286624 0.7533305751 0.0453274183)
( 0.0225204936 0.0495414417 0.8188771076 0.0428864442)
)
)
((( 0.0748832702 0.0512311716 0.8545800489 0.0571982550)
( 0.0467901928 0.0698789307 0.8772799717 0.0135857259)
( 0.0151224922 0.0175162025 0.8578820591 0.0322120627)
( 0.0021179710 0.0508460448 0.7791986360 0.0741379310)
)
(( 0.0870414779 0.0670521229 0.8321754038 0.0436991870)
( 0.0604617076 0.0263296472 0.8380853637 0.0305840568)
( 0.0567164179 0.0589995014 0.9097981108 0.0175859313)
( 0.0313638203 0.0232267286 0.8037833190 0.0542339045)
)
(( 0.0820851316 0.0860637036 0.8265948709 0.0337636544)
( 0.0622110130 0.0421784682 0.8995942248 0.0766672825)
( 0.0010299722 0.0436137072 0.8791025077 0.0609860849)
( 0.0633560048 0.0786201364 0.8312221543 0.0414707140)
)
(( 0.0330620549 0.0859846631 0.8248202102 0.0087336245)
( 0.0307108662 0.0496265133 0.8210177762 0.0614644575)
( 0.0342331768 0.0093475073 0.8742271683 0.0437031752)
( 0.0903151422 0.0412725709 0.8385017422 0.0330914882)
)
)
((( 0.0897411676 0.0504834431 0.8843270261 0.0856531049)
( 0.0128700129 0.0701191180 0.8414449684 0.0460442635)
( 0.0958874920 0.0327106826 0.7645376549 0.0966524450)
( 0.1063228142 0.0780646822 0.7389656106 0.1428346333)
)
(( 0.0770945569 0.0277418162 0.8366396412 0.0134796842)
( 0.0683159093 0.0486787204 0.9016791045 0.0290814105)
( 0.0661510279 0.0397442544 0.8142638175 0.0808240887)
( 0.0810936052 0.0630496101 0.7810232558 0.1318645183)
)
(( 0.0508397640 0.0421784682 0.8039976385 0.0010239607)
( 0.0905730129 0.0072892938 0.8892908828 0.0151092724)
( 0.0041004613 0.0121686223 0.8280363735 0.0678037659)
( 0.0878524946 0.0173262812 0.7626937467 0.1128020082)
)
(( 0.0357749754 0.0493300333 0.8341005666 0.0647312672)
( 0.0460039690 0.0739194713 0.8943959701 0.0600842974)
( 0.0175935881 0.0488046985 0.8596231991 0.0613910575)
( 0.0466299279 0.0061295972 0.7157712305 0.1086191373)
)
)
)
(((( 0.0075836572 0.0661630870 0.7684594348 0.0541056652)
( 0.0618210722 0.0350517227 0.8924250884 0.0224627323)
( 0.0309298280 0.0765696784 0.9003998546 0.0186989470)
( 0.0584909339 0.0035596690 0.8543833581 0.0205592105)
)
(( 0.0578567835 0.0827433628 0.7415739529 0.0142060977)
( 0.0522956923 0.0542771825 0.8278478779 0.0208946719)
( 0.0591559244 0.0276395799 0.8453895764 0.0566934894)
( 0.0104504128 0.0601805416 0.8406028966 0.0578975936)
)
(( 0.0683256010 0.0955187657 0.7759658149 0.0437837287)
( 0.0834797891 0.0704351727 0.8535568729 0.0345503782)
( 0.0078982010 0.0400789564 0.8053560868 0.0466400152)
( 0.0382269955 0.0133380758 0.8745449703 0.0562686830)
)
(( 0.0417910448 0.1056804321 0.7300598205 0.0596955527)
( 0.0822423632 0.0790123457 0.7784523301 0.0183879865)
( 0.0041232863 0.0517596490 0.8671084116 0.0314465409)
( 0.0288758339 0.0238770469 0.8949641610 0.0691064824)
)
)
((( 0.0788954635 0.0214182097 0.8481078730 0.0800935925)
( 0.0597993827 0.0570358389 0.8528924178 0.0194737753)
( 0.0722868945 0.0496213110 0.8492099735 0.0641564613)
( 0.0531797031 0.0408092385 0.7579688977 0.0952457956)
)
(( 0.0586927523 0.0403587444 0.8117236685 0.0796517551)
( 0.0631347790 0.0138197899 0.8737090845 0.0883907418)
( 0.0073352195 0.0371549894 0.8202761001 0.0459759396)
( 0.0341756421 0.0693956430 0.7569357137 0.0780884842)
)
(( 0.0465201131 0.0564319841 0.8394376287 0.0038770961)
( 0.0262738106 0.0135672938 0.8847570287 0.0483558994)
( 0.0903815051 0.0593276203 0.9077515015 0.0289201380)
( 0.0526038927 0.0471578947 0.8041444435 0.0687323461)
)
(( 0.0625116626 0.0658094473 0.7626379055 0.0069811509)
( 0.0140937706 0.0231979380 0.8990952733 0.0437046680)
( 0.0470726684 0.0295358650 0.8856806662 0.0203694931)
( 0.0898897229 0.0527660978 0.7984216847 0.0567585302)
)
)
((( 0.0164473684 0.0495629449 0.8566295680 0.0211386697)
( 0.0323434284 0.0718747326 0.7400809717 0.0767172168)
( 0.0371977681 0.0551258113 0.7956033676 0.1224907825)
( 0.0048703275 0.0679731638 0.6965218161 0.1545718433)
)
(( 0.0197525730 0.0294525295 0.8528105245 0.0429344783)
( 0.0180650341 0.0443737441 0.7969309463 0.0558123609)
( 0.0223819060 0.0439304285 0.7877938517 0.0981169475)
( 0.0138344478 0.0078097883 0.7085964912 0.1514339742)
)
(( 0.0908494896 0.0130707564 0.8555545905 0.0573785189)
( 0.0266874236 0.0046707146 0.7964342513 0.0405687997)
( 0.0651015979 0.0484795064 0.7197860096 0.0957264957)
( 0.1021881595 0.0404751430 0.7060888927 0.1353644427)
)
(( 0.0146584579 0.0223057858 0.8481971782 0.0787758059)
( 0.0854936569 0.0661375661 0.8579322638 0.0347842262)
( 0.0633752428 0.0586206897 0.7779027513 0.0825087906)
( 0.0338294993 0.0438898451 0.6976122892 0.1292046526)
)
)
)
(((( 0.0401291111 0.0345787299 0.8407855515 0.0466045273)
( 0.0397772474 0.0388611979 0.8429470818 0.0807381776)
( 0.0131872591 0.0384374721 0.8543833581 0.0207871397)
( 0.0146122534 0.0443980151 0.8384608565 0.0479131739)
)
(( 0.0173043645 0.0552476310 0.8344747843 0.0223757175)
( 0.0146541618 0.0260552371 0.8581033263 0.0096006144)
( 0.0761349751 0.0101719993 0.8463038318 0.0608853052)
( 0.0202321372 0.0151731524 0.8449300699 0.0292341357)
)
(( 0.0018231541 0.0695613646 0.7561956343 0.0352978928)
( 0.0596388072 0.0396704043 0.7822269632 0.0400142273)
( 0.0212431883 0.0131856540 0.8338271396 0.0461361015)
( 0.0837297812 0.0638026372 0.8582402235 0.0154284140)
)
(( 0.0403732281 0.0819012797 0.7817947617 0.0148972093)
( 0.0664882135 0.0495414417 0.8090331444 0.0592605696)
( 0.0317051422 0.0231773377 0.8329627095 0.0571480406)
( 0.0364823349 0.0489732795 0.8573769078 0.0636942675)
)
)
((( 0.0587851078 0.0592251378 0.8660737641 0.0107212476)
( 0E-10 0.0207307593 0.8421943183 0.0471640754)
( 0.0561038961 0.0169385754 0.8293471235 0.0794294177)
( 0.0442198358 0.0618367176 0.7774223035 0.1217922607)
)
(( 0.0226285301 0.0124169290 0.8526944036 0.0479041916)
( 0.0804520640 0.0697634848 0.8958294717 0.0298881432)
( 0.0294284097 0.0126080692 0.7774111675 0.0667984515)
( 0.0216179315 0.0035733429 0.7942570647 0.1091880886)
)
(( 0.0287527266 0.0273680469 0.8453554296 0.0057279236)
( 0.0858175248 0.0548541576 0.8941433248 0.0162806473)
( 0.0362602901 0.0474751834 0.8116595819 0.0582067968)
( 0.0322293843 0.0390022676 0.7514597614 0.0956447481)
)
(( 0.0497463909 0.0354430380 0.8965839963 0.0256536754)
( 0.0855920114 0.0308941654 0.8992493443 0.0133916615)
( 0.0053995680 0.0477856472 0.8735006459 0.0502687919)
( 0.0452965343 0.0815307820 0.7860639972 0.0891421504)
)
)
((( 0.0709989153 0.0138684233 0.7981264242 0.0486864521)
( 0.0298953662 0.0274298254 0.7632148110 0.0924066520)
( 0.0785620759 0.0493087963 0.7150842868 0.1406189405)
( 0.0663770215 0.0056834328 0.6477399434 0.1809580130)
)
(( 0.0129857157 0.0499824623 0.8383347788 0.0297020898)
( 0.0387191293 0.0498513206 0.7620453970 0.0836859832)
( 0.0033400134 0.0316943635 0.7557155716 0.1329575597)
( 0.0633605459 0.0112417848 0.6371921182 0.1692493764)
)
(( 0.0248015873 0.0309323906 0.8522884882 0.0156439147)
( 0.0359420290 0.0028395646 0.7882917631 0.0693856390)
( 0.0325379610 0.0491686036 0.7800655977 0.1143266020)
( 0.0582765034 0.0431253171 0.7328957101 0.1578466459)
)
(( 0.0924877312 0.0480570056 0.8407034751 0.0185347771)
( 0.0755429651 0.0525454389 0.8517569546 0.0595422475)
( 0.0194374571 0.0443092963 0.8184391809 0.1024947864)
( 0.0024151673 0.0408858603 0.6700283381 0.1535510140)
)
)
)
)
((((( 0.0777507265 0.0615179982 0.1580326723 0.8612133319)
( 0.0159221583 0.0228471002 0.1312962311 0.8657035304)
( 0.0784876361 0.0370102907 0.1032814287 0.9629063932)
( 0.0289046148 0.0455860437 0.0769369045 0.8987615490)
)
(( 0.0278481013 0.0374665477 0.1905564924 0.8049717057)
( 0.0147659168 0.0205415500 0.1456335398 0.9190148658)
( 0.0070385360 0.0513900590 0.1266751177 0.8037566583)
( 0.0382748320 0.0321256470 0.0898362836 0.8228618876)
)
(( 0.0746268657 0.0165837479 0.2067806108 0.8384665087)
( 0.0710216187 0.0574562549 0.1571357534 0.7678605268)
( 0.0688786224 0.0526003224 0.1380606802 0.8770961358)
( 0.0639931741 0.0495794599 0.1126295105 0.8801490583)
)
(( 0.0582375479 0.0685733400 0.2011028778 0.8437156064)
( 0.0503476385 0.0288511978 0.1755333043 0.8818201900)
( 0.0195163343 0.0433705081 0.1500088292 0.9131008690)
( 0.0220536344 0.0802415876 0.1150354019 0.9389911755)
)
)
((( 0.0054372451 0.0476595745 0.1174759848 0.8178729829)
( 0.0283741606 0.0538802468 0.0727519973 0.8908807482)
( 0.0832810961 0.0265706694 0.0341757352 0.8409090909)
( 0.0487236522 0E-10 0.0329700522 0.8633341967)
)
(( 0.0220913108 0.0599478714 0.1406899043 0.7985244041)
( 0.0414288345 0.0465893108 0.0905891226 0.8543921832)
( 0.0181305399 0.0414190528 0.0533462658 0.8623221661)
( 0.0249975002 0.0665859564 0.0115591398 0.8793763920)
)
(( 0.0470729202 0.0818918693 0.1473255913 0.8559883962)
( 0.0036764706 0.0245343026 0.1078146375 0.8748623486)
( 0.0699723566 0.0172351234 0.0726515502 0.8536359426)
( 0.0498504487 0.0322991925 0.0285160576 0.8786834708)
)
(( 0.0299190426 0.0387663680 0.1623274506 0.7579594117)
( 0.0632057981 0.0193192272 0.1230289532 0.8542967588)
( 0.0079428118 0.0352112676 0.0814215025 0.9390810532)
( 0.0113464448 0.0017954933 0.0385202478 0.8994455408)
)
)
((( 0.0506628388 0.0447486181 0.0740100294 0.8385913426)
( 0.0706010138 0.0679701267 0.0199260662 0.8666253102)
( 0.0343642612 0.0715105500 0.0064220183 0.8703220191)
( 0.0782110597 0.0231791031 0.0462724936 0.7648183556)
)
(( 0.0679224778 0.0532472067 0.0964059574 0.8344092057)
( 0.0444696755 0.0595343878 0.0396938412 0.8268997750)
( 0.0744916449 0.0816910898 0.0373197625 0.8958967927)
( 0.0475166874 0.0660469667 0.0733788396 0.8766546857)
)
(( 0.0371713509 0.0155891793 0.1062700152 0.8229588473)
( 0.0547324715 0.0640014028 0.0533537885 0.9124002336)
( 0.0703305536 0.0173278614 0.0353539709 0.8442380751)
( 0.0565738855 0.0328697851 0.0237953599 0.8019246191)
)
(( 0.0712610500 0.0818260121 0.1227010218 0.7554562188)
( 0.0761444056 0.0551132884 0.0689336537 0.8645366218)
( 0.0414338023 0.0036563071 0.0101174345 0.8819122369)
( 0.0551172593 0.0496453901 0E-10 0.8475294516)
)
)
)
(((( 0.0302140159 0.0176415970 0.1326984692 0.8442305784)
( 0.0415950809 0.0801862390 0.1002818826 0.8768130340)
( 0.0236899460 0.0522329590 0.0730001706 0.8060648801)
( 0.0059020264 0.0593446289 0.0468940317 0.8710984256)
)
(( 0.0248694355 0.0810587262 0.1519525370 0.8364297254)
( 0.0250789523 0.0139275766 0.1252013603 0.8626015445)
( 0.0298593720 0.0581799236 0.0874383240 0.9186321969)
( 0.0540986613 0.0450768959 0.0672890611 0.8791166952)
)
(( 0.0507177856 0.0210766664 0.1744892325 0.7949774377)
( 0.0064131929 0.0290921537 0.1343029684 0.9524940618)
( 0.0136452242 0.0146856356 0.1095949939 0.8371491522)
( 0.0727105384 0.0566426365 0.0852986356 0.8744689069)
)
(( 0.0668703046 0.0375283645 0.1862355658 0.8740967813)
( 0.0273387441 0.0541088941 0.1476620893 0.8530469633)
( 0.0843994314 0.0300272975 0.1142738933 0.8312276979)
( 0.0729663994 0.0591411674 0.0924734921 0.8331157934)
)
)
((( 0.0669544534 0.0234508884 0.0919633959 0.8710615608)
( 0.0804791316 0.0788169335 0.0477244555 0.8568970202)
( 0.0282286521 0.0648099492 0.0223035061 0.8335710091)
( 0.0370644922 0.0758522964 0.0238704177 0.8620689655)
)
(( 0.0168753886 0.0776665516 0.1118830642 0.8902439024)
( 0.0320630267 0.0517816395 0.0660100225 0.9112075770)
( 0.0218905473 0.0681402692 0.0266716059 0.9704236611)
( 0.0829623634 0.0384134358 0.0318142734 0.8318083514)
)
(( 0.0406194466 0.0091265857 0.1295975176 0.8520357498)
( 0.0706179067 0.0072254335 0.0890818156 0.8365047109)
( 0.0123596663 0.0195816644 0.0411790585 0.8187596633)
( 0.0763998882 0.0770156438 0.0489211147 0.8550662676)
)
(( 0.0729060699 0.0685266765 0.1419878296 0.9235807860)
( 0.0352271701 0.0575255431 0.0927152318 0.7960092642)
( 0.0166275430 0.0247434018 0.0519342872 0.8394577239)
( 0.0028823982 0.0524505589 0.0097560976 0.8748894001)
)
)
((( 0.0358964670 0.0530503979 0.0481078186 0.8808304627)
( 0.0683100683 0.0447748585 0.0017795178 0.8479606546)
( 0.0372895802 0.0654213652 0.0615304619 0.8204791598)
( 0.0531614071 0.0231620486 0.0153443452 0.7878358150)
)
(( 0.0018577002 0.0009247272 0.0658961532 0.8892740227)
( 0.0165614326 0.0382475661 0.0120335821 0.8594688724)
( 0.0162833299 0.0527043373 0.0144261113 0.8340979231)
( 0.0266450417 0.0655384105 0.0139534884 0.8220979941)
)
(( 0.0807989106 0.0072254335 0.0796154171 0.9272987917)
( 0.0055452865 0.0337129841 0.0279486252 0.8715711845)
( 0.0840594567 0.0730117340 0.0252093275 0.8443806468)
( 0.0314533623 0.0227977385 0.0525565651 0.7844367744)
)
(( 0.0348806010 0.0631560980 0.0941926346 0.8764221263)
( 0.0757712430 0.0095660492 0.0385895475 0.8583086719)
( 0.0879679406 0.0794110348 0.0046176579 0.8871540099)
( 0.0498092412 0.0709281961 0.0577700751 0.8185315544)
)
)
)
(((( 0.0388662432 0.0291226793 0.0972901301 0.9363462763)
( 0.0264947452 0.0692485253 0.0796575470 0.9336328364)
( 0.0840904697 0.0789876683 0.0489821883 0.9311091428)
( 0.0048742445 0.0640740411 0.0193164933 0.8935489766)
)
(( 0.0695958410 0.0566371681 0.1144469895 0.9398972790)
( 0.0815458252 0.0474266643 0.0953851584 0.8470889923)
( 0.0476779092 0.0046065966 0.0665853233 0.8445501097)
( 0.0156756192 0.0618522233 0.0375547322 0.8643025149)
)
(( 0.0371151413 0.0294703996 0.1376994855 0.8574483250)
( 0.0333919156 0.0367877972 0.1168025195 0.8160425810)
( 0.0789820097 0.0566426365 0.0797499366 0.8619836284)
( 0.0582506599 0.0506846879 0.0555802184 0.8241603657)
)
(( 0.0452025586 0.0287506534 0.1411598538 0.8258879713)
( 0.0587445451 0.0599647266 0.1180846516 0.8804780876)
( 0.0041232863 0.0170144175 0.0979201178 0.8781446541)
( 0.0527730758 0.0118927820 0.0685535747 0.9007202647)
)
)
((( 0.0062757755 0.0844781978 0.0607220531 0.8371130310)
( 0.0270061728 0.0510768707 0.0192827851 0.8463735503)
( 0.0506947052 0.0383041699 0.0356196913 0.9139097057)
( 0.0310214935 0.0494920552 0.0592834436 0.8085381630)
)
(( 0.0373499333 0.0360502946 0.0785264591 0.8406964898)
( 0.0347698783 0.0184263866 0.0390337826 0.8706032440)
( 0.0639211988 0.0336164190 0.0405522002 0.9325748391)
( 0.0621375311 0.0079058327 0.0452602464 0.8058667096)
)
(( 0.0656754538 0.0180293879 0.0987731710 0.8623630900)
( 0.0450408182 0.0343704776 0.0562292284 0.8241603657)
( 0.0846731995 0.0733355307 0.0140765766 0.8711417706)
( 0.0157811678 0.0665263158 0.0778176095 0.8559445348)
)
(( 0.0121291286 0.0339316010 0.1006915857 0.8753365912)
( 0.0620125904 0.0399964448 0.0688700148 0.8605170169)
( 0.0676669609 0.0810126582 0.0244388125 0.9218379915)
( 0.0796960430 0.0783246764 0.0368845428 0.8202099738)
)
)
((( 0.0709292763 0.0063080112 0.0193672772 0.9187335588)
( 0.0803685191 0.0316591084 0.0736842105 0.8920606601)
( 0.0795618930 0.0133368898 0.0102899906 0.8193363376)
( 0.0377450384 0.0070621469 0.0699176918 0.7256894049)
)
(( 0.0259902277 0.0606375606 0.0381001196 0.8917304461)
( 0.0762745885 0.0761888814 0.0366581415 0.8560178052)
( 0.0541877724 0.0143446297 0.0235081374 0.7623694442)
( 0.0576435324 0.0807011454 0.0605263158 0.7878978884)
)
(( 0.0515125972 0.0697107006 0.0543733171 0.8404159943)
( 0.0233514956 0.0121438580 0.0778438102 0.8364700962)
( 0.0710199250 0.0237990304 0.0721407149 0.8547008547)
( 0.0933022326 0.0334359877 0.0308298364 0.7713073660)
)
(( 0.0429981433 0.0769165029 0.0649712594 0.8379210431)
( 0.0404486119 0.0044091711 0.0099821747 0.9196428571)
( 0.0715526934 0.0327586207 0.0467208860 0.8177283506)
( 0.0552548489 0.0490533563 0.0551010185 0.7859163785)
)
)
)
(((( 0.0471080869 0.0818082146 0.0750482202 0.8696975461)
( 0.0069610183 0.0760327786 0.0458567296 0.8394108775)
( 0.0071008318 0.0250290516 0.0193164933 0.9034552846)
( 0.0407055631 0.0435274658 0.0132990513 0.8823788935)
)
(( 0.0432609114 0.0303951368 0.0961487148 0.8676914097)
( 0.0361469324 0.0616640611 0.0675866950 0.8867127496)
( 0.0216185732 0.0184945441 0.0378094269 0.7860786572)
( 0E-10 0.0473045341 0.0112762238 0.8639824945)
)
(( 0.0820419325 0.0487372619 0.1034794026 0.9347523799)
( 0.0806383872 0.0662589195 0.0774595881 0.8052640939)
( 0.0517225455 0.0615330520 0.0529924659 0.9009996155)
( 0.0666032350 0.0408336878 0.0269727654 0.8899807145)
)
(( 0.0412704109 0.0255941499 0.1185916702 0.8559936439)
( 0.0785769795 0.0591411674 0.0913618410 0.7903767911)
( 0.0108986426 0.0408489477 0.0638043106 0.8394412192)
( 0.0729646697 0.0455365581 0.0369923256 0.8350929238)
)
)
((( 0.0289260054 0.0789668504 0.0331327927 0.9376218324)
( 0.0784646379 0.0742852207 0.0685724463 0.8685833406)
( 0.0519480519 0.0490327182 0.0120048019 0.7794839816)
( 0.0789639924 0.0626723490 0.0219378428 0.8146639511)
)
(( 0.0669804490 0.0690800979 0.0523311132 0.8654997697)
( 0.0555502347 0.0365832908 0.0119555144 0.8833109620)
( 0.0260328240 0.0414265130 0.0516074450 0.8236553826)
( 0.0978495847 0.0580668215 0.0191431176 0.8483922966)
)
(( 0.0049573666 0.0373200640 0.0684692543 0.8797136038)
( 0.0451671183 0.0287331302 0.0281011277 0.9391413897)
( 0.0970207762 0.0440224428 0.0737399150 0.9038322487)
( 0.0311180262 0.0063492063 0.0803926547 0.8539709650)
)
(( 0.0282871635 0.0751054852 0.0846981750 0.8973852985)
( 0.0445791726 0.0388383794 0.0387989509 0.8544772788)
( 0.0205183585 0.0529055380 0.0119948330 0.9431293030)
( 0.0136943011 0.0415973378 0.0314740339 0.8834702712)
)
)
((( 0.0305689774 0.0780098813 0.0599206684 0.8966197436)
( 0.0330984412 0.0146292402 0.0173025348 0.7844367744)
( 0.0261873586 0.0281764550 0E-10 0.7756146746)
( 0.0977552498 0.0018944776 0.0660433999 0.7392075695)
)
(( 0.0639296774 0.0289372150 0.0111882047 0.8778123610)
( 0.1004604437 0.0314850446 0.0430343431 0.8636324380)
( 0.0835003340 0.0685283536 0.0549054905 0.8289124668)
( 0.1084440112 0.0804219993 0.0632183908 0.7559150352)
)
(( 0.0287698413 0.0388864339 0.0267857143 0.9024117702)
( 0.0127536232 0.0009465215 0.0462843919 0.8640801866)
( 0.0466377440 0.0098337207 0.0091107872 0.7950389569)
( 0.0830750155 0.0668019618 0.0157174556 0.7614406457)
)
(( 0.0047187618 0.0787140608 0.0362729348 0.9336650083)
( 0.0304270276 0.0396244293 0.0338579795 0.8604371020)
( 0.0628858907 0.0399652476 0.0009436633 0.7723797019)
( 0.0664170994 0.0613287905 0.0716786131 0.7830240388)))))); 
}

potential ( CBODD_12_30 | CBODD_12_15 CBODN_12_15 CKNI_12_15 CNOD_12_15 C_NI_12_15 ) { 
 data = (((((( 0.8324315325 0.0797667038 0.0026745119 0.0116884497)
( 0.8528784648 0.0664304694 0.0354030501 0.0834202294)
( 0.8917934238 0.0179429945 0.0586823153 0.0029308324)
( 0.8115308832 0.0466082957 0.0288058659 0.0442137639)
)
(( 0.8333333333 0.0617597293 0.0607353907 0.0507820435)
( 0.8566778035 0.0354545455 0.0499875031 0.0665054414)
( 0.8895941355 0.0146520147 0.0373270211 0.0053242466)
( 0.8960193452 0.0310801630 0.0677220012 0.0392195313)
)
(( 0.8375209380 0.0036774846 0.0692669250 0.0307986406)
( 0.8088651622 0.0753262678 0.0009491268 0.0997557003)
( 0.8550662676 0.0564025734 0.0154869272 0.0876406732)
( 0.9441005803 0.0212975391 0.0504962563 0.0248472927)
)
(( 0.8136696501 0.0641239174 0.0716356814 0.0622542595)
( 0.8114907084 0.0556570859 0.0301783265 0.0905635063)
( 0.8861320337 0.0444140758 0.0069288065 0.0504154607)
( 0.8702721810 0.0139321723 0.0804150454 0.0070714214)
)
)
((( 0.8587829089 0.0482641829 0.0535251317 0.0789696343)
( 0.8329376594 0.0479221606 0.0695594568 0.0496941896)
( 0.8466171074 0.0818976076 0.0082349712 0.0262910798)
( 0.8296173693 0.1247364426 0.0727332837 0.0027667620)
)
(( 0.8877840909 0.0163934426 0.0756952444 0.0707030472)
( 0.8631069701 0.0329255128 0.0182244207 0.0328978287)
( 0.8608761045 0.0765732994 0.0641192271 0.0232018561)
( 0.8688819938 0.1080793183 0.0257116621 0.0099502488)
)
(( 0.8365400703 0.0676209713 0.0292926682 0.0751072961)
( 0.8496083551 0.0204379562 0.0309384668 0.0520389819)
( 0.8813591496 0.0654805576 0.0632411067 0.0151586926)
( 0.8272300469 0.1050772627 0.0208408844 0.0582847627)
)
(( 0.8625150940 0.0208371082 0.0365770670 0.0991442288)
( 0.9005120702 0.0137805984 0.0755040755 0.0723309866)
( 0.9222593978 0.0570390554 0.0401965163 0.0648600622)
( 0.8944299216 0.0927029977 0.0633724416 0.0831847891)
)
)
((( 0.8199601835 0.0458380447 0.0457974138 0.0439602446)
( 0.9103831891 0.1045246020 0.0219760095 0.0133920031)
( 0.8808117685 0.1606328774 0.0129757785 0.0241286863)
( 0.8095849380 0.2095287327 0.0512174643 0.0263917526)
)
(( 0.9288468955 0.0319483240 0.0651116789 0.0807695798)
( 0.8450558738 0.0857461024 0.0520562207 0.0189462288)
( 0.8453608247 0.1461497231 0.0537727667 0.0439676398)
( 0.7760819359 0.1863919895 0E-10 0.0479061700)
)
(( 0.8955963303 0.0207226818 0.0047010154 0.0222469410)
( 0.8307090198 0.0793925064 0.0407692989 0.0785871219)
( 0.8946592226 0.1406439571 0.0309542761 0.0564622850)
( 0.8713683744 0.1937584803 0.0492610837 0.0385852090)
)
(( 0.8369879313 0.0134751773 0.0197171024 0.0464924062)
( 0.8591811993 0.0712152746 0.0359324470 0.0241219606)
( 0.8281521529 0.1183028286 0.0500894454 0.0761512274)
( 0.7577029476 0.1826820604 0.0149142431 0.0407348907)
)
)
)
(((( 0.8295313148 0.0504504505 0.0288058659 0.0927512854)
( 0.9442569197 0.0184824903 0.0641311125 0.0539956803)
( 0.8300184001 0.0452477033 0.0736553614 0.0252934035)
( 0.9346672111 0.0713621375 0.0607955532 0.0675851313)
)
(( 0.8648274669 0.0338248049 0.0510428584 0.0893196503)
( 0.9225848322 0.0121527778 0.0180440274 0.0648903746)
( 0.8968534724 0.0323721918 0.0525735606 0.0402967305)
( 0.8816960061 0.0614334471 0.0567174761 0.0356315696)
)
(( 0.7829014327 0.0569547032 0.0080818966 0.0065189048)
( 0.8302200083 0.0330973614 0.0100027280 0.0941656150)
( 0.8408268734 0.0207046542 0.0733240223 0.0340831629)
( 0.8467055132 0.0472260041 0.0345787299 0.0384393619)
)
(( 0.8088651622 0.0668495029 0.0654735923 0.0417857928)
( 0.8616975442 0.0430570506 0.0099313832 0.0575553605)
( 0.8819631023 0.0133450395 0.0454342984 0.0272070551)
( 0.8076434200 0.0403024835 0.0316077225 0.0495819561)
)
)
((( 0.8795543786 0.0312739016 0.0685694694 0.0202409639)
( 0.8748327919 0.0751090149 0.0807548453 0.0121691512)
( 0.8306057996 0.1207716219 0.0507752289 0.0587650303)
( 0.8428028357 0.1572591231 0.0663900415 0.0071748879)
)
(( 0.8807446713 0.0180659801 0.0809188202 0.0863757792)
( 0.8495349261 0.0612683626 0.0567174761 0.0510115857)
( 0.8641251222 0.0997935306 0.0027782923 0.0423881674)
( 0.7977871042 0.1435843426 0.0053333333 0.0406909151)
)
(( 0.8614222454 0.0468321993 0.0353624653 0.0355086372)
( 0.9574252408 0.0497222720 0.0511807489 0.0917087778)
( 0.9051367444 0.0863845832 0.0179131214 0.0403710703)
( 0.9003498357 0.1217777778 0.0209147949 0.0075152654)
)
(( 0.8119519324 0.0045504186 0.0503210134 0.0465549348)
( 0.8201531710 0.0423017949 0.0458311299 0.0118976800)
( 0.9023320710 0.0846759757 0.0455660708 0.0217133833)
( 0.8528534500 0.1187969925 0.0111731844 0.0298318568)
)
)
((( 0.8496659243 0.0780253305 0.0648564511 0.0832485432)
( 0.8328609129 0.1288664285 0.0147072341 0.0663771204)
( 0.8756384632 0.1813502616 0.0396928121 0.0394030852)
( 0.8479709975 0.2479480473 0.0176432352 0.0449000973)
)
(( 0.9172902718 0.0622723962 0.0723374586 0.0067987568)
( 0.8165741699 0.1168911733 0.0037558685 0.0753025549)
( 0.8636753972 0.1767685906 0.0541170594 0.0284998705)
( 0.7647544366 0.2285411515 0.0588723051 0.0510845646)
)
(( 0.8598088302 0.0467486523 0.0396312570 0.0808457711)
( 0.8180129991 0.1015791720 0.0737184982 0.0197016606)
( 0.8842617631 0.1547265791 0.0651603622 0.0736663159)
( 0.8340707965 0.2205091431 0.0802581499 0.0076804916)
)
(( 0.9361555839 0.0421118793 0.0388644812 0.0056465274)
( 0.9368155013 0.0964276356 0.0552820247 0.0303544326)
( 0.8542032882 0.1581052823 0.0254877834 0.0709219858)
( 0.8365511189 0.2037768240 0.0796878891 0.0189377636)
)
)
)
(((( 0.8634800247 0.0187983450 0.0775259122 0.0652813534)
( 0.9002185688 0.0463215259 0.0626775865 0.0084317032)
( 0.8962411903 0.0702923295 0.0073434918 0.0502991935)
( 0.9198584513 0.1046187089 0.0447187193 0.0625907112)
)
(( 0.9149503494 0.0086505190 0.0385802469 0.0709671549)
( 0.8894017725 0.0329551594 0.0537122065 0.0180741038)
( 0.8365660920 0.0587427001 0.0747566064 0.0571131880)
( 0.7901483888 0.0883183342 0.0336104723 0.0377562028)
)
(( 0.8392782207 0.0411928002 0.0174718267 0.0079357207)
( 0.8654255319 0.0207769533 0.0095935810 0.0355766380)
( 0.9255267026 0.0478778468 0.0704513804 0.0695096750)
( 0.8736479372 0.0782538544 0.0623754657 0.0333857031)
)
(( 0.8186655751 0.0322635422 0.0828586225 0.0753146368)
( 0.8672067629 0.0139066789 0.0727728984 0.0126462219)
( 0.8097018095 0.0393555425 0.0319545535 0.0066755674)
( 0.7852211711 0.0673743686 0.0191921038 0.0501990653)
)
)
((( 0.8357860732 0.0598134101 0.0698384985 0.0057515337)
( 0.8378839590 0.1024962512 0.0777134962 0.0242446848)
( 0.7992735615 0.1519903498 0.0220477996 0.0051715222)
( 0.8446872322 0.1837142609 0.0307584146 0.0323436723)
)
(( 0.9019514517 0.0451690613 0.0717787115 0.0774534807)
( 0.8348640876 0.0866366626 0.0658344733 0.0105323631)
( 0.8023157300 0.1310094022 0.0053428317 0.0146748601)
( 0.8402255639 0.1747138770 0.0229054709 0.0717324214)
)
(( 0.9394502592 0.0340118526 0.0770762969 0.0133101259)
( 0.8299536237 0.0816192969 0.0672239938 0.0284560308)
( 0.9579227107 0.1143608003 0.0465699445 0.0505189676)
( 0.8582677165 0.1640449438 0.0572756703 0.0469163183)
)
(( 0.8858109344 0.0272830950 0.0779264781 0.0173963468)
( 0.8933385048 0.0673167394 0.0419567934 0.0334759159)
( 0.8099564290 0.1160845588 0.0288340241 0.0703159769)
( 0.8368959579 0.1571054296 0.0591360987 0.0657561963)
)
)
((( 0.8459035222 0.0975896531 0.0183806635 0.0702143385)
( 0.9001426534 0.1544212426 0.0603968939 0.0309106099)
( 0.8420115710 0.2061541070 0.0684931507 0.0272545090)
( 0.8105927745 0.2639869169 0.0374031526 0.0630891951)
)
(( 0.8579464201 0.0833194606 0.0378654456 0.0638261170)
( 0.8109365910 0.1443444503 0.0331010453 0.0640288951)
( 0.8646381027 0.2001939351 0.0373831776 0.0659233336)
( 0.8021257350 0.2408819629 0.0619621343 0.0504750594)
)
(( 0.8064858178 0.0751549587 0.0688290459 0.0555840602)
( 0.9003498357 0.1398607889 0.0616236492 0.0115812918)
( 0.8618118008 0.1847347995 0.0580575599 0.0634796238)
( 0.7436425409 0.2422154383 0.0610122884 0.0530759952)
)
(( 0.8813737683 0.0673167394 0.0419567934 0.0114678899)
( 0.8273533951 0.1221649485 0.0667838313 0.0281637251)
( 0.7924773022 0.1732940185 0.0466180709 0.0371361948)
( 0.8185483871 0.2525328330 0.0413441239 0.0095663265)
)
)
)
(((( 0.8648772026 0.0478351638 0.0573280160 0.0176678445)
( 0.9114075254 0.0698849052 0.0408018450 0.0533170177)
( 0.8261357263 0.1056651814 0.0606806789 0.0829362979)
( 0.8641111449 0.1319710895 0.0724224917 0.0650872169)
)
(( 0.8685539127 0.0312126897 0.0582802833 0.0059648076)
( 0.8557780636 0.0584415584 0.0065335076 0.0620304036)
( 0.8418935354 0.0919698640 0.0713921469 0.0500715308)
( 0.8235461531 0.1117417824 0.0765883377 0.0142159040)
)
(( 0.8677333333 0.0213740458 0.0630693763 0.0113325149)
( 0.8645308924 0.0489763502 0.0017782520 0.0740996037)
( 0.8484707632 0.0756761442 0.0450013236 0.0448785639)
( 0.8578383642 0.0979020979 0.0399786780 0.0726222767)
)
(( 0.8780313837 0.0136567835 0.0795107034 0.0480353540)
( 0.8062769647 0.0415154466 0.0018138944 0.0668054833)
( 0.8567841533 0.0681326292 0.0027875860 0.0185116623)
( 0.8247728537 0.0986683350 0.0369815973 0.0167426286)
)
)
((( 0.8395073248 0.0854562495 0.0190062449 0.0169830170)
( 0.8452534471 0.1239004775 0.0232796350 0.0108469674)
( 0.9024116657 0.1715363692 0.0761812140 0.0449190609)
( 0.8104519169 0.2065042031 0.0631229236 0.0210782327)
)
(( 0.8449898505 0.0773470513 0.0816257121 0.0624725033)
( 0.9383850395 0.1172027723 0.0765883377 0.0378687803)
( 0.7993180711 0.1596406973 0.0081300813 0.0752975468)
( 0.9910244903 0.1885586184 0.0615251300 0.0432832297)
)
(( 0.8105796089 0.0655406646 0.0422092501 0.0382284382)
( 0.8907987867 0.1014925373 0.0681269403 0.0377943599)
( 0.8713927227 0.1375154767 0.0299537079 0.0080472103)
( 0.8077713816 0.1730909091 0.0777052162 0.0394524960)
)
(( 0.8724632284 0.0540447504 0E-10 0.0301744460)
( 0.9378030782 0.0971061659 0.0806926116 0.0435144894)
( 0.8222656250 0.1368083817 0.0452609159 0.0571280187)
( 0.8094364618 0.1791811847 0.0606709493 0.0059630292)
)
)
((( 0.8477763407 0.1278637503 0.0577454180 0.0815284526)
( 0.8556857639 0.1872951183 0.0154841060 0.0588331427)
( 0.8672407607 0.2431237287 0.0018869705 0.0371453410)
( 0.7889339375 0.2956233074 0.0018003421 0.0509265808)
)
(( 0.8758954697 0.1097885800 0.0560498221 0.0755838641)
( 0.8646034816 0.1634599297 0.0019045805 0.0433688958)
( 0.7592706413 0.2243800936 0.0835464621 0.0372393247)
( 0.7600089716 0.2848683048 0.0417710944 0.0597057360)
)
(( 0.8495660559 0.1067743383 0.0657098392 0.0733339444)
( 0.9623307828 0.1712810887 0.0249849229 0.0601479314)
( 0.8558456300 0.2197213290 0.0681460772 0.0407907123)
( 0.7968840162 0.2699284842 0.0130039012 0.0226299200)
)
(( 0.8837671369 0.0977943130 0.0744689854 0.0153831362)
( 0.8542032882 0.1524235253 0.0186203228 0.0514247176)
( 0.8420936396 0.2034275921 0.0372391097 0.0408931054)
( 0.8166102091 0.2618798956 0E-10 0.0636315431)
)
)
)
)
((((( 0.0751685674 0.7802555965 0.0659712936 0.0871320795)
( 0.0498933902 0.8339238264 0.0163398693 0.0663570007)
( 0.0244102377 0.8355082418 0.0124477638 0.0381008206)
( 0.0479739570 0.8799858495 0.0593575419 0.0221068820)
)
(( 0.0908333333 0.7538071066 0.0804333552 0.0568758887)
( 0.0662211942 0.8388181818 0.0783137549 0.0362756953)
( 0.0406758448 0.8740842491 0.0100145666 0.0106484932)
( 0.0128348214 0.8374660326 0.0465588758 0.0666732033)
)
(( 0.1038525963 0.8053691275 0.0667931063 0.0923959218)
( 0.0746582545 0.7950424805 0.0047456340 0.0631107492)
( 0.0517315092 0.8279721512 0.0300628587 0.0617468380)
( 0.0278529981 0.8690827740 0.0374368797 0.0072471270)
)
(( 0.1090317331 0.7211858761 0.0341122292 0.0218435998)
( 0.0830154995 0.7457218807 0.0109739369 0.0122987478)
( 0.0624723084 0.7939016057 0.0848778798 0.0905611054)
( 0.0342877342 0.8810265811 0.0129701686 0.0666734014)
)
)
((( 0.0367716875 0.8106689246 0.0727607259 0.0639277992)
( 0.0817726194 0.9047922161 0.0654190129 0.0238914373)
( 0.0677519526 0.7735772026 0.0481288315 0.0507042254)
( 0.0895725830 0.7588766130 0.0828167617 0.0249008577)
)
(( 0.0545099432 0.8548269581 0.0633536284 0.0318661621)
( 0.0123633757 0.8871896366 0.0737655125 0.0874142307)
( 0.0470013160 0.8786831575 0.0292868902 0.0844547564)
( 0.0370333300 0.7526220911 0.0748393021 0.0669380371)
)
(( 0.0639116614 0.8111003776 0.0680623762 0.0331642606)
( 0.0250652742 0.8340060112 0.0687521485 0.0293310625)
( 0.0379650721 0.8998532649 0.0165129556 0.0426338228)
( 0.0497652582 0.8242825607 0.0602573396 0.0296049588)
)
(( 0.0745213041 0.8276861750 0.0714528751 0.0480066792)
( 0.0354791514 0.8714415231 0.0248820249 0.0829395313)
( 0.0029521748 0.9002724796 0.0232246539 0.0426477121)
( 0.0120651518 0.7922579562 0.0483857155 0.0687547746)
)
)
((( 0.0813641478 0.8654431591 0.0161637931 0.0697629969)
( 0.0154511743 0.8379059099 0.0627231938 0.0296537211)
( 0.0354343391 0.7759005989 0.1141868512 0.0053619303)
( 0.0706033376 0.6931162230 0.1641477750 0.0255670103)
)
(( 0.0133050521 0.8608589385 0.0725294651 0.0299482712)
( 0.0826368673 0.8140311804 0.0431199028 0.0433056658)
( 0.0272892662 0.7922101126 0.0981786644 0.0193457615)
( 0.0783211166 0.6757222587 0.1574866310 0.0198232428)
)
(( 0.0264220183 0.8456247279 0.0103422339 0.0940438871)
( 0.0418676618 0.8778646781 0.0307542320 0.0676018252)
( 0.0094806700 0.8416238917 0.0868488547 0.0185266873)
( 0.0221778665 0.7582994120 0.1350087668 0.0675241158)
)
(( 0.0329763726 0.8521276596 0.0814402057 0.0082653167)
( 0.0690105381 0.8825445661 0.0221882860 0.0501736781)
( 0.0434446804 0.7585690516 0.0788908766 0.0044794840)
( 0.0934846895 0.7533747780 0.1414056674 0.0440601879)
)
)
)
(((( 0.0485275819 0.8481981982 0.0593575419 0E-10)
( 0.0258462725 0.8606296427 0.0053442594 0.0098173964)
( 0.0613335670 0.8542972439 0.0316889346 0.0040469446)
( 0.0132707227 0.8144922635 0.0318742401 0.0467897063)
)
(( 0.0668511632 0.8002601908 0.0281615770 0.0456100342)
( 0.0421843130 0.8285590278 0.0378924576 0.0766886245)
( 0.0128467697 0.8722802052 0.0602052065 0.0824251305)
( 0.0189286390 0.8819831148 0.0159517901 0.0881881347)
)
(( 0.0722618022 0.8077778767 0.0511853448 0.0195567145)
( 0.0502283105 0.8637491956 0.0372828953 0.0737792447)
( 0.0248062016 0.8448890822 0.0122206704 0.0428474048)
( 0.0717167190 0.8483662355 0.0818082146 0.0490101864)
)
(( 0.0827469061 0.7693692149 0.0192055871 0.0241917748)
( 0.0607496769 0.8337818443 0.0433369447 0.0936494001)
( 0.0347483432 0.8438981563 0.0204899777 0.0844356882)
( 0.0788068808 0.8533127095 0.0726123356 0.0019443904)
)
)
((( 0.0099534289 0.8405710886 0.0359989715 0.0279518072)
( 0.0458627938 0.8572572751 0.0311968718 0.0182537268)
( 0.0488084984 0.8371731578 0.0764348536 0.0081366965)
( 0.0729477037 0.7596044456 0.1095435685 0.0188340807)
)
(( 0.0266210990 0.8469191831 0.0087009484 0.0819234194)
( 0.0027357286 0.8796130419 0.0159517901 0.0778142832)
( 0.0547409580 0.8038540950 0.0607519911 0.0658369408)
( 0.0619992369 0.7783043707 0.1006222222 0.0747384155)
)
(( 0.0387253625 0.8442166652 0.0825124190 0.0652591171)
( 0.0060821085 0.8932091023 0.0080811709 0.0056148231)
( 0.0111010193 0.7954754922 0.0453201970 0.0721525511)
( 0.0201420545 0.7287272727 0.0892970810 0.0075152654)
)
(( 0.0443325755 0.8603931562 0.0399097692 0.0735567970)
( 0.0301178900 0.8956435465 0.0299665080 0.0039658933)
( 0.0149491728 0.8587540279 0.0355765860 0.0138176076)
( 0.0218731358 0.7617376775 0.0821229050 0.0424877961)
)
)
((( 0.0538233111 0.8905426643 0.0317364234 0.0147997410)
( 0.0547356075 0.7840027882 0.0921040537 0.0696550029)
( 0.0721741062 0.7174230076 0.1412546380 0.0234741784)
( 0.0128639925 0.6970325607 0.2109759495 0.0710918207)
)
(( 0.0246159905 0.8940276766 0.0156876416 0.0573038073)
( 0.0564387170 0.8139844027 0.0765258216 0.0098610489)
( 0.0633319021 0.7734756649 0.1207226709 0.0241817083)
( 0.0928600908 0.6990462734 0.1728026534 0.0369380698)
)
(( 0.0473372781 0.8397911051 0.0577237874 0.0266524520)
( 0.0371402043 0.7968416560 0.0570032573 0.0553522845)
( 0.0010816658 0.7376006783 0.1100110011 0.0518092771)
( 0.0685840708 0.7230190032 0.1600198577 0.0162143711)
)
(( 0.0019644436 0.8916225195 0.0751943224 0.0621118012)
( 0.0221145746 0.8240894401 0.0488036624 0.0589233104)
( 0.0961637886 0.8000727339 0.1054666901 0.0043245113)
( 0.0186485301 0.7009442060 0.1522370715 0.0060256521)
)
)
)
(((( 0.0236352412 0.8753372909 0.0421336479 0.0643618978)
( 0.0304095790 0.8745715039 0.0643489888 0.0590219224)
( 0.0773296789 0.8022820022 0.0336882688 0.0520336484)
( 0.0260199833 0.8386603043 0.0612646454 0.0299346880)
)
(( 0.0418352335 0.8256920415 0.0643004115 0.0818851788)
( 0.0127400295 0.8879884747 0.0398509919 0.0451852596)
( 0.0664511494 0.8433527997 0.0156467316 0.0735548633)
( 0.0614628150 0.8384506794 0.0439589598 0.0377562028)
)
(( 0.0507763324 0.8413181696 0.0672665327 0.0882848924)
( 0.0255319149 0.8478393715 0.0767486482 0.0810356755)
( 0.0195982362 0.8600759144 0.0712705825 0.0065752395)
( 0.0650904566 0.8652742919 0.0300615091 0.0245483111)
)
(( 0.0577159230 0.7891832230 0.0120835491 0.0673867803)
( 0.0341669602 0.8794144556 0.0501882058 0.0548002951)
( 0.0841050038 0.8332634052 0.0372803124 0.0648483693)
( 0.0758544277 0.8349456382 0.0225735697 0.0770296001)
)
)
((( 0.0592246949 0.8537797541 0.0181580096 0.0862730061)
( 0.0862722791 0.8216459381 0.0591486055 0.0428944424)
( 0.0372777672 0.8201725898 0.1023899815 0.0724013101)
( 0.0257069409 0.7267750065 0.1438614993 0.0406369215)
)
(( 0.0514040933 0.8585563108 0.0122549020 0.0443940682)
( 0.0371091938 0.8224857192 0.0424931601 0.0708540789)
( 0.0263579027 0.8006918574 0.0866429207 0.0229294690)
( 0.0459482038 0.7644849785 0.1277420492 0.0133455668)
)
(( 0.0126186051 0.8478055484 0.0155884645 0.0634790621)
( 0.0163681004 0.9024869110 0.0299060588 0.0385533321)
( 0.0254678330 0.7779755849 0.0737058929 0.0146964269)
( 0.0692913386 0.7820224719 0.1079106832 0.0315618869)
)
(( 0.0209361858 0.8571804544 0.0338810774 0.0666859959)
( 0.0184233492 0.8342314601 0.0220496340 0.0316161428)
( 0.0686010939 0.8526654412 0.0651468733 0.0445037828)
( 0.0688886638 0.7950130996 0.1028453891 0.0328780981)
)
)
((( 0.0181852986 0.7823129252 0.0629537726 0.0055432373)
( 0.0219466696 0.7458967088 0.1138912856 0.0618212197)
( 0.0912327548 0.6819530389 0.1673801370 0.0513026052)
( 0.0689816439 0.6378894818 0.2305637189 0.0572878898)
)
(( 0.0200209744 0.7909938405 0.0437654104 0.0750388132)
( 0.0513864650 0.7824245633 0.0986062718 0.0615662453)
( 0.0928515494 0.7257581100 0.1501274427 0.0154634980)
( 0.0373134328 0.6298076923 0.2067125645 0.0645783848)
)
(( 0.0600865954 0.8310089532 0.0298545986 0.0769625449)
( 0.0074207569 0.8369373550 0.0877020631 0.0543429844)
( 0.0339986839 0.7229840448 0.1341129634 0.0650470219)
( 0.0700092659 0.6757959006 0.1935206668 0.0016083635)
)
(( 0.0497464843 0.8342314601 0.0220496340 0.0716743119)
( 0.0935570988 0.7833333333 0.0775043937 0.0084491175)
( 0.0868003592 0.7146588037 0.1285811154 0.0120908541)
( 0.0896057348 0.7362101313 0.1893033075 0.0621811224)
)
)
)
(((( 0.0748653337 0.9031496778 0.0747756730 0.0781104705)
( 0.0816245272 0.7976318622 0.0325527763 0.0428284241)
( 0.0607590204 0.8470491952 0.0602409639 0.0344097406)
( 0.0415779333 0.8028910502 0.0815363333 0.0199600798)
)
(( 0.0124413992 0.8410370118 0.0035864790 0.0745600954)
( 0.0790005512 0.8390293917 0.0168004480 0.0576620654)
( 0.0551969314 0.8731165013 0.0422403536 0.0295064378)
( 0.0720994213 0.7781260590 0.0709312446 0.0790759662)
)
(( 0.0256000000 0.8722047598 0.0192711983 0.0774388516)
( 0.0732265446 0.8798093893 0.0666844492 0.0654833707)
( 0.0409035977 0.8367718447 0.0306185476 0.0730376628)
( 0.0613437196 0.7679967092 0.0590796020 0.0647475720)
)
(( 0.0345934379 0.8636118598 0.0043687200 0.0614852531)
( 0.0693680738 0.8789944233 0.0471612552 0.0850251605)
( 0.0037198921 0.8443424812 0.0229511243 0.0703443169)
( 0.0862228815 0.8432388953 0.0497490534 0.0706910985)
)
)
((( 0.0083978725 0.8071909347 0.0476061182 0.0059940060)
( 0.0694375558 0.7537907347 0.0933047770 0.0361565579)
( 0.0123387549 0.7477406335 0.1197828025 0.0211882363)
( 0.0728207325 0.6831111488 0.1623754153 0.0470206729)
)
(( 0.0692009596 0.8875620062 0.0287390528 0.0404751430)
( 0.0086477138 0.8161542563 0.0709312446 0.0634081902)
( 0.0876765709 0.7745464248 0.1166214995 0.0493887135)
( 0.0076932940 0.6835768848 0.1531195841 0.0684661997)
)
(( 0.0602304469 0.9006792730 0.0168837000 0.0876456876)
( 0.0171890799 0.7961620469 0.0573473612 0.0067836031)
( 0.0407779172 0.7312422617 0.1035672143 0.0402360515)
( 0.0555098684 0.6774141414 0.1336695048 0.0652173913)
)
(( 0.0800595792 0.8530120482 0.0774307083 0.0744931636)
( 0E-10 0.8298882927 0.0474909641 0.0287010462)
( 0.0361328125 0.7757381591 0.0923855165 0.0311607375)
( 0.0896769591 0.7389372822 0.1353497502 0.0562228469)
)
)
((( 0.0039797035 0.7779026541 0.0838563897 0.0502347031)
( 0.0379774306 0.7409409055 0.1491028327 0.0277823174)
( 0.0119602918 0.6834704166 0.2143598453 0.0292420770)
( 0.0798950632 0.6196383332 0.2616797191 0.0686094214)
)
(( 0.0403591969 0.7645247212 0.0725088968 0.0577494692)
( 0.0859660434 0.7152417601 0.1380820874 0.0052042675)
( 0.1014136447 0.6863187099 0.1776641091 0.0024826216)
( 0.0594370304 0.6435389783 0.2271512114 0.0703674746)
)
(( 0.0858244937 0.8375953342 0.0574961093 0.0229168576)
( 0.0247204238 0.8165180666 0.1120013785 0.0617735512)
( 0.0045402951 0.7204358700 0.1689673248 0.0619705052)
( 0.1061742643 0.6480900052 0.2386215865 0.0016164229)
)
(( 0.0119213193 0.8357693330 0.0478124736 0.0192289203)
( 0.0971978079 0.7713208870 0.1064018443 0.0472095768)
( 0.0883392226 0.6997429306 0.1588291331 0.0327144843)
( 0.0350426352 0.6554395126 0.2320924986 0.0303007348)
)
)
)
)
((((( 0.0183134937 0.1168196243 0.7700811269 0.0308150037)
( 0.0358208955 0.0925597874 0.8129084967 0.0436060290)
( 0.0455414883 0.0624141484 0.8244865297 0.0967174678)
( 0.0736742911 0.0362607234 0.8371159218 0.0547866205)
)
(( 0.0691666667 0.1328257191 0.6918910046 0.0832825513)
( 0.0676775465 0.1139090909 0.7287344830 0.0624748085)
( 0.0071517969 0.0856227106 0.8252913328 0.0681503567)
( 0.0465029762 0.0524796196 0.7942097689 0.0196097657)
)
(( 0.0058626466 0.1596947688 0.6813721448 0.0499150382)
( 0.0736067298 0.1243759306 0.8143507973 0.0122149837)
( 0.0530141086 0.0971181810 0.8106039902 0.0119510009)
( 0.0241779497 0.0702460850 0.8022810378 0.0631535356)
)
(( 0.0667209113 0.1538974017 0.6952072318 0.0786369594)
( 0.0681652195 0.1271805948 0.7744855967 0.0044722719)
( 0.0150642446 0.1036043731 0.7610427854 0.0840257679)
( 0.0194414988 0.0821264895 0.7872027670 0.0555611678)
)
)
((( 0.0302114804 0.0750211685 0.7622313289 0.0423051612)
( 0.0008792755 0.0372828953 0.7941371315 0.0525611621)
( 0.0536369625 0.0702212787 0.9088663190 0.0197183099)
( 0.0525752118 0.0742177617 0.7816348459 0.0500783916)
)
(( 0.0008877841 0.0996357013 0.7327628764 0.0567616013)
( 0.0510661172 0.0555955380 0.8141976916 0.0413572704)
( 0.0545215266 0.0129137868 0.8541720821 0.0204176334)
( 0.0610549495 0.0745657162 0.8876033058 0.0302125735)
)
(( 0.0635770453 0.1107403179 0.7529077281 0.0858369099)
( 0.0600522193 0.0674109060 0.7919388106 0.0917778409)
( 0.0180334093 0.0282465150 0.8512955643 0.0691615348)
( 0.0769953052 0.0476821192 0.8909025009 0.0155426034)
)
(( 0.0422632396 0.1242978801 0.7339231031 0.0031308704)
( 0.0027432334 0.0812330009 0.7811239811 0.0135017842)
( 0.0679000197 0.0381471390 0.8557391693 0.0844069303)
( 0.0090488639 0.0730539928 0.8515029545 0.0356506239)
)
)
((( 0.0597247468 0.0356614769 0.8611709770 0.0124235474)
( 0.0082406263 0.0341818836 0.8950645545 0.0215228621)
( 0.0687211425 0.0187717887 0.7906574394 0.0768543342)
( 0.0759520753 0.0379081589 0.7141057935 0.1232989691)
)
(( 0.0221750868 0.0539455307 0.7732630017 0.0798620564)
( 0.0676119823 0.0668151448 0.8661287524 0.0757849152)
( 0.0293106933 0.0455601215 0.8107545533 0.0573338023)
( 0.0572346621 0.0804333552 0.7765597148 0.1063021393)
)
(( 0.0357798165 0.0683500218 0.8663971418 0E-10)
( 0.0891963229 0.0136413241 0.8729947709 0.0616866655)
( 0.0916464764 0.0027998133 0.8415141063 0.0427878253)
( 0.0221778665 0.0162822252 0.7414210570 0.0900321543)
)
(( 0.0637429883 0.0794326241 0.7804543506 0.0547577229)
( 0.0559544903 0.0236177721 0.8748652533 0.0328058665)
( 0.0704769260 0.0499168053 0.8610017889 0.0335065400)
( 0.0705904798 0.0532859680 0.8380872483 0.0838806218)
)
)
)
(((( 0.0729987557 0.0941441441 0.7816864525 0.0494001411)
( 0.0028932395 0.0642907676 0.8259552864 0.0697035146)
( 0.0481906598 0.0352021980 0.8213429257 0.0455281263)
( 0.0244997958 0.0642597447 0.8605176307 0.0658521792)
)
(( 0.0294041339 0.1086730269 0.7697791076 0.0779171418)
( 0.0074170221 0.0811631944 0.8178455431 0.0127814374)
( 0.0493390430 0.0546612418 0.7955566862 0.0604450957)
( 0.0208215029 0.0269444943 0.8596242467 0.0534473544)
)
(( 0.0720269318 0.1263682478 0.7704741379 0.0934376358)
( 0.0373599004 0.1013147007 0.8091297627 0.0145616930)
( 0.0551248923 0.0682905611 0.8043819832 0.0720615445)
( 0.0188256387 0.0397379170 0.8039976385 0.0422832981)
)
(( 0.0517673704 0.1312135756 0.7393278045 0.0560809325)
( 0.0689358035 0.1088087549 0.7933369447 0.0390205834)
( 0.0358230342 0.0786654960 0.8110467706 0.0797448166)
( 0.0415219049 0.0496691587 0.8048863831 0.0797200078)
)
)
((( 0.0456579308 0.0482705872 0.8084340447 0.0857831325)
( 0.0458627938 0.0587345377 0.8422305338 0.0101409593)
( 0.0287108814 0.0127994149 0.8718832170 0.0347165717)
( 0.0287681085 0.0691345060 0.7585062241 0.0771300448)
)
(( 0.0089936145 0.0678128818 0.8024884712 0.0516473731)
( 0.0866314062 0.0268720889 0.8596242467 0.0726266644)
( 0.0039100684 0.0326909842 0.9097981108 0.0158730159)
( 0.0934757726 0.0035106196 0.8309333333 0.0541438299)
)
(( 0.0147607884 0.0833259698 0.7625663046 0.0758157390)
( 0.0263558033 0.0418383802 0.8559755769 0.0552124275)
( 0.0292663235 0.0829493088 0.8948499776 0.0687167153)
( 0.0466447578 0.0800000000 0.8652359734 0.0455612964)
)
(( 0.0714517701 0.0959228249 0.7761582509 0.0921787709)
( 0.0697014026 0.0521331289 0.8304248193 0.0981558596)
( 0.0328881802 0.0091299678 0.8673326323 0.0355309909)
( 0.0785444422 0.0576441103 0.8962756052 0.0338094377)
)
)
((( 0.0593912398 0.0055468244 0.8567969561 0.0268245306)
( 0.0185710097 0.0261392350 0.8692894568 0.0444972548)
( 0.0421940928 0.0814960968 0.7612391060 0.0987592220)
( 0.0701672319 0.0261567602 0.7602377194 0.1356731273)
)
(( 0.0088617566 0.0273124545 0.8453895764 0.0388500389)
( 0.0432696830 0.0691244240 0.9076056338 0.0299417302)
( 0.0590382138 0.0126650986 0.7518940971 0.0836859832)
( 0.0887329757 0.0423878488 0.6961857380 0.1260609871)
)
(( 0.0045516614 0.0393362534 0.8213147239 0.0879530917)
( 0.0677808728 0.0256081946 0.8427910166 0.0157613285)
( 0.0822065982 0.0279779568 0.7782855209 0.0650044524)
( 0.0719026549 0.0125493008 0.7084229687 0.1227171872)
)
(( 0.0314310971 0.0518990752 0.7960459615 0.0912855261)
( 0.0400168492 0.0663813433 0.8588580807 0.0562449781)
( 0.0454968462 0.0236385126 0.8180699596 0.0598512368)
( 0.0800789820 0.0446351931 0.7199302731 0.1142291469)
)
)
)
(((( 0.0670253109 0.0653894585 0.7814106345 0.0588451637)
( 0.0038011974 0.0360376198 0.8014374060 0.0758853288)
( 0.0097885670 0.0782876655 0.9094914632 0.0771832452)
( 0.0478767694 0.0072026650 0.8742509615 0.0204100145)
)
(( 0.0036778227 0.0808823529 0.7771776406 0.0645983077)
( 0.0138478582 0.0556455970 0.8127869705 0.0411687920)
( 0.0682471264 0.0257643422 0.8431849791 0.0700934579)
( 0.0842918606 0.0688194812 0.8829824872 0.0656238763)
)
(( 0.0402853546 0.0986836214 0.7773215690 0.0684455907)
( 0.0354609929 0.0685290266 0.8036804465 0.0197647989)
( 0.0058794708 0.0402864044 0.7809453592 0.0732669547)
( 0.0306308031 0.0134456795 0.8533310231 0.0216025137)
)
(( 0.0638559149 0.1029886229 0.7584153288 0.0346843722)
( 0.0202536104 0.0819762123 0.7615223756 0.0242385921)
( 0.0696627304 0.0485021398 0.8363216758 0.0762921991)
( 0.0724452399 0.0223439774 0.8900566624 0.0718365934)
)
)
((( 0.0637114142 0.0218850815 0.8510694020 0.0162960123)
( 0.0692074327 0.0220516892 0.8440549175 0.0209809772)
( 0.0888931371 0.0046395101 0.8200017638 0.0605068092)
( 0.0428449015 0.0617015730 0.7752878109 0.0976944767)
)
(( 0.0047596383 0.0394906651 0.8351715686 0.0207802021)
( 0.0361814640 0.0484680630 0.8535396717 0.0038299502)
( 0.0856631837 0.0567677843 0.8465716830 0.0452169128)
( 0.0929406850 0.0268240343 0.7956127213 0.0808240887)
)
(( 0E-10 0.0537662115 0.8118125920 0.0122862701)
( 0.0872965354 0.0140239342 0.8489183832 0.0725169818)
( 0.0132875651 0.0406917599 0.8662905248 0.0300358225)
( 0.0073490814 0.0161797753 0.7634265792 0.0684978248)
)
(( 0.0521119035 0.0646547943 0.7846010503 0.0676524597)
( 0.0610879473 0.0223248653 0.8693983217 0.0743909243)
( 0.0797255956 0.0275735294 0.8816903947 0.0191366266)
( 0.0324181947 0.0478814708 0.7977374014 0.0583375485)
)
)
((( 0.0832695253 0.0596287898 0.8983549306 0.0207871397)
( 0.0153626687 0.0644496004 0.7886108714 0.0718462824)
( 0.0600801068 0.0695091973 0.7281678082 0.1198396794)
( 0.0876885303 0.0232398003 0.7008638347 0.1544597534)
)
(( 0.0781771380 0.0474446479 0.8790947517 0.0370881490)
( 0.0940469265 0.0008823010 0.8142857143 0.0535215892)
( 0.0201364806 0.0405500705 0.7402718777 0.1047448523)
( 0.0689733152 0.0472480106 0.6951807229 0.1426662708)
)
(( 0.0724573650 0.0129132231 0.8474576271 0.0658457329)
( 0.0773878936 0.0167053364 0.8497811914 0.0432071269)
( 0.0965123931 0.0724450194 0.7365016173 0.0877742947)
( 0.0854524864 0.0558220672 0.7085159405 0.1411338963)
)
(( 0.0210465895 0.0223248653 0.8693983217 0.0324923547)
( 0.0356867284 0.0317869416 0.8458699473 0.0351107773)
( 0.0907911803 0.0505475990 0.7620783184 0.0871405130)
( 0.0011200717 0.0056285178 0.7350457424 0.1310586735)
)
)
)
(((( 0.0118688944 0.0372152129 0.7967763377 0.0539334201)
( 0.0069679474 0.0513372526 0.8788362604 0.0769163535)
( 0.0850626285 0.0327362008 0.8596429514 0.0198517734)
( 0.0344792617 0.0080306951 0.7695500041 0.0471231450)
)
(( 0.0306527227 0.0527033942 0.8412086434 0.0328064420)
( 0.0055116664 0.0256322625 0.9053574762 0.0733880832)
( 0.0907474974 0.0275633958 0.8484616692 0.0661659514)
( 0.0351010341 0.0449000339 0.8412532637 0.0296756997)
)
(( 0.0337777778 0.0704984284 0.8072004205 0.0859382378)
( 0.0274599542 0.0412107307 0.8476038055 0.0801309667)
( 0.0427628521 0.0130027739 0.8691432101 0.0571981697)
( 0.0798442064 0.0756890169 0.8734896944 0.0146994488)
)
(( 0.0124821683 0.0805031447 0.7954565312 0.0624459602)
( 0.0482192708 0.0511640258 0.8545256666 0.0728787090)
( 0.0632381661 0.0225954463 0.9049433191 0.0546094039)
( 0.0556276655 0.0134060238 0.8754952892 0.0223235048)
)
)
((( 0.0877111132 0.0621964727 0.8989953842 0.0159840160)
( 0.0247991271 0.0594789311 0.8806220318 0.0490825273)
( 0.0762759394 0.0622970957 0.7278547694 0.0863632511)
( 0.0417648319 0.0305680564 0.7063953488 0.1211998379)
)
(( 0.0858091899 0.0130442771 0.8381940311 0.0703915530)
( 0.0032428927 0.0346543451 0.8412532637 0.0294143549)
( 0.0925474915 0.0364638919 0.8300813008 0.0656626994)
( 0E-10 0.0506476254 0.7550259965 0.1012827575)
)
(( 0.0593575419 0.0282724435 0.8704086215 0.0149184149)
( 0.0111223458 0.0332622601 0.8478785788 0.0162806473)
( 0.0041823505 0.0742880726 0.8492330035 0.0575822604)
( 0.0781250000 0.0719191919 0.7340662974 0.0901771337)
)
(( 0.0260659095 0.0361445783 0.8429388473 0.0377180575)
( 0.0390048493 0.0606913537 0.8357569135 0.0416628090)
( 0.0517578125 0.0225127717 0.8401668442 0.0461352030)
( 0.0132477326 0.0034843206 0.8021948608 0.0859528069)
)
)
((( 0.0547209233 0.0743494424 0.7914469830 0.0447171210)
( 0.0021701389 0.0567024010 0.8035340195 0.0962575584)
( 0.0825260136 0.0274166446 0.7724313614 0.1432861772)
( 0.0584307179 0.0358172447 0.6798091637 0.1731503749)
)
(( 0.0393502169 0.0499417346 0.8599644128 0.0283651805)
( 0.0064474533 0.0794713067 0.8600133321 0.0840489201)
( 0.0450727310 0.0797641755 0.7157715260 0.1327375041)
( 0.0728944712 0.0698249956 0.6483709273 0.1591442178)
)
(( 0.0270009643 0.0430686406 0.8500778143 0.0154001283)
( 0.0105944673 0.0037541061 0.7923666753 0.0652686337)
( 0.1010215664 0.0035727045 0.7480342478 0.1128020082)
( 0.0600115407 0.0645386360 0.7362994613 0.1675422290)
)
(( 0.0506656070 0.0434050846 0.8414149107 0.0451879627)
( 0.0299865577 0.0429485494 0.8253236389 0.0583375485)
( 0.0607332155 0.0574121680 0.7511041829 0.1085303018)
( 0.0735895339 0.0078328982 0.7556871592 0.1485493523)
)
)
)
)
((((( 0.0740864064 0.0231580753 0.1612730677 0.8703644671)
( 0.0614072495 0.0070859167 0.1353485839 0.8066167409)
( 0.0382548502 0.0841346154 0.1043833911 0.8622508792)
( 0.0668208687 0.0371451313 0.0747206704 0.8788927336)
)
(( 0.0066666667 0.0516074450 0.1669402495 0.8090595166)
( 0.0094234558 0.0118181818 0.1429642589 0.8347440548)
( 0.0625782228 0.0256410256 0.1273670794 0.9158769034)
( 0.0446428571 0.0789741848 0.0915093541 0.8744974998)
)
(( 0.0527638191 0.0312586191 0.1825678239 0.8268903993)
( 0.0428698536 0.0052553210 0.1799544419 0.8249185668)
( 0.0401881146 0.0185070944 0.1438462239 0.8386614879)
( 0.0038684720 0.0393736018 0.1097858262 0.9047520447)
)
(( 0.0105777055 0.0607928048 0.1990448576 0.8372651813)
( 0.0373285726 0.0714404386 0.1843621399 0.8926654741)
( 0.0363314134 0.0580799453 0.1471505283 0.7749976660)
( 0.0759985861 0.0229147571 0.1194120190 0.8706940095)
)
)
((( 0.0742339232 0.0660457240 0.1114828134 0.8147974053)
( 0.0844104458 0.0100027280 0.0708843988 0.8738532110)
( 0.0319939776 0.0743039112 0.0347698783 0.9032863850)
( 0.0282348359 0.0421691828 0.0628151087 0.9222539887)
)
(( 0.0568181818 0.0291438980 0.1281882508 0.8406691894)
( 0.0734635370 0.0242893127 0.0938123752 0.8383306702)
( 0.0376010528 0.0318297563 0.0524218005 0.8719257541)
( 0.0330297268 0.0647328745 0.0118457300 0.8928991407)
)
(( 0.0359712230 0.0105383332 0.1497372275 0.8058915334)
( 0.0652741514 0.0781451267 0.1083705741 0.8268521147)
( 0.0626423690 0.0064196625 0.0689503733 0.8730459498)
( 0.0460093897 0.0229580574 0.0279992751 0.8965676751)
)
(( 0.0207003623 0.0271788367 0.1580469547 0.8497182217)
( 0.0612655450 0.0335448776 0.1184899185 0.8312276979)
( 0.0068884078 0.0045413261 0.0808396606 0.8080852954)
( 0.0844560627 0.0419850533 0.0367388884 0.8124098124)
)
)
((( 0.0389509218 0.0530573193 0.0768678161 0.8738532110)
( 0.0659250103 0.0233876046 0.0202362421 0.9354314138)
( 0.0150327499 0.0446947350 0.0821799308 0.8936550492)
( 0.0438596491 0.0594468855 0.0705289673 0.8247422680)
)
(( 0.0356729657 0.0532472067 0.0890958543 0.8094200926)
( 0.0046952766 0.0334075724 0.0386951241 0.8619631902)
( 0.0980392157 0.0160800429 0.0372940156 0.8793527963)
( 0.0883622854 0.0574523966 0.0659536542 0.8259684480)
)
(( 0.0422018349 0.0653025686 0.1185596089 0.8837091718)
( 0.0382269955 0.0291014915 0.0554816981 0.7921243874)
( 0.0042136311 0.0149323378 0.0406827629 0.8822232025)
( 0.0842758927 0.0316598824 0.0743090924 0.8038585209)
)
(( 0.0662927078 0.0549645390 0.1183883412 0.8904845542)
( 0.0158537723 0.0226223871 0.0670140137 0.8928984948)
( 0.0579262406 0.0732113145 0.0100178891 0.8858627486)
( 0.0782218830 0.0106571936 0.0055928412 0.8313242996)
)
)
)
(((( 0.0489423476 0.0072072072 0.1301501397 0.8578485734)
( 0.0270035683 0.0565970994 0.1045693418 0.8664834086)
( 0.0604573732 0.0652528548 0.0733127783 0.9251315257)
( 0.0275622703 0.0498858544 0.0468125760 0.8197729833)
)
(( 0.0389172360 0.0572419775 0.1510164569 0.7871531737)
( 0.0278138327 0.0781250000 0.1262179719 0.8456395635)
( 0.0409607150 0.0406863612 0.0916645468 0.8168330433)
( 0.0785538520 0.0296389438 0.0677064871 0.8227329414)
)
(( 0.0728098332 0.0088991724 0.1702586207 0.8804867449)
( 0.0821917808 0.0018387423 0.1435846140 0.8174934472)
( 0.0792420327 0.0661157025 0.1100733240 0.8510078878)
( 0.0627521291 0.0646698434 0.0796154171 0.8702671536)
)
(( 0.0566205614 0.0325677065 0.1759930162 0.8779414999)
( 0.0086169754 0.0143523502 0.1533947273 0.8097746561)
( 0.0474655203 0.0640913082 0.1230289532 0.8086124402)
( 0.0720277943 0.0567156484 0.0908935589 0.8687536457)
)
)
((( 0.0648342617 0.0798844225 0.0869975144 0.8660240964)
( 0.0334416205 0.0088991724 0.0458177491 0.9594361627)
( 0.0918748206 0.0292558054 0.0009067005 0.8983817015)
( 0.0554813521 0.0140019253 0.0655601660 0.8968609865)
)
(( 0.0836406152 0.0672019550 0.1078917602 0.7800534283)
( 0.0610979391 0.0322465066 0.0677064871 0.7985474667)
( 0.0772238514 0.0636613902 0.0266716059 0.8759018759)
( 0.0467378863 0.0746006670 0.0631111111 0.8304268394)
)
(( 0.0850916037 0.0256251657 0.1195588111 0.8234165067)
( 0.0101368474 0.0152302455 0.0847625034 0.8474639716)
( 0.0544959128 0.0351906158 0.0419167040 0.8187596633)
( 0.0328633521 0.0694949495 0.0245521506 0.9394081729)
)
(( 0.0722637220 0.0391336003 0.1336109665 0.7877094972)
( 0.0800275364 0.0099215297 0.0937775427 0.8859805671)
( 0.0498305760 0.0474400286 0.0515247108 0.9289380182)
( 0.0467289720 0.0618212197 0.0104283054 0.8938709094)
)
)
((( 0.0371195249 0.0258851807 0.0466101695 0.8751271853)
( 0.0938324699 0.0609915483 0.0238992554 0.8194706220)
( 0.0099933378 0.0197306340 0.0578134438 0.8383635144)
( 0.0689977780 0.0288626319 0.0111430959 0.7483349547)
)
(( 0.0492319811 0.0163874727 0.0665853233 0.8970473970)
( 0.0837174302 0E-10 0.0121126761 0.8848946661)
( 0.0139544869 0.0370906459 0.0732661727 0.8636324380)
( 0.0536524969 0.0300247262 0.0721393035 0.7859163785)
)
(( 0.0883022303 0.0741239892 0.0813302318 0.8045486851)
( 0.0770659239 0.0759709774 0.0264872278 0.9091847265)
( 0.0324499730 0.0796947859 0.0465431159 0.8095199547)
( 0.0254424779 0.0439225529 0.0512990237 0.8533879502)
)
(( 0.0304488754 0.0143665260 0.0898952349 0.8409561453)
( 0.0010530750 0.0131015809 0.0370562322 0.8544772788)
( 0.0041360769 0.0181834712 0.0509755669 0.8649022660)
( 0.0647213690 0.0506437768 0.0481447663 0.8608074374)
)
)
)
(((( 0.0458594232 0.0404749056 0.0989298053 0.8115115851)
( 0.0655706548 0.0430693504 0.0715360187 0.8566610455)
( 0.0166405638 0.0491380028 0.0494767762 0.8204839129)
( 0.0062447960 0.0495183218 0.0197656739 0.8870645864)
)
(( 0.0395365943 0.0847750865 0.1199417010 0.7825493586)
( 0.0840103397 0.0234107690 0.0936498311 0.8955718446)
( 0.0287356322 0.0721401580 0.0664116829 0.7992384908)
( 0.0640969356 0.0044115052 0.0394480807 0.8588637181)
)
(( 0.0696600923 0.0188054088 0.1379400716 0.8353337963)
( 0.0735815603 0.0628546486 0.1099773243 0.8636228876)
( 0.0489955904 0.0517598344 0.0773326780 0.8506481308)
( 0.0306308031 0.0430261743 0.0542320021 0.9204634721)
)
(( 0.0597625870 0.0755646120 0.1466424996 0.8226142107)
( 0.0783726664 0.0247026532 0.1155165203 0.9083148909)
( 0.0365304562 0.0788789125 0.0944434582 0.8521838642)
( 0.0664791613 0.0753360158 0.0681776640 0.8009347412)
)
)
((( 0.0412778177 0.0645217543 0.0609340899 0.8916794479)
( 0.0066363292 0.0538061215 0.0190829807 0.9118798956)
( 0.0745555343 0.0231975503 0.0555604551 0.8619203586)
( 0.0867609254 0.0278091596 0.0500922752 0.8293249295)
)
(( 0.0418848168 0.0567839628 0.0807948179 0.8573722490)
( 0.0918452547 0.0424095551 0.0381326949 0.9147836078)
( 0.0856631837 0.0115309562 0.0614425646 0.9171787581)
( 0.0208855472 0.0339771102 0.0537397586 0.8340979231)
)
(( 0.0479311357 0.0644163875 0.0955226466 0.9109245418)
( 0.0663817405 0.0018698579 0.0539515643 0.8604736552)
( 0.0033218913 0.0669718549 0.0134336378 0.9047487830)
( 0.0650918635 0.0377528090 0.0713870673 0.8530239700)
)
(( 0.0411409764 0.0508816563 0.1035913942 0.8482651976)
( 0.0271501988 0.0761269352 0.0665952508 0.8605170169)
( 0.0417168814 0.0036764706 0.0243287079 0.8660436137)
( 0.0617971837 0E-10 0.0402811107 0.8430281571)
)
)
((( 0.0526416539 0.0604686319 0.0203106332 0.9034552846)
( 0.0625480083 0.0352324482 0.0371009491 0.8354218881)
( 0.0066755674 0.0423836569 0.0359589041 0.8016032064)
( 0.0327370513 0.0748838010 0.0311692938 0.7251631617)
)
(( 0.0438554676 0.0782420509 0.0392743924 0.8240469208)
( 0.0436300175 0.0723486854 0.0540069686 0.8208832704)
( 0.0223738673 0.0334978843 0.0722175021 0.8138683161)
( 0.0915875170 0.0820623342 0.0361445783 0.7422802850)
)
(( 0.0609702218 0.0809228650 0.0538587284 0.8016076620)
( 0.0148415138 0.0064965197 0.0008930964 0.8908685969)
( 0.0076771222 0.0198361363 0.0713278593 0.7836990596)
( 0.1008957068 0.0261665940 0.0369511042 0.8041817451)
)
(( 0.0478331579 0.0761269352 0.0665952508 0.8843654434)
( 0.0434027778 0.0627147766 0.0098418278 0.9282763800)
( 0.0299311583 0.0614995788 0.0627224953 0.8636324380)
( 0.0907258065 0.0056285178 0.0343068262 0.7971938776)
)
)
)
(((( 0.0483885693 0.0117999455 0.0711199734 0.8502882648)
( 0E-10 0.0811459800 0.0478091183 0.8269382047)
( 0.0280426248 0.0145494226 0.0194354059 0.8628021881)
( 0.0598316601 0.0571071652 0.0764911710 0.8678295583)
)
(( 0.0883519654 0.0750469043 0.0969245943 0.8866686549)
( 0.0597097189 0.0768967874 0.0713085682 0.8069194478)
( 0.0121620357 0.0073502389 0.0379058304 0.8542560801)
( 0.0692533915 0.0652321247 0.0112271540 0.8770324300)
)
(( 0.0728888889 0.0359227661 0.1104590049 0.8252903957)
( 0.0347826087 0.0300035298 0.0839334934 0.7802860589)
( 0.0678627870 0.0745492372 0.0552369187 0.8248856037)
( 0.0009737098 0.0584121761 0.0274520256 0.8479307026)
)
(( 0.0748930100 0.0422282120 0.1206640454 0.8280334326)
( 0.0761356907 0.0283261043 0.0964991837 0.7752906472)
( 0.0762577885 0.0649294433 0.0693179706 0.8565346168)
( 0.0333765993 0.0446867459 0.0377740601 0.8902427681)
)
)
((( 0.0643836895 0.0451563432 0.0343922527 0.9610389610)
( 0.0605098701 0.0628298567 0.0027935562 0.9039139474)
( 0.0089736399 0.0184259016 0.0761812140 0.8475294516)
( 0.0749625187 0.0798165917 0.0681063123 0.8107012566)
)
(( 0E-10 0.0220466654 0.0514412040 0.8266608007)
( 0.0497243541 0.0319886263 0.0112271540 0.8693086746)
( 0.0204578665 0.0293489861 0.0451671183 0.8096510404)
( 0.0012822157 0.0772168715 0.0303292894 0.7869678130)
)
(( 0.0698324022 0.0055076189 0.0704984284 0.8592074592)
( 0.0808897877 0.0690831557 0.0266471197 0.9391413897)
( 0.0836470096 0.0569541890 0.0172460742 0.8941344778)
( 0.0585937500 0.0775757576 0.0545589816 0.8051529791)
)
(( 0.0214112828 0.0567986231 0.0796304443 0.8576143329)
( 0.0231920725 0.0123141877 0.0360595108 0.8861216554)
( 0.0898437500 0.0649406875 0.0221867235 0.8655760409)
( 0.0876388464 0.0783972125 0.0017844397 0.8518613170)
)
)
((( 0.0935230325 0.0198841532 0.0669512093 0.8235197233)
( 0.1041666667 0.0150615753 0.0318790418 0.8171269815)
( 0.0382729339 0.0459892102 0.0113218228 0.7903264048)
( 0.0727402814 0.0489211147 0.0567107750 0.7073136229)
)
(( 0.0443951165 0.0757449642 0.0114768683 0.8383014862)
( 0.0429830217 0.0418270035 0E-10 0.8673779166)
( 0.0942429830 0.0095370210 0.0230179028 0.8275405495)
( 0.1076595267 0.0017677214 0.0827067669 0.7107825716)
)
(( 0.0376084860 0.0125616869 0.0267162372 0.8883490696)
( 0.0023543261 0.0084467386 0.0706470233 0.8128098838)
( 0.0385925085 0.0562700965 0.0148523502 0.7844367744)
( 0.0369301789 0.0174428746 0.0120750511 0.8082114281)
)
(( 0.0536459368 0.0230312694 0.0363036304 0.9201999808)
( 0.0186123462 0.0333070383 0.0496541940 0.8430281571)
( 0.0088339223 0.0394173093 0.0528275743 0.8178621084)
( 0.0747576218 0.0748476936 0.0122203422 0.7575183698)))))); 
}

potential ( CBODD_12_45 | CBODD_12_30 CBODN_12_30 CKNI_12_30 CNOD_12_30 C_NI_12_30 ) { 
 data = (((((( 0.8282945415 0.0814211695 0.0588869536 0.0622385471)
( 0.9086778737 0.0055452865 0.0198515450 0.0230946882)
( 0.9058192247 0.0189345896 0.0701930308 0.0137578616)
( 0.8066933492 0.0443714743 0.0214938205 0.0634978229)
)
(( 0.7936507937 0.0775937228 0.0426475606 0.0398878827)
( 0.9022827754 0.0772391126 0.0144757080 0.0513905683)
( 0.8817118554 0.0083410565 0.0589995014 0.0427309847)
( 0.9749038656 0.0313463515 0.0176320197 0.0392195313)
)
(( 0.8000000000 0.0443158180 0.0396930405 0.0866095757)
( 0.8522969403 0.0225286113 0.0131381381 0.0652366210)
( 0.8507018290 0.0624640421 0.0461793152 0.0790368532)
( 0.9332695985 0.0221704704 0.0150432493 0.0737618546)
)
(( 0.8467400508 0.0792974079 0.0439049587 0.0330984412)
( 0.8269246672 0.0460371908 0.0601831662 0.0338839475)
( 0.8916629514 0.0445103858 0.0505498404 0.0920216298)
( 0.9241741742 0.0134751773 0.0167519777 0.0579903033)
)
)
((( 0.9372585963 0.0797546012 0.0472151788 0.0019199386)
( 0.9302759501 0.0480971069 0.0009077705 0.0307580966)
( 0.8780130770 0.0878514496 0.0136500137 0.0542704626)
( 0.8623621091 0.1323253109 0.0357173229 0.0218283419)
)
(( 0.8640055296 0.0317052271 0.0035323207 0.0076821773)
( 0.9121378527 0.0326028862 0.0090228278 0.0413765264)
( 0.8962614993 0.0782818892 0.0154953970 0.0208643815)
( 0.7978127010 0.1120264991 0.0837651123 0.0132387707)
)
(( 0.8640055296 0.0009261832 0.0230478473 0.0437612208)
( 0.8955963303 0.0210712705 0.0122226401 0.0880814754)
( 0.8514579131 0.0645920029 0.0566121185 0.0289705122)
( 0.7944093778 0.1069662921 0.0575614861 0.0627364148)
)
(( 0.8471704507 0.0647469756 0.0322416426 0.0066430469)
( 0.9021619641 0.0133333333 0.0009029345 0.0345915149)
( 0.8708418510 0.0548951049 0.0772635815 0.0770370370)
( 0.7738343772 0.1041607699 0.0760327786 0.0684287058)
)
)
((( 0.9150004830 0.0446723743 0.0198686938 0.0129818254)
( 0.9217772215 0.0965356816 0.0832546563 0.0184433788)
( 0.8274992434 0.1569843627 0.0557939914 0.0060189166)
( 0.8832866480 0.2061541070 0.0190562613 0.0151451409)
)
(( 0.9388033522 0.0314001373 0.0391542678 0.0356489064)
( 0.7853215813 0.0897435897 0.0036476382 0.0777982265)
( 0.8269725133 0.1482689868 0.0044286980 0.0686577412)
( 0.8803964005 0.1974095967 0.0730050934 0.0356379187)
)
(( 0.8496083551 0.0217848970 0.0485518165 0.0277538520)
( 0.8492602587 0.0761381476 0.0672239938 0.0129559498)
( 0.8681386078 0.1242886598 0.0182365278 0.0378310214)
( 0.8599255855 0.1863418878 0.0417863672 0.0141342756)
)
(( 0.8603879084 0.0140221402 0.0280924332 0.0935347929)
( 0.8933385048 0.0669160786 0.0164956012 0.0636296570)
( 0.9186121225 0.1289211242 0.0836928387 0.0462710942)
( 0.8169289314 0.1741744285 0.0661689854 0.0228893389)
)
)
)
(((( 0.8120178644 0.0800344234 0.0266643730 0.0416266411)
( 0.9117236242 0.0181770743 0.0689249391 0.0073023159)
( 0.8867359356 0.0456000692 0.0390293569 0.0103476821)
( 0.8027354024 0.0693109961 0.0583420411 0.0226393736)
)
(( 0.8147967082 0.0463286713 0.0316539172 0.0836393309)
( 0.8435910478 0.0573991031 0.0779744174 0.0231365054)
( 0.8993651979 0.0328074579 0.0487681830 0.0594747918)
( 0.8479883488 0.0621027783 0.0129821958 0.0276295732)
)
(( 0.8678295583 0.0156869982 0.0008979885 0.0246305419)
( 0.8594757198 0.0492522611 0.0035004813 0.0485384532)
( 0.9404624277 0.0220064725 0.0114275668 0.0058258083)
( 0.8489887640 0.0499460043 0.0404421677 0.0901822239)
)
(( 0.8738967054 0.0662956294 0.0026075619 0.0422503891)
( 0.7971303308 0.0069759330 0.0114275668 0.0231861656)
( 0.8626489138 0.0134157105 0.0028050491 0.0691767961)
( 0.8486332473 0.0394548667 0.0428471494 0.0430469774)
)
)
((( 0.9498077113 0.0326617556 0.0811919310 0.0502710695)
( 0.8706732598 0.0705862675 0.0416518965 0.0352012178)
( 0.8468143233 0.1168199505 0.0380099671 0.0572132735)
( 0.8604846323 0.1607765948 0.0474934037 0.0730337079)
)
(( 0.9178929609 0.0189595164 0.0454421521 0.0815018315)
( 0.8388258599 0.0605095541 0.0138966092 0.0343394180)
( 0.8058340930 0.1039054102 0.0182348651 0.0579150579)
( 0.8828372388 0.1514253980 0.0307692308 0.0077239959)
)
(( 0.8395531861 0.0808463060 0.0225949422 0.0058881256)
( 0.8621633957 0.0475904648 0.0038033660 0.0603601821)
( 0.9266453146 0.0959516054 0.0126069338 0.0454018547)
( 0.8373262348 0.1363184080 0.0616710315 0.0861244019)
)
(( 0.8821453776 0.0404544672 0.0344949584 0E-10)
( 0.8251233659 0.0397558701 0.0846443228 0.0336872193)
( 0.8220446704 0.0860625910 0.0337118524 0.0020341741)
( 0.8452897123 0.1202028740 0.0757180157 0.0265604250)
)
)
((( 0.9024246008 0.0766784773 0.0296123475 0.0910712609)
( 0.8756551228 0.1326814390 0.0300379892 0.0276166805)
( 0.8009343896 0.1863047502 0.0355903550 0.0161317711)
( 0.9165718620 0.2488458405 0.0249791840 0.0553666060)
)
(( 0.8373179939 0.0623859905 0.0803525143 0.0282177317)
( 0.8274711658 0.1152569032 0.0248161765 0.0216313655)
( 0.8481973435 0.1653969866 0.0279874481 0.0211166484)
( 0.8037302104 0.2213100735 0.0849785408 0.0188772160)
)
(( 0.8317921620 0.0471457696 0.0492654174 0.0384759760)
( 0.8218283582 0.1027190332 0.0331066571 0.0626734712)
( 0.8253407370 0.1615759185 0.0803179598 0.0233330342)
( 0.8471910112 0.2151101784 0.0075287032 0.0225225225)
)
(( 0.8055954695 0.0402333362 0.0133976420 0.0666913672)
( 0.8881789137 0.0957585220 0.0108528534 0.0127376945)
( 0.7866869822 0.1566807821 0.0347655554 0.0316288877)
( 0.8902638338 0.2102745793 0.0716344894 0.0540669476)
)
)
)
(((( 0.8522064584 0.0187814522 0.0195260495 0.0654186795)
( 0.9284524160 0.0445590598 0.0639658849 0.0667669739)
( 0.8824209715 0.0728402520 0.0823150034 0.0463971215)
( 0.8632545419 0.0942646224 0.0246552826 0.0654136724)
)
(( 0.8414510401 0.0347826087 0.0392357557 0.0733150782)
( 0.8685539127 0.0311595437 0.0267633601 0.0469656506)
( 0.9539217694 0.0622157540 0.0567174761 0.0492431151)
( 0.8571292504 0.0903919090 0.0135427952 0.0585937500)
)
(( 0.8536064874 0.0277341222 0.0374531835 0.0579209430)
( 0.8906934307 0.0208680403 0.0180897250 0.0529916177)
( 0.8406764575 0.0497668580 0.0095345410 0.0397559172)
( 0.7876931043 0.0776276009 0.0118688944 0.0118413262)
)
(( 0.8120178644 0.0249612670 0.0102842184 0.0545580796)
( 0.8419972640 0.0138181818 0.0342555995 0.0962020243)
( 0.9379982285 0.0419611703 0.0330620549 0.0745963622)
( 0.8551935394 0.0721952114 0.0749870712 0.0134693092)
)
)
((( 0.8040400552 0.0622561031 0.0422471910 0.0883263522)
( 0.8154641078 0.0966159475 0.0573647516 0.0326163611)
( 0.8884402890 0.1455094608 0.0093641727 0.0754898811)
( 0.8660224028 0.1750434711 0.0392541708 0.0465785908)
)
(( 0.8672768879 0.0446314716 0.0736679801 0.0453829768)
( 0.8411066455 0.0840893817 0.0830815710 0.0151601289)
( 0.8494966610 0.1307774039 0.0733390854 0.0125978584)
( 0.8105984284 0.1711932714 0.0136227409 0.0108252144)
)
(( 0.9032258065 0.0359248843 0.0436414419 0.0248637276)
( 0.8368020537 0.0770112915 0.0252184094 0.0544323484)
( 0.8199222822 0.1170397362 0.0111462010 0.0445576066)
( 0.7752489331 0.1649344781 0.0283822138 0.0490318291)
)
(( 0.9594969301 0.0264928870 0.0624691764 0.0624566273)
( 0.8664534938 0.0685480359 0.0110578695 0.0620715212)
( 0.8144868090 0.1142986425 0.0658693014 0.0138568129)
( 0.7829589612 0.1517584431 0.0662910176 0.0826929502)
)
)
((( 0.9256388773 0.0949579145 0.0777134962 0.0319729171)
( 0.8836583001 0.1558948556 0.0392826644 0.0664395230)
( 0.7795632468 0.2162354406 0.0572183099 0.0334012220)
( 0.8684704998 0.2781102648 0.0449477051 0.0156617071)
)
(( 0.8498441779 0.0848736646 0.0117583213 0.0534226729)
( 0.8513843648 0.1457590877 0.0153985507 0.0723281144)
( 0.8588732081 0.1896609320 0.0590682196 0.0503060283)
( 0.8553170967 0.2530477186 0.0822147651 0.0599128540)
)
(( 0.9316117179 0.0816956766 0.0287175805 0.0609446420)
( 0.8717027610 0.1320192729 0.0604454749 0.0682713348)
( 0.8704031901 0.1773913043 0.0138085786 0.0423011844)
( 0.7657161030 0.2462971175 0.0162852490 0.0730696798)
)
(( 0.8419080691 0.0668024786 0.0385235621 0.0774823034)
( 0.9146939646 0.1283393502 0.0829015544 0.0264068476)
( 0.7709405028 0.1799650044 0.0458715596 0.0618862942)
( 0.8817567568 0.2245204337 0.0588837686 0.0152194809)
)
)
)
(((( 0.8744576756 0.0451701380 0.0122919818 0E-10)
( 0.8207242739 0.0797204118 0.0027665068 0.0220639856)
( 0.9001833367 0.0982497675 0.0556979931 0.0736313236)
( 0.8606201394 0.1280852169 0.0140594245 0.0403117442)
)
(( 0.8275210445 0.0316992898 0.0819192510 0.0977391648)
( 0.8875762195 0.0605631309 0.0550426136 0.0712631391)
( 0.8466459686 0.0814881146 0.0258559201 0.0825799722)
( 0.8732521879 0.1103396353 0.0166821131 0.0542250339)
)
(( 0.8882620564 0.0213740458 0.0522561380 0.0378147079)
( 0.9506794162 0.0470259278 0.0559098454 0.0884049879)
( 0.9306617722 0.0816956766 0.0814733090 0.0842266462)
( 0.8766169154 0.0960839725 0.0823709239 0.0019067595)
)
(( 0.8947846629 0.0133920705 0.0028129395 0.0906626788)
( 0.8640195812 0.0407224103 0.0314198370 0.0622160774)
( 0.8411394139 0.0707670174 0.0645048815 0.0171690195)
( 0.8293865374 0.0971916542 0.0153056631 0.0070852892)
)
)
((( 0.7971117214 0.0878514496 0.0735105565 0.0080935252)
( 0.8353102637 0.1313849161 0.0341675132 0.0171482466)
( 0.8446194226 0.1658606940 0.0582659362 0.0642557048)
( 0.7893199833 0.2168137648 0.0536170213 0.0401101062)
)
(( 0.8715264560 0.0728625822 0.0681563282 0.0199302441)
( 0.8619799424 0.1096972721 0.0475763016 0.0529438613)
( 0.8119742702 0.1638670805 0.0703188880 0.0723030154)
( 0.8284917998 0.1982713463 0.0450045005 0.0024535863)
)
(( 0.8898045228 0.0643011527 0.0809995692 0.0611278519)
( 0.8536821705 0.1041575492 0.0467537050 0.0709344076)
( 0.9005835314 0.1353921170 0.0638816508 0.0583065743)
( 0.8451279845 0.1770979744 0.0072221721 0.0468227425)
)
(( 0.8029472241 0.0557231588 0.0803897686 0.0263029713)
( 0.9035141174 0.0975351179 0.0536471403 0.0097336519)
( 0.9283351709 0.1403321787 0.0212805329 0.0133654103)
( 0.8169289314 0.1765665236 0.0551699591 0.0219613143)
)
)
((( 0.8747561852 0.1274231067 0.0389070652 0.0764710617)
( 0.9163374390 0.1843551060 0.0400036367 0.0150401070)
( 0.8118911656 0.2490713056 0.0276070888 0.0626258108)
( 0.8222719364 0.3140020414 0.0273527652 0.0070433558)
)
(( 0.8654172067 0.1161705126 0.0037558685 0.0280767431)
( 0.8535964354 0.1705954252 0.0009090083 0.0206914389)
( 0.7679237464 0.2279372908 0.0210896309 0.0519311912)
( 0.8658489843 0.2843656256 0.0286956522 0.0665759897)
)
(( 0.8989795918 0.1107491857 0.0459120607 0.0697311680)
( 0.8682952735 0.1589029168 0.0476311984 0.0203510557)
( 0.7987288136 0.2055824837 0.0485685072 0.0135272235)
( 0.7833238798 0.2500808016 0E-10 0.0191233841)
)
(( 0.9062754686 0.1024213749 0.0099574545 0.0603147677)
( 0.8640309591 0.1468874060 0.0677646252 0.0324220119)
( 0.8073258522 0.2006762468 0.0250514449 0.0508597723)
( 0.8770543219 0.2621080139 0.0124135485 0.0217374427)
)
)
)
)
((((( 0.0747949971 0.7481700798 0.0746454342 0.0642791552)
( 0.0531576556 0.8701478743 0.0785430692 0.0401646752)
( 0.0247941530 0.8816814640 0.0568229297 0.0776336478)
( 0.0621646939 0.8377536415 0.0429876411 0.0544267054)
)
(( 0.0865079365 0.7768090671 0.0648242921 0.0636050022)
( 0.0697464585 0.7581758422 0.0389034651 0.0725513906)
( 0.0403154351 0.8846153846 0.0714641848 0.0883107017)
( 0.0139647845 0.8446385749 0.0599488671 0.0323561133)
)
(( 0.0992000000 0.7922582979 0.0361647702 0.0953678474)
( 0.0786670076 0.8179688204 0.0037537538 0.0187969925)
( 0.0514674607 0.7721706255 0.0409514682 0.0735226542)
( 0.0275334608 0.9047042385 0E-10 0.0756777469)
)
(( 0.1134631668 0.7384038199 0.0533746556 0.0523168909)
