net { }

node AppData { 
 states = ( "Correct" "Incorrect_or_corrupt" ); 
}

node AppDtGnTm { 
 states = ( "Fast_Enough" "Too_Long" ); 
}

node AppOK { 
 states = ( "Correct" "Incorrect_Corrupt" ); 
}

node AvlblVrtlMmry { 
 states = ( "Adequate____1Mb_" "Inadequate____1_Mb_" ); 
}

node CblPrtHrdwrOK { 
 states = ( "Operational" "Not_Operational" ); 
}

node CmpltPgPrntd { 
 states = ( "Yes" "No" ); 
}

node DSApplctn { 
 states = ( "DOS" "Windows" ); 
}

node DS_LCLOK { 
 states = ( "Yes" "No" ); 
}

node DS_NTOK { 
 states = ( "Yes" "No" ); 
}

node DataFile { 
 states = ( "Correct" "Incorrect_Corrupt" ); 
}

node DeskPrntSpd { 
 states = ( "OK" "Too_Slow" ); 
}

node DrvOK { 
 states = ( "Reinstalled" "Corrupt" ); 
}

node DrvSet { 
 states = ( "Correct" "Incorrect" ); 
}

node DskLocal { 
 states = ( "Greater_than_2_Mb" "Less_than_2_Mb" ); 
}

node EMFOK { 
 states = ( "Yes" "No" ); 
}

node EPSGrphc { 
 states = ( "No____TIF___WMF___BMP_" "Yes____EPS_" ); 
}

node FllCrrptdBffr { 
 states = ( "Intact__not_Corrupt_" "Full_or_Corrupt" ); 
}

node FntInstlltn { 
 states = ( "Verified" "Faulty" ); 
}

node GDIIN { 
 states = ( "Yes" "No" ); 
}

node GDIOUT { 
 states = ( "Yes" "No" ); 
}

node GrbldOtpt { 
 states = ( "No" "Yes" ); 
}

node GrbldPS { 
 states = ( "No" "Yes" ); 
}

node GrphcsRltdDrvrSttngs { 
 states = ( "Correct" "Incorrect" ); 
}

node HrglssDrtnAftrPrnt { 
 states = ( "Fast_Enough" "Too_Long" ); 
}

node IncmpltPS { 
 states = ( "Yes" "No" ); 
}

node LclGrbld { 
 states = ( "Yes" "No" ); 
}

node LclOK { 
 states = ( "Yes" "No" ); 
}

node NetOK { 
 states = ( "Yes" "No" ); 
}

node NetPrint { 
 states = ( "No__Local_printer_" "Yes__Network_printer_" ); 
}

node NnPSGrphc { 
 states = ( "Yes" "No" ); 
}

node NnTTOK { 
 states = ( "Yes" "No" ); 
}

node NtGrbld { 
 states = ( "Yes" "No" ); 
}

node NtSpd { 
 states = ( "OK" "Slow" ); 
}

node NtwrkCnfg { 
 states = ( "Correct" "Incorrect" ); 
}

node PC2PRT { 
 states = ( "Yes" "No" ); 
}

node PSERRMEM { 
 states = ( "No_Error" "Low_Memory" ); 
}

node PSGRAPHIC { 
 states = ( "Yes" "No" ); 
}

node PTROFFLINE { 
 states = ( "Online" "Offline" ); 
}

node PgOrnttnOK { 
 states = ( "Correct" "Incorrect" ); 
}

node PrntPrcssTm { 
 states = ( "Fast_Enough" "Too_Long" ); 
}

node PrntngArOK { 
 states = ( "Correct" "Incorrect" ); 
}

node PrntrAccptsTrtyp { 
 states = ( "Yes" "No" ); 
}

node Problem1 { 
 states = ( "Normal_Output" "No_Output" ); 
}

node Problem2 { 
 states = ( "OK" "Too_Long" ); 
}

node Problem3 { 
 states = ( "No" "Yes" ); 
}

node Problem4 { 
 states = ( "No" "Yes" ); 
}

node Problem5 { 
 states = ( "No" "Yes" ); 
}

node Problem6 { 
 states = ( "No" "Yes" ); 
}

node PrtCbl { 
 states = ( "Connected" "Loose" ); 
}

node PrtData { 
 states = ( "Yes" "No" ); 
}

node PrtDataOut { 
 states = ( "Yes" "No" ); 
}

node PrtDriver { 
 states = ( "Yes" "No" ); 
}

node PrtFile { 
 states = ( "Yes" "No" ); 
}

node PrtIcon { 
 states = ( "Normal" "Grayed_Out" ); 
}

node PrtMem { 
 states = ( "Greater_than_2_Mb" "Less_than_2Mb" ); 
}

node PrtMpTPth { 
 states = ( "Correct" "Incorrect" ); 
}

node PrtOn { 
 states = ( "Yes" "No" ); 
}

node PrtPScript { 
 states = ( "Yes" "No" ); 
}

node PrtPaper { 
 states = ( "Has_Paper" "No_Paper" ); 
}

node PrtPath { 
 states = ( "Correct" "Incorrect" ); 
}

node PrtPort { 
 states = ( "Yes" "No" ); 
}

node PrtQueue { 
 states = ( "Short" "Long" ); 
}

node PrtSel { 
 states = ( "Yes" "No" ); 
}

node PrtSpool { 
 states = ( "Enabled" "Disabled" ); 
}

node PrtStatMem { 
 states = ( "No_Error" "Out_of_Memory" ); 
}

node PrtStatOff { 
 states = ( "No_Error" "OFFLINE__OFF" ); 
}

node PrtStatPaper { 
 states = ( "No_Error" "Jam__Out__Bin_Full" ); 
}

node PrtStatToner { 
 states = ( "No_Error" "Low__None" ); 
}

node PrtThread { 
 states = ( "OK" "Corrupt_Buggy" ); 
}

node PrtTimeOut { 
 states = ( "Long_Enough" "Too_Short" ); 
}

node REPEAT { 
 states = ( "Yes__Always_the_Same_" "No__Different_Each_Time_" ); 
}

node ScrnFntNtPrntrFnt { 
 states = ( "Yes" "No" ); 
}

node TTOK { 
 states = ( "Yes" "No" ); 
}

node TnrSpply { 
 states = ( "Adequate" "Low" ); 
}

node TrTypFnts { 
 states = ( "Yes" "No" ); 
}

node TstpsTxt { 
 states = ( "x_1_Mb_Available_VM" "x_1_Mb_Available_VM2" ); 
}

potential ( AppData | AppOK DataFile ) { 
 data = ((( 0.9425016495 0.0574983505)
( 0E-10 1.0000000000)
)
(( 0.0757855823 0.9242144177)
( 0.5000000000 0.5000000000))); 
}

potential ( AppDtGnTm | PrtSpool ) { 
 data = (( 0.9615384615 0.0384615385)
( 0.9269662928 0.0730337072)); 
}

potential ( AppOK ) { 
 data = (  0.9900497512 0.0099502488); 
}

potential ( AvlblVrtlMmry | PrtPScript ) { 
 data = (( 0.9800000000 0.0200000000)
( 0.9157509158 0.0842490842)); 
}

potential ( CblPrtHrdwrOK ) { 
 data = (  0.9900000000 0.0100000000); 
}

potential ( CmpltPgPrntd | PgOrnttnOK PrntngArOK PrtMem ) { 
 data = (((( 0.9900000000 0.0100000000)
( 0.3000000000 0.7000000000)
)
(( 0.1000000000 0.9000000000)
( 0.5000000000 0.5000000000)
)
)
((( 0.0303623895 0.9696376105)
( 0.5000000000 0.5000000000)
)
(( 0.5000000000 0.5000000000)
( 0.5000000000 0.5000000000)))); 
}

potential ( DSApplctn ) { 
 data = (  0.1500000000 0.8500000000); 
}

potential ( DS_LCLOK | AppData CblPrtHrdwrOK PrtCbl PrtPort ) { 
 data = ((((( 0.9090909091 0.0683229814)
( 0.1423670669 0.6666666667)
)
(( 0.0476190476 0.6666666667)
( 0.5000000000 0.5000000000)
)
)
((( 0.1666666667 0.6428571429)
( 0.5000000000 0.5000000000)
)
(( 0.5000000000 0.5000000000)
( 0.5000000000 0.5000000000)
)
)
)
(((( 0.0909090909 0.9316770186)
( 0.8576329331 0.3333333333)
)
(( 0.9523809524 0.3333333333)
( 0.5000000000 0.5000000000)
)
)
((( 0.8333333333 0.3571428571)
( 0.5000000000 0.5000000000)
)
(( 0.5000000000 0.5000000000)
( 0.5000000000 0.5000000000))))); 
}

potential ( DS_NTOK | AppData NtwrkCnfg PTROFFLINE PrtMpTPth PrtPath ) { 
 data = (((((( 0.8319327731 0.0123456790)
( 0.0636704120 0.6666666667)
)
(( 0.1511035654 0.6666666667)
( 0.5000000000 0.5000000000)
)
)
((( 0.0689013035 0.6666666667)
( 0.5000000000 0.5000000000)
)
(( 0.5000000000 0.5000000000)
( 0.5000000000 0.5000000000)
)
)
)
(((( 0.1666666667 0.6428571429)
( 0.5000000000 0.5000000000)
)
(( 0.5000000000 0.5000000000)
( 0.5000000000 0.5000000000)
)
)
((( 0.5000000000 0.5000000000)
( 0.5000000000 0.5000000000)
)
(( 0.5000000000 0.5000000000)
( 0.5000000000 0.5000000000)
)
)
)
)
((((( 0.1680672269 0.9876543210)
( 0.9363295880 0.3333333333)
)
(( 0.8488964346 0.3333333333)
( 0.5000000000 0.5000000000)
)
)
((( 0.9310986965 0.3333333333)
( 0.5000000000 0.5000000000)
)
(( 0.5000000000 0.5000000000)
( 0.5000000000 0.5000000000)
)
)
)
(((( 0.8333333333 0.3571428571)
( 0.5000000000 0.5000000000)
)
(( 0.5000000000 0.5000000000)
( 0.5000000000 0.5000000000)
)
)
((( 0.5000000000 0.5000000000)
( 0.5000000000 0.5000000000)
)
(( 0.5000000000 0.5000000000)
( 0.5000000000 0.5000000000)))))); 
}

potential ( DataFile ) { 
 data = (  0.9688412853 0.0311587147); 
}

potential ( DeskPrntSpd | AppDtGnTm PrntPrcssTm PrtMem ) { 
 data = (((( 0.9990000000 0.0654817580)
( 0.3333333333 0.6000000000)
)
(( 0.0234375000 0.6664442984)
( 0.5000000000 0.5000000000)
)
)
((( 0.0010000000 0.9345182420)
( 0.6666666667 0.4000000000)
)
(( 0.9765625000 0.3335557016)
( 0.5000000000 0.5000000000)))); 
}

potential ( DrvOK ) { 
 data = (  0.9900000000 0.0100000000); 
}

potential ( DrvSet ) { 
 data = (  0.9900000000 0.0100000000); 
}

potential ( DskLocal ) { 
 data = (  0.9700000000 0.0300000000); 
}

potential ( EMFOK | AppData DskLocal PrtThread ) { 
 data = (((( 0.9082568807 0.0109890110)
( 0.0909090909 0.6551724138)
)
(( 0.1087344029 0.6666666667)
( 0.5000000000 0.5000000000)
)
)
((( 0.0917431193 0.9890109890)
( 0.9090909091 0.3448275862)
)
(( 0.8912655971 0.3333333333)
( 0.5000000000 0.5000000000)))); 
}

potential ( EPSGrphc ) { 
 data = (  0.9900000000 0.0100000000); 
}

potential ( FllCrrptdBffr ) { 
 data = (  0.8500000000 0.1500000000); 
}

potential ( FntInstlltn ) { 
 data = (  0.9800000000 0.0200000000); 
}

potential ( GDIIN | AppData EMFOK PrtSpool ) { 
 data = (((( 0.9337068161 0.0319457890)
( 0.9737098345 0.0319457890)
)
(( 0.2910447761 0.5000000000)
( 0.9208103131 0.0128331688)
)
)
((( 0.0662931839 0.9680542110)
( 0.0262901655 0.9680542110)
)
(( 0.7089552239 0.5000000000)
( 0.0791896869 0.9871668312)))); 
}

potential ( GDIOUT | DrvOK DrvSet GDIIN PrtDriver ) { 
 data = ((((( 0.8319327731 0.0123456790)
( 0.1666666667 0.6428571429)
)
(( 0.1666666667 0.6428571429)
( 0.5000000000 0.5000000000)
)
)
((( 0.6428571429 0.1666666667)
( 0.5000000000 0.5000000000)
)
(( 0.5000000000 0.5000000000)
( 0.5000000000 0.5000000000)
)
)
)
(((( 0.1680672269 0.9876543210)
( 0.8333333333 0.3571428571)
)
(( 0.8333333333 0.3571428571)
( 0.5000000000 0.5000000000)
)
)
((( 0.3571428571 0.8333333333)
( 0.5000000000 0.5000000000)
)
(( 0.5000000000 0.5000000000)
( 0.5000000000 0.5000000000))))); 
}

potential ( GrbldOtpt | LclGrbld NetPrint NtGrbld ) { 
 data = (((( 0.9940357853 0.0059642147)
( 0.9372071228 0.0627928772)
)
(( 0.9165902841 0.0834097159)
( 0.0574929312 0.9425070688)
)
)
((( 0.0627928772 0.9372071228)
( 0.0671641791 0.9328358209)
)
(( 0.9380863039 0.0619136961)
( 0.0574929312 0.9425070688)))); 
}

potential ( GrbldPS | AvlblVrtlMmry GrbldOtpt ) { 
 data = ((( 0.9090909091 0.0394877268)
( 0.1039426523 0.6666666667)
)
(( 0.0909090909 0.9605122732)
( 0.8960573477 0.3333333333))); 
}

potential ( GrphcsRltdDrvrSttngs ) { 
 data = (  0.9500000000 0.0500000000); 
}

potential ( HrglssDrtnAftrPrnt | AppDtGnTm ) { 
 data = (( 0.9082568807 0.0109890110)
( 0.0917431193 0.9890109890)); 
}

potential ( IncmpltPS | AvlblVrtlMmry CmpltPgPrntd ) { 
 data = ((( 0.7692307692 0.0384615385)
( 0.0974729242 0.6666666667)
)
(( 0.2307692308 0.9615384615)
( 0.9025270758 0.3333333333))); 
}

potential ( LclGrbld | AppData CblPrtHrdwrOK PrtDriver PrtMem ) { 
 data = ((((( 0.8333333333 0.0123456790)
( 0.2857142857 0.6153846154)
)
(( 0.4444444444 0.5454545455)
( 0.5000000000 0.5000000000)
)
)
((( 0.1666666667 0.6428571429)
( 0.5000000000 0.5000000000)
)
(( 0.5000000000 0.5000000000)
( 0.5000000000 0.5000000000)
)
)
)
(((( 0.1666666667 0.9876543210)
( 0.7142857143 0.3846153846)
)
(( 0.5555555556 0.4545454545)
( 0.5000000000 0.5000000000)
)
)
((( 0.8333333333 0.3571428571)
( 0.5000000000 0.5000000000)
)
(( 0.5000000000 0.5000000000)
( 0.5000000000 0.5000000000))))); 
}

potential ( LclOK | CblPrtHrdwrOK PrtCbl PrtPort ) { 
 data = (((( 0.9900891972 0.0159045726)
( 0.1304347826 0.6666666667)
)
(( 0.0601503759 0.6666666667)
( 0.5000000000 0.5000000000)
)
)
((( 0.0099108028 0.9840954274)
( 0.8695652174 0.3333333333)
)
(( 0.9398496241 0.3333333333)
( 0.5000000000 0.5000000000)))); 
}

potential ( NetOK | NtwrkCnfg PTROFFLINE PrtPath ) { 
 data = (((( 0.9900000000 0.0100000000)
( 0.0689013035 0.9310986965)
)
(( 0.0521327014 0.9478672986)
( 0.5000000000 0.5000000000)
)
)
((( 0.1000000000 0.9000000000)
( 0.5000000000 0.5000000000)
)
(( 0.5000000000 0.5000000000)
( 0.5000000000 0.5000000000)))); 
}

potential ( NetPrint ) { 
 data = (  0.8000000000 0.2000000000); 
}

potential ( NnPSGrphc | EPSGrphc GrphcsRltdDrvrSttngs PrtMem ) { 
 data = (((( 0.9301675978 0.0069513406)
( 0.3333333333 0.6000000000)
)
(( 0.1666666667 0.6428571429)
( 0.5000000000 0.5000000000)
)
)
((( 0.0698324022 0.9930486594)
( 0.6666666667 0.4000000000)
)
(( 0.8333333333 0.3571428571)
( 0.5000000000 0.5000000000)))); 
}

potential ( NnTTOK | FntInstlltn PrtMem ScrnFntNtPrntrFnt ) { 
 data = (((( 0.9082568816 0.0455991516)
( 0.1666666667 0.6428571429)
)
(( 0.5000000000 0.5000000000)
( 0.5000000000 0.5000000000)
)
)
((( 0.0917431184 0.9544008484)
( 0.8333333333 0.3571428571)
)
(( 0.5000000000 0.5000000000)
( 0.5000000000 0.5000000000)))); 
}

potential ( NtGrbld | AppData NtwrkCnfg PrtDriver PrtMem ) { 
 data = ((((( 0.7692307692 0.0410958904)
( 0.2857142857 0.6153846154)
)
(( 0.4444444444 0.5454545455)
( 0.5000000000 0.5000000000)
)
)
((( 0.4444444444 0.5454545455)
( 0.5000000000 0.5000000000)
)
(( 0.5000000000 0.5000000000)
( 0.5000000000 0.5000000000)
)
)
)
(((( 0.2307692308 0.9589041096)
( 0.7142857143 0.3846153846)
)
(( 0.5555555556 0.4545454545)
( 0.5000000000 0.5000000000)
)
)
((( 0.5555555556 0.4545454545)
( 0.5000000000 0.5000000000)
)
(( 0.5000000000 0.5000000000)
( 0.5000000000 0.5000000000))))); 
}

potential ( NtSpd | DeskPrntSpd NtwrkCnfg PrtQueue ) { 
 data = (((( 0.9900891973 0.0253411306)
( 0.3333333333 0.6000000000)
)
(( 0.3333333333 0.6000000000)
( 0.5000000000 0.5000000000)
)
)
((( 0.0099108027 0.9746588694)
( 0.6666666667 0.4000000000)
)
(( 0.6666666667 0.4000000000)
( 0.5000000000 0.5000000000)))); 
}

potential ( NtwrkCnfg ) { 
 data = (  0.9800000000 0.0200000000); 
}

potential ( PC2PRT | DSApplctn DS_LCLOK DS_NTOK LclOK NetOK NetPrint PrtDataOut ) { 
 data = (((((((( 0.5000000000 0.4146341463)
( 0.9259259259 0.0009990010)
)
(( 0.5000000000 0.7156862745)
( 0.9132420091 0.0783410138)
)
)
((( 0.5000000000 0.1238095238)
( 0.9469696970 0.0412272291)
)
(( 0.9832841691 0.0224828935)
( 0.9293680297 0.0375360924)
)
)
)
(((( 0.9960159363 0.0485252141)
( 0.9216589862 0.0706319703)
)
(( 0.5000000000 0.4460431655)
( 0.9532888465 0.0680335508)
)
)
((( 0.9451795841 0.0476190476)
( 0.9132420091 0.0503323837)
)
(( 0.9689922481 0.0356798457)
( 0.9505703422 0.0825688073)
)
)
)
)
((((( 0.5000000000 0.6290322581)
( 0.9587727709 0.0234375000)
)
(( 0.0069513406 0.9606147935)
( 0.2470588235 0.5000000000)
)
)
((( 0.5000000000 0.9620253165)
( 0.9140767824 0.0654205607)
)
(( 0.5438596491 0.5000000000)
( 0.5408163265 0.5000000000)
)
)
)
(((( 0.9532888465 0.0338164251)
( 0.9242144177 0.0817263545)
)
(( 0.0900818926 0.9149130833)
( 0.9250000000 0.5000000000)
)
)
((( 0.9606147935 0.0281827017)
( 0.9267840593 0.0099009901)
)
(( 0.6438356164 0.5000000000)
( 0.6000000000 0.5000000000)
)
)
)
)
)
(((((( 0.0128331688 0.9765625000)
( 0.5240641711 0.5000000000)
)
(( 0.5000000000 0.4270833333)
( 0.9910802775 0.0539262062)
)
)
((( 0.0243902439 0.9442870633)
( 0.6282051282 0.5000000000)
)
(( 0.9165902841 0.0583804143)
( 0.9523809524 0.0328820116)
)
)
)
(((( 0.3275862069 0.5000000000)
( 0.9523809524 0.5000000000)
)
(( 0.5000000000 0.5479452055)
( 0.9708737864 0.0019960080)
)
)
((( 0.9047619048 0.5000000000)
( 0.4505494505 0.5000000000)
)
(( 0.9442870633 0.0039840637)
( 0.9532888465 0.0485252141)
)
)
)
)
((((( 0.0494296578 0.9560229446)
( 0.9146341463 0.5000000000)
)
(( 0.0393852065 0.9310986965)
( 0.5203252033 0.5000000000)
)
)
((( 0.0557129367 0.9823182711)
( 0.7021276596 0.5000000000)
)
(( 0.5246913580 0.5000000000)
( 0.8318584071 0.5000000000)
)
)
)
(((( 0.3152173913 0.5000000000)
( 0.7575757576 0.5000000000)
)
(( 0.0375360924 0.9514747859)
( 0.3958333333 0.5000000000)
)
)
((( 0.5229885057 0.5000000000)
( 0.3658536585 0.5000000000)
)
(( 0.1538461538 0.5000000000)
( 0.3933333333 0.5000000000)
)
)
)
)
)
)
((((((( 0.5000000000 0.5853658537)
( 0.0740740741 0.9990009990)
)
(( 0.5000000000 0.2843137255)
( 0.0867579909 0.9216589862)
)
)
((( 0.5000000000 0.8761904762)
( 0.0530303030 0.9587727709)
)
(( 0.0167158309 0.9775171065)
( 0.0706319703 0.9624639076)
)
)
)
(((( 0.0039840637 0.9514747859)
( 0.0783410138 0.9293680297)
)
(( 0.5000000000 0.5539568345)
( 0.0467111535 0.9319664492)
)
)
((( 0.0548204159 0.9523809524)
( 0.0867579909 0.9496676163)
)
(( 0.0310077519 0.9643201543)
( 0.0494296578 0.9174311927)
)
)
)
)
((((( 0.5000000000 0.3709677419)
( 0.0412272291 0.9765625000)
)
(( 0.9930486594 0.0393852065)
( 0.7529411765 0.5000000000)
)
)
((( 0.5000000000 0.0379746835)
( 0.0859232176 0.9345794393)
)
(( 0.4561403509 0.5000000000)
( 0.4591836735 0.5000000000)
)
)
)
(((( 0.0467111535 0.9661835749)
( 0.0757855823 0.9182736455)
)
(( 0.9099181074 0.0850869167)
( 0.0750000000 0.5000000000)
)
)
((( 0.0393852065 0.9718172983)
( 0.0732159407 0.9900990099)
)
(( 0.3561643836 0.5000000000)
( 0.4000000000 0.5000000000)
)
)
)
)
)
(((((( 0.9871668312 0.0234375000)
( 0.4759358289 0.5000000000)
)
(( 0.5000000000 0.5729166667)
( 0.0089197225 0.9460737938)
)
)
((( 0.9756097561 0.0557129367)
( 0.3717948718 0.5000000000)
)
(( 0.0834097159 0.9416195857)
( 0.0476190476 0.9671179884)
)
)
)
(((( 0.6724137931 0.5000000000)
( 0.0476190476 0.5000000000)
)
(( 0.5000000000 0.4520547945)
( 0.0291262136 0.9980039920)
)
)
((( 0.0952380952 0.5000000000)
( 0.5494505495 0.5000000000)
)
(( 0.0557129367 0.9960159363)
( 0.0467111535 0.9514747859)
)
)
)
)
((((( 0.9505703422 0.0439770554)
( 0.0853658537 0.5000000000)
)
(( 0.9606147935 0.0689013035)
( 0.4796747967 0.5000000000)
)
)
((( 0.9442870633 0.0176817289)
( 0.2978723404 0.5000000000)
)
(( 0.4753086420 0.5000000000)
( 0.1681415929 0.5000000000)
)
)
)
(((( 0.6847826087 0.5000000000)
( 0.2424242424 0.5000000000)
)
(( 0.9624639076 0.0485252141)
( 0.6041666667 0.5000000000)
)
)
((( 0.4770114943 0.5000000000)
( 0.6341463415 0.5000000000)
)
(( 0.8461538462 0.5000000000)
( 0.6066666667 0.5000000000)))))))); 
}

potential ( PSERRMEM | AvlblVrtlMmry PrtPScript ) { 
 data = ((( 0.9523809524 0.0206185567)
( 0.5000000000 0.3082706767)
)
(( 0.0476190476 0.9793814433)
( 0.5000000000 0.6917293233))); 
}

potential ( PSGRAPHIC | EPSGrphc GrphcsRltdDrvrSttngs PrtMem ) { 
 data = (((( 0.4997498749 0.1000000000)
( 0.3333333333 0.6000000000)
)
(( 0.1666666667 0.6428571429)
( 0.5000000000 0.5000000000)
)
)
((( 0.5002501251 0.9000000000)
( 0.6666666667 0.4000000000)
)
(( 0.8333333333 0.3571428571)
( 0.5000000000 0.5000000000)))); 
}

potential ( PTROFFLINE ) { 
 data = (  0.7000000000 0.3000000000); 
}

potential ( PgOrnttnOK ) { 
 data = (  0.9500000000 0.0500000000); 
}

potential ( PrntPrcssTm | PrtSpool ) { 
 data = (( 0.9890109891 0.0109890109)
( 0.9842519685 0.0157480315)); 
}

potential ( PrntngArOK ) { 
 data = (  0.9800000000 0.0200000000); 
}

potential ( PrntrAccptsTrtyp ) { 
 data = (  0.9000000000 0.1000000000); 
}

potential ( Problem1 | PrtData ) { 
 data = (( 0.9891196835 0.0108803165)
( 0.0749306198 0.9250693802)); 
}

potential ( Problem2 | DeskPrntSpd NetPrint NtSpd ) { 
 data = (((( 0.9881422925 0.0654205607)
( 0.9267840593 0.0448901624)
)
(( 0.5000000000 0.1775700935)
( 0.2325581395 0.5000000000)
)
)
((( 0.0118577075 0.9345794393)
( 0.0732159407 0.9551098376)
)
(( 0.5000000000 0.8224299065)
( 0.7674418605 0.5000000000)))); 
}

potential ( Problem3 | CmpltPgPrntd IncmpltPS PrtPScript ) { 
 data = (((( 0.3676470588 0.5000000000)
( 0.0791896869 0.9596928983)
)
(( 0.5000000000 0.5823529412)
( 0.0749306198 0.9960159363)
)
)
((( 0.6323529412 0.5000000000)
( 0.9208103131 0.0403071017)
)
(( 0.5000000000 0.4176470588)
( 0.9250693802 0.0039840637)))); 
}

potential ( Problem4 | NnPSGrphc PSGRAPHIC PrtPScript ) { 
 data = (((( 0.2625000000 0.5000000000)
( 0.0281827017 0.9149130833)
)
(( 0.5000000000 0E-10)
( 0.0494296578 0.9652509653)
)
)
((( 0.7375000000 0.5000000000)
( 0.9718172983 0.0850869167)
)
(( 0.5000000000 1.0000000000)
( 0.9505703422 0.0347490347)))); 
}

potential ( Problem5 | NnTTOK TTOK TrTypFnts ) { 
 data = (((( 0.5342465753 0.5000000000)
( 0.0494296578 0.9199632015)
)
(( 0.5000000000 0.6406250000)
( 0.0215264188 0.9433962264)
)
)
((( 0.4657534247 0.5000000000)
( 0.9505703422 0.0800367985)
)
(( 0.5000000000 0.3593750000)
( 0.9784735812 0.0566037736)))); 
}

potential ( Problem6 | GrbldOtpt GrbldPS PrtPScript ) { 
 data = (((( 0.5000000000 0.5636363636)
( 0.9216589862 0.0118577075)
)
(( 0.8494623656 0.5000000000)
( 0.9208103131 0.0539262062)
)
)
((( 0.5000000000 0.4363636364)
( 0.0783410138 0.9881422925)
)
(( 0.1505376344 0.5000000000)
( 0.0791896869 0.9460737938)))); 
}

potential ( PrtCbl ) { 
 data = (  0.9800000000 0.0200000000); 
}

potential ( PrtData | FllCrrptdBffr PC2PRT PrtMem PrtOn PrtPaper PrtTimeOut TnrSpply ) { 
 data = (((((((( 0.9801980198 0.0101010101)
( 0.0196078431 0.6644295302)
)
(( 0.0671641791 0.6666666667)
( 0.5000000000 0.5000000000)
)
)
((( 0.0272373541 0.6666666667)
( 0.5000000000 0.5000000000)
)
(( 0.5000000000 0.5000000000)
( 0.5000000000 0.5000000000)
)
)
)
(((( 0.0458015267 0.6666666667)
( 0.5000000000 0.5000000000)
)
(( 0.5000000000 0.5000000000)
( 0.5000000000 0.5000000000)
)
)
((( 0.5000000000 0.5000000000)
( 0.5000000000 0.5000000000)
)
(( 0.5000000000 0.5000000000)
( 0.5000000000 0.5000000000)
)
)
)
)
((((( 0.1666666667 0.6428571429)
( 0.5000000000 0.5000000000)
)
(( 0.5000000000 0.5000000000)
( 0.5000000000 0.5000000000)
)
)
((( 0.5000000000 0.5000000000)
( 0.5000000000 0.5000000000)
)
(( 0.5000000000 0.5000000000)
( 0.5000000000 0.5000000000)
)
)
)
(((( 0.5000000000 0.5000000000)
( 0.5000000000 0.5000000000)
)
(( 0.5000000000 0.5000000000)
( 0.5000000000 0.5000000000)
)
)
((( 0.5000000000 0.5000000000)
( 0.5000000000 0.5000000000)
)
(( 0.5000000000 0.5000000000)
( 0.5000000000 0.5000000000)
)
)
)
)
)
(((((( 0.0925589837 0.6666666667)
( 0.5000000000 0.5000000000)
)
(( 0.5000000000 0.5000000000)
( 0.5000000000 0.5000000000)
)
)
((( 0.5000000000 0.5000000000)
( 0.5000000000 0.5000000000)
)
(( 0.5000000000 0.5000000000)
( 0.5000000000 0.5000000000)
)
)
)
(((( 0.5000000000 0.5000000000)
( 0.5000000000 0.5000000000)
)
(( 0.5000000000 0.5000000000)
( 0.5000000000 0.5000000000)
)
)
((( 0.5000000000 0.5000000000)
( 0.5000000000 0.5000000000)
)
(( 0.5000000000 0.5000000000)
( 0.5000000000 0.5000000000)
)
)
)
)
((((( 0.5000000000 0.5000000000)
( 0.5000000000 0.5000000000)
)
(( 0.5000000000 0.5000000000)
( 0.5000000000 0.5000000000)
)
)
((( 0.5000000000 0.5000000000)
( 0.5000000000 0.5000000000)
)
(( 0.5000000000 0.5000000000)
( 0.5000000000 0.5000000000)
)
)
)
(((( 0.5000000000 0.5000000000)
( 0.5000000000 0.5000000000)
)
(( 0.5000000000 0.5000000000)
( 0.5000000000 0.5000000000)
)
)
((( 0.5000000000 0.5000000000)
( 0.5000000000 0.5000000000)
)
(( 0.5000000000 0.5000000000)
( 0.5000000000 0.5000000000)
)
)
)
)
)
)
((((((( 0.0198019802 0.9898989899)
( 0.9803921569 0.3355704698)
)
(( 0.9328358209 0.3333333333)
( 0.5000000000 0.5000000000)
)
)
((( 0.9727626459 0.3333333333)
( 0.5000000000 0.5000000000)
)
(( 0.5000000000 0.5000000000)
( 0.5000000000 0.5000000000)
)
)
)
(((( 0.9541984733 0.3333333333)
( 0.5000000000 0.5000000000)
)
(( 0.5000000000 0.5000000000)
( 0.5000000000 0.5000000000)
)
)
((( 0.5000000000 0.5000000000)
( 0.5000000000 0.5000000000)
)
(( 0.5000000000 0.5000000000)
( 0.5000000000 0.5000000000)
)
)
)
)
((((( 0.8333333333 0.3571428571)
( 0.5000000000 0.5000000000)
)
(( 0.5000000000 0.5000000000)
( 0.5000000000 0.5000000000)
)
)
((( 0.5000000000 0.5000000000)
( 0.5000000000 0.5000000000)
)
(( 0.5000000000 0.5000000000)
( 0.5000000000 0.5000000000)
)
)
)
(((( 0.5000000000 0.5000000000)
( 0.5000000000 0.5000000000)
)
(( 0.5000000000 0.5000000000)
( 0.5000000000 0.5000000000)
)
)
((( 0.5000000000 0.5000000000)
( 0.5000000000 0.5000000000)
)
(( 0.5000000000 0.5000000000)
( 0.5000000000 0.5000000000)
)
)
)
)
)
(((((( 0.9074410163 0.3333333333)
( 0.5000000000 0.5000000000)
)
(( 0.5000000000 0.5000000000)
( 0.5000000000 0.5000000000)
)
)
((( 0.5000000000 0.5000000000)
( 0.5000000000 0.5000000000)
)
(( 0.5000000000 0.5000000000)
( 0.5000000000 0.5000000000)
)
)
)
(((( 0.5000000000 0.5000000000)
( 0.5000000000 0.5000000000)
)
(( 0.5000000000 0.5000000000)
( 0.5000000000 0.5000000000)
)
)
((( 0.5000000000 0.5000000000)
( 0.5000000000 0.5000000000)
)
(( 0.5000000000 0.5000000000)
( 0.5000000000 0.5000000000)
)
)
)
)
((((( 0.5000000000 0.5000000000)
( 0.5000000000 0.5000000000)
)
(( 0.5000000000 0.5000000000)
( 0.5000000000 0.5000000000)
)
)
((( 0.5000000000 0.5000000000)
( 0.5000000000 0.5000000000)
)
(( 0.5000000000 0.5000000000)
( 0.5000000000 0.5000000000)
)
)
)
(((( 0.5000000000 0.5000000000)
( 0.5000000000 0.5000000000)
)
(( 0.5000000000 0.5000000000)
( 0.5000000000 0.5000000000)
)
)
((( 0.5000000000 0.5000000000)
( 0.5000000000 0.5000000000)
)
(( 0.5000000000 0.5000000000)
( 0.5000000000 0.5000000000)))))))); 
}

potential ( PrtDataOut | GDIOUT PrtSel ) { 
 data = ((( 0.9243697479 0.0099009901)
( 0.0791896869 0.6666666667)
)
(( 0.0756302521 0.9900990099)
( 0.9208103131 0.3333333333))); 
}

potential ( PrtDriver ) { 
 data = (  0.9000000000 0.1000000000); 
}

potential ( PrtFile | PrtDataOut ) { 
 data = (( 0.8000000000 0.2000000000)
( 0.2000000000 0.8000000000)); 
}

potential ( PrtIcon | NtwrkCnfg PTROFFLINE ) { 
 data = ((( 0.7999839987 0.0396927017)
( 0.5833333333 0.3750000000)
)
(( 0.2000160013 0.9603072983)
( 0.4166666667 0.6250000000))); 
}

potential ( PrtMem ) { 
 data = (  0.9500000000 0.0500000000); 
}

potential ( PrtMpTPth ) { 
 data = (  0.8000000000 0.2000000000); 
}

potential ( PrtOn ) { 
 data = (  0.9000000000 0.1000000000); 
}

potential ( PrtPScript ) { 
 data = (  0.4000000000 0.6000000000); 
}

potential ( PrtPaper ) { 
 data = (  0.9800000000 0.0200000000); 
}

potential ( PrtPath ) { 
 data = (  0.9700000000 0.0300000000); 
}

potential ( PrtPort ) { 
 data = (  0.9900000000 0.0100000000); 
}

potential ( PrtQueue ) { 
 data = (  0.9900000000 0.0100000000); 
}

potential ( PrtSel ) { 
 data = (  0.9900000000 0.0100000000); 
}

potential ( PrtSpool ) { 
 data = (  0.9500000000 0.0500000000); 
}

potential ( PrtStatMem | PrtMem ) { 
 data = (( 0.8331943300 0.0208078335)
( 0.1668056700 0.9791921665)); 
}

potential ( PrtStatOff | PrtOn ) { 
 data = (( 0.9116022108 0.0909090901)
( 0.0883977892 0.9090909099)); 
}

potential ( PrtStatPaper | PrtPaper ) { 
 data = (( 0.9415645623 0.0375722540)
( 0.0584354377 0.9624277460)); 
}

potential ( PrtStatToner | TnrSpply ) { 
 data = (( 0.9131627065 0.0868372935)
( 0.0885036488 0.9114963512)); 
}

potential ( PrtThread ) { 
 data = (  0.9708709583 0.0291290417); 
}

potential ( PrtTimeOut ) { 
 data = (  0.9400000000 0.0600000000); 
}

potential ( REPEAT | CblPrtHrdwrOK NtwrkCnfg ) { 
 data = ((( 0.6666666667 0.1624790620)
( 0.5000000000 0.5000000000)
)
(( 0.3333333333 0.8375209380)
( 0.5000000000 0.5000000000))); 
}

potential ( ScrnFntNtPrntrFnt ) { 
 data = (  0.9500000000 0.0500000000); 
}

potential ( TTOK | FntInstlltn PrntrAccptsTrtyp PrtMem ) { 
 data = (((( 0.9082568816 0.0936555891)
( 0.5000000000 0.5000000000)
)
(( 0.0619136961 0.6666666667)
( 0.5000000000 0.5000000000)
)
)
((( 0.0917431184 0.9063444109)
( 0.5000000000 0.5000000000)
)
(( 0.9380863039 0.3333333333)
( 0.5000000000 0.5000000000)))); 
}

potential ( TnrSpply ) { 
 data = (  0.9521531100 0.0478468900); 
}

potential ( TrTypFnts ) { 
 data = (  0.9000000000 0.1000000000); 
}

potential ( TstpsTxt | AvlblVrtlMmry PrtPScript ) { 
 data = ((( 0.9550669220 0.0338491293)
( 0.5000000000 0.4384615385)
)
(( 0.0449330780 0.9661508707)
( 0.5000000000 0.5615384615))); 
}

